{
  "version": "v77",
  "base_version": "v76",
  "round_id": 90,
  "aggregation": "fedavg",
  "averaged_weight_delta": [
    [
      -1.1622905731201172e-05,
      -0.00036338716745376587,
      5.845166742801666e-05,
      -0.00013576075434684753,
      -0.00015493296086788177,
      7.840804755687714e-06,
      -0.0003902800381183624,
      -0.00019028782844543457,
      -0.008498933166265488,
      -0.00022165291011333466,
      0.02877303957939148,
      0.02817597985267639,
      0.029017500579357147,
      0.029270052909851074,
      0.028676120564341545,
      0.028146812692284584,
      0.027727894484996796,
      0.029114000499248505,
      0.001428212970495224,
      0.028831876814365387,
      0.01492551900446415,
      0.0262655857950449,
      0.013089900836348534,
      0.028631554916501045,
      0.011484667658805847,
      0.023943252861499786,
      0.026966415345668793,
      0.0013216659426689148,
      0.00038712285459041595,
      0.02592404931783676,
      -0.02911948785185814,
      -0.02917058765888214,
      -0.02605608105659485,
      -0.026946648955345154,
      -0.029396794736385345,
      -0.02946256846189499,
      -0.028272438794374466,
      -0.029912881553173065,
      0.00030545517802238464,
      -0.0030880868434906006,
      -0.00041137635707855225,
      -0.00036949291825294495,
      -0.00021370779722929,
      0.01061546802520752,
      -0.0010064877569675446,
      -0.000741325318813324,
      -0.029642761684954166,
      -0.00015525519847869873,
      -0.0004472583532333374,
      -0.000577092170715332,
      0.027961306273937225,
      0.02919870615005493,
      0.0033192485570907593,
      0.02800392359495163,
      0.02663695067167282,
      0.023930437862873077,
      -0.0010661706328392029,
      0.027811288833618164,
      0.013795052655041218,
      0.029460418969392776,
      0.029499225318431854,
      0.029850810766220093,
      0.02975928597152233,
      0.029873806983232498,
      0.02995341829955578,
      0.02798553556203842,
      0.017397046089172363,
      0.029799629002809525,
      0.028758279979228973,
      0.024277254939079285,
      -3.7997961044311523e-06,
      -0.00038404762744903564,
      -0.00017159432172775269,
      -3.5463832318782806e-05,
      -0.0003955913707613945,
      -0.0007383748888969421,
      -0.000398099422454834,
      -0.00019318237900733948,
      0.00013853609561920166,
      0.01067282259464264,
      -0.023749707266688347,
      -0.0007909387350082397,
      -0.00030647870153188705,
      -8.374452590942383e-06,
      -5.3415074944496155e-05,
      -0.00013785064220428467,
      0.029457254335284233,
      -0.0007511414587497711,
      -0.0009072646498680115,
      0.025505244731903076,
      -0.0002530589699745178,
      4.828348755836487e-05,
      -3.6835670471191406e-05,
      -0.00014082342386245728,
      -0.00013681501150131226,
      -9.723007678985596e-05,
      5.4873526096343994e-05,
      -0.02462632581591606,
      -0.0004393700510263443,
      -0.00010327063500881195,
      -0.006589293479919434,
      0.004174869507551193,
      -0.00666876882314682,
      -0.004387774504721165,
      -0.0035382285714149475,
      -0.0011999532580375671,
      -0.005620121955871582,
      -0.029198892414569855,
      -0.00020451843738555908,
      -0.0008526686578989029,
      0.02666560374200344,
      0.025873929262161255,
      0.028201190754771233,
      0.01987091451883316,
      0.024092093110084534,
      0.02693469077348709,
      0.016071869642473757,
      -0.0001017153263092041,
      0.029539987444877625,
      0.02950569987297058,
      0.029253140091896057,
      0.013166792690753937,
      -0.02703775279223919,
      0.01704065501689911,
      0.011789684649556875,
      -0.0010908544063568115,
      -0.002311199903488159,
      0.02545584738254547,
      0.02403857558965683,
      0.01718028634786606,
      -1.6480684280395508e-05,
      0.0003818422555923462,
      -1.4886260032653809e-05,
      0.027559421956539154,
      2.6281923055648804e-05,
      -3.29725444316864e-05,
      8.393079042434692e-05,
      0.0003642383962869644,
      -0.013386473059654236,
      3.4183263778686523e-05,
      0.029589718207716942,
      0.028533978387713432,
      0.028902418911457062,
      0.02904665656387806,
      0.028690069913864136,
      0.028299815952777863,
      0.02301039732992649,
      0.029115021228790283,
      0.02905070036649704,
      0.028488963842391968,
      -0.006004780530929565,
      -0.028936289250850677,
      -0.029358900152146816,
      -0.029036808758974075,
      -0.028955361805856228,
      -0.029475942254066467,
      -0.029712192714214325,
      -0.02932821214199066,
      -0.026808500289916992,
      -0.029971718788146973,
      -0.000532250851392746,
      0.00037544965744018555,
      0.0006397292017936707,
      -0.001980690285563469,
      -0.0030413493514060974,
      4.826299846172333e-05,
      -0.0001867040991783142,
      -0.024258436635136604,
      -0.0002613663673400879,
      -0.00023606792092323303,
      -0.026080422103405,
      -0.02976633980870247,
      -0.029072225093841553,
      -0.005671517923474312,
      -0.027837395668029785,
      -0.008050006814301014,
      -0.013672489672899246,
      0.0008289013057947159,
      0.005344316363334656,
      -0.029975484125316143,
      -0.014018557965755463,
      -0.01651933789253235,
      0.0019440650939941406,
      0.015539459884166718,
      -0.013248641043901443,
      0.0031716711819171906,
      0.014402100816369057,
      -0.017055444419384003,
      -0.0022612065076828003,
      -0.0002744346857070923,
      -0.0027416404336690903,
      0.027249693870544434,
      0.02140388824045658,
      0.0259975828230381,
      0.018533717840909958,
      -0.0021745339035987854,
      -0.0023325160145759583,
      0.009448587894439697,
      0.024051638320088387,
      -0.0031872615218162537,
      -0.02961711585521698,
      -0.02946629375219345,
      -0.02994617447257042,
      -0.029344357550144196,
      -0.02465434931218624,
      -0.029847625643014908,
      -0.0014632567763328552,
      -0.02911573275923729,
      2.446211874485016e-05,
      -0.029186397790908813,
      0.028769172728061676,
      7.680989801883698e-05,
      0.0014071352779865265,
      -0.0004437863826751709,
      -0.0003762543201446533,
      0.0001111617311835289,
      -0.0018718093633651733,
      0.02874012291431427,
      -0.00018106773495674133,
      -1.0455027222633362e-05,
      -0.02914862334728241,
      -0.02977816015481949,
      -0.029508162289857864,
      -0.0275980643928051,
      -0.02952723205089569,
      -0.02933149877935648,
      -0.029003165662288666,
      -0.004596726968884468,
      1.6942620277404785e-05,
      -0.028878040611743927,
      -0.02796805649995804,
      -0.028897114098072052,
      -0.00047597289085388184,
      -0.025256142020225525,
      -0.028621487319469452,
      -0.029177114367485046,
      -0.029710881412029266,
      -0.02958325296640396,
      0.012652605772018433,
      -0.02970851957798004,
      -0.005494415760040283,
      0.0006662122905254364,
      -0.000759422779083252,
      -0.029812365770339966,
      -0.0009124735370278358,
      -0.00044384971261024475,
      -0.00030236318707466125,
      -0.0003373976796865463,
      -0.0003460235893726349,
      -0.029548673890531063,
      0.0007762089371681213,
      0.0020843781530857086,
      0.00039299577474594116,
      0.013559054583311081,
      0.022009730339050293,
      0.01289232075214386,
      0.012120123952627182,
      0.02330764662474394,
      0.00015331804752349854,
      0.00016063451766967773,
      0.0007032006978988647,
      0.025405406951904297,
      -0.0001701749861240387,
      0.02209929283708334,
      0.01684444770216942,
      0.028499051928520203,
      0.01527712307870388,
      0.012125581502914429,
      -2.958625555038452e-05,
      0.028469882905483246,
      -0.0003828108310699463,
      -0.00028686970472335815,
      -0.00021519511938095093,
      -0.0003546811640262604,
      -0.0003098994493484497,
      -0.0007450878620147705,
      7.733702659606934e-05,
      -0.00042312219738960266,
      0.00011361762881278992,
      0.0003972649574279785,
      0.0013019628822803497,
      0.001894250512123108,
      0.00471670925617218,
      0.0011961143463850021,
      0.005069902166724205,
      0.002190457656979561,
      0.0018374361097812653,
      0.0015231557190418243,
      -0.01143336296081543,
      0.008291617035865784,
      0.00014222972095012665,
      -0.002049490809440613,
      0.0022573210299015045,
      -0.02873755805194378,
      -0.001995941624045372,
      -0.008861996233463287,
      0.02118584793061018,
      -0.01002587378025055,
      -0.0014963001012802124,
      -0.02624993398785591,
      0.02960941568017006,
      0.006552938371896744,
      0.020727068185806274,
      0.02973690629005432,
      0.0038384897634387016,
      0.029837138950824738,
      0.029984209686517715,
      0.001418333500623703,
      0.02966926619410515,
      0.029868949204683304,
      -0.02250569313764572,
      -0.028990261256694794,
      -0.002534659579396248,
      -0.022615794092416763,
      -0.02508334070444107,
      -0.018415904603898525,
      -0.024746760725975037,
      -0.014791455119848251,
      -0.0004878193140029907,
      -0.019879773259162903
    ],
    [
      0.029126097448170185,
      0.0011240271851420403,
      -0.021122662350535393,
      -0.02985531836748123,
      0.02848328836262226,
      0.0020313216373324394,
      -0.0280067240819335,
      0.0005250833928585052,
      -0.027522697113454342,
      0.029875404201447964,
      0.004687495529651642,
      0.005069865845143795,
      -0.021352860145270824,
      0.029881911352276802,
      -0.028629817999899387,
      0.022065159399062395,
      0.02969108149409294,
      0.0039993226528167725,
      0.010143938241526484,
      -0.02296633366495371,
      0.0011637918651103973,
      0.00030242837965488434,
      -0.027451793663203716,
      -0.016552141634747386,
      0.0009792037308216095,
      0.0011707069352269173,
      0.00043666549026966095,
      -0.00026751309633255005,
      0.028239010833203793,
      -0.026917708106338978,
      -0.0257301963865757,
      -0.02849426679313183
    ],
    [
      0.0014504864811897278,
      0.029304787516593933,
      -0.02263335045427084,
      0.0002118721604347229,
      -0.0013073626905679703,
      -0.011826922185719013,
      -0.014487512409687042,
      -5.231425166130066e-05,
      0.0008219107985496521,
      -0.0005543641746044159,
      0.00638299435377121,
      -0.0005176737904548645,
      -0.014046686701476574,
      -0.01947731524705887,
      0.0019415393471717834,
      -0.012781396508216858,
      -0.0007031308487057686,
      -0.016174033284187317,
      0.02971947193145752,
      0.015956783667206764,
      -0.0011994615197181702,
      0.02825719118118286,
      0.0005198707804083824,
      0.0009366795420646667,
      -0.02278396300971508,
      -0.014947639778256416,
      -0.002019941806793213,
      0.02901628613471985,
      -0.0009469762444496155,
      -0.01174742542207241,
      5.265045911073685e-05,
      0.00014067068696022034,
      -0.014822234399616718,
      -0.016554586589336395,
      0.010135583579540253,
      -0.016895532608032227,
      0.009188422933220863,
      -0.0015431120991706848,
      -0.023108894005417824,
      -0.01564713940024376,
      -0.015041753649711609,
      0.010413195937871933,
      0.013896504417061806,
      -0.012649033218622208,
      -0.02121208794414997,
      -0.02568688616156578,
      -0.014595422893762589,
      0.014492880553007126,
      -0.018083609640598297,
      -0.016643889248371124,
      -0.016659648157656193,
      -0.016517892479896545,
      -0.01612021028995514,
      -0.016789576038718224,
      -0.020327195525169373,
      -0.012881089001893997,
      0.027788830921053886,
      0.012382857501506805,
      -0.01910547725856304,
      -0.016395948827266693,
      -0.022611452266573906,
      0.008190866559743881,
      -0.020241372287273407,
      -0.016931166872382164,
      0.028352923691272736,
      -0.0012317802757024765,
      0.001204199157655239,
      0.028506308794021606,
      0.0011933781206607819,
      -0.023231029510498047,
      0.0010383427143096924,
      -0.0004414282739162445,
      -0.028809167444705963,
      0.0013413745909929276,
      -0.02807348221540451,
      0.001214098185300827,
      0.0011692345142364502,
      -0.00012038275599479675,
      -0.02867823652923107,
      -0.028402287513017654,
      0.02520085871219635,
      0.00013604387640953064,
      -0.0014780834317207336,
      -0.028430983424186707,
      0.0014245547354221344,
      -0.001165160909295082,
      0.028613566420972347,
      0.0273528303951025,
      0.001390203833580017,
      -0.02747802622616291,
      0.0012591537088155746,
      -0.026412545703351498,
      0.013465428724884987,
      0.0012003816664218903,
      -0.0011229664087295532,
      0.028391040861606598,
      0.03003709577023983,
      0.029845908284187317,
      -0.027357982471585274,
      0.00011240411549806595,
      0.00152655690908432,
      0.00634002685546875,
      -0.00020731240510940552,
      0.0254386393353343,
      -0.010961586609482765,
      -0.0007548285648226738,
      0.0014203786849975586,
      -0.028892729431390762,
      0.0018280185759067535,
      -0.004599720239639282,
      0.00014363788068294525,
      0.0007968507707118988,
      0.02253391407430172,
      0.0013907384127378464,
      0.029911842197179794,
      0.0008948910981416702,
      -0.028560560196638107,
      0.0035994723439216614,
      0.0052850209176540375,
      -0.018127381801605225,
      -0.028790920972824097,
      -0.006856366991996765,
      -0.009752714075148106,
      0.00016620755195617676,
      -3.844127058982849e-05,
      -0.011153258383274078,
      7.180497050285339e-06,
      1.9878149032592773e-05,
      -0.0006294175982475281,
      0.0002492982894182205,
      -4.0609389543533325e-05,
      0.0003695860505104065,
      0.00029542576521635056,
      0.029483627527952194,
      -0.00010194629430770874,
      0.029334567487239838,
      0.015392661094665527,
      0.00028867460787296295,
      0.029846591874957085,
      -0.00019882619380950928,
      -0.0008224844932556152,
      -0.00012912973761558533,
      0.029684603214263916,
      0.028199131600558758,
      0.016113758087158203,
      0.01378527283668518,
      -0.00027617253363132477,
      0.02986132726073265,
      0.01324659213423729,
      0.00587192177772522,
      -0.020199723541736603,
      0.028225403279066086,
      0.013501886278390884,
      0.029789691790938377,
      0.02874774858355522,
      0.029992329888045788,
      -0.010634797625243664,
      0.0003975583240389824,
      0.001755647361278534,
      0.027133595198392868,
      -0.00023923348635435104,
      0.0036265887320041656,
      -0.028776608407497406,
      -0.020155546255409718,
      -0.028901375830173492,
      -0.02594689279794693,
      -0.028863893821835518,
      -0.02833646349608898,
      -0.0279800146818161,
      -0.028862446546554565,
      0.0004299245774745941,
      -0.02907934132963419,
      -0.02804401144385338,
      -0.029202118515968323,
      -0.012789726257324219,
      -0.02917800098657608,
      -0.029147224500775337,
      -0.02880791574716568,
      0.029844939708709717,
      -0.00048321112990379333,
      -0.02863629162311554,
      -0.005809532478451729,
      -0.0006615482270717621,
      -0.02854112535715103,
      -0.02838287502527237,
      -0.026398852467536926,
      -0.02762801107019186,
      0.0002873949706554413,
      -0.026255491189658642,
      -0.028238147497177124,
      -0.024249214679002762,
      -0.0009199138730764389,
      0.03002890944480896,
      0.02993416041135788,
      0.00034398771822452545,
      0.0008606882765889168,
      -0.028923174366354942,
      0.0037077413871884346,
      -0.02932843565940857,
      0.02987811528146267,
      -0.02758060395717621,
      -0.028845345601439476,
      0.00047368183732032776,
      -0.028993137180805206,
      -0.026249773800373077,
      -0.028343267738819122,
      0.00035308487713336945,
      -0.022831527516245842,
      -0.004072085022926331,
      -0.025445091538131237,
      0.03000795841217041,
      0.0004227468743920326,
      -0.028980329632759094,
      0.02937566488981247,
      0.0013322047889232635,
      0.0038160663098096848,
      -0.028279215097427368,
      0.00103846937417984,
      -0.025528684258461,
      0.0005963407456874847,
      0.0014462098479270935,
      -0.027238424867391586,
      0.001253429800271988,
      0.0011735782027244568,
      0.02956201881170273,
      0.02936491183936596,
      -0.004687786102294922,
      0.00011391192674636841,
      -0.0006025582551956177,
      -0.007146075833588839,
      -0.02796809747815132,
      -0.004201240837574005,
      -0.012230023741722107,
      -0.0019735172390937805,
      0.00015839934349060059,
      -0.028157860040664673,
      -0.0006683040410280228,
      -0.008496791124343872,
      -0.0005251914262771606,
      0.00022338330745697021,
      -0.028431572020053864,
      -0.013704821467399597,
      0.029902923852205276,
      -0.00031269434839487076,
      -0.029574796557426453,
      0.02754136174917221,
      0.0010282453149557114,
      -0.02839457243680954,
      -0.02954268455505371,
      -0.0012824814766645432,
      -0.02943609654903412,
      -0.00021298229694366455,
      -0.027287490665912628,
      -0.021857041865587234,
      8.21240246295929e-06,
      -0.028033223934471607,
      -0.029839180409908295,
      -0.02918165549635887,
      0.029747577384114265,
      0.029734045267105103,
      0.0011674389243125916,
      0.0006422596052289009,
      0.029132749885320663,
      0.011738233268260956,
      -0.0013129189610481262,
      0.0009163841605186462,
      -3.813207149505615e-05,
      0.02818254381418228,
      0.01887352205812931,
      0.0299625713378191,
      0.0004413854330778122,
      -5.6356191635131836e-05,
      0.0021996386349201202,
      0.02722126431763172,
      -0.009590277448296547,
      -0.000240325927734375,
      0.017587213777005672,
      -0.029440484941005707,
      0.024505890905857086,
      0.0008196085691452026,
      0.02959856390953064,
      0.0162512194365263,
      0.0016305148601531982,
      -0.00018937885761260986,
      0.029220256954431534,
      0.028662869706749916,
      0.014049995690584183,
      0.02503228187561035,
      -0.0011316761374473572,
      0.009974997490644455,
      -0.027756769210100174,
      0.00017744489014148712,
      -0.028095181100070477,
      -0.02744903601706028,
      -0.027756862342357635,
      -0.02737520821392536,
      -0.027226947247982025,
      -0.026865052059292793,
      -0.006511487066745758,
      -0.027596961706876755,
      -0.02679290622472763,
      -0.027994200587272644,
      -0.02670580893754959,
      0.0016170665621757507,
      -0.028608504682779312,
      -0.01795252598822117,
      0.016528838314116,
      0.00026512332260608673,
      -0.02638792246580124,
      -0.027912650257349014,
      -0.0015331953763961792,
      -0.029044613242149353,
      -0.027303993701934814,
      -0.01488998532295227,
      -0.025756746530532837,
      -0.026312146335840225,
      -0.028886869549751282,
      -0.027175365947186947,
      -0.02434413880109787,
      -0.026931583881378174,
      -0.02809980884194374,
      -0.029387570917606354,
      0.02989933453500271,
      -0.0003627203404903412,
      0.0011358410120010376,
      0.00255536288022995,
      0.02967856079339981,
      0.007417082786560059,
      0.0005967430770397186,
      0.0024018660187721252,
      0.00024587661027908325,
      0.029907971620559692,
      0.027798570692539215,
      0.02998444903641939,
      0.004615455865859985,
      1.3735145330429077e-05,
      0.007103884592652321,
      0.027733761817216873,
      -0.029681138694286346,
      0.000621456652879715,
      0.029721081256866455,
      -0.028084637597203255,
      -0.0027774274349212646,
      0.012668244540691376,
      0.029814686626195908,
      0.029139047488570213,
      0.01251540333032608,
      -0.0003046095371246338,
      0.0003239903599023819,
      0.028035402297973633,
      5.611032247543335e-05,
      0.0018788687884807587,
      0.0001978231593966484,
      0.0005232468247413635,
      -0.017466165125370026,
      0.0018310695886611938,
      -0.026522943750023842,
      0.0005191732197999954,
      -0.026563040912151337,
      0.001005738042294979,
      -0.02456003800034523,
      -0.026892997324466705,
      -0.029042303562164307,
      0.015514284372329712,
      -0.010488688945770264,
      -0.008753426373004913,
      -0.0266580730676651,
      -0.021636158227920532,
      0.0014231670647859573,
      -0.02544737607240677,
      0.0006086323410272598,
      -0.025672688148915768,
      0.016170546412467957,
      0.0007204646244645119,
      0.0014239177107810974,
      0.0006125085055828094,
      -0.008293029852211475,
      0.0047175101935863495,
      -0.0009996555745601654,
      0.000662289559841156,
      0.01301671750843525,
      0.0010449998080730438,
      0.0291343592107296,
      0.0001700781285762787,
      0.02953541837632656,
      0.029645205475389957,
      -0.00024212151765823364,
      0.029718570411205292,
      0.029544532299041748,
      0.029814578592777252,
      0.01618828997015953,
      0.0005118884146213531,
      0.0288199782371521,
      0.02314286306500435,
      0.002394547685980797,
      -0.00017801299691200256,
      0.028293455950915813,
      0.00025182589888572693,
      0.02951158955693245,
      0.015940479934215546,
      0.029905288480222225,
      0.01621764525771141,
      0.02997673489153385,
      0.029591837897896767,
      0.002762686461210251,
      0.029442198574543,
      0.029909735545516014,
      0.0055483803153038025,
      -0.029449661262333393,
      -0.00026950985193252563,
      0.029448285698890686,
      0.029735274612903595,
      -2.0287930965423584e-05,
      0.016123250126838684,
      -8.466467261314392e-05,
      0.02986348420381546,
      -0.021104284096509218,
      5.5242329835891724e-05,
      -0.02869575470685959,
      -0.02979470044374466,
      0.029608657583594322,
      -0.001644521951675415,
      0.00042332708835601807,
      -0.028495870530605316,
      0.028734125196933746,
      0.02908729761838913,
      0.017738671973347664,
      -0.0005883984267711639,
      -0.0032613836228847504,
      -0.02562580816447735,
      0.018957361578941345,
      0.029553470201790333,
      -0.015825901180505753,
      0.015496734529733658,
      0.00019712094217538834,
      0.0008886978030204773,
      -0.017119402065873146,
      0.0002635568380355835,
      -0.02809598483145237,
      -0.02871731109917164,
      -0.00025919266045093536,
      -0.002260971814393997,
      0.02229443285614252,
      0.0026907585561275482,
      -0.027788642793893814,
      -0.0003864467144012451,
      -0.013099424540996552,
      -0.028041832149028778,
      -0.0009824521839618683,
      4.366971552371979e-05,
      0.000438738614320755,
      -0.0006674658507108688,
      0.013960927724838257,
      -9.874533861875534e-05,
      0.027662113308906555,
      -0.0002502072602510452,
      -1.5787780284881592e-05,
      7.265247404575348e-06,
      0.029904387891292572,
      -0.02948816865682602,
      0.0006750989705324173,
      -0.0009580329060554504,
      2.734363079071045e-05,
      0.001385331153869629,
      0.00039389729499816895,
      0.0008751042187213898,
      0.0001936778426170349,
      -1.6160309314727783e-05,
      5.201995372772217e-05,
      0.00015990063548088074,
      0.00023876503109931946,
      0.000574406236410141,
      0.028017178177833557,
      0.00030865520238876343,
      0.01296621561050415,
      0.00013273395597934723,
      -0.01313135027885437,
      0.014051482081413269,
      -0.00010180473327636719,
      2.4223700165748596e-05,
      0.014963865280151367,
      0.017278656363487244,
      -0.01731027662754059,
      -0.00010433606803417206,
      -0.027515947818756104,
      -0.027264848351478577,
      -0.029127348214387894,
      0.0006617754697799683,
      -0.026632916182279587,
      -0.029328820295631886,
      0.0013551265001296997,
      -0.028590157628059387,
      -0.027438043616712093,
      -0.025767724961042404,
      0.000856323167681694,
      -0.021222740411758423,
      -0.027536943554878235,
      -0.024676613509655,
      0.02978304773569107,
      -0.028911981731653214,
      -0.028625454753637314,
      0.00041007064282894135,
      0.00047195516526699066,
      -0.025227442383766174,
      -0.028286093845963478,
      0.0004593953490257263,
      -0.028267517685890198,
      -0.0007264502346515656,
      -0.00012937188148498535,
      -0.027769863605499268,
      -0.02009471505880356,
      -0.023132678121328354,
      0.029541246592998505,
      0.029307816177606583,
      0.0021824911236763,
      0.01481940969824791,
      -0.011070173233747482,
      0.00920809805393219,
      -0.027754487469792366,
      0.029319554567337036,
      0.02882681041955948,
      -0.006986722350120544,
      0.0004805196076631546,
      0.00019680242985486984,
      -0.0008354708552360535,
      -0.013985328376293182,
      0.0018569305539131165,
      0.00017357245087623596,
      0.029019370675086975,
      -0.0016950815916061401,
      0.0294477641582489,
      0.006019126623868942,
      0.028918467462062836,
      0.02994605153799057,
      -0.0003622882068157196,
      0.029330842196941376,
      0.0006543546915054321,
      0.004318803548812866,
      0.01265355758368969,
      0.030025586485862732,
      0.0166696235537529,
      -0.027138542383909225,
      0.028522171080112457,
      0.0214504674077034,
      -2.9183924198150635e-05,
      -5.49759715795517e-05,
      0.02989187091588974,
      -0.029348507523536682,
      0.02820419892668724,
      0.029152221977710724,
      3.656744956970215e-05,
      0.0012146998196840286,
      0.002368740737438202,
      0.013944726204499602,
      0.029969148337841034,
      0.0018088817596435547,
      -0.001482563093304634,
      0.007756717503070831,
      0.026411786675453186,
      0.02998410165309906,
      -0.02105533704161644,
      0.02962057664990425,
      0.00010240823030471802,
      0.02905942127108574,
      0.0008271727710962296,
      -0.000335056334733963,
      -0.02940218150615692,
      -0.025686778128147125,
      0.0003139190375804901,
      0.029853004962205887,
      -0.0019957274198532104,
      0.012725826352834702,
      -0.02949027717113495,
      0.0007326677441596985,
      -0.014844006858766079,
      -0.02928551286458969,
      -0.025205159559845924,
      -0.029308274388313293,
      0.009068591520190239,
      -0.00015565752983093262,
      0.0014506950974464417,
      0.0008195936679840088,
      0.004748716950416565,
      0.0022812746465206146,
      -0.0002180337905883789,
      0.0010449960827827454,
      0.0009654723107814789,
      0.02987821400165558,
      0.020965137518942356,
      0.030005035921931267,
      0.029530707746744156,
      0.0001652166247367859,
      -0.011887580156326294,
      5.922466516494751e-05,
      -0.029880624264478683,
      0.0006016120314598083,
      0.029291212558746338,
      -0.02693864144384861,
      -0.028670284897089005,
      0.012067921459674835,
      0.02967514842748642,
      0.00037451088428497314,
      0.01686767116189003,
      0.0006763264536857605,
      3.1463801860809326e-05,
      0.02809748239815235,
      -0.00011801347136497498,
      -3.457069396972656e-05,
      -0.013519752770662308,
      0.013588115572929382,
      0.0007826462388038635,
      -0.029573693871498108,
      0.029311664402484894,
      0.013016678392887115,
      0.0282323956489563,
      -0.0007116943597793579,
      0.0024137720465660095,
      0.029136940836906433,
      0.029813846573233604,
      -0.016373522579669952,
      0.02627752721309662,
      -0.0017338842153549194,
      0.029060527682304382,
      0.029263213276863098,
      0.00866067036986351,
      0.027929097414016724,
      -5.543231964111328e-06,
      0.029546894133090973,
      -0.015077546238899231,
      0.02075754851102829,
      -0.02360662817955017,
      -0.02814549021422863,
      -0.0013391412794589996,
      0.02975074201822281,
      -0.004831936210393906,
      0.00043757446110248566,
      -0.029284004122018814,
      -0.0012107416987419128,
      -0.028555646538734436,
      -0.027197815477848053,
      0.029577180743217468,
      0.009381957352161407,
      0.0013509690761566162,
      -0.027634838595986366,
      0.0009342208504676819,
      0.000861799344420433,
      -0.019618138670921326,
      0.02873203530907631,
      0.0038007721304893494,
      -0.0006003826856613159,
      0.0008445130661129951,
      -0.021134058944880962,
      0.0013523418456315994,
      0.0020481115207076073,
      0.0010363534092903137,
      0.0013185366988182068,
      0.0054734377190470695,
      0.0012308759614825249,
      0.0003350302577018738,
      0.0013677030801773071,
      -0.028168462216854095,
      0.01590275764465332,
      0.004373595118522644,
      0.028698625043034554,
      -0.02872633934020996,
      0.0012523233890533447,
      -0.0037306882441043854,
      0.0031493278220295906,
      -0.001002579927444458,
      0.0018953271210193634,
      0.0007614195346832275,
      9.310990571975708e-05,
      -0.021326128393411636,
      0.00018582120537757874,
      -0.00497925840318203,
      -0.026110757142305374,
      0.011122092604637146,
      -0.00014691054821014404,
      0.0013333037495613098,
      -0.025082554668188095,
      0.0010314732789993286,
      0.009567152708768845,
      0.029279883950948715,
      -0.003413781523704529,
      -0.013204317539930344,
      -0.028582770377397537,
      0.027337277308106422,
      -0.027839001268148422,
      -0.02889251708984375,
      0.014576300978660583,
      0.00032365694642066956,
      -0.0126819908618927,
      -0.0014791004359722137,
      3.094971179962158e-05,
      -0.028367742896080017,
      -0.024681881070137024,
      0.0032330602407455444,
      0.01063036173582077,
      0.026034013368189335,
      -0.028606340289115906,
      -0.02795523777604103,
      0.001059994101524353,
      -0.027121862396597862,
      0.0015800073742866516,
      -5.5614858865737915e-05,
      -0.0001275092363357544,
      0.0006087105721235275,
      0.029790092259645462,
      -0.02732729259878397,
      -0.025341475382447243,
      -0.00021647661924362183,
      -0.004243370611220598,
      -0.02551094815135002,
      -0.0280814990401268,
      -0.02914103865623474,
      0.001633012667298317,
      0.002446204423904419,
      0.017647311091423035,
      -0.025811441242694855,
      -0.029269905760884285,
      0.0012518130242824554,
      -0.027984178625047207,
      3.731250762939453e-05,
      -0.028981934301555157,
      0.004899337887763977,
      -0.02716531604528427,
      0.02697551716119051,
      0.0015080785378813744,
      0.0005554519593715668,
      -0.01149679720401764,
      -0.01149146631360054,
      -0.02517636865377426,
      0.02997027523815632,
      0.0016557499766349792,
      0.02979988604784012,
      0.0297003835439682,
      -0.030029766261577606,
      -0.029740430414676666,
      0.0012356825172901154,
      -0.00011485815048217773,
      0.0004908256232738495,
      0.0008808933198451996,
      0.011866431683301926,
      -0.02676115371286869,
      -0.00102265365421772,
      0.0013987720012664795,
      2.8528273105621338e-05,
      0.02968856692314148,
      -0.0005079880356788635,
      0.029776640236377716,
      0.001953752711415291,
      -2.5159679353237152e-05,
      -0.011391997337341309,
      -3.4766271710395813e-06,
      -0.029867464676499367,
      0.00029165297746658325,
      0.02975197322666645,
      -0.02923867478966713,
      -0.0018925368785858154,
      0.004925820976495743,
      0.029565982520580292,
      0.0009510517120361328,
      0.014329899102449417,
      0.00038980692625045776,
      5.327165126800537e-06,
      0.02630172297358513,
      -0.024369283579289913,
      -0.00021086540073156357,
      -0.0002781851217150688,
      -0.0021481215953826904,
      0.00015118252485990524,
      0.008201517164707184,
      -0.026003465056419373,
      -0.02870366722345352,
      0.0006561093032360077,
      -0.020948152989149094,
      -0.022740015760064125,
      -0.028503776527941227,
      -0.02910728007555008,
      0.0018067508935928345,
      0.002813037484884262,
      0.029136843979358673,
      -0.02877107262611389,
      -0.027598533779382706,
      0.000519677996635437,
      -0.006732955574989319,
      -0.0012256260961294174,
      -0.029190652072429657,
      0.0007971934974193573,
      -0.000659354031085968,
      0.000881049782037735,
      0.02649226039648056,
      0.0005021784454584122,
      -0.016185566782951355,
      -0.02897672727704048,
      -0.02856883406639099,
      0.0299927219748497,
      0.0016843872144818306,
      0.007558204233646393,
      -6.859749555587769e-05,
      0.005255416035652161,
      0.00302882120013237,
      -0.0003503449261188507,
      0.02963951975107193,
      -0.00036353617906570435,
      -0.01160343736410141,
      0.00033800676465034485,
      0.006571110337972641,
      0.002610929310321808,
      -9.849295020103455e-05,
      -0.028025373816490173,
      0.0008027870208024979,
      0.0066132862120866776,
      0.0005455464124679565,
      -0.01829198421910405,
      0.000660184770822525,
      -0.0006209947168827057,
      -0.0004350133240222931,
      3.180652856826782e-05,
      -0.0005208989605307579,
      0.0005684569478034973,
      0.002093920484185219,
      0.029864497482776642,
      0.02870358992367983,
      0.0005699954926967621,
      -0.0008891038596630096,
      -0.011193208396434784,
      0.01466333121061325,
      0.029749885201454163,
      0.0007616505026817322,
      0.029930375516414642,
      0.029709212481975555,
      0.030028223991394043,
      0.029343631118535995,
      -0.010250870138406754,
      0.029643863439559937,
      0.0011217715218663216,
      0.003950400277972221,
      0.0016577411442995071,
      0.02124069258570671,
      0.002809487283229828,
      0.0008090473711490631,
      0.0009552165865898132,
      -0.026562079787254333,
      0.0014218762516975403,
      -0.00044094305485486984,
      0.0010893680155277252,
      0.0008075647056102753,
      0.02202524244785309,
      0.0016741082072257996,
      0.029837124049663544,
      0.0012498628348112106,
      -0.01647122949361801,
      0.0011025182902812958,
      0.029102660715579987,
      0.029388388618826866,
      -0.02888473868370056,
      -0.004527735523879528,
      0.00330438744276762,
      0.0014496296644210815,
      0.0015817955136299133,
      0.00285441055893898,
      0.011640459299087524,
      0.028643032535910606,
      0.0014538438990712166,
      0.029554137960076332,
      -0.029062196612358093,
      0.0006238631904125214,
      -0.00026827678084373474,
      -0.010483654215931892,
      -0.0021332502365112305,
      -0.0004415959119796753,
      0.00898357480764389,
      -0.0003168731927871704,
      0.0003347732126712799,
      -0.028203715570271015,
      0.00547308474779129,
      -0.027473101392388344,
      -0.028443770483136177,
      -0.013121223077178001,
      0.0002502594143152237,
      -0.017769871279597282,
      0.029933132231235504,
      0.00020345300436019897,
      -0.02774069830775261,
      0.02899532113224268,
      0.0025839023292064667,
      0.0007208473980426788,
      -0.029342658817768097,
      -0.029326479882001877,
      -0.025607993826270103,
      0.002195492386817932,
      3.946572542190552e-05,
      -0.023840983398258686,
      2.873968333005905e-05,
      0.00043463706970214844,
      -0.027673465199768543,
      0.020002320408821106,
      0.014958671294152737,
      -0.026320314034819603,
      0.004664664156734943,
      0.00042138993740081787,
      0.009508758783340454,
      0.02693227306008339,
      0.02932693064212799,
      0.0019193291664123535,
      0.02987944707274437,
      0.0010727494955062866,
      0.0050798505544662476,
      0.0008315816521644592,
      0.0012545958161354065,
      0.004994019865989685,
      0.0007663369178771973,
      0.029380835592746735,
      0.0005016159266233444,
      0.029903420247137547,
      0.000853024423122406,
      0.025501110590994358,
      -0.02604040503501892,
      0.0031816214323043823,
      0.0011684540659189224,
      0.029836274683475494,
      0.0025671422481536865,
      0.013818923383951187,
      0.00039462558925151825,
      0.00408577173948288,
      0.02642124891281128,
      -0.012751825153827667,
      0.029894620180130005,
      0.029912754893302917,
      -0.00602650735527277,
      7.02589750289917e-05,
      -0.0005306228995323181,
      0.0015453100204467773,
      -0.029065635055303574,
      0.029400959610939026,
      -0.001004386693239212,
      -0.006536176428198814,
      0.0018651559948921204,
      -0.01807686686515808,
      -0.0009246543049812317,
      9.88692045211792e-05,
      0.0008269138634204865,
      0.00022718124091625214,
      0.028026849031448364,
      -0.02299531176686287,
      0.03004579246044159,
      0.012623582500964403,
      -0.026506878435611725,
      0.02968653291463852,
      0.0009424388408660889,
      0.0006765201687812805,
      -0.029604502022266388,
      0.0004946775734424591,
      -0.028838634490966797,
      0.02984808851033449,
      -0.0001323297619819641,
      -0.02885761484503746,
      3.84598970413208e-05,
      0.00029053352773189545,
      -0.012460015714168549,
      -4.599243402481079e-05,
      -0.025895098224282265,
      -0.0036468403413891792,
      -0.024628154933452606,
      -9.965896606445312e-05,
      -0.028713708743453026,
      0.02954614907503128,
      -0.026973411440849304,
      -0.027119480073451996,
      0.004492621868848801,
      -0.027080301195383072,
      -0.027497919276356697,
      -0.017043343279510736,
      -0.007909804582595825,
      -0.025433190166950226,
      -0.019326142966747284,
      -0.028462141752243042,
      0.028924845159053802,
      0.0028280317783355713,
      -0.026898158714175224,
      0.0006036050617694855,
      0.0007709786295890808,
      0.00032840482890605927,
      -0.02690761908888817,
      0.026664473116397858,
      -0.014241972006857395,
      0.0005178758874535561,
      -0.013398867100477219,
      -0.025518223643302917,
      -0.0005043745040893555,
      0.0002265051007270813,
      0.0010218918323516846,
      0.0003784969449043274,
      6.002560257911682e-05,
      0.02993427962064743,
      -0.02788853645324707,
      -0.02055516093969345,
      0.0007343143224716187,
      0.01622689887881279,
      0.0005462002009153366,
      -0.026465851813554764,
      -0.0288620013743639,
      0.0023374948650598526,
      0.02967659756541252,
      0.001659005880355835,
      -0.022965822368860245,
      -0.029922764748334885,
      0.009130161255598068,
      0.0010325200855731964,
      -8.396804332733154e-06,
      -0.02869480475783348,
      0.0015333443880081177,
      0.0004700068384408951,
      0.02908042073249817,
      0.00781528651714325,
      0.0003208741545677185,
      -0.012180924415588379,
      -0.0033031702041625977,
      -0.02476697415113449,
      0.029954977333545685,
      0.0010539181530475616,
      0.029990004375576973,
      0.029878911562263966
    ],
    [
      -0.00032693520188331604,
      -0.01626914064399898,
      -0.006120369071140885,
      0.0061231013387441635,
      0.02933555841445923,
      -0.02838131319731474,
      0.0042133452370762825,
      -0.0021172724664211273,
      0.00020038429647684097,
      -0.027772107161581516,
      0.002409234642982483,
      0.0007232706993818283,
      0.029891755431890488,
      0.00047215167433023453,
      0.000131949782371521,
      -0.027437026612460613,
      0.028236545622348785,
      0.012064030393958092,
      0.00139697827398777,
      0.02572569251060486,
      0.0034713484346866608,
      -0.0246047992259264,
      -0.020957638043910265,
      -0.00010406319051980972,
      -0.026352456770837307,
      0.0016963696107268333,
      0.002904510125517845,
      -0.01955419033765793,
      0.005334486253559589,
      0.02973091322928667,
      -0.023631188087165356,
      0.007025637198239565
    ],
    [
      0.029265401884913445,
      6.985757499933243e-05,
      0.02867103833705187,
      -0.012103758752346039,
      -0.0162203386425972,
      0.002041764557361603,
      -0.0011695250868797302,
      -0.0017943307757377625,
      -0.029376499354839325,
      0.0022130124270915985,
      -0.016417410224676132,
      0.00048791617155075073,
      0.001451440155506134,
      -0.0013487152755260468,
      -0.00028505176305770874,
      0.0006334856152534485,
      -0.0016734600067138672,
      0.017502255737781525,
      -0.013780996203422546,
      -0.027770787477493286,
      -0.022597741335630417,
      0.013534771278500557,
      -0.015205897390842438,
      -0.028030499815940857,
      -0.02404986321926117,
      0.008167929947376251,
      -0.026116155087947845,
      0.02362789958715439,
      -0.0010758563876152039,
      0.0002790093421936035,
      0.0011517852544784546,
      0.000400349497795105
    ],
    [
      -0.028671695850789547
    ]
  ],
  "num_updates": 2,
  "client_ids": [
    "client-1",
    "client-2"
  ],
  "mean_final_loss": 9.507500171661377,
  "aggregation_timestamp": 1784208880.9873824
}