{
  "version": "v44",
  "base_version": "v43",
  "round_id": 45,
  "aggregation": "fedavg",
  "averaged_weight_delta": [
    [
      -0.029982760548591614,
      -0.029870763421058655,
      -0.02977021038532257,
      -0.029693150892853737,
      0.0005363225936889648,
      -0.029921725392341614,
      -0.0298642348498106,
      -0.028132054954767227,
      -0.029957911930978298,
      -0.029957642778754234,
      0.0019640233367681503,
      -0.020180143415927887,
      0.0007190518081188202,
      -0.0008163005113601685,
      0.0026125553995370865,
      0.0010610073804855347,
      -7.065385580062866e-05,
      0.0002498310059309006,
      0.00030600838363170624,
      0.0017047598958015442,
      0.02238146960735321,
      0.026609621942043304,
      0.02820068597793579,
      0.026721779257059097,
      0.025968194007873535,
      0.021579958498477936,
      0.029779233038425446,
      0.029251009225845337,
      0.02875329554080963,
      0.025304406881332397,
      0.02976038306951523,
      0.029305581003427505,
      0.02950141206383705,
      0.029509805142879486,
      0.029595550149679184,
      0.029694462195038795,
      0.00048773735761642456,
      0.029769718647003174,
      0.029390521347522736,
      0.02969074621796608,
      0.02764565497636795,
      0.017570361495018005,
      0.0001483522355556488,
      0.016562074422836304,
      0.020698407664895058,
      0.02844276651740074,
      0.022976066917181015,
      -0.0003180988132953644,
      0.0006353408098220825,
      0.022580400109291077,
      -0.02145878877490759,
      0.0003891307860612869,
      -0.02906196564435959,
      0.006845731288194656,
      0.02840754296630621,
      -7.757637649774551e-05,
      0.005997776053845882,
      -0.001111617311835289,
      -0.01074308156967163,
      0.0008531277999281883,
      0.013488464057445526,
      0.00034426525235176086,
      0.00011759623885154724,
      0.000255560502409935,
      0.003576193004846573,
      0.000314212404191494,
      8.792243897914886e-05,
      0.012736618518829346,
      -0.0001676902174949646,
      0.0002627857029438019,
      -0.027350343763828278,
      -0.02426966466009617,
      -0.0266574053093791,
      -0.027203192934393883,
      -0.025266453623771667,
      -0.027970912866294384,
      -0.026845693588256836,
      -0.011602465994656086,
      -0.02731217071413994,
      -0.02791370451450348,
      -0.00023257732391357422,
      -0.006387433502823114,
      -0.00024879444390535355,
      0.029828626662492752,
      -0.028461859561502934,
      0.02845429815351963,
      0.029817432165145874,
      -0.00822465866804123,
      0.029563508927822113,
      0.011939384043216705,
      -0.026150252670049667,
      -0.02778690867125988,
      -0.02775099128484726,
      -0.020164948888123035,
      -0.008879415690898895,
      -0.027904212474822998,
      -0.024110909551382065,
      0.0017255991697311401,
      -0.024815297685563564,
      -0.026405036449432373,
      -0.029491683468222618,
      -0.0020713508129119873,
      -0.01727370172739029,
      -0.004900377243757248,
      0.010501310229301453,
      -0.029127411544322968,
      -0.0019123833626508713,
      -0.0018464140594005585,
      -0.00017572008073329926,
      -0.0001927390694618225,
      0.016339018940925598,
      0.01627518981695175,
      -1.9311904907226562e-05,
      -0.000734277069568634,
      0.00034947413951158524,
      0.013853471726179123,
      0.018428878858685493,
      0.012516243383288383,
      0.018433108925819397,
      -0.0007359534502029419,
      0.003839060664176941,
      0.0009373202919960022,
      0.028411364182829857,
      0.009595176205039024,
      0.028279989957809448,
      0.028632409870624542,
      0.0021684709936380386,
      0.028752535581588745,
      0.007700392976403236,
      0.008844409137964249,
      -0.00016187876462936401,
      -0.02877185121178627,
      -0.000252600759267807,
      -0.020775873214006424,
      -0.022234145551919937,
      -0.002053098753094673,
      -0.027589041739702225,
      -0.018684566020965576,
      -0.017005790024995804,
      -0.015978559851646423,
      0.029142752289772034,
      0.0293541569262743,
      0.02459699474275112,
      0.029952064156532288,
      -0.00043889880180358887,
      0.029238581657409668,
      0.006048738956451416,
      0.0295416209846735,
      0.02946871519088745,
      0.02682041935622692,
      0.001177232712507248,
      -6.51627779006958e-05,
      -0.00044505950063467026,
      -0.00012517068535089493,
      -0.0005501694977283478,
      0.029672158882021904,
      2.9481947422027588e-05,
      -8.842349052429199e-05,
      -3.9950013160705566e-05,
      -6.583333015441895e-05,
      -0.00013333559036254883,
      0.029527340084314346,
      0.028238356113433838,
      0.029062194749712944,
      0.02791731059551239,
      0.009580627083778381,
      0.02970727812498808,
      0.027845337986946106,
      0.029135167598724365,
      0.0001992005854845047,
      0.005476541817188263,
      0.00030966661870479584,
      0.0009515658020973206,
      -0.012744666077196598,
      -0.00024774670600891113,
      0.00968281738460064,
      8.492171764373779e-05,
      -0.016970179975032806,
      0.00035587698221206665,
      0.001232042908668518,
      0.021676119416952133,
      0.013431325554847717,
      0.0018263012170791626,
      0.019736841320991516,
      0.0002416744828224182,
      0.015016796765848994,
      -4.190392792224884e-05,
      -0.00017059221863746643,
      3.1795352697372437e-05,
      0.00041852518916130066,
      -5.1371753215789795e-05,
      0.0002806335687637329,
      -0.00015649199485778809,
      0.0001972634345293045,
      0.0006021168082952499,
      -1.6614794731140137e-05,
      0.028417430818080902,
      -0.0001685991883277893,
      2.7943402528762817e-05,
      0.00014830008149147034,
      -0.0005141198635101318,
      0.025093519128859043,
      -0.013818681240081787,
      -0.0005653128027915955,
      0.014833524823188782,
      -0.0037063956260681152,
      0.02295362949371338,
      -0.00020218640565872192,
      0.013992234133183956,
      0.008854754269123077,
      0.028076776303350925,
      0.02435021847486496,
      0.029500418342649937,
      0.015954624861478806,
      -0.029247671365737915,
      0.02378205955028534,
      -3.0955299735069275e-05,
      0.029571861028671265,
      0.02870304137468338,
      0.026980296708643436,
      0.00018890202045440674,
      0.026104411110281944,
      -0.008763082325458527,
      -0.027216333895921707,
      -0.01291162520647049,
      -0.02817879244685173,
      -0.024309013038873672,
      0.01681110681965947,
      -0.019923003390431404,
      -0.0188433900475502,
      0.016755439341068268,
      -0.029085829854011536,
      -0.0016402602195739746,
      -0.01611483097076416,
      -0.007864147424697876,
      -0.00035341084003448486,
      -0.02699168026447296,
      0.00029927492141723633,
      -0.021555379033088684,
      0.00013938918709754944,
      0.026631507091224194,
      5.060620605945587e-05,
      0.014018893241882324,
      0.02972850203514099,
      -0.0033718645572662354,
      0.026179727166891098,
      0.029563218355178833,
      0.02336191013455391,
      0.02966996841132641,
      0.0278821662068367,
      -0.02909030020236969,
      -0.028075598180294037,
      0.0024371780455112457,
      -0.02733442187309265,
      -0.0020255595445632935,
      -0.02663606870919466,
      -0.028024114668369293,
      -0.02729613333940506,
      0.0019522681832313538,
      -0.001137666404247284,
      0.029500611126422882,
      0.029922664165496826,
      0.02937154471874237,
      0.0021531954407691956,
      0.027908623218536377,
      0.029679231345653534,
      0.02987692505121231,
      0.02965475246310234,
      0.029882166534662247,
      0.029425296932458878,
      -0.029103577136993408,
      -0.028970452956855297,
      -0.0254510585218668,
      -0.02067709108814597,
      -0.022472858428955078,
      -0.027754299342632294,
      -0.02671123296022415,
      -0.022218244150280952,
      -0.028791464865207672,
      -0.025921672582626343,
      0.0011674650013446808,
      0.02506430447101593,
      -9.822752326726913e-05,
      0.029986552894115448,
      0.02965003252029419,
      0.029940389096736908,
      0.029828161001205444,
      0.012202952057123184,
      0.0007120827212929726,
      0.01500440388917923,
      0.0013558901846408844,
      0.00018868036568164825,
      0.0021844804286956787,
      9.097158908843994e-05,
      0.028257165104150772,
      0.0018525123596191406,
      -8.670054376125336e-05,
      0.00014019012451171875,
      0.00023000314831733704,
      0.0001505054533481598,
      -0.00021744705736637115,
      -1.4599412679672241e-05,
      -0.024935713037848473,
      1.0021030902862549e-05,
      -4.1604042053222656e-05,
      0.0001141820102930069,
      -0.0002255365252494812,
      -0.000690072774887085,
      1.0211020708084106e-05,
      3.794580698013306e-05,
      -0.016253113746643066,
      -0.029211312532424927,
      -0.02859451435506344,
      -0.028757605701684952,
      -0.026667065918445587,
      -0.027163013815879822,
      -0.02921377122402191,
      -0.02942769229412079,
      -0.02908889576792717,
      -0.029335901141166687
    ],
    [
      0.012569342041388154,
      0.002959444187581539,
      0.011597397970035672,
      0.0002682860940694809,
      0.00552621204406023,
      0.0012284237891435623,
      0.029657216742634773,
      -0.020679213106632233,
      -0.002085837535560131,
      0.004153014160692692,
      0.028795438818633556,
      0.0008735302835702896,
      0.027761458419263363,
      0.0036903200671076775,
      -0.0016544833779335022,
      -0.023998631164431572,
      -0.0001903679221868515,
      -0.026850001886487007,
      0.0038169408217072487,
      0.029740815982222557,
      -0.021869326010346413,
      0.0019680997356772423,
      4.3361447751522064e-05,
      -0.00010788161307573318,
      -0.01745683536864817,
      -0.027231271378695965,
      -0.018529235385358334,
      0.00014956295490264893,
      0.02885085716843605,
      0.026316668838262558,
      0.028860896825790405,
      0.0011762455105781555
    ],
    [
      -0.02920375857502222,
      -0.000149555504322052,
      0.029410719871520996,
      0.029628686606884003,
      0.029848869889974594,
      0.00016098003834486008,
      -0.029897302389144897,
      0.02995198220014572,
      -0.014346055686473846,
      0.0012511536478996277,
      -0.029935192316770554,
      -0.00013161171227693558,
      2.7331523597240448e-05,
      -0.029605966061353683,
      -0.00902383029460907,
      -0.0289671802893281,
      0.0017704814672470093,
      -0.027896391227841377,
      -0.026105254888534546,
      0.030016634613275528,
      0.0011186115443706512,
      0.0009280871599912643,
      -0.023008758202195168,
      -0.029518380761146545,
      0.029559433460235596,
      -0.029545947909355164,
      -0.027966447174549103,
      -0.00431177020072937,
      0.000347677618265152,
      -0.014382369816303253,
      -0.029430396854877472,
      -0.029522500932216644,
      0.011136233806610107,
      0.029370829463005066,
      0.0006401846185326576,
      0.0008773654699325562,
      0.0010597854852676392,
      0.029283281415700912,
      0.02983205486088991,
      0.00010655820369720459,
      0.0067401062697172165,
      0.010367006063461304,
      -0.02038150280714035,
      -0.029038824141025543,
      0.0281685134395957,
      0.029984429478645325,
      0.0005206018686294556,
      -0.023988976143300533,
      0.006485704332590103,
      -3.725755959749222e-05,
      0.016351088881492615,
      -0.00043445080518722534,
      -0.01563717983663082,
      -0.011392686516046524,
      0.029766477644443512,
      -0.02252696081995964,
      0.0011796951293945312,
      0.00021209288388490677,
      -0.02343366388231516,
      0.029696211218833923,
      0.007767908275127411,
      0.029859188944101334,
      -0.00046186521649360657,
      0.0008887741714715958,
      -0.012564631644636393,
      0.008689817041158676,
      -0.028379827737808228,
      -0.029658406972885132,
      -0.02951700985431671,
      0.00018617138266563416,
      0.02985212951898575,
      -0.029386645182967186,
      0.01686761062592268,
      0.0004960885271430016,
      0.029343456029891968,
      0.0010443637147545815,
      -0.008061058819293976,
      0.029697809368371964,
      0.0003283284604549408,
      0.028624698519706726,
      -0.020500334911048412,
      0.029983327724039555,
      0.030016373842954636,
      -0.029972112737596035,
      0.0005492530763149261,
      0.00016131997108459473,
      0.02805883064866066,
      0.00038215145468711853,
      -0.0003696810454130173,
      0.030013784766197205,
      0.008054390549659729,
      0.012734267860651016,
      -0.02774285152554512,
      0.010716337710618973,
      0.030039748176932335,
      0.02993522770702839,
      0.013877656310796738,
      -0.021970324218273163,
      -0.0006949044764041901,
      -0.00033080577850341797,
      -0.00045639462769031525,
      -0.02823452651500702,
      0.0003407653421163559,
      0.0006446931511163712,
      0.029686789959669113,
      -0.024405108764767647,
      0.00037029385566711426,
      0.02939419448375702,
      -0.016221465542912483,
      -0.0008297711610794067,
      0.02855057641863823,
      -0.001643683761358261,
      -0.01215414796024561,
      0.0008891522884368896,
      -0.0007547475397586823,
      0.0017661601305007935,
      0.02971542626619339,
      0.029183071106672287,
      0.0003427984192967415,
      0.0007387325167655945,
      0.0021613016724586487,
      0.0007389150559902191,
      0.0003954954445362091,
      -0.013869506306946278,
      -0.029566673561930656,
      -0.01438651978969574,
      0.00031789764761924744,
      0.0007705083116889,
      -0.024557698518037796,
      -0.021553367376327515,
      -0.028413772583007812,
      -0.028123419731855392,
      -0.028105544857680798,
      -0.024210363626480103,
      -0.013616228476166725,
      -0.028202058747410774,
      0.0022722147405147552,
      -0.024637579917907715,
      0.006984412670135498,
      -0.028785035014152527,
      -0.026884574443101883,
      -0.02617109939455986,
      -0.028101056814193726,
      -0.026304170489311218,
      -0.027991781011223793,
      -0.024086210876703262,
      -0.0003130882978439331,
      -0.02874745801091194,
      -0.02880665846168995,
      -0.027356645092368126,
      -0.027426134794950485,
      0.01435178518295288,
      -0.028153302147984505,
      0.029649878852069378,
      -0.015029750764369965,
      -0.026000255718827248,
      -0.02452164515852928,
      -0.020930692553520203,
      0.015324339270591736,
      0.015448294579982758,
      -0.0040207840502262115,
      0.006151668727397919,
      -0.024498572573065758,
      -0.003990635275840759,
      -0.003205612301826477,
      0.025462083518505096,
      0.025642503052949905,
      -0.002529965713620186,
      -0.022530632093548775,
      -0.00281602144241333,
      0.003590395674109459,
      -0.027557257562875748,
      0.025497114285826683,
      0.0015003681182861328,
      -0.025792550295591354,
      -0.014186855405569077,
      0.004057412967085838,
      0.003471117466688156,
      0.003204828128218651,
      -0.0073767658323049545,
      -0.026321277022361755,
      -0.0035636350512504578,
      0.0030002715066075325,
      -0.025910623371601105,
      -0.007298983633518219,
      0.025763511657714844,
      -0.025881522335112095,
      0.025686648674309254,
      -0.004053041338920593,
      0.014967331662774086,
      0.004211939871311188,
      0.024906769394874573,
      0.029035702347755432,
      -0.024228530004620552,
      -0.0018054163083434105,
      -0.0015942519530653954,
      -0.001607891172170639,
      -0.02830398827791214,
      0.0012551723048090935,
      -0.00032375380396842957,
      0.027141481637954712,
      -0.026607830077409744,
      0.0010686367750167847,
      0.028206326067447662,
      -0.0006331875920295715,
      0.0012019947171211243,
      0.027638394385576248,
      -0.00014637410640716553,
      -0.026283662766218185,
      0.0016665980219841003,
      -0.00016176700592041016,
      -0.0008906275033950806,
      0.028436921536922455,
      0.028211201541125774,
      0.0011166762560606003,
      0.0027105212211608887,
      0.0005550365895032883,
      0.001689676195383072,
      0.0007197931408882141,
      -0.018982455134391785,
      -0.002131473273038864,
      -0.017831992357969284,
      0.0011992715299129486,
      0.0017478354275226593,
      0.0005071461200714111,
      -0.00038615427911281586,
      -0.028172925114631653,
      -0.028928738087415695,
      -0.029501037672162056,
      -0.021241646260023117,
      0.029768742620944977,
      -0.02730356901884079,
      0.0016196146607398987,
      -0.022690311074256897,
      0.006589146330952644,
      0.0010485872626304626,
      -0.011673159897327423,
      0.0008826777338981628,
      -0.024911921471357346,
      -0.013747782446444035,
      -0.026017915457487106,
      0.02844240516424179,
      0.02854982763528824,
      -0.02817034348845482,
      0.00022539496421813965,
      -0.027878187596797943,
      -0.01371033862233162,
      0.014790285378694534,
      -0.02719523012638092,
      0.029923214577138424,
      -0.026206985116004944,
      0.00035482272505760193,
      -0.02109418623149395,
      -0.015374429523944855,
      0.029863759875297546,
      0.02873034030199051,
      -0.023737049661576748,
      -0.00302036851644516,
      0.0010164529085159302,
      0.023132052272558212,
      0.00029914453625679016,
      0.0022000372409820557,
      -0.02767934650182724,
      0.0008442876860499382,
      -0.022576697170734406,
      -0.014423832297325134,
      -0.022814974188804626,
      0.0018251612782478333,
      0.003878645598888397,
      -0.025448285043239594,
      -0.003200850449502468,
      -0.022950783371925354,
      0.0007550045847892761,
      -0.02690281718969345,
      -0.02856208011507988,
      0.02998311072587967,
      0.003915801644325256,
      0.029877763241529465,
      -0.024365007877349854,
      -0.02580450102686882,
      0.004623115062713623,
      -0.025406123138964176,
      0.00790741853415966,
      -0.02586153894662857,
      0.02948639541864395,
      -0.013424037024378777,
      -0.025859296321868896,
      -0.02702319622039795,
      0.0294736847281456,
      0.029966101050376892,
      0.004534696228802204,
      -0.0004799719899892807,
      0.00022136792540550232,
      0.029865792021155357,
      0.030003059655427933,
      0.0001791156828403473,
      0.0006706342101097107,
      0.02900507114827633,
      -7.577333599328995e-05,
      -0.022768206894397736,
      0.02978106029331684,
      0.029314318671822548,
      -0.011997178196907043,
      0.029926951974630356,
      0.02850046381354332,
      0.0028461767360568047,
      0.028630515560507774,
      -0.00021313875913619995,
      -0.02077426016330719,
      0.001475771889090538,
      0.02948073484003544,
      -0.00022098049521446228,
      -6.575882434844971e-05,
      4.44948673248291e-05,
      0.012695204466581345,
      0.029697289690375328,
      0.02860531024634838,
      0.03004862368106842,
      6.549432873725891e-05,
      0.011230871081352234,
      -0.027977749705314636,
      -0.016866303980350494,
      -0.02814733423292637,
      -0.028661049902439117,
      -0.028496474027633667,
      -0.026655972003936768,
      0.012202166020870209,
      -0.028525352478027344,
      0.000761277973651886,
      -0.022949349135160446,
      0.017727060243487358,
      -0.001634359359741211,
      0.000884421169757843,
      0.0041222237050533295,
      -0.021846339106559753,
      -0.025655683130025864,
      -0.025357142090797424,
      0.003255169838666916,
      -0.0264999121427536,
      -0.028468746691942215,
      -0.0013633985072374344,
      -0.021287981420755386,
      0.004096135497093201,
      0.0013466104865074158,
      -0.028415225446224213,
      0.029859796166419983,
      -0.028184454888105392,
      -0.023013025522232056,
      -0.029232554137706757,
      0.0019474439322948456,
      0.02997000329196453,
      0.029162298887968063,
      -0.027763478457927704,
      -0.01420130580663681,
      -0.02791888266801834,
      -0.029094547033309937,
      -0.028653858229517937,
      -0.027844468131661415,
      -0.02212478592991829,
      -0.027807220816612244,
      0.001420736312866211,
      -0.02857661060988903,
      0.0017055217176675797,
      0.0006569437682628632,
      -0.028594084084033966,
      -5.6430697441101074e-05,
      -0.028817512094974518,
      -0.023645692504942417,
      -0.027250200510025024,
      0.006929855793714523,
      0.029988937079906464,
      -0.0277746319770813,
      -0.016103800386190414,
      -0.028746500611305237,
      -0.021955575793981552,
      0.0009048953652381897,
      -0.028892837464809418,
      0.02962406724691391,
      0.0050481632351875305,
      0.00017776712775230408,
      -0.02820741757750511,
      -0.010246289893984795,
      0.029868561774492264,
      0.02949887327849865,
      -0.00019360706210136414,
      0.008642974309623241,
      -0.024091359227895737,
      -0.02969188615679741,
      -0.029817670583724976,
      0.00018369220197200775,
      0.029908567667007446,
      -0.02964107319712639,
      0.0006565377116203308,
      -0.00027689337730407715,
      0.030047329142689705,
      0.0005454346537590027,
      0.0001345612108707428,
      0.029805034399032593,
      -0.028593193739652634,
      -0.01718766987323761,
      -0.00010110437870025635,
      0.029524914920330048,
      0.030000285245478153,
      -0.029932308942079544,
      -3.517419099807739e-05,
      0.00031632184982299805,
      0.02970421314239502,
      0.00015641096979379654,
      -0.029307879507541656,
      0.02969544008374214,
      0.0071386247873306274,
      0.028183571994304657,
      -0.02937326580286026,
      0.001543477177619934,
      0.02994285523891449,
      0.02966587245464325,
      -0.019573159515857697,
      -0.02873055636882782,
      -0.01721911132335663,
      -0.00017815828323364258,
      -0.02949387952685356,
      -0.029756300151348114,
      -6.376951932907104e-05,
      -0.0018292739987373352,
      -0.0003476841375231743,
      -0.02865457907319069,
      1.0201707482337952e-05,
      0.02959418296813965,
      -0.02903660386800766,
      -0.00014922022819519043,
      -0.02619428187608719,
      -0.017341382801532745,
      -0.02967778965830803,
      -0.027877576649188995,
      -0.026489964686334133,
      3.1851232051849365e-06,
      0.02918353397399187,
      0.0065546222031116486,
      -0.0014384835958480835,
      0.001668926328420639,
      0.0008295252919197083,
      0.0005537793040275574,
      0.00022063404321670532,
      -0.024770423769950867,
      -0.02508459985256195,
      -0.027498945593833923,
      -0.012490417808294296,
      0.0003890320658683777,
      0.029116511344909668,
      0.028579581528902054,
      0.030032239854335785,
      0.029988905414938927,
      0.030046634376049042,
      0.02070978283882141,
      0.015881124883890152,
      0.029511258006095886,
      0.029850014485418797,
      0.029648978263139725,
      -0.006005406379699707,
      -2.012588083744049e-05,
      0.024633444845676422,
      0.025101643055677414,
      0.02996746450662613,
      0.016669615171849728,
      0.028557151556015015,
      0.014287296682596207,
      0.021946758031845093,
      0.029594920575618744,
      0.02953842654824257,
      0.029199816286563873,
      0.02841830626130104,
      -2.481788396835327e-05,
      0.029467497020959854,
      -0.0004098862409591675,
      -0.000542953610420227,
      0.029846474528312683,
      0.030020255595445633,
      0.018514412455260754,
      0.02149459719657898,
      -0.028596244752407074,
      -5.3122639656066895e-05,
      -0.01830919459462166,
      0.0010984186083078384,
      0.0002450421452522278,
      0.0004862165078520775,
      0.0050925686955451965,
      0.014461565762758255,
      -0.0069082751870155334,
      0.0003272080793976784,
      -5.58905303478241e-05,
      -0.019785698503255844,
      0.00040545687079429626,
      0.004615616053342819,
      0.006577618420124054,
      -0.00022965669631958008,
      -0.0018197046592831612,
      0.0022264141589403152,
      -0.025413753464818,
      -0.00023559201508760452,
      -0.00020288676023483276,
      -0.029236815869808197,
      0.00018283165991306305,
      0.0012491755187511444,
      -0.02996429055929184,
      0.0002514459192752838,
      0.007347024977207184,
      -0.028731979429721832,
      -4.9583613872528076e-05,
      0.0002590790390968323,
      -0.0027811937034130096,
      6.647966802120209e-05,
      0.0287935771048069,
      0.028931235894560814,
      0.028413429856300354,
      -0.0170503631234169,
      -0.00028458982706069946,
      -0.01766381785273552,
      0.00034638307988643646,
      0.0063653141260147095,
      0.0008205818012356758,
      0.029881666414439678,
      0.028070412576198578,
      0.02484927885234356,
      0.0017258748412132263,
      0.028140462934970856,
      0.02625997830182314,
      0.00010750070214271545,
      0.0017620474100112915,
      0.013164766132831573,
      0.02997473254799843,
      9.984895586967468e-05,
      -0.01598072052001953,
      0.001614597626030445,
      0.00025137513875961304,
      0.015037991106510162,
      0.02989748865365982,
      -0.00024680793285369873,
      0.029843434691429138,
      0.00019716471433639526,
      0.005686301738023758,
      0.03001493215560913,
      0.029583588242530823,
      0.02996830642223358,
      0.029485817067325115,
      -0.028845112770795822,
      0.029223453253507614,
      0.00041878968477249146,
      -4.6938657760620117e-07,
      -1.7285346984863281e-06,
      0.02941673994064331,
      0.00034930557012557983,
      6.34118914604187e-05,
      -0.02358384244143963,
      0.02823507785797119,
      0.00013100914657115936,
      -0.029010684229433537,
      0.029362889006733894,
      0.01634062989614904,
      -0.011542776599526405,
      -0.013034282252192497,
      0.026813045144081116,
      0.0006521586328744888,
      0.00035620108246803284,
      -0.00014825165271759033,
      -0.02904416248202324,
      -0.02819624450057745,
      0.00027086585760116577,
      0.00034280121326446533,
      -0.0004882849752902985,
      0.00046622566878795624,
      0.0008784588426351547,
      0.0013076309114694595,
      0.016043521463871002,
      0.0004967004060745239,
      0.00025526247918605804,
      0.00031143147498369217,
      0.005730047821998596,
      0.007556736469268799,
      0.009696336463093758,
      -0.028954099863767624,
      -9.34302806854248e-05,
      0.001316215842962265,
      0.029007868841290474,
      0.0019588973373174667,
      0.029904238879680634,
      0.003027389757335186,
      0.02984388917684555,
      0.029785387217998505,
      0.0011015236377716064,
      0.0010280534625053406,
      0.028353910893201828,
      0.005372367799282074,
      0.0014520436525344849,
      0.02963986247777939,
      0.03003525733947754,
      -0.029710344970226288,
      0.029549479484558105,
      -0.028419305570423603,
      0.029971791431307793,
      5.291961133480072e-05,
      -0.029162902384996414,
      0.029540318064391613,
      0.029772836714982986,
      0.0032285284250974655,
      0.0033889561891555786,
      0.007374819368124008,
      0.03004522994160652,
      0.02880079299211502,
      0.014779973775148392,
      -0.027532555162906647,
      0.023456379771232605,
      -0.00044044479727745056,
      -0.00040258467197418213,
      -0.02947327494621277,
      0.00017352402210235596,
      0.0004352070391178131,
      0.001742139458656311,
      -0.02607288584113121,
      0.00014129653573036194,
      0.029429376125335693,
      -0.02937140315771103,
      -0.014304772950708866,
      0.028791083954274654,
      -0.017281804233789444,
      -0.029313839972019196,
      0.00042141973972320557,
      0.00022714212536811829,
      0.00012558698654174805,
      0.02927999198436737,
      0.00046415627002716064,
      0.0008377581834793091,
      0.0005509555339813232,
      -0.00044697709381580353,
      0.0007613077759742737,
      -0.0002604704350233078,
      -0.027187973260879517,
      -0.013852223753929138,
      -0.023702699691057205,
      0.0002300124615430832,
      0.0006446093320846558,
      0.001376871019601822,
      -0.022281989455223083,
      0.001768229529261589,
      0.0038993805646896362,
      0.0009008161723613739,
      -0.02733229100704193,
      -0.003528095781803131,
      0.003532715141773224,
      0.02874334156513214,
      -0.02444848045706749,
      -1.2058764696121216e-05,
      0.02939113974571228,
      -0.026969555765390396,
      0.00012389570474624634,
      0.029419220983982086,
      -0.013649954460561275,
      0.008418634533882141,
      0.00011681206524372101,
      -0.027929604053497314,
      0.0024643316864967346,
      0.012936641462147236,
      0.016640543937683105,
      -0.029799386858940125,
      0.030005954205989838,
      0.00995003990828991,
      0.00013848207890987396,
      0.007483243942260742,
      0.00019796006381511688,
      0.00390615314245224,
      -6.604194641113281e-05,
      -0.0012956112623214722,
      0.00017867982387542725,
      0.00036202743649482727,
      1.9023194909095764e-05,
      0.0299680233001709,
      0.029988769441843033,
      0.030047113075852394,
      0.002707197330892086,
      -0.02893828973174095,
      0.029708489775657654,
      -0.02970585599541664,
      0.01627778261899948,
      -0.012453801929950714,
      1.6734004020690918e-05,
      -0.000295490026473999,
      -0.0022526606917381287,
      0.030011072754859924,
      5.7767145335674286e-05,
      0.018878772854804993,
      -0.0012258514761924744,
      0.029832743108272552,
      0.029756681062281132,
      0.008404184132814407,
      0.02924167364835739,
      0.012692292220890522,
      -0.0008803568780422211,
      0.02966899797320366,
      -0.029920141212642193,
      -0.0005553215742111206,
      0.0002512708306312561,
      0.02950058877468109,
      0.00048226118087768555,
      -0.028527699410915375,
      -0.029930569231510162,
      1.0512769222259521e-05,
      0.0298279020935297,
      0.00069412961602211,
      0.00025025755167007446,
      4.856288433074951e-05,
      0.029956921935081482,
      0.030024878680706024,
      -2.2658146917819977e-05,
      0.0065535008907318115,
      0.028571540489792824,
      5.049258470535278e-05,
      0.0004385747015476227,
      0.030022457242012024,
      0.029840707778930664,
      0.00043623894453048706,
      0.015858955681324005,
      0.029968250542879105,
      0.029951296746730804,
      0.016536802053451538,
      1.5284866094589233e-05,
      7.0445239543914795e-06,
      0.00043119676411151886,
      0.03004245087504387,
      -0.02962997555732727,
      0.00012266449630260468,
      0.01610780507326126,
      0.0022987164556980133,
      0.02987479791045189,
      0.00014238059520721436,
      0.030024784617125988,
      0.017789114266633987,
      0.027406740933656693,
      0.028669357299804688,
      -0.017964966595172882,
      -0.003952742554247379,
      -0.0001881122589111328,
      -0.000591399148106575,
      -0.029318325221538544,
      8.261576294898987e-05,
      0.00016199052333831787,
      0.0046576885506510735,
      -0.015409469604492188,
      8.846074342727661e-05,
      0.0021002711728215218,
      -1.7292797565460205e-05,
      0.000248052179813385,
      0.0004056524485349655,
      5.865469574928284e-05,
      -0.02960691601037979,
      0.00031923316419124603,
      0.000260867178440094,
      1.1826865375041962e-05,
      0.002205953001976013,
      0.029744794592261314,
      0.0002894643694162369,
      0.014058444648981094,
      0.01894572377204895,
      0.0005376562476158142,
      0.00044386181980371475,
      0.0010226350277662277,
      -0.02837992087006569,
      0.00023397896438837051,
      0.0003537982702255249,
      0.0006091594696044922,
      -0.0002223290503025055,
      -0.002425333485007286,
      0.0300277816131711,
      0.030031843110919,
      0.03004174306988716,
      0.0013146474957466125,
      -0.02451440505683422,
      0.014352932572364807,
      -0.0008705705404281616,
      0.029718637466430664,
      -0.00022342242300510406,
      2.0854175090789795e-05,
      0.02857881970703602,
      -0.02024035155773163,
      0.013653740286827087,
      0.024404369294643402,
      0.029702886939048767,
      -0.022704683244228363,
      -0.001007087528705597,
      0.029890095815062523,
      0.0004885494709014893,
      0.0038674380630254745,
      -0.019293632358312607,
      -0.0004992447793483734,
      0.030034178867936134,
      -0.027162632904946804,
      0.00011913850903511047,
      0.005669141188263893,
      0.03004087135195732,
      0.0030560530722141266,
      -0.013961391523480415,
      -0.02775786630809307,
      0.003489512950181961,
      0.0018607676029205322,
      0.0035543590784072876,
      0.004183441400527954,
      0.00360247865319252,
      0.0035469848662614822,
      -0.013285094872117043,
      0.0038581937551498413,
      -0.02633088082075119,
      0.0025529414415359497,
      -0.026934673078358173,
      -0.025624863803386688,
      0.0040044039487838745,
      0.0024583563208580017,
      0.004336930811405182,
      0.0015900880098342896,
      0.0034604454413056374,
      -0.027143307030200958,
      -0.02601330727338791,
      0.0038273632526397705,
      -0.025312408804893494,
      0.0038213953375816345,
      0.0013635866343975067,
      -0.026071295142173767,
      0.004133298993110657,
      -0.004401639103889465,
      -0.02548520267009735,
      0.003298737108707428,
      0.0036591440439224243,
      0.0037656575441360474,
      -0.026311926543712616,
      -0.026965785771608353,
      0.02980796992778778,
      0.029228035360574722,
      0.012199655175209045,
      0.00010255631059408188,
      0.001703863963484764,
      0.029870460741221905,
      0.006941676139831543,
      -5.1256269216537476e-05,
      -0.0006877034902572632,
      0.029571346938610077,
      -0.00032161176204681396,
      -0.028712313622236252,
      0.02987422700971365,
      0.029799826443195343,
      -0.011151827871799469,
      0.02963889017701149,
      0.029406022280454636,
      0.028978196904063225,
      0.028852679766714573,
      6.273388862609863e-06,
      0.0010666493326425552,
      0.0005733966827392578,
      0.029834269545972347,
      -0.0012777000665664673,
      6.888434290885925e-05,
      0.0001085326075553894,
      0.029381118714809418,
      0.029933646321296692,
      0.029766473919153214,
      0.029652275145053864,
      8.462369441986084e-05,
      0.028443504124879837,
      0.028369084000587463,
      0.0005893073976039886,
      0.028805559501051903,
      0.029630137607455254,
      0.029303654097020626,
      0.002769220620393753,
      -0.00023024901747703552,
      0.0295984148979187,
      0.00019560754299163818,
      0.007216036319732666,
      -0.017447754740715027,
      8.112937211990356e-05,
      0.02885911613702774,
      0.0003569871187210083,
      0.029819760471582413,
      0.029592872597277164,
      0.0293711107224226,
      -0.02612893283367157,
      -0.013933978974819183,
      0.029629280790686607,
      0.006013222970068455,
      0.02956945076584816,
      0.028132636100053787,
      3.0621886253356934e-05,
      0.029366484843194485,
      -0.029017817229032516,
      0.003504343330860138,
      0.016344547271728516,
      0.028880733996629715,
      0.006140992045402527,
      -0.029325950890779495,
      0.0001904405653476715,
      -0.02069750428199768,
      -0.020929754711687565,
      -0.028877757489681244,
      -0.02934706211090088,
      -0.02965102531015873,
      -0.024636834859848022,
      0.030004655942320824,
      -0.027908507734537125,
      0.00018445216119289398,
      -0.02924000471830368,
      0.008589794859290123,
      0.00046762824058532715,
      -0.027586989104747772,
      0.028862982988357544,
      0.008004635572433472,
      -0.01759975031018257,
      -0.028235282748937607,
      0.02859950065612793,
      0.0006742170080542564,
      -0.029551408253610134,
      -0.0272822305560112,
      -0.014957334846258163,
      0.029459938406944275,
      2.9005110263824463e-05,
      -0.0290068406611681,
      0.029635244980454445,
      0.010228648781776428,
      0.0007648393511772156,
      -0.029689185321331024,
      0.012855194509029388,
      0.030022162944078445,
      0.029684878885746002,
      -0.00036069750785827637,
      0.004269847646355629,
      -0.029657825827598572,
      -0.02980915457010269,
      -0.02987351268529892,
      -0.029701906256377697,
      0.028948703780770302,
      -0.029468823224306107,
      9.051710367202759e-05,
      -0.029100146144628525,
      0.00017204880714416504,
      0.00020770728588104248,
      -0.029655884951353073,
      0.024343903176486492,
      0.00015772506594657898,
      0.00038243643939495087,
      -0.029553841799497604,
      4.541128873825073e-05,
      0.0006680116057395935,
      -0.029870327562093735,
      4.600733518600464e-05,
      -0.0002085380256175995,
      -0.000288546085357666,
      2.6125460863113403e-05,
      -0.029768075793981552,
      0.029754865914583206,
      3.534182906150818e-05,
      -0.016982512548565865,
      -0.02990046702325344,
      -0.010826792567968369,
      0.020889773964881897,
      0.028550557792186737,
      0.029845714569091797,
      0.027639005333185196,
      -0.018112752586603165,
      -0.02967110276222229,
      -0.029125958681106567,
      0.00010513514280319214,
      0.029821094125509262,
      -0.02967519871890545,
      0.0075697340071201324,
      0.027930881828069687,
      0.029237262904644012,
      0.0004901587963104248,
      0.002063944935798645,
      0.030035899952054024,
      0.0005914438515901566,
      0.02809169888496399,
      -0.016378603875637054,
      0.029910036362707615,
      0.03002642560750246,
      -0.029973331838846207,
      0.00017566606402397156,
      0.0013676341623067856,
      0.029809623956680298,
      0.030030090361833572,
      -0.028136473149061203,
      0.030014414340257645,
      0.029778413474559784,
      0.017193812876939774,
      -0.0004714354872703552,
      0.02986847050487995,
      0.029922373592853546,
      0.02991378679871559,
      0.000806901603937149,
      -0.012663803994655609,
      0.0004389658570289612,
      0.00046616047620773315,
      0.00034495070576667786,
      0.029600324109196663,
      0.02993263304233551,
      0.028412921354174614,
      0.0006194189190864563,
      0.016882527619600296,
      -0.00013659894466400146,
      -0.02919139713048935,
      0.028981991112232208,
      0.029743109829723835,
      -0.024552486836910248,
      0.015095693990588188,
      0.001049327664077282,
      -0.0001258794218301773,
      0.028200581669807434,
      -0.001378905028104782,
      -0.0008947774767875671,
      0.0003351271152496338,
      0.02196347713470459,
      -0.02254503220319748,
      0.0010108575224876404,
      0.0014750659465789795,
      0.004550673067569733,
      0.029770378023386,
      0.0038219336420297623,
      0.028410383500158787,
      0.029194679111242294,
      0.018299445509910583
    ],
    [
      0.0007731039077043533,
      0.002681966871023178,
      0.0019449815154075623,
      -0.008036724058911204,
      -0.027796834707260132,
      -0.004534706473350525,
      0.007876981515437365,
      -0.026918500661849976,
      -0.016805047634989023,
      0.02953505329787731,
      -0.02724086120724678,
      -0.02792860008776188,
      -0.018271723063662648,
      -0.028584012761712074,
      0.02997367549687624,
      0.0003483723849058151,
      0.019649127032607794,
      -0.0004481654614210129,
      0.00586713757365942,
      -0.02462400123476982,
      0.013779683969914913,
      0.029608650133013725,
      0.001447814516723156,
      0.0008208025246858597,
      0.02977278921753168,
      0.004063457250595093,
      0.0297376848757267,
      0.029505898244678974,
      -0.027957113459706306,
      -0.020171738229691982,
      0.016930485144257545,
      0.0022638002410531044
    ],
    [
      0.029548097401857376,
      0.004308715462684631,
      -0.014533556997776031,
      -0.003951516933739185,
      -0.0007919929921627045,
      -0.022748440504074097,
      0.0009385887533426285,
      0.004027135670185089,
      -0.006646163761615753,
      0.029603207483887672,
      -0.002795204520225525,
      -0.002340998500585556,
      -0.017933979630470276,
      0.027425207197666168,
      0.0002533532679080963,
      -0.00011690706014633179,
      0.00012731924653053284,
      -9.154900908470154e-06,
      0.014802441000938416,
      0.020722809247672558,
      0.007131583988666534,
      0.0005140975117683411,
      0.029525000602006912,
      -0.0021984390914440155,
      0.00010757148265838623,
      0.000589028000831604,
      0.02990155667066574,
      0.0001588277518749237,
      0.0005301963537931442,
      -0.02889786660671234,
      -0.01706819236278534,
      0.00482824444770813
    ],
    [
      -0.006136706098914146
    ]
  ],
  "num_updates": 2,
  "client_ids": [
    "client-1",
    "client-2"
  ],
  "mean_final_loss": 8.98477029800415,
  "aggregation_timestamp": 1784208676.9420803
}