{
  "version": "v68",
  "base_version": "v67",
  "round_id": 186,
  "aggregation": "fedavg",
  "averaged_weight_delta": [
    [
      -0.0014177300035953522,
      0.00022237002849578857,
      -0.005568362772464752,
      -0.022615421563386917,
      0.0076566338539123535,
      0.0020647943019866943,
      -0.02305825799703598,
      0.02604750543832779,
      0.0028257519006729126,
      0.0007106028497219086,
      -0.025115564465522766,
      -0.01695673167705536,
      -0.022873513400554657,
      0.00019027292728424072,
      -0.02706095576286316,
      0.003138459287583828,
      -0.025050118565559387,
      -0.028662916272878647,
      0.00043112412095069885,
      -0.028575360774993896,
      -0.02767512947320938,
      0.002349480986595154,
      -0.02884114533662796,
      -0.016299649141728878,
      -0.02278977632522583,
      0.025434568524360657,
      0.005797885358333588,
      -0.029643850401043892,
      -0.022867806255817413,
      -0.0016240105032920837,
      0.02987533062696457,
      0.029667668044567108,
      0.028223920613527298,
      0.004958987236022949,
      0.02978096902370453,
      0.029895275831222534,
      0.029658742249011993,
      0.029829315841197968,
      0.029984042048454285,
      0.0299094095826149,
      -0.007449425756931305,
      -0.0039493367075920105,
      -0.005247882567346096,
      -0.004636593163013458,
      -0.009971503168344498,
      -0.030031487345695496,
      -0.0030086636543273926,
      -0.001401655375957489,
      -0.02999049797654152,
      -0.029511112719774246,
      0.0020248927175998688,
      0.007769476622343063,
      0.0024350732564926147,
      0.013591890688985586,
      -0.00010494887828826904,
      -0.0007588416337966919,
      0.001870572566986084,
      -2.7865171432495117e-05,
      0.0045612044632434845,
      -0.026268023997545242,
      -0.02953377366065979,
      -0.029539775103330612,
      -0.027838220819830894,
      -0.0014219507575035095,
      -0.01684979721903801,
      -0.013449151068925858,
      -0.029871486127376556,
      -0.02495337277650833,
      -0.0025857388973236084,
      -0.013318158686161041,
      0.004054263234138489,
      0.001116931438446045,
      -0.020504318177700043,
      0.00035665184259414673,
      -0.02597210556268692,
      -0.0005826652050018311,
      0.002280641347169876,
      -0.021638184785842896,
      -0.027795732021331787,
      0.004366938024759293,
      0.024501394480466843,
      0.02146223932504654,
      0.018975086510181427,
      0.020328909158706665,
      0.019452907145023346,
      0.02038554847240448,
      0.026068836450576782,
      0.02673221565783024,
      0.021521244198083878,
      0.025782961398363113,
      -0.0217425599694252,
      0.00287608802318573,
      0.007815489545464516,
      -0.0007505640387535095,
      0.013084342703223228,
      -0.020237769931554794,
      0.014347176998853683,
      -0.026884078979492188,
      -0.0006090477108955383,
      -0.002330442890524864,
      0.012493044137954712,
      0.00044164806604385376,
      0.01312585175037384,
      0.02590392902493477,
      -0.0002780463546514511,
      -0.0015585049986839294,
      0.02455902099609375,
      0.0006740093231201172,
      0.027553759515285492,
      0.026167094707489014,
      -0.00034008920192718506,
      -0.0006462186574935913,
      -0.00039803236722946167,
      -0.02975430339574814,
      -0.00012871995568275452,
      -0.0003058314323425293,
      -0.0004076734185218811,
      -0.0005848370492458344,
      -0.0004076603800058365,
      -0.029615014791488647,
      0.02458198368549347,
      0.023006901144981384,
      0.025726178660988808,
      -0.005558215081691742,
      0.0195415411144495,
      0.028730574995279312,
      0.02653132751584053,
      0.02278755232691765,
      0.022503316402435303,
      -0.002996239811182022,
      -0.00040915515273809433,
      -0.00061030313372612,
      -0.0006353184580802917,
      -0.02547396719455719,
      -0.00036619044840335846,
      -0.00011175312101840973,
      -0.0007997080683708191,
      -0.00012569501996040344,
      -4.124641418457031e-05,
      -0.0008260384202003479,
      3.67090106010437e-05,
      -0.0007919222116470337,
      -0.013012640178203583,
      0.0008610188961029053,
      -0.0023751184344291687,
      4.7229230403900146e-05,
      -0.027989394962787628,
      0.002008214592933655,
      -0.0006409082561731339,
      -0.0010640323162078857,
      -0.0036640316247940063,
      -0.0016206353902816772,
      -0.003036661073565483,
      -0.0006719157099723816,
      -0.0033462373539805412,
      -0.00463605672121048,
      0.000170193612575531,
      -0.0018553510308265686,
      -0.0016414821147918701,
      -0.0018657222390174866,
      -0.029803581535816193,
      -0.026515843346714973,
      -0.0297933928668499,
      -0.002133987843990326,
      -0.029768217355012894,
      -0.004443477839231491,
      -0.0284153763204813,
      -0.029874516651034355,
      -0.02898542582988739,
      -0.0013023614883422852,
      -0.030000314116477966,
      -0.029863616451621056,
      -0.00148792564868927,
      -0.030010215938091278,
      -0.0296059250831604,
      -0.029879121109843254,
      -0.02994970977306366,
      -0.022217445075511932,
      -0.02992083877325058,
      -0.029687032103538513,
      -0.002821151167154312,
      -0.007101472467184067,
      -0.0006411224603652954,
      0.012012986466288567,
      0.0006616134196519852,
      0.0007718950510025024,
      -0.00051087886095047,
      -0.0007244646549224854,
      0.00024176016449928284,
      -0.0024511925876140594,
      0.0009052306413650513,
      0.013912487775087357,
      -4.8782676458358765e-05,
      0.029889844357967377,
      -5.187932401895523e-05,
      0.001333482563495636,
      0.023779725655913353,
      -0.001242019236087799,
      0.0002086944878101349,
      0.029603656381368637,
      -0.0010953471064567566,
      -0.007868103682994843,
      -0.0008743982762098312,
      -0.0013130158185958862,
      -0.0020469604060053825,
      -0.0006728135049343109,
      -0.0008719712495803833,
      -0.0035329237580299377,
      -0.0016115829348564148,
      -0.0013032415881752968,
      8.55475664138794e-05,
      0.0007308125495910645,
      -2.9385089874267578e-05,
      -0.0291421702131629,
      -9.619630873203278e-05,
      5.0902366638183594e-05,
      -0.00011085905134677887,
      -5.833804607391357e-06,
      2.6676803827285767e-05,
      -2.065300941467285e-05,
      -0.02680676430463791,
      -0.028588538989424706,
      -0.025758393108844757,
      -0.028896376490592957,
      -0.024639181792736053,
      -0.028775603510439396,
      -0.025024786591529846,
      -0.010503413155674934,
      -0.028530433773994446,
      -0.028347108513116837,
      0.005907686427235603,
      0.0009243637323379517,
      0.011589914560317993,
      0.0032999515533447266,
      0.01546403020620346,
      0.000588342547416687,
      0.0016348538920283318,
      0.0012190267443656921,
      0.005110383033752441,
      0.02977816015481949,
      -0.0004183650016784668,
      -0.02043372392654419,
      -0.0001289770007133484,
      -0.028624143451452255,
      -0.0019834786653518677,
      -3.458186984062195e-05,
      -0.029167160391807556,
      5.313754081726074e-05,
      -0.0073216818273067474,
      -0.017893634736537933,
      -0.0010259449481964111,
      -0.001377476379275322,
      -0.002646803855895996,
      0.026094600558280945,
      -0.0011197011917829514,
      -0.003234890289604664,
      -0.0016817450523376465,
      -0.002897677943110466,
      0.027825654484331608,
      0.0004683956503868103,
      0.02993149682879448,
      0.029984772205352783,
      0.026282455772161484,
      0.0169757679104805,
      0.02979126013815403,
      0.025163494050502777,
      0.029864564538002014,
      0.02992804255336523,
      0.026877501979470253,
      0.030006825923919678,
      0.027426622807979584,
      0.001577962189912796,
      0.00838538259267807,
      -2.403557300567627e-05,
      0.008589722216129303,
      -0.0005053393542766571,
      0.004380218684673309,
      0.005154550075531006,
      0.00022848695516586304,
      -0.016664769500494003,
      0.02968541532754898,
      0.0011627674102783203,
      0.02950984239578247,
      0.029099423438310623,
      0.028937309980392456,
      0.029660130850970745,
      0.029678167775273323,
      0.028666283935308456,
      0.0296664796769619,
      0.029286585748195648,
      -0.029227323830127716,
      -0.028596721589565277,
      -0.015609152615070343,
      -0.00855716411024332,
      -0.027928493916988373,
      -0.014516260474920273,
      -0.009952984750270844,
      -0.00978570431470871,
      -0.016931699588894844,
      -0.01352667436003685,
      -0.0001238267868757248,
      -0.0024278610944747925,
      -0.0022126659750938416,
      -0.0004186779260635376,
      -0.0007308758795261383,
      0.012154728174209595,
      -0.0010759104043245316,
      -0.0004403218626976013,
      0.01628611423075199,
      0.01809089630842209,
      -0.029230862855911255,
      -0.02996652014553547,
      -0.02857326716184616,
      -0.02923375368118286,
      -0.029317021369934082,
      -0.029374003410339355,
      -0.029177619144320488,
      -0.02533479779958725,
      -0.0282101733610034,
      -0.029165148735046387
    ],
    [
      -0.01791494432836771,
      -0.02060754131525755,
      0.009180772118270397,
      0.029826881363987923,
      0.0034056007862091064,
      -0.026712250895798206,
      0.02754434011876583,
      0.005301587283611298,
      -0.02394861727952957,
      -0.0007290537469089031,
      -0.012948315357789397,
      0.0004695877432823181,
      -0.02352808602154255,
      0.0038809161633253098,
      -0.023458920419216156,
      -0.027518603019416332,
      0.029933679848909378,
      0.029852766543626785,
      -0.027041036635637283,
      0.029668237082660198,
      0.0015175463631749153,
      0.028880177065730095,
      0.0003379508852958679,
      0.02812823187559843,
      0.007006312720477581,
      0.004148479551076889,
      0.023361099883913994,
      -0.023503427393734455,
      -0.0022326279431581497,
      0.00459561962634325,
      -0.015695027308538556,
      0.0007883552461862564
    ],
    [
      0.015231786295771599,
      -0.027982437051832676,
      8.700508624315262e-05,
      0.03002779930830002,
      -0.028896290808916092,
      0.00019645970314741135,
      -0.029146786779165268,
      0.029881734400987625,
      -0.027535010129213333,
      -0.029001310467720032,
      -0.0286897923797369,
      -0.02881777100265026,
      -0.028720326721668243,
      -0.023982105776667595,
      -0.029132895171642303,
      -0.026169653981924057,
      -0.028339974582195282,
      -0.0014260411262512207,
      0.006787128746509552,
      0.0014496520161628723,
      -0.026698127388954163,
      0.00044260919094085693,
      -0.00017863325774669647,
      0.029747895896434784,
      -0.0004970207810401917,
      -0.027065299451351166,
      0.010934330523014069,
      4.4830143451690674e-05,
      0.002872258424758911,
      -0.028987906873226166,
      0.00287039577960968,
      0.0010732905939221382,
      -5.1975250244140625e-05,
      0.0005234405398368835,
      -1.6242265701293945e-05,
      4.728790372610092e-05,
      -0.02788376435637474,
      0.0007685273885726929,
      -0.0292671425268054,
      0.028651967644691467,
      -0.014295585453510284,
      -0.028329957276582718,
      -0.0028109177947044373,
      -0.028716057538986206,
      -0.02044055610895157,
      -0.0011054538190364838,
      0.003934958949685097,
      0.0007987059652805328,
      -0.028144173324108124,
      -0.029389984905719757,
      -0.014718501828610897,
      0.02881481498479843,
      -0.02929931879043579,
      -0.029373224824666977,
      0.026475772261619568,
      0.0008999928832054138,
      -0.028503380715847015,
      -0.013465851545333862,
      0.028845177963376045,
      0.0004492029547691345,
      0.0010082051157951355,
      -0.029198680073022842,
      -3.128033131361008e-05,
      0.02874627709388733,
      -0.018509089946746826,
      -0.029956470243632793,
      -0.02775594498962164,
      0.0006328411400318146,
      0.0010867267847061157,
      -0.028014101088047028,
      0.0005560107529163361,
      0.0019753873348236084,
      0.006139613687992096,
      0.0013473443686962128,
      -0.012276001274585724,
      0.0006731487810611725,
      0.0008421055972576141,
      -0.018526829779148102,
      -0.028389842249453068,
      -0.028246093541383743,
      0.012194760143756866,
      0.004987124353647232,
      0.02987263724207878,
      -0.025941557250916958,
      0.002929726615548134,
      0.016946778632700443,
      -0.028660209849476814,
      0.017861705273389816,
      0.028740033507347107,
      0.0008921483531594276,
      -0.0007714554667472839,
      -0.027590058743953705,
      -0.028700072318315506,
      0.00046234577894210815,
      -0.016350850462913513,
      0.029619719833135605,
      -2.4478882551193237e-05,
      0.029657142236828804,
      0.005087137222290039,
      -0.021056506782770157,
      0.0016511138528585434,
      0.004060640931129456,
      0.002107672393321991,
      -0.02023182436823845,
      -0.021188978105783463,
      0.0025577545166015625,
      0.001581445336341858,
      0.0018736794590950012,
      0.0025645699352025986,
      0.002599067986011505,
      0.02885136753320694,
      9.136088192462921e-05,
      0.0001614093780517578,
      0.014272425323724747,
      -0.020922549068927765,
      -0.01424688845872879,
      -0.020789600908756256,
      -0.023701513186097145,
      0.000412575900554657,
      -0.017562098801136017,
      -0.019715318456292152,
      0.0011982135474681854,
      -0.023202884942293167,
      0.029503032565116882,
      0.00961458869278431,
      0.000986095517873764,
      0.0037624407559633255,
      -0.028394699096679688,
      0.01800311915576458,
      0.005005406215786934,
      0.0008270293474197388,
      0.007068522274494171,
      -0.026063553988933563,
      0.0013294387608766556,
      -0.000786900520324707,
      0.029240593314170837,
      -0.009793363511562347,
      0.0012688785791397095,
      0.009268444031476974,
      -0.02533239871263504,
      0.0013133026659488678,
      0.006410520523786545,
      0.0014407671988010406,
      0.0008411630988121033,
      0.0012076720595359802,
      0.0008814036846160889,
      0.00043596699833869934,
      0.0006192848086357117,
      -0.017749816179275513,
      -0.0003451108932495117,
      0.0020297765731811523,
      0.005874712020158768,
      0.028357073664665222,
      -0.000477401539683342,
      0.029016949236392975,
      0.0015242695808410645,
      0.0008183401077985764,
      -0.013013966381549835,
      0.0014966772869229317,
      0.02978647593408823,
      -0.0003313720226287842,
      0.003685492090880871,
      0.02979319542646408,
      0.007417410612106323,
      -0.0018417015671730042,
      0.029951119795441628,
      -2.086162567138672e-07,
      9.981542825698853e-05,
      -0.02959486097097397,
      -1.2749806046485901e-05,
      -0.02426479198038578,
      -2.055242657661438e-05,
      9.313225746154785e-05,
      -0.0009520538151264191,
      0.029488934203982353,
      0.028848808258771896,
      -0.02319149672985077,
      0.004183533601462841,
      0.009415054693818092,
      0.017315007746219635,
      -0.024724401533603668,
      -0.0025876136496663094,
      0.0005144281312823296,
      0.0015533044934272766,
      -0.02938092313706875,
      -0.015143420547246933,
      3.52710485458374e-05,
      0.027821039780974388,
      0.02885340340435505,
      0.00029767677187919617,
      0.01333315297961235,
      -0.0007115378975868225,
      -0.02860131859779358,
      -0.029049953445792198,
      -0.029369831085205078,
      -0.025731400586664677,
      0.0010428912937641144,
      -0.028239574283361435,
      0.00023470446467399597,
      -0.02988308295607567,
      0.0032036006450653076,
      0.002409122884273529,
      -0.0006873467937111855,
      0.0004394110292196274,
      0.0017220024019479752,
      -0.011169619858264923,
      -0.027390196919441223,
      -0.028666842728853226,
      0.0034817755222320557,
      0.0005042813718318939,
      -0.004834610037505627,
      -0.029896438121795654,
      -0.00025913678109645844,
      0.000919099897146225,
      -0.029035363346338272,
      -0.02803955413401127,
      0.0032388120889663696,
      -0.00021835416555404663,
      -0.02944466471672058,
      -0.02707720175385475,
      -0.029278941452503204,
      0.0004353150725364685,
      -0.027004409581422806,
      0.0012426003813743591,
      -0.025154054164886475,
      -0.02909542340785265,
      -0.022773083299398422,
      0.014176636934280396,
      0.0011966153979301453,
      -0.005134843289852142,
      0.0006367862224578857,
      -0.0006114952266216278,
      0.001964833587408066,
      -0.00867433100938797,
      -0.027958698570728302,
      0.0010082647204399109,
      -0.0002574808895587921,
      -0.012117782607674599,
      -0.028698322363197803,
      -0.026484064757823944,
      -0.006527692079544067,
      0.00016599148511886597,
      0.025789134204387665,
      -0.027872560545802116,
      -0.0006406651809811592,
      0.008708536624908447,
      -0.02868545427918434,
      0.000688016414642334,
      0.010749537497758865,
      0.000752575695514679,
      0.007676638662815094,
      -0.029051147401332855,
      -0.02492164447903633,
      0.00023075193166732788,
      -0.003391403704881668,
      0.017523863818496466,
      -0.029712863266468048,
      -7.040798664093018e-05,
      0.00035165250301361084,
      -0.028990356251597404,
      0.029834391549229622,
      0.0015048347413539886,
      0.029930902644991875,
      -0.029343485832214355,
      0.0003718733787536621,
      0.02945428341627121,
      0.028820082545280457,
      0.029991760849952698,
      0.029242850840091705,
      -0.012615524232387543,
      0.00026323646306991577,
      0.00047446973621845245,
      0.0010807700455188751,
      0.013040602207183838,
      -0.026718759909272194,
      3.090128302574158e-05,
      0.027983255684375763,
      0.0036066584289073944,
      -0.014963116496801376,
      -0.02910187840461731,
      0.0012953467667102814,
      0.029265042394399643,
      -0.0296726506203413,
      0.00011189840734004974,
      -2.7894973754882812e-05,
      0.02970542386174202,
      0.02449950948357582,
      -0.01748552918434143,
      -0.029423881322145462,
      -0.026033866219222546,
      -0.001033395528793335,
      -0.03000139258801937,
      0.02992834895849228,
      7.859617471694946e-05,
      0.03000263124704361,
      -0.029818205162882805,
      0.027601119130849838,
      0.029869908466935158,
      0.029013589024543762,
      0.029932095669209957,
      0.02976289764046669,
      0.028663646429777145,
      0.00030225515365600586,
      0.009594658389687538,
      0.030017768032848835,
      0.025895402766764164,
      -0.0005898978561162949,
      -0.0002715662121772766,
      0.029637849889695644,
      -4.842877388000488e-07,
      0.00023641437292099,
      -0.029545728117227554,
      0.00013076886534690857,
      0.029607243835926056,
      -0.029831863939762115,
      0.0002947412431240082,
      -0.0002442356199026108,
      0.029945850372314453,
      0.02181735448539257,
      -0.00020369887351989746,
      0.0279998779296875,
      0.015521124005317688,
      0.02982305735349655,
      -0.021927762776613235,
      0.0011337995529174805,
      0.0068683922290802,
      0.004632953554391861,
      0.0008787065744400024,
      -0.0027626845985651016,
      0.0013519208878278732,
      0.0023213140666484833,
      0.0009887367486953735,
      0.017017384991049767,
      0.001681104302406311,
      0.02982865832746029,
      0.011553946882486343,
      0.0003265589475631714,
      -0.028487108647823334,
      -0.02881225198507309,
      0.030017197132110596,
      -0.02104219701141119,
      -0.028755657374858856,
      0.02989266812801361,
      0.00010322034358978271,
      -0.029027780517935753,
      0.0008148550987243652,
      0.02440163679420948,
      0.029609404504299164,
      0.0296921543776989,
      0.0011132732033729553,
      0.000983119010925293,
      -0.018561169505119324,
      0.0004627406597137451,
      -0.00048778951168060303,
      0.0001880936324596405,
      -0.001110117882490158,
      -0.0003228187561035156,
      -0.00038579851388931274,
      -3.357231616973877e-05,
      -0.00015468522906303406,
      0.0004285871982574463,
      0.000367727130651474,
      -0.0002893209457397461,
      -0.0006416961550712585,
      0.0001698806881904602,
      0.0004901504144072533,
      0.002040613442659378,
      0.0009204298257827759,
      0.00020472705364227295,
      0.0008692815899848938,
      -0.0014420785009860992,
      -9.496137499809265e-05,
      -0.0005782395601272583,
      -0.0007010474801063538,
      0.00011663883924484253,
      -0.012067511677742004,
      2.577155828475952e-05,
      -0.0009251907467842102,
      -0.0018418580293655396,
      -0.0004277229309082031,
      -0.00020870938897132874,
      -0.00013241171836853027,
      0.00016843527555465698,
      -0.028682686388492584,
      -0.029927615076303482,
      -0.029181592166423798,
      -0.0288710817694664,
      -0.028998494148254395,
      0.013462373055517673,
      -0.007873870432376862,
      0.029014170169830322,
      -0.029438331723213196,
      -0.00018692202866077423,
      -6.254855543375015e-05,
      1.1941418051719666e-05,
      0.029114335775375366,
      0.01447566132992506,
      0.016147540882229805,
      -0.0072999997064471245,
      -0.0027958452701568604,
      0.0001480206847190857,
      0.0003070533275604248,
      -0.00021857768297195435,
      -0.030036577954888344,
      -0.0001799231395125389,
      3.241002559661865e-05,
      -0.029852292500436306,
      -0.02986830100417137,
      0.00013140961527824402,
      -1.0664574801921844e-05,
      -0.0296745914965868,
      -0.029294349253177643,
      -0.004250526428222656,
      0.001437552273273468,
      0.013112880289554596,
      -0.00033687055110931396,
      0.016801568679511547,
      -0.024637117981910706,
      0.00043411552906036377,
      0.029271960258483887,
      -0.029426299035549164,
      -0.012172594666481018,
      -0.029655136168003082,
      0.02975473552942276,
      -0.02677389234304428,
      -0.029194775968790054,
      -0.028601743280887604,
      -0.029346324503421783,
      -0.029064349830150604,
      -0.027249343693256378,
      0.000292263925075531,
      0.0006137415766716003,
      -0.028998635709285736,
      -0.027928529307246208,
      0.002154286950826645,
      0.00030396878719329834,
      -0.02952052652835846,
      0.00021325517445802689,
      -6.0576945543289185e-05,
      0.013729903846979141,
      -0.02538200095295906,
      -0.028564393520355225,
      0.0032955631613731384,
      0.00010690093040466309,
      0.0005056038498878479,
      -0.029407736845314503,
      -0.028315018862485886,
      0.0008267927914857864,
      -6.029754877090454e-05,
      -0.00472627580165863,
      0.029837094247341156,
      0.0002269931137561798,
      0.0005825012922286987,
      0.02784135565161705,
      0.0011021792888641357,
      -4.587788134813309e-05,
      -0.001063227653503418,
      0.0027907006442546844,
      0.0037263408303260803,
      0.0007099471986293793,
      0.0034529278054833412,
      0.000672265887260437,
      0.029918398708105087,
      0.029723837971687317,
      0.0008959174156188965,
      -0.023226946592330933,
      -0.02730127889662981,
      0.028728164732456207,
      -0.02188492938876152,
      -0.028808489441871643,
      0.029902838170528412,
      -0.00013913214206695557,
      -0.028431590646505356,
      0.0008464455604553223,
      -0.023517169058322906,
      0.02987702190876007,
      0.029807372018694878,
      0.0009600557386875153,
      0.004124745726585388,
      -0.026904288679361343,
      0.0003691166639328003,
      0.030026942491531372,
      0.0295576062053442,
      -9.655766189098358e-05,
      0.0001813843846321106,
      7.952749729156494e-05,
      0.000234140083193779,
      0.000142756849527359,
      -0.01051703467965126,
      0.0002761753275990486,
      0.0005489587783813477,
      0.0001593995839357376,
      0.0021140649914741516,
      -0.00016231834888458252,
      0.02982897311449051,
      0.029597990214824677,
      -0.0002573709934949875,
      -0.0002732612192630768,
      -0.013583033345639706,
      0.02997777611017227,
      0.00043427757918834686,
      -0.01666117087006569,
      0.029839269816875458,
      0.00026605650782585144,
      -0.009103523567318916,
      0.0005402117967605591,
      -0.014380700886249542,
      0.029812145978212357,
      0.03003925457596779,
      0.000258028507232666,
      0.004693023860454559,
      -0.02819889411330223,
      0.0009660050272941589,
      0.02991272509098053,
      0.029594523832201958,
      0.00036722421646118164,
      -8.787959814071655e-06,
      0.029869839549064636,
      5.29363751411438e-06,
      -3.403797745704651e-05,
      -0.028015246614813805,
      -0.0006746798753738403,
      0.0007975790649652481,
      -2.452544867992401e-05,
      0.0004098564386367798,
      0.0017763040959835052,
      0.029925547540187836,
      0.029536204412579536,
      -0.02230082079768181,
      -0.00018790364265441895,
      -0.018980993423610926,
      0.029732340946793556,
      -0.0006694868206977844,
      -0.029706735163927078,
      0.029157275334000587,
      0.0001833094283938408,
      -0.02688588574528694,
      0.0008719414472579956,
      -2.3931264877319336e-05,
      0.029892340302467346,
      0.0295316269621253,
      0.0001570042222738266,
      0.015171775594353676,
      -0.02763887494802475,
      -0.0012902170419692993,
      -0.01714280992746353,
      -0.016539469361305237,
      -0.016148515045642853,
      -0.012439405545592308,
      -0.017111413180828094,
      -0.01251239888370037,
      0.010806545615196228,
      -0.012282032519578934,
      -0.012555435299873352,
      -0.012334181927144527,
      -0.012465767562389374,
      -0.012599222362041473,
      -0.011814828030765057,
      -0.016922615468502045,
      -0.016711995005607605,
      -0.012601446360349655,
      -0.011965707875788212,
      -0.027917541563510895,
      -0.0173121839761734,
      -0.012768015265464783,
      -0.008788451552391052,
      -0.017196557484567165,
      -0.017357702367007732,
      -0.012213371694087982,
      -0.013074219226837158,
      -0.011689221486449242,
      -0.016982965171337128,
      -0.0165974460542202,
      -0.012706705369055271,
      -0.015914052724838257,
      0.012152090668678284,
      3.450736403465271e-05,
      0.028252724558115005,
      0.02939185779541731,
      9.582936763763428e-05,
      -0.00019700825214385986,
      0.02955470234155655,
      -8.233636617660522e-05,
      -6.844848394393921e-05,
      -9.851157665252686e-05,
      -0.002097753807902336,
      0.00189115758985281,
      -0.00010675936937332153,
      -7.614493370056152e-06,
      0.00036294758319854736,
      0.029833897948265076,
      0.004064135253429413,
      -0.01610281690955162,
      -0.0009507983922958374,
      -0.024479232728481293,
      0.029984518885612488,
      -0.00017421692609786987,
      -0.029693344607949257,
      0.028430111706256866,
      -0.00011250562965869904,
      -0.02984755113720894,
      -0.0008492618799209595,
      0.0006820466369390488,
      0.028846241533756256,
      0.02990578766912222,
      -0.00037798285484313965,
      0.010990943759679794,
      -0.01969078928232193,
      0.020297343842685223,
      0.004588581621646881,
      0.00405360572040081,
      0.004406081512570381,
      -0.025426854379475117,
      0.004152946174144745,
      -0.02556710410863161,
      0.02039666473865509,
      -0.008739903569221497,
      -0.02503487467765808,
      -0.026050247251987457,
      -0.025562159717082977,
      -0.025020532310009003,
      -0.026325395330786705,
      0.00463501363992691,
      0.004606194794178009,
      -0.02531118504703045,
      -0.025472193956375122,
      -0.022209936752915382,
      0.0033947378396987915,
      -0.009857617318630219,
      -0.026566323824226856,
      0.0034413933753967285,
      0.0035982057452201843,
      -0.027401954866945744,
      -0.025192990899086,
      0.0017559453845024109,
      0.003940992057323456,
      0.004675243049860001,
      -0.025429002940654755,
      -0.00977383367717266,
      -0.007559694349765778,
      0.029544183984398842,
      0.00022891908884048462,
      0.000527065247297287,
      0.029270634055137634,
      -0.029239825904369354,
      -0.00020043551921844482,
      -0.021260490640997887,
      0.029803335666656494,
      0.00037366151809692383,
      0.01306181401014328,
      0.0015083886682987213,
      -0.02957964688539505,
      -0.01287921518087387,
      0.006316706538200378,
      0.0005045495927333832,
      0.0006002485752105713,
      0.008055098354816437,
      0.008234083652496338,
      0.02760692685842514,
      0.0016572251915931702,
      -0.02327723614871502,
      0.029329631477594376,
      0.002868790179491043,
      0.02965470775961876,
      0.0019596144556999207,
      -0.02214786969125271,
      0.029153063893318176,
      0.0032856203615665436,
      0.0004653222858905792,
      -0.027650542557239532,
      -0.000155523419380188,
      0.02973351627588272,
      -0.028893571346998215,
      -0.012930190190672874,
      -0.011437974870204926,
      0.0003528669476509094,
      0.028176800347864628,
      -0.013494633138179779,
      -0.02741481363773346,
      0.0005702637135982513,
      0.029752478003501892,
      0.02959519624710083,
      0.025469844229519367,
      0.029727784916758537,
      0.026559196412563324,
      0.0025530830025672913,
      0.00034831464290618896,
      -0.028062134981155396,
      0.029869556427001953,
      0.02991717029362917,
      0.0008496567606925964,
      4.839245229959488e-05,
      0.029334470629692078,
      0.029986154288053513,
      0.0002159997820854187,
      -1.519918441772461e-06,
      0.02996746450662613,
      0.016265682876110077,
      8.854269981384277e-05,
      0.0006975084543228149,
      -0.007142603397369385,
      0.029554031789302826,
      -0.0002937912940979004,
      0.02976023405790329,
      -0.00045744888484477997,
      -0.010335266590118408,
      -0.02909292746335268,
      4.573166370391846e-05,
      0.00042290613055229187,
      -0.026652391999959946,
      0.0002646110951900482,
      8.890032768249512e-05,
      0.01641884446144104,
      0.02991076186299324,
      -6.973743438720703e-06,
      0.0004431009292602539,
      0.0005603581666946411,
      0.0039508044719696045,
      -0.029258035123348236,
      -0.027449977584183216,
      0.029985865578055382,
      0.001581147313117981,
      0.022348164580762386,
      -0.029192887246608734,
      -3.63960862159729e-05,
      0.03002592921257019,
      -0.029579035937786102,
      3.479421138763428e-05,
      0.030023403465747833,
      0.00017776712775230408,
      0.027197398245334625,
      -0.028831034898757935,
      -0.029279209673404694,
      0.0002966150641441345,
      -1.3767741620540619e-05,
      0.029672639444470406,
      -0.0003614034503698349,
      -0.017579570412635803,
      -0.026152417063713074,
      -0.02669551409780979,
      0.0006403177976608276,
      -0.02865733951330185,
      0.0005784817039966583,
      -0.00020685046911239624,
      0.0007914891466498375,
      0.0012943753972649574,
      0.0011985749006271362,
      0.0008267853409051895,
      0.0009763911366462708,
      0.0020461305975914,
      -0.02889654040336609,
      -0.028440114110708237,
      0.0005399361252784729,
      0.003161899745464325,
      -0.005956980399787426,
      -0.029449857771396637,
      0.0002847909927368164,
      0.0174635648727417,
      -0.029386691749095917,
      -0.029890534467995167,
      0.0011281222105026245,
      -2.3594126105308533e-05,
      -0.012872979044914246,
      -0.028378315269947052,
      -0.028425566852092743,
      0.0009509492665529251,
      -0.010308489203453064,
      0.02979293465614319,
      0.02937849424779415,
      0.02926689386367798,
      0.028907500207424164,
      0.029629424214363098,
      -0.02764618769288063,
      0.0017147399485111237,
      -0.02862110547721386,
      0.02924094721674919,
      0.0009026043117046356,
      -0.011310428380966187,
      -0.021325260400772095,
      -0.028286248445510864,
      -0.025607749819755554,
      -0.020605646073818207,
      0.00252571702003479,
      0.015109479427337646,
      0.00017750263214111328,
      0.000824853777885437,
      0.010493184439837933,
      0.0004513431340456009,
      -4.92483377456665e-06,
      0.0007401853799819946,
      0.02741188369691372,
      0.029651397839188576,
      0.000782892107963562,
      -0.01287033036351204,
      0.029291674494743347,
      0.006021410226821899,
      0.00023652799427509308,
      -0.025051340460777283,
      0.0282701775431633,
      0.002946849912405014,
      0.001036863774061203,
      0.0002189837396144867,
      0.00015649199485778809,
      0.02986997365951538,
      -0.02953931875526905,
      0.00021606683731079102,
      -0.02903570979833603,
      0.01450829952955246,
      -0.015078933909535408,
      -0.02771053835749626,
      -0.027507849037647247,
      -0.028951620683073997,
      -0.029007017612457275,
      -0.020508363842964172,
      0.0003663748502731323,
      0.00029720738530158997,
      -5.494803190231323e-05,
      -0.02809807751327753,
      0.0088117104023695,
      0.00262619461864233,
      -0.029121797531843185,
      5.950033664703369e-05,
      8.67992639541626e-05,
      0.02985216211527586,
      0.00012121349573135376,
      -0.027522670105099678,
      0.029128143563866615,
      0.0014120601117610931,
      0.0006888099014759064,
      -0.029369044117629528,
      -0.022038694471120834,
      0.0016824081540107727,
      -8.232519030570984e-05,
      0.0032516568899154663,
      0.001354895532131195,
      -0.028532102704048157,
      0.03001556731760502,
      0.003455415368080139,
      0.029872381128370762,
      -0.028802651911973953,
      0.029326748102903366,
      0.029589993879199028,
      0.029821693897247314,
      0.029994413256645203,
      0.029415801167488098,
      -0.018744289875030518,
      0.0012408439069986343,
      0.0017302744090557098,
      0.006934673525393009,
      0.004972152411937714,
      -0.02829575538635254,
      0.001424245536327362,
      0.029957212507724762,
      -0.019187215715646744,
      0.0009512864053249359,
      -0.026253443211317062,
      0.0056842658668756485,
      0.028948920778930187,
      -0.025494329631328583,
      0.0008581206202507019,
      0.0016926415264606476,
      0.029555278830230236,
      0.0056346021592617035,
      -0.02372196689248085,
      -4.509463906288147e-05,
      0.0298536978662014,
      -0.0007103318348526955,
      -8.284300565719604e-05,
      0.029391441494226456,
      -0.026121005415916443,
      0.004845844581723213,
      0.00012071244418621063,
      0.029983356595039368,
      0.007264981511980295,
      0.029462076723575592,
      0.004945449531078339,
      0.029280230402946472,
      0.015006989240646362,
      -0.02249341458082199,
      0.0025180596858263016,
      0.029925530776381493,
      0.015498246997594833,
      0.021867986768484116,
      -6.736069917678833e-05,
      0.02984815090894699,
      0.006164968013763428,
      0.00027142465114593506,
      0.0016467198729515076,
      0.029408589005470276,
      0.02990297507494688,
      0.00016612932085990906,
      -2.1062791347503662e-05,
      -0.02699558436870575,
      0.02927638776600361,
      0.016391878947615623,
      0.028989918529987335,
      0.0012965351343154907,
      0.001044727861881256,
      0.0002496391534805298,
      0.00011416152119636536,
      0.028646618127822876,
      -0.029447678476572037,
      0.0035523828119039536,
      0.00016701966524124146,
      0.029584728181362152,
      0.02378256432712078,
      0.00321396067738533,
      0.00012074410915374756,
      -0.0002722106873989105,
      0.0013579130172729492,
      0.0020751580595970154,
      0.0014766054227948189,
      0.014131740434095263,
      0.002624363638460636,
      0.000564921647310257,
      0.0007604882121086121,
      0.0005639735609292984,
      0.002154918387532234,
      0.0017687464132905006,
      0.02933444082736969,
      0.009146978612989187,
      5.882233381271362e-05,
      -0.00031149014830589294,
      -0.027153924107551575,
      -0.0009804992005228996,
      -0.016635630279779434,
      4.737824201583862e-05,
      0.011258497834205627,
      -0.02832657378166914,
      -0.02884557843208313,
      -0.029030917212367058,
      0.00035696011036634445,
      0.029516935348510742,
      -0.026488296687602997,
      -8.194148540496826e-05,
      0.0008123833686113358,
      0.0290110120549798,
      0.026774991303682327,
      0.003948122262954712,
      -2.750009298324585e-05,
      0.01316455751657486,
      0.003515280783176422,
      -0.012669849209487438,
      -0.029172416776418686,
      0.015545710921287537,
      0.008720070123672485,
      0.0005728155374526978,
      -0.0016232989728450775,
      0.001000523567199707,
      0.029386386275291443,
      -0.029615718871355057,
      3.546103835105896e-05,
      0.029934330843389034,
      0.007145896553993225,
      0.0008166031911969185,
      -0.013079620897769928,
      -0.02953752875328064,
      0.027980949729681015,
      0.0012811794877052307,
      0.003980018198490143,
      -0.029466064646840096,
      -0.015165463089942932,
      -0.004916109144687653,
      -0.028862595558166504,
      0.0022412315011024475,
      9.182840585708618e-05,
      0.0005367957055568695,
      -0.02939935401082039,
      0.00010799616575241089,
      0.0015387507155537605,
      -0.0015635713934898376,
      0.029338069260120392,
      0.00018650386482477188,
      -0.025945080444216728,
      -0.029118619859218597,
      0.00026285089552402496,
      -0.009051656350493431,
      -0.02535758912563324,
      -0.028642095625400543,
      -0.029786430299282074,
      -7.762759923934937e-05,
      -0.02684688288718462,
      -0.028674276545643806,
      -0.029174979776144028,
      0.00129719078540802,
      0.007397152483463287,
      -0.02993594855070114,
      1.389719545841217e-05,
      -3.094971179962158e-05,
      0.0005821287631988525,
      -0.029474877752363682,
      -0.029687494039535522,
      -0.012113713659346104,
      -0.029055844992399216,
      -0.029196309857070446,
      -0.028805972076952457,
      0.0002585947513580322,
      -0.02943306975066662,
      0.00022859498858451843,
      3.679841756820679e-05,
      0.0010788459330797195,
      0.0001304522156715393,
      0.00010494422167539597,
      0.0003083031624555588,
      -0.00013760291039943695,
      0.0006417520344257355,
      -0.02952271420508623,
      -0.02932293713092804,
      3.411620855331421e-05,
      0.0003766920417547226,
      0.019736165180802345,
      -0.02970913052558899,
      -0.00017428211867809296,
      0.014946894720196724,
      -0.02984623983502388,
      -0.0298891831189394,
      0.0007307305932044983,
      -0.00028293952345848083,
      -0.00027348846197128296,
      -0.02956290263682604,
      -0.029565438628196716,
      4.600733518600464e-05,
      -0.0004830397665500641,
      0.02915465086698532
    ],
    [
      -0.025494580157101154,
      -0.013936116360127926,
      -0.01925209630280733,
      0.0025029685348272324,
      0.0010228725150227547,
      0.02775827795267105,
      -0.029128910042345524,
      -0.0006921524181962013,
      6.165076047182083e-05,
      0.02971743233501911,
      0.005987977609038353,
      -9.04398038983345e-05,
      -0.000933576375246048,
      -0.027737419120967388,
      0.00572065357118845,
      0.001849043183028698,
      0.013420240953564644,
      -0.027669108472764492,
      0.0025141648948192596,
      -0.019085504114627838,
      0.0053006736561656,
      0.0008785706013441086,
      0.0025025829672813416,
      0.00023940857499837875,
      0.027628904208540916,
      -0.02041899459436536,
      0.0037040114402770996,
      0.029556605964899063,
      0.0009818701073527336,
      0.0016275271773338318,
      -0.028709985315799713,
      -0.0012679100036621094
    ],
    [
      -0.026842491701245308,
      -0.02694518491625786,
      0.00030201300978660583,
      -0.0029966216534376144,
      0.0016010776162147522,
      0.02894046064466238,
      -0.0001085326075553894,
      -0.023854926228523254,
      0.013125335797667503,
      -0.030043870210647583,
      -0.010631214827299118,
      -0.00041946209967136383,
      -0.00012193620204925537,
      -0.0247688926756382,
      -0.016236618161201477,
      -0.028385460376739502,
      0.0026665925979614258,
      -0.027288159355521202,
      -0.02720685675740242,
      -0.02148410491645336,
      0.017612451687455177,
      0.027841083705425262,
      -0.026200883090496063,
      -0.029487065970897675,
      0.00170923862606287,
      -0.019446194171905518,
      -0.008979752659797668,
      -3.935396671295166e-05,
      0.02875824272632599,
      0.028939366340637207,
      0.028615694493055344,
      -0.02946913242340088
    ],
    [
      -0.013489252654835582
    ]
  ],
  "num_updates": 2,
  "client_ids": [
    "client-1",
    "client-2"
  ],
  "mean_final_loss": 9.042114496231079,
  "aggregation_timestamp": 1784209215.8618407
}