{
  "version": "v81",
  "base_version": "v80",
  "round_id": 94,
  "aggregation": "fedavg",
  "averaged_weight_delta": [
    [
      -0.02974449098110199,
      -0.002923347055912018,
      -0.0014937818050384521,
      -0.02974074427038431,
      -0.029742898419499397,
      -0.02844821661710739,
      -0.024609006941318512,
      -6.843358278274536e-05,
      -0.02976835146546364,
      -0.00011163204908370972,
      0.026991067454218864,
      -0.0019998475909233093,
      0.028336593881249428,
      0.028412824496626854,
      0.02892903983592987,
      0.013630880042910576,
      0.027812473475933075,
      0.0029452070593833923,
      0.018482275307178497,
      0.029505275189876556,
      -0.029529228806495667,
      -0.02892191708087921,
      -0.028989672660827637,
      -0.0036015063524246216,
      -0.028893515467643738,
      -0.021571610122919083,
      -0.02904987335205078,
      -0.028332402929663658,
      -0.02964274026453495,
      -0.002573341131210327,
      0.0070172082632780075,
      0.002129167318344116,
      0.029253914952278137,
      0.017003187909722328,
      0.0008710622787475586,
      0.02760498970746994,
      0.001256689429283142,
      -0.021901236847043037,
      0.0009433925151824951,
      0.028129808604717255,
      7.326994091272354e-05,
      4.7087669372558594e-05,
      0.0009634336456656456,
      -7.81770795583725e-05,
      0.000330902636051178,
      -4.330277442932129e-05,
      0.0010419674217700958,
      0.001540839672088623,
      3.1692907214164734e-05,
      0.029814865440130234,
      0.008469894528388977,
      0.004267081618309021,
      0.029449190944433212,
      -0.009477678686380386,
      0.029305052012205124,
      0.03002498671412468,
      0.01742471009492874,
      0.02923861611634493,
      0.005663827061653137,
      0.019918184727430344,
      0.0033519230782985687,
      0.029426462948322296,
      0.015274576842784882,
      5.540996789932251e-05,
      0.000971280038356781,
      -1.3016164302825928e-05,
      0.028613179922103882,
      0.029593143612146378,
      0.029872596263885498,
      -0.014445198699831963,
      0.02981509640812874,
      0.013352539390325546,
      0.02984689176082611,
      -0.0008965320885181427,
      0.02944767475128174,
      0.029673799872398376,
      0.029604492709040642,
      0.003992434591054916,
      0.029885604977607727,
      0.029930660501122475,
      -3.931019455194473e-05,
      -0.00042633339762687683,
      -0.021127067506313324,
      -0.0008717905730009079,
      -0.0017183870077133179,
      0.0012798383831977844,
      -0.0007343441247940063,
      0.001133561134338379,
      -0.020456149242818356,
      -0.02914031594991684,
      -0.0003439784049987793,
      -0.01966475462540984,
      -0.00039359182119369507,
      0.001702919602394104,
      -0.0010707862675189972,
      -0.02730125281959772,
      -0.001070098951458931,
      0.02898712083697319,
      -0.0005904734134674072,
      -0.00027827173471450806,
      -0.0002648327499628067,
      -0.0001651570200920105,
      -0.005563370883464813,
      -0.0031136032193899155,
      -0.02891469094902277,
      0.004459261894226074,
      -0.0015013627707958221,
      -0.0070261359214782715,
      -0.002468694932758808,
      -0.028963297605514526,
      -0.0288076251745224,
      -0.02897336333990097,
      -0.029649388045072556,
      -0.026272373273968697,
      -0.029477501288056374,
      -0.029456189833581448,
      -0.029682770371437073,
      -0.029240049421787262,
      -0.029529303312301636,
      -0.026949098333716393,
      -0.029876787215471268,
      -0.0292870681732893,
      -0.029941722750663757,
      -0.030013330280780792,
      -0.029628708958625793,
      -0.026167500764131546,
      -0.029919616878032684,
      -0.027354523539543152,
      -0.029965907335281372,
      -0.02965763583779335,
      -0.029217563569545746,
      -0.017377212643623352,
      -0.029965564608573914,
      -0.019655738025903702,
      -0.029402123764157295,
      -0.029190540313720703,
      -0.029559701681137085,
      -0.0278005450963974,
      -0.02995689958333969,
      -0.029787536710500717,
      -3.98978590965271e-05,
      7.137656211853027e-06,
      -0.01223205029964447,
      1.0184943675994873e-05,
      -0.0006551966071128845,
      -0.027552932500839233,
      -0.00028626713901758194,
      -0.014720462262630463,
      -0.00051884725689888,
      -2.4354085326194763e-05,
      -0.0007667392492294312,
      -0.0003283172845840454,
      -0.0001501934602856636,
      -0.00035188905894756317,
      -0.00019106268882751465,
      6.935745477676392e-05,
      -0.00017937272787094116,
      0.029626271687448025,
      -0.0003926120698451996,
      -0.02918466180562973,
      -0.029249906539916992,
      -0.029637999832630157,
      -0.02931339666247368,
      -0.029667191207408905,
      -0.02946593053638935,
      0.0006830506026744843,
      -0.029504604637622833,
      -0.029628212563693523,
      -0.029430163092911243,
      -0.0008276291191577911,
      0.016702257096767426,
      0.009730391204357147,
      0.028452258557081223,
      0.010617457330226898,
      0.029768116772174835,
      0.0008838661015033722,
      0.027925454080104828,
      0.0012789051979780197,
      0.014124878216534853,
      0.0006284601986408234,
      -0.012041563168168068,
      -0.0002905111759901047,
      -0.028626367449760437,
      0.028890445828437805,
      -0.027804010547697544,
      -0.028864972293376923,
      -0.0008251294493675232,
      -0.020228328183293343,
      -0.0003116084262728691,
      0.008618167601525784,
      -0.024731723591685295,
      0.009652584791183472,
      0.00029704347252845764,
      0.01806759648025036,
      0.0029243305325508118,
      -0.026407044380903244,
      -0.0038906484842300415,
      0.0005731815472245216,
      0.008105906657874584,
      -0.0012672245502471924,
      0.0022872984409332275,
      0.010989204049110413,
      -9.80626791715622e-05,
      0.0068848952651023865,
      0.001876533031463623,
      0.0007579810917377472,
      0.028980212286114693,
      0.013983592391014099,
      0.007992073893547058,
      0.0027955472469329834,
      -0.029494736343622208,
      -0.028522655367851257,
      -0.028362879529595375,
      -0.028406918048858643,
      -0.027764305472373962,
      -0.0006065294146537781,
      -0.02927359938621521,
      -0.02851167321205139,
      -0.029689556919038296,
      -0.013124674558639526,
      -0.018160457722842693,
      0.0045625269412994385,
      0.009534932672977448,
      -0.022554602473974228,
      -0.02678842842578888,
      -0.022173091769218445,
      0.0016184747219085693,
      -0.007102292031049728,
      -0.005255550146102905,
      0.007620558142662048,
      0.029751595109701157,
      0.02964472956955433,
      0.029649026691913605,
      0.01766274869441986,
      0.02991383522748947,
      0.0028524249792099,
      0.029499739408493042,
      0.0007673315703868866,
      0.029644865542650223,
      0.012244891375303268,
      0.00040211528539657593,
      -0.00023856759071350098,
      0.00010979175567626953,
      -9.487941861152649e-05,
      0.012751687318086624,
      -0.00026883184909820557,
      -0.0009428784251213074,
      -0.007405512034893036,
      -0.0001800432801246643,
      0.02520715445280075,
      -0.02947767823934555,
      -0.007721990346908569,
      -0.028331704437732697,
      -0.028644315898418427,
      -0.02925625443458557,
      -0.02870367467403412,
      -0.028557095676660538,
      -0.029771044850349426,
      -0.01728365570306778,
      -0.029004981741309166,
      0.0011474639177322388,
      0.02051183581352234,
      0.02582465671002865,
      0.015841952292248607,
      4.810839891433716e-05,
      8.657574653625488e-06,
      0.00036894530057907104,
      0.029694420285522938,
      3.406405448913574e-05,
      0.0006026029586791992,
      0.027859298512339592,
      0.02929435670375824,
      0.0274156853556633,
      -0.006153464317321777,
      0.023350559175014496,
      0.027078691869974136,
      0.028575697913765907,
      0.026698604226112366,
      0.028549368493258953,
      0.029077179729938507,
      -0.029360204935073853,
      -0.0296123456209898,
      -0.009241465479135513,
      0.011987760663032532,
      -0.005129411816596985,
      -0.029315296560525894,
      -0.02829866111278534,
      -0.027652952820062637,
      -0.02979278564453125,
      -0.028926916420459747,
      0.00025428086519241333,
      0.0016804197803139687,
      -0.0004698950797319412,
      0.00023304671049118042,
      -0.00036066025495529175,
      -0.026778072118759155,
      7.618684321641922e-05,
      -0.0013305656611919403,
      0.0005299616605043411,
      0.0002931375056505203,
      -0.00020285695791244507,
      -0.00031863898038864136,
      -6.273016333580017e-05,
      0.02813965454697609,
      -0.00047247111797332764,
      0.0005577253177762032,
      -0.00020197033882141113,
      -0.0001351684331893921,
      -0.00020291097462177277,
      9.464100003242493e-05,
      -9.712576866149902e-05,
      -2.1882355213165283e-05,
      0.00030313432216644287,
      -0.00012043118476867676,
      0.004465059377253056,
      -0.00024203956127166748,
      0.02700093388557434,
      0.00018412433564662933,
      0.012436429038643837,
      -0.006250323727726936
    ],
    [
      -0.012644661124795675,
      -0.020188720896840096,
      0.0008873157203197479,
      0.003638613037765026,
      0.004460269585251808,
      0.009303524624556303,
      0.009593045804649591,
      0.0029614409431815147,
      0.012417308054864407,
      0.029601656831800938,
      -0.022185050882399082,
      -0.011678325477987528,
      0.0010195141658186913,
      0.029991183429956436,
      0.0003736428916454315,
      1.5808269381523132e-05,
      0.029507286846637726,
      -0.026245931163430214,
      0.0007146857678890228,
      0.00020235590636730194,
      -0.01925442460924387,
      0.02900693006813526,
      0.002711251378059387,
      -0.02461383957415819,
      0.028423023410141468,
      0.0004363786429166794,
      0.0017105396836996078,
      -0.0010555516928434372,
      -0.0010787490755319595,
      -0.01887758309021592,
      -0.028531696647405624,
      -0.0009531266987323761
    ],
    [
      0.00038964301347732544,
      0.029779059812426567,
      0.00024621933698654175,
      -0.006526634097099304,
      -2.2664666175842285e-05,
      -0.029876336455345154,
      -0.02984989620745182,
      -0.029525185003876686,
      7.597729563713074e-06,
      1.268833875656128e-05,
      0.008827745914459229,
      -0.029609568417072296,
      0.016491763293743134,
      0.030038736760616302,
      -0.025375917553901672,
      0.008090656250715256,
      0.0009113773703575134,
      -0.00021476298570632935,
      0.0003081075847148895,
      -0.0003610476851463318,
      4.6584755182266235e-05,
      0.030007407069206238,
      -0.029808301478624344,
      -0.029297277331352234,
      4.470348358154297e-05,
      0.00031998008489608765,
      -0.00010162219405174255,
      -7.588416337966919e-05,
      0.00046614184975624084,
      -0.029826633632183075,
      0.004796203225851059,
      0.0023751184344291687,
      0.02969023957848549,
      0.029716018587350845,
      0.0007744953036308289,
      -0.0003282018005847931,
      -0.00011228770017623901,
      -0.022106189280748367,
      -0.029792584478855133,
      -0.007316850125789642,
      0.0004055500030517578,
      2.1904706954956055e-06,
      0.007441988214850426,
      -0.025041168555617332,
      0.02909746766090393,
      0.029517635703086853,
      -0.02812216430902481,
      0.028101995587348938,
      0.016644656658172607,
      0.02583758346736431,
      -3.3602118492126465e-06,
      0.002957995980978012,
      0.0001486716791987419,
      0.02993389219045639,
      -0.012408822774887085,
      0.00030526332557201385,
      0.029508898966014385,
      0.00024907663464546204,
      2.1360814571380615e-05,
      0.00013833679258823395,
      0.00953061506152153,
      -0.029479732736945152,
      0.017008692026138306,
      0.029147177934646606,
      0.001723259687423706,
      -0.00041772983968257904,
      0.0002128109335899353,
      -0.0018661022186279297,
      -9.519048035144806e-05,
      0.0003140680491924286,
      -0.0010490119457244873,
      -0.000681951642036438,
      0.024902256205677986,
      0.004787832498550415,
      0.0010301824659109116,
      0.003190736286342144,
      0.0005092546343803406,
      0.0002715401351451874,
      0.0037319809198379517,
      0.0027339234948158264,
      0.005258277058601379,
      0.029232367873191833,
      -0.0006153993308544159,
      -0.0003422200679779053,
      0.0003583841025829315,
      0.009709922596812248,
      0.0010513346642255783,
      -0.00017551518976688385,
      0.004224997013807297,
      0.0002191038802266121,
      -0.003867007791996002,
      -0.00032398104667663574,
      -0.0008010677993297577,
      -0.0063602253794670105,
      0.0030080899596214294,
      0.00011322274804115295,
      -0.029405593872070312,
      0.0004131607711315155,
      -0.029391832649707794,
      0.02747859340161085,
      -0.029655372723937035,
      -0.0015313401818275452,
      0.00010681059211492538,
      -0.000762157142162323,
      0.030012590810656548,
      0.02972119301557541,
      0.001769833266735077,
      -0.0006713345646858215,
      -0.01226806640625,
      0.0007150918245315552,
      0.029743626713752747,
      0.0005332166329026222,
      0.00027136504650115967,
      0.02969283238053322,
      -0.029290087521076202,
      0.029601000249385834,
      -0.028846273198723793,
      0.0009881816804409027,
      -0.000741615891456604,
      -0.014572575688362122,
      -0.0016207899898290634,
      -0.028333865106105804,
      0.02994350530207157,
      -0.02883978933095932,
      -0.028900716453790665,
      -0.00024022161960601807,
      -0.017554178833961487,
      -0.022724374197423458,
      -0.001259729266166687,
      -0.02949697896838188,
      0.0006699785590171814,
      0.0011655651032924652,
      -0.0002515967935323715,
      0.028111349791288376,
      0.02934432029724121,
      0.0003512892872095108,
      -0.0008131824433803558,
      -0.0008322745561599731,
      -0.012630674988031387,
      0.028822019696235657,
      -0.030033359304070473,
      -0.022367816418409348,
      -0.0008015036582946777,
      -0.02971307374536991,
      -0.00013319123536348343,
      -0.00011590123176574707,
      0.00014518387615680695,
      0.00037973374128341675,
      -4.677101969718933e-05,
      3.553926944732666e-06,
      0.029140367172658443,
      -0.0270431786775589,
      -0.028179618529975414,
      0.02956459578126669,
      -0.0004028342664241791,
      0.0005903095006942749,
      0.0008532889187335968,
      0.029779973439872265,
      -0.012927554547786713,
      -0.001282750628888607,
      -0.008741982281208038,
      0.0003925766795873642,
      -0.029574379324913025,
      0.02953343838453293,
      -0.029606640338897705,
      -0.012283075600862503,
      0.00011639297008514404,
      -0.001025281846523285,
      0.030034244060516357,
      0.029805692844092846,
      -0.0007221251726150513,
      8.288025856018066e-05,
      -0.00033132731914520264,
      0.0003967881202697754,
      0.014369094744324684,
      0.003131881356239319,
      0.0289129838347435,
      0.029391944408416748,
      -0.02969672530889511,
      0.029358229599893093,
      -0.029012066312134266,
      0.0001432672142982483,
      7.92723149061203e-05,
      0.014507077634334564,
      0.0008435435593128204,
      -0.02876390516757965,
      0.029918067157268524,
      -0.029317647218704224,
      -0.029066037386655807,
      -0.0001697838306427002,
      -0.01478896290063858,
      -0.00030978769063949585,
      0.0003399290144443512,
      -0.029513701796531677,
      0.00022272858768701553,
      0.02869220543652773,
      0.0010757744312286377,
      0.02978166937828064,
      0.030018717050552368,
      0.029340635985136032,
      6.872322410345078e-05,
      1.8049031496047974e-05,
      0.0008645188063383102,
      0.029972054064273834,
      -0.0012297239154577255,
      3.5896897315979004e-05,
      0.029574446380138397,
      -0.01003078743815422,
      0.0004451274871826172,
      0.0002964325249195099,
      0.00016811490058898926,
      0.028863899409770966,
      0.00025916844606399536,
      3.867782652378082e-05,
      0.02995232865214348,
      0.028899699449539185,
      -1.0682269930839539e-05,
      0.0002233162522315979,
      0.02788826823234558,
      0.00037711113691329956,
      0.00029922276735305786,
      0.029743585735559464,
      0.00039647892117500305,
      0.0006612055003643036,
      0.0001940988004207611,
      0.029615625739097595,
      0.0005189254879951477,
      -0.008098326623439789,
      -2.0693987607955933e-05,
      -0.0093441903591156,
      -0.020037353038787842,
      0.00020150095224380493,
      0.001900646835565567,
      0.009210951626300812,
      0.0011831168085336685,
      -0.017484174109995365,
      0.001353684812784195,
      0.029758453369140625,
      0.0006480887532234192,
      0.016800720244646072,
      0.028806760907173157,
      0.02965398132801056,
      0.000991716980934143,
      0.02871129661798477,
      0.00033392757177352905,
      0.029882200062274933,
      -0.02817809209227562,
      -0.0009760111570358276,
      0.029779180884361267,
      0.0004494078457355499,
      0.0016038734465837479,
      0.00013315677642822266,
      0.000753035768866539,
      -0.01663924753665924,
      0.00034632347524166107,
      0.0006227986887097359,
      5.1856040954589844e-05,
      0.029476499184966087,
      0.0002888813614845276,
      -0.029074817895889282,
      -0.0010388754308223724,
      -0.029902495443820953,
      -0.029768062755465508,
      -0.029933031648397446,
      2.931896597146988e-05,
      1.2859702110290527e-05,
      0.00047293491661548615,
      -0.029543302953243256,
      0.002827480435371399,
      0.0022695958614349365,
      -0.029383327811956406,
      -0.024054307490587234,
      0.0006476100534200668,
      -0.0004766732454299927,
      -0.0001439228653907776,
      -0.016602180898189545,
      0.00017274171113967896,
      0.0299995057284832,
      -0.0296943336725235,
      -0.029967479407787323,
      -0.00014737620949745178,
      -0.023664156906306744,
      -1.6294419765472412e-05,
      -9.126961231231689e-07,
      0.0002474728971719742,
      -0.029646653681993484,
      0.00015407055616378784,
      0.0003361627459526062,
      -0.026941154152154922,
      -0.02881849743425846,
      0.0009461119771003723,
      0.0008281972259283066,
      0.00010338239371776581,
      0.028979934751987457,
      0.029088720679283142,
      0.005270160734653473,
      -0.00035465508699417114,
      -0.012570081278681755,
      -0.012131568044424057,
      0.015381678938865662,
      8.635222911834717e-05,
      -0.029445309191942215,
      0.029328934848308563,
      -0.028850477188825607,
      -0.0013325251638889313,
      0.00035139918327331543,
      2.9636546969413757e-05,
      0.0006331577897071838,
      0.000445537269115448,
      -0.02061077393591404,
      0.02956702932715416,
      -0.014619559049606323,
      -0.018352173268795013,
      6.385147571563721e-05,
      7.241964340209961e-05,
      0.00029747188091278076,
      0.000579318031668663,
      0.02980027347803116,
      -0.02280385047197342,
      -0.016189072281122208,
      0.029428880661725998,
      -0.028813078999519348,
      0.0008886680006980896,
      0.028408396989107132,
      0.020439662039279938,
      0.02876589260995388,
      0.02866506576538086,
      0.028702731244266033,
      -0.001061888411641121,
      -0.001101851463317871,
      0.028004358522593975,
      0.028933297842741013,
      -0.0016730241477489471,
      -0.000717436894774437,
      0.028190284967422485,
      -0.02828083373606205,
      -0.0008185580372810364,
      -0.0008967742323875427,
      0.0009024664759635925,
      0.028306099586188793,
      0.0006477944552898407,
      -0.0009183138608932495,
      0.028850890696048737,
      0.027936376631259918,
      -0.018343999981880188,
      0.0008398182690143585,
      -0.0004535466432571411,
      0.000791691243648529,
      0.0005484558641910553,
      0.029143542051315308,
      -0.0003693504258990288,
      0.027366016060113907,
      -0.0012649362906813622,
      0.028552118688821793,
      0.00027335435152053833,
      -0.012967333197593689,
      -0.02541898563504219,
      -0.029666829854249954,
      -0.029339276254177094,
      -0.0010198764503002167,
      6.362143903970718e-05,
      0.00012343376874923706,
      -0.028473883867263794,
      -0.028873411938548088,
      0.0025355499237775803,
      0.00026444345712661743,
      -0.029503121972084045,
      0.005284691229462624,
      0.0007922947406768799,
      -0.0009614303708076477,
      0.0004061153158545494,
      -0.013306386768817902,
      0.0003815796226263046,
      0.0021372437477111816,
      -0.029077347368001938,
      -0.02695295587182045,
      -6.069056689739227e-05,
      0.0005331933498382568,
      -0.0007104631513357162,
      9.083747863769531e-05,
      0.00043976306915283203,
      -0.029228992760181427,
      0.0008640438318252563,
      -0.02671258430927992,
      0.009515645913779736,
      0.016157636418938637,
      0.0005889721214771271,
      -0.0017652064561843872,
      -0.001521371304988861,
      -0.0004016086459159851,
      -0.019183307886123657,
      4.617124795913696e-05,
      0.014963746070861816,
      0.014530360698699951,
      0.0010054558515548706,
      -0.014938339591026306,
      0.006091523915529251,
      0.0037845373153686523,
      0.0014126114547252655,
      0.028292642906308174,
      0.0004230514168739319,
      0.029483869671821594,
      0.0019104406237602234,
      0.029479049146175385,
      0.0003316029906272888,
      0.014915328472852707,
      -0.028714235872030258,
      -0.006174981594085693,
      -0.01312362402677536,
      0.00013561546802520752,
      0.02382645756006241,
      -0.0002539725974202156,
      0.002046532928943634,
      -0.01846279203891754,
      0.027635054662823677,
      0.027825049124658108,
      0.00035649538040161133,
      0.0004952400922775269,
      0.029677942395210266,
      -0.026262640953063965,
      0.0296563021838665,
      0.00022472813725471497,
      0.0001313239336013794,
      0.029902365058660507,
      -0.029469765722751617,
      -0.029639896005392075,
      -0.029010683298110962,
      0.0005821771919727325,
      -3.9674341678619385e-06,
      4.626251757144928e-05,
      -0.005266040563583374,
      6.183236837387085e-05,
      -0.027674973011016846,
      -0.029227085411548615,
      0.0298566035926342,
      -0.028865238651633263,
      0.029657889157533646,
      -0.025858735665678978,
      0.00040040910243988037,
      0.00034993141889572144,
      0.0006559491157531738,
      0.029668845236301422,
      -0.029274575412273407,
      0.029949426651000977,
      0.02631034329533577,
      0.0008268430829048157,
      -0.0003020418807864189,
      -0.01580173522233963,
      0.029370032250881195,
      0.0010697394609451294,
      0.029795527458190918,
      -0.027720006182789803,
      0.029953697696328163,
      7.605552673339844e-05,
      -0.00040963292121887207,
      0.02990006748586893,
      -0.029712259769439697,
      -0.029997896403074265,
      6.974488496780396e-05,
      0.00027229636907577515,
      0.00027556251734495163,
      0.0023312121629714966,
      0.004201228730380535,
      5.545467138290405e-05,
      -0.028511833399534225,
      0.0005882531404495239,
      0.029727942310273647,
      -0.026774751022458076,
      0.029731154441833496,
      0.00016261637210845947,
      -5.347654223442078e-06,
      -0.024341555312275887,
      0.012122124433517456,
      0.029731594026088715,
      -0.02840573713183403,
      0.029972359538078308,
      0.029750291258096695,
      0.0003798380494117737,
      0.0006592869758605957,
      0.0003413558006286621,
      -0.01095939427614212,
      0.00033938605338335037,
      0.029901426285505295,
      -0.028368379920721054,
      0.0296788290143013,
      0.0010321252048015594,
      -4.0436163544654846e-05,
      0.028553228825330734,
      -0.029671944677829742,
      -0.02914043329656124,
      -0.02866733819246292,
      0.0001886710524559021,
      0.02862618863582611,
      0.0003563202917575836,
      0.0003458671271800995,
      -0.00047035515308380127,
      -0.028677746653556824,
      -0.016229371540248394,
      0.029831629246473312,
      -0.026760563254356384,
      0.02959626168012619,
      -0.029530733823776245,
      0.00023566558957099915,
      -0.029468698427081108,
      -0.0286354199051857,
      0.02950761653482914,
      -0.0288967527449131,
      0.02984943985939026,
      0.011330187320709229,
      0.0005218014121055603,
      0.016489610075950623,
      0.005493082106113434,
      0.02919100783765316,
      0.012563123367726803,
      -0.0010428056120872498,
      0.029881644994020462,
      -0.0008864104747772217,
      -0.00038196519017219543,
      0.0011944901198148727,
      -0.00019398890435695648,
      0.029666132293641567,
      0.029505617916584015,
      0.01259884238243103,
      6.3516199588775635e-06,
      0.0017282217741012573,
      0.023733293637633324,
      0.02931402251124382,
      0.02968428283929825,
      0.030005209147930145,
      0.02993672341108322,
      -0.0021118074655532837,
      0.02957361936569214,
      -0.011405916884541512,
      0.02957453578710556,
      0.000211264006793499,
      0.029578106477856636,
      0.02978585660457611,
      0.0027455389499664307,
      0.02967613935470581,
      -0.007783863693475723,
      -0.0015233829617500305,
      0.0001415461301803589,
      0.029634276404976845,
      0.02926783263683319,
      0.02859044075012207,
      0.029883593320846558,
      0.000618666410446167,
      -0.00012962520122528076,
      0.003025822341442108,
      -0.00034961476922035217,
      -0.029209066182374954,
      0.0004046037793159485,
      -9.73045825958252e-06,
      -5.5924057960510254e-05,
      0.0036646202206611633,
      -0.028631702065467834,
      0.029699139297008514,
      0.029942940920591354,
      0.01712159439921379,
      0.0269103292375803,
      0.0007074587047100067,
      0.029689479619264603,
      0.011633336544036865,
      0.02986571006476879,
      0.0002425108104944229,
      0.029829680919647217,
      -0.02850551623851061,
      -8.90195369720459e-05,
      0.029557883739471436,
      0.001819111406803131,
      -4.7516077756881714e-05,
      0.00048335082828998566,
      0.029359951615333557,
      -0.029597073793411255,
      0.02994949370622635,
      0.007132356986403465,
      0.028785645961761475,
      0.029975101351737976,
      0.029362425208091736,
      0.0005530267953872681,
      0.015185188502073288,
      -0.028086340054869652,
      -0.013490123674273491,
      -0.010613642632961273,
      0.0013333484530448914,
      0.004449270665645599,
      0.025850072503089905,
      -0.022164352238178253,
      0.029477789998054504,
      0.029895512387156487,
      -0.0008123535662889481,
      0.011797480285167694,
      0.0016205720603466034,
      0.000460013747215271,
      0.02858803141862154,
      0.0005991999059915543,
      0.000682927668094635,
      0.00044417381286621094,
      -0.028475197032094002,
      0.00037739239633083344,
      0.015375039947684854,
      0.015433823689818382,
      0.00035439617931842804,
      0.0005442500114440918,
      0.030022379010915756,
      0.00025879964232444763,
      0.02939402125775814,
      0.029407717287540436,
      4.853680729866028e-05,
      -0.029385961592197418,
      -4.6504661440849304e-05,
      0.006853964179754257,
      2.3953616619110107e-06,
      0.02991742268204689,
      0.029873769730329514,
      0.029584288597106934,
      6.794184446334839e-05,
      4.6448782086372375e-05,
      -0.02598907332867384,
      0.02981565799564123,
      -0.006075549870729446,
      -0.02978130243718624,
      0.002410147339105606,
      -0.028751295059919357,
      -0.0008302181959152222,
      0.00048726610839366913,
      -0.00022727623581886292,
      0.0039957500994205475,
      2.1198764443397522e-05,
      -0.029436808079481125,
      0.029843483120203018,
      0.01556359976530075,
      -0.029371689073741436,
      -0.0001441463828086853,
      0.0003309175372123718,
      8.898228406906128e-05,
      5.871802568435669e-05,
      0.029789619147777557,
      -0.0004437752068042755,
      0.00025510136038064957,
      0.00475071556866169,
      0.029557757079601288,
      0.0007717851549386978,
      -0.002454834058880806,
      -0.0004711616784334183,
      -0.027979806065559387,
      -0.02901032567024231,
      -0.029170874506235123,
      7.099658250808716e-05,
      0.018388872500509024,
      0.004390686750411987,
      -0.0017760097980499268,
      0.0012976489961147308,
      0.02910764515399933,
      -0.0207635760307312,
      -0.0015004053711891174,
      0.0027006343007087708,
      0.0023667141795158386,
      -0.012460608035326004,
      0.029217587783932686,
      -0.001448359340429306,
      0.029938682913780212,
      -0.02823178470134735,
      0.0007563680410385132,
      0.0013917703181505203,
      -0.0026259049773216248,
      -1.630932092666626e-05,
      0.00015281140804290771,
      0.0004948517307639122,
      -0.02860310859978199,
      -0.015036625787615776,
      0.00041387230157852173,
      -0.027016401290893555,
      -0.02926032245159149,
      -0.028989192098379135,
      0.02894962579011917,
      -0.029152292758226395,
      -7.285177707672119e-05,
      0.0002125706523656845,
      -0.013030145317316055,
      0.029996764846146107,
      0.029640354216098785,
      -0.010418035089969635,
      0.00024339556694030762,
      -2.6851892471313477e-05,
      0.0004937127232551575,
      0.01428171992301941,
      0.002533361315727234,
      0.029727008193731308,
      0.02402130700647831,
      -0.029314544051885605,
      0.029582920484244823,
      -0.028993234038352966,
      0.0034140385687351227,
      0.00017525628209114075,
      -4.539545625448227e-05,
      -0.025699157267808914,
      -0.02789623849093914,
      0.029997616074979305,
      -0.028884995728731155,
      -0.029080278240144253,
      0.0003568660467863083,
      -0.01973242312669754,
      -0.011872798204421997,
      -0.027264028787612915,
      0.001124742440879345,
      -0.028039004653692245,
      0.02542787790298462,
      -0.0008365251123905182,
      -0.0010116472840309143,
      -0.0007214248180389404,
      -0.00118231400847435,
      0.029200583696365356,
      0.02867400459945202,
      0.011808432638645172,
      -0.000924152322113514,
      -0.01115049421787262,
      0.001689983531832695,
      0.002800986170768738,
      0.028621312230825424,
      0.029501439072191715,
      0.02876787632703781,
      -0.0007106885313987732,
      0.028654150664806366,
      -0.0007582642138004303,
      0.006285637617111206,
      -0.000629686750471592,
      -0.012190155684947968,
      0.027453343383967876,
      -0.0006770268082618713,
      0.028043072670698166,
      -0.02578340470790863,
      -0.027927900664508343,
      -0.00054878368973732,
      -0.02286987565457821,
      -0.0005135424435138702,
      0.00010283663868904114,
      -0.0292854905128479,
      -8.058175444602966e-05,
      0.0031204447150230408,
      0.0001235678791999817,
      0.00037568435072898865,
      0.029347443021833897,
      0.00023819133639335632,
      -0.0023095645010471344,
      -0.029859552159905434,
      -0.011280287057161331,
      0.0001721605658531189,
      -0.028901847079396248,
      -0.02991601824760437,
      -0.002620890736579895,
      -0.029278907924890518,
      -0.00413891114294529,
      -0.02928958460688591,
      -0.00013144314289093018,
      -0.029202863574028015,
      0.00017904490232467651,
      -0.029555052518844604,
      0.02822794020175934,
      0.0010286662727594376,
      -0.020544778555631638,
      -0.00025953538715839386,
      -0.001796536147594452,
      0.00026605091989040375,
      -0.0002955915406346321,
      0.024354998022317886,
      -0.005111381411552429,
      -0.005459010601043701,
      0.0007774326950311661,
      0.021859589964151382,
      0.002332054078578949,
      -0.025875277817249298,
      0.0009386613965034485,
      -0.029167097061872482,
      -0.027777984738349915,
      0.0007204189896583557,
      -3.562308847904205e-05,
      5.159340798854828e-05,
      0.00431324727833271,
      -0.02416156232357025,
      0.006778005510568619,
      0.013284257613122463,
      -0.0233487905934453,
      0.0001625465229153633,
      0.02971838414669037,
      -0.02184479683637619,
      0.0014934539794921875,
      -0.019160445779561996,
      0.0020558862015604973,
      0.028311729431152344,
      -0.02868688479065895,
      -0.011107057332992554,
      0.005150718614459038,
      0.001405809074640274,
      -0.022828269749879837,
      0.0010757297277450562,
      0.0016996078193187714,
      -0.027975990436971188,
      0.006297050043940544,
      0.0001821368932723999,
      0.029974396340548992,
      0.013791635632514954,
      0.029858827590942383,
      -0.0013635838404297829,
      0.02957863174378872,
      0.0032107727602124214,
      -5.1647424697875977e-05,
      0.027849435806274414,
      -0.029936183243989944,
      -0.029914479702711105,
      0.008754439651966095,
      0.0008120834827423096,
      0.027894623577594757,
      0.02840427216142416,
      0.01381518691778183,
      0.02960878610610962,
      -0.022329607978463173,
      0.014243120327591896,
      0.029832815751433372,
      -0.0072950999601744115,
      0.030028000473976135,
      1.8365681171417236e-05,
      0.0002660304307937622,
      0.029380328953266144,
      0.029929563403129578,
      0.029771843925118446,
      -0.001058630645275116,
      0.029410257935523987,
      0.02999466098845005,
      0.0004977695643901825,
      0.005554120987653732,
      0.029952090233564377,
      -8.487142622470856e-05,
      0.0004138033837080002,
      -0.028800182044506073,
      0.029292531311511993,
      -0.028619471937417984,
      -0.000724494457244873,
      9.586475789546967e-05,
      -0.01254580169916153,
      0.029942525550723076,
      0.02958669513463974,
      0.0005922801792621613,
      -8.10772180557251e-05,
      -0.0003749281167984009,
      0.0008520409464836121,
      0.013435494154691696,
      0.004310376942157745,
      0.029989322647452354,
      0.027896013110876083,
      -0.0286952406167984,
      0.01632969081401825,
      -0.028523553162813187,
      0.0002625174820423126,
      -4.542060196399689e-05,
      0.0280521959066391,
      0.0016363933682441711,
      -0.028608646243810654,
      0.029943451285362244,
      -0.02874213084578514,
      -0.021879090927541256,
      0.0001956801861524582,
      -0.011124834418296814,
      -0.010720409452915192,
      -0.017260074615478516,
      0.0005944296717643738,
      -0.028346821665763855,
      0.028351813554763794,
      -0.017200974747538567,
      -0.00138862244784832,
      -0.001085236668586731,
      -0.002291157841682434,
      0.028523347340524197,
      0.028218131512403488,
      0.01672006957232952,
      -0.001163095235824585,
      0.0009187348186969757,
      0.001489289104938507,
      0.0016555115580558777,
      0.00012871809303760529,
      0.0010652821511030197,
      0.028799623250961304,
      -0.02813529036939144,
      0.02906619757413864,
      -0.029094278812408447,
      0.022788409143686295,
      -0.0013776952400803566,
      0.02817060798406601,
      0.0003575533628463745,
      -0.0043770745396614075,
      0.028297660872340202,
      -0.0291745588183403,
      0.00035265274345874786,
      -0.00031244754791259766,
      0.006016664206981659,
      0.028810355812311172,
      -0.0002636294811964035,
      -0.01263727992773056,
      0.00011101178824901581,
      0.00869441032409668,
      -0.0005807671695947647,
      0.02962804213166237,
      0.02947213500738144,
      0.017104271799325943,
      0.00042131543159484863,
      -2.483651041984558e-05,
      -0.02172403782606125,
      0.029915109276771545,
      -0.028413116931915283,
      -0.019671298563480377,
      0.010579556226730347,
      -0.019158238545060158,
      0.00023473426699638367,
      0.016046740114688873,
      0.003071238286793232,
      0.0015642344951629639,
      0.001356411725282669,
      -0.02902911603450775,
      0.029810301959514618,
      0.012570304796099663,
      -0.017770029604434967,
      0.0037211058661341667,
      0.0009839721024036407,
      2.6736408472061157e-05,
      -0.02931609470397234,
      0.029941242188215256,
      -0.025768861174583435,
      -0.020492346957325935,
      -4.3618492782115936e-05,
      -0.028532572090625763,
      1.7628073692321777e-05,
      0.008061572909355164,
      -6.978213787078857e-05,
      0.028597929514944553,
      0.02993714064359665,
      0.01626679301261902,
      0.00013769418001174927,
      0.0011761710047721863,
      0.00026047229766845703,
      0.029998816549777985,
      -2.8483569622039795e-05,
      -0.026455026119947433,
      0.02844908833503723,
      0.006185399368405342,
      0.0002238396555185318,
      0.0006746072322130203,
      0.0003151744604110718,
      0.007356218993663788,
      0.0008882246911525726,
      -0.029966160655021667,
      0.030022607184946537,
      -0.01846044510602951,
      -0.00186210498213768,
      0.003730606287717819,
      0.0010373229160904884,
      0.0005883295089006424,
      -4.6271830797195435e-05,
      0.030032696202397346,
      0.005423687398433685,
      0.001479271799325943,
      -0.012800034135580063,
      0.00033012963831424713,
      -0.00012528151273727417,
      -0.028453942388296127,
      -7.839128375053406e-05,
      0.0038628578186035156,
      -0.026374489068984985,
      0.01682981476187706,
      -0.02661714144051075,
      -0.00020170025527477264,
      -0.02452711947262287,
      0.008633799850940704,
      -8.866190910339355e-06,
      -7.649511098861694e-05,
      -0.02916773222386837,
      -0.016795769333839417,
      -0.02670644223690033,
      -0.026127465069293976,
      0.029860510490834713,
      -0.02864848915487528,
      0.029501348733901978,
      -0.025793777778744698,
      0.0032803192734718323,
      -0.0254729725420475,
      0.0004939734935760498,
      0.013161174952983856,
      -0.02945871651172638,
      0.02992427721619606,
      0.02796604298055172,
      0.0013806596398353577,
      -1.3267621397972107e-05,
      -0.02350296825170517,
      0.0034547410905361176,
      0.025954539887607098,
      0.003514077514410019,
      -0.02487543225288391,
      0.0032152459025382996,
      -0.013745598495006561,
      -0.014929689466953278,
      -0.013798601925373077,
      -0.025692887604236603,
      -0.025911555625498295,
      0.0038458844646811485,
      -0.013953343033790588,
      0.004083283245563507,
      0.0036074742674827576,
      -0.023474708199501038,
      0.01436736062169075,
      -0.02153855562210083,
      -0.0034397393465042114,
      0.025863289833068848,
      -0.02337777614593506,
      0.004027999937534332,
      0.013718967325985432,
      -0.0025542471557855606,
      0.0038707926869392395,
      0.0037916339933872223,
      -0.0038048774003982544,
      -0.025478079915046692,
      0.004050146788358688,
      0.0032228706404566765,
      -0.01435977965593338,
      -0.014993488788604736,
      0.007042400538921356
    ],
    [
      -0.028952729888260365,
      0.029526625759899616,
      0.0005780169740319252,
      0.004909242503345013,
      -0.000872073695063591,
      0.008320506662130356,
      0.029558799229562283,
      0.0030530141666531563,
      -0.02944754157215357,
      -0.018355253618210554,
      0.02875484712421894,
      -0.02903926372528076,
      0.027125087566673756,
      -0.02770154271274805,
      0.0023064352571964264,
      -0.029432227835059166,
      0.030047401785850525,
      0.029242293909192085,
      0.0031014177948236465,
      0.0006754975765943527,
      0.015077156480401754,
      0.0015891427174210548,
      0.028987077064812183,
      -0.029179759323596954,
      0.0013942243531346321,
      0.02816499676555395,
      0.008216259069740772,
      0.028604384511709213,
      0.02934446558356285,
      0.01629680464975536,
      -0.023550200276076794,
      -0.019047819077968597
    ],
    [
      -0.006390824913978577,
      -0.029491089284420013,
      -0.0005117980763316154,
      -0.012685805559158325,
      0.0003389492630958557,
      -0.001200258731842041,
      0.02864658087491989,
      -0.0031381938606500626,
      0.027176670730113983,
      -0.026449859142303467,
      0.03004153911024332,
      0.028786655515432358,
      -0.029385719448328018,
      -0.0005953814834356308,
      -0.02192901074886322,
      -0.026693210005760193,
      8.732080459594727e-06,
      -0.028326043859124184,
      -0.009274929761886597,
      0.0011300519108772278,
      0.014450319111347198,
      0.000618763267993927,
      -4.14624810218811e-06,
      -0.012962281703948975,
      -0.0007513575255870819,
      6.276369094848633e-05,
      -0.01765495538711548,
      0.0005723293870687485,
      0.016566816717386246,
      0.02792346477508545,
      -0.004466865211725235,
      -0.001956954598426819
    ],
    [
      0.0003219880163669586
    ]
  ],
  "num_updates": 2,
  "client_ids": [
    "client-1",
    "client-2"
  ],
  "mean_final_loss": 7.266665935516357,
  "aggregation_timestamp": 1784208901.5730433
}