{
  "version": "v37",
  "base_version": "v36",
  "round_id": 99,
  "aggregation": "fedavg",
  "averaged_weight_delta": [
    [
      0.001404397189617157,
      0.0013428255915641785,
      -0.000446319580078125,
      0.0259602889418602,
      0.0004246532917022705,
      0.0010582944378256798,
      0.017749696969985962,
      0.029692597687244415,
      0.0008360780775547028,
      0.00022158026695251465,
      -0.003915011882781982,
      -0.007880914025008678,
      -0.00453418493270874,
      -0.030024761334061623,
      0.004615206271409988,
      -0.026823192834854126,
      -0.015462756156921387,
      -0.00037840381264686584,
      0.01606091856956482,
      -0.009888118132948875,
      -0.012065574526786804,
      -0.013342350721359253,
      -0.024097763001918793,
      -0.002860281616449356,
      0.005690788850188255,
      -0.007436886429786682,
      -0.02502387762069702,
      -0.02785561978816986,
      -0.022189229726791382,
      -0.015345394611358643,
      0.029906615614891052,
      0.02955661341547966,
      0.029879380948841572,
      0.02986842766404152,
      0.02997381053864956,
      0.029928055591881275,
      0.0288811307400465,
      0.02947666123509407,
      0.029855193570256233,
      0.011441370472311974,
      -0.012013658881187439,
      0.00044564902782440186,
      -5.716923624277115e-05,
      -0.00012204237282276154,
      0.00036702584475278854,
      -2.3074448108673096e-05,
      0.0006084516644477844,
      -0.00015787407755851746,
      0.000279989093542099,
      0.00015801936388015747,
      -0.0141286700963974,
      0.00022215303033590317,
      -0.01560057420283556,
      -0.02067224308848381,
      0.006276104599237442,
      -0.018581930547952652,
      -0.0019452273845672607,
      -0.01520581729710102,
      -0.0006686896085739136,
      0.01199327688664198,
      0.02176632732152939,
      0.016686126589775085,
      -0.005143802613019943,
      0.01830306649208069,
      0.029181167483329773,
      0.027873843908309937,
      -0.006959453225135803,
      0.009490858763456345,
      0.028170302510261536,
      -0.0011072605848312378,
      0.000845867209136486,
      0.0016833916306495667,
      0.009636566042900085,
      0.02963539958000183,
      0.0020506419241428375,
      0.029770314693450928,
      0.001399017870426178,
      0.007321096956729889,
      0.003315059468150139,
      0.0009177066385746002,
      -0.02867412567138672,
      -0.01480104774236679,
      -0.014006629586219788,
      -0.028577620163559914,
      -0.007695768028497696,
      -0.0017852783203125,
      -0.012673847377300262,
      -0.0018791258335113525,
      -0.01282627135515213,
      -0.029746681451797485,
      0.0028968583792448044,
      0.00030770525336265564,
      0.0004892349243164062,
      0.0018703043460845947,
      -0.011102192103862762,
      0.00010400637984275818,
      -0.0004958156496286392,
      0.0001558251678943634,
      0.00013253092765808105,
      0.0007048323750495911,
      -0.005789428949356079,
      -0.006514078937470913,
      -0.00749564915895462,
      -0.012124791741371155,
      -0.0013762526214122772,
      0.0001475214958190918,
      -0.010558851063251495,
      0.0005425699055194855,
      -0.001980031840503216,
      -0.0036940909922122955,
      0.0007231608033180237,
      -0.012068234384059906,
      0.00024668313562870026,
      -5.532801151275635e-05,
      -0.0010763602331280708,
      -0.028901010751724243,
      0.0005264580249786377,
      -0.011512849479913712,
      -0.0005423091351985931,
      0.00029462017118930817,
      0.011869336478412151,
      0.016751881688833237,
      -0.016149461269378662,
      -0.00042138993740081787,
      0.0005245506763458252,
      0.018369432538747787,
      -0.0004587620496749878,
      0.0005424246191978455,
      0.016223245533183217,
      -0.0003354782238602638,
      -0.024581022560596466,
      -0.01727407518774271,
      -0.029677383601665497,
      -0.0275418683886528,
      -0.029863479547202587,
      -0.029642857611179352,
      -0.029785294085741043,
      -0.00041594356298446655,
      -0.0014574453234672546,
      -0.014078173786401749,
      4.937499761581421e-05,
      0.0001220759004354477,
      -8.377432823181152e-05,
      -0.0006759688258171082,
      -0.00048715434968471527,
      -0.0005460381507873535,
      -0.0007774094119668007,
      -0.00038808584213256836,
      -0.00035589560866355896,
      -0.0007704254239797592,
      0.0005382150411605835,
      0.025998996570706367,
      -0.0005497895181179047,
      0.02220628410577774,
      -0.0013485625386238098,
      -3.619492053985596e-05,
      0.029525496065616608,
      0.02769888937473297,
      -0.00023060757666826248,
      -0.0009262030944228172,
      -0.029616784304380417,
      -0.003908365964889526,
      -0.021291960030794144,
      0.013162553310394287,
      0.02919493243098259,
      0.012431096285581589,
      -0.0006423704326152802,
      -0.02491052821278572,
      2.422928810119629e-05,
      0.027833160012960434,
      -0.00866660475730896,
      -0.018010924570262432,
      -0.012444622814655304,
      -0.02470615040510893,
      -0.024784434586763382,
      0.00036856532096862793,
      -0.00597984716296196,
      -0.014824025332927704,
      -0.01075097918510437,
      0.003094591200351715,
      -0.029055649414658546,
      -0.02493731677532196,
      -0.02884642779827118,
      -0.021812446415424347,
      -0.028651654720306396,
      -0.029145658016204834,
      -0.029120132327079773,
      -0.02818947285413742,
      -0.014675885438919067,
      -0.028843194246292114,
      0.029715415090322495,
      0.027878105640411377,
      0.028520219027996063,
      0.029641389846801758,
      0.02964640036225319,
      0.02974027395248413,
      0.02996237576007843,
      0.027279116213321686,
      0.02990611642599106,
      0.028780020773410797,
      0.00047254934906959534,
      0.0011046640574932098,
      -0.0003952421247959137,
      -0.000962723046541214,
      -0.014549169689416885,
      -0.00991399958729744,
      0.0003907233476638794,
      -6.94766640663147e-05,
      -0.0002566799521446228,
      -0.00031638145446777344,
      0.00020979344844818115,
      0.02991645410656929,
      0.0001329556107521057,
      0.029842201620340347,
      0.010866722092032433,
      0.0005024969577789307,
      1.955963671207428e-05,
      7.818825542926788e-05,
      1.3671815395355225e-05,
      0.00302955973893404,
      -0.0017481176182627678,
      -0.000617295503616333,
      -0.0012513119727373123,
      -0.0016783513128757477,
      -0.001364491879940033,
      -0.003104589879512787,
      -0.0012155640870332718,
      -1.4314427971839905e-06,
      -0.0006454288959503174,
      -0.0018374994397163391,
      -0.02945510670542717,
      -0.02935948222875595,
      -0.030031025409698486,
      -0.029881009832024574,
      -0.026848189532756805,
      -0.030007727444171906,
      -0.029503194615244865,
      -0.029164228588342667,
      -0.029621873050928116,
      -0.029436998069286346,
      0.02908437605947256,
      0.028619833290576935,
      0.029665129259228706,
      0.02809761930257082,
      0.02911883220076561,
      0.02768675982952118,
      0.028998052701354027,
      0.009707991033792496,
      0.02857956290245056,
      0.0009381137788295746,
      0.028608381748199463,
      0.016705796122550964,
      0.029400404542684555,
      0.0291893407702446,
      0.016486171633005142,
      -0.004082771018147469,
      0.027375109493732452,
      0.0025308262556791306,
      0.016871415078639984,
      0.016449958086013794,
      0.016371101140975952,
      -0.01393352821469307,
      0.029737330973148346,
      0.02516760677099228,
      0.004062294960021973,
      0.007803218439221382,
      0.005953587591648102,
      0.027035914361476898,
      0.02935206890106201,
      0.01678779162466526,
      0.006306193768978119,
      0.029760347679257393,
      0.00042507052421569824,
      -0.0004916675388813019,
      0.003550298511981964,
      0.00011323206126689911,
      0.008735530078411102,
      0.0017401203513145447,
      0.0018694773316383362,
      0.002315353602170944,
      -0.029317162930965424,
      -0.02893135230988264,
      -0.000317547470331192,
      -0.00020985305309295654,
      -0.000486547127366066,
      -0.029972459189593792,
      -0.028205059468746185,
      -0.02858646586537361,
      -0.02993471547961235,
      0.02597428858280182,
      0.027756663039326668,
      0.027757160365581512,
      0.02750570699572563,
      0.027384765446186066,
      0.017155131325125694,
      0.023658767342567444,
      0.02906912751495838,
      0.02945997565984726,
      0.028543483465909958,
      0.017028197646141052,
      -0.025239786133170128,
      0.0011144950985908508,
      -0.02417735755443573,
      -0.026875093579292297,
      -0.01909094676375389,
      -0.0002486966550350189,
      -0.027391020208597183,
      -0.023080773651599884,
      -0.024234620854258537,
      0.004215206950902939,
      0.02801038883626461,
      0.028204232454299927,
      0.027882985770702362,
      0.027669514529407024,
      0.027707353234291077,
      0.026734136044979095,
      0.02850879170000553,
      0.029155544936656952,
      0.02874058485031128,
      0.028906188905239105
    ],
    [
      0.029461910016834736,
      0.007481995038688183,
      -0.012481349287554622,
      -0.027888130396604538,
      0.005864621140062809,
      0.026323355734348297,
      0.0044740233570337296,
      -0.00023664627224206924,
      -0.016169690061360598,
      -0.027446608059108257,
      -0.022661360912024975,
      0.0005651246756315231,
      -0.013148110592737794,
      0.00999891059473157,
      0.023989597335457802,
      0.0014796648174524307,
      0.0002232082188129425,
      -0.018705998547375202,
      0.002969450317323208,
      -0.0007110061123967171,
      -0.021873971447348595,
      -0.029131201095879078,
      0.015961927827447653,
      -0.0002784859389066696,
      0.0002757897600531578,
      0.002367008477449417,
      0.027508672326803207,
      -0.00695855263620615,
      -0.010398985352367163,
      0.0024469494819641113,
      -0.02515955176204443,
      0.0020634299144148827
    ],
    [
      0.02893916703760624,
      -0.027049746364355087,
      0.028909794054925442,
      0.014401324093341827,
      -0.0016332641243934631,
      0.02808588743209839,
      -0.029727544635534286,
      0.00024961307644844055,
      -0.00013351533561944962,
      0.02595057711005211,
      0.02805529534816742,
      -0.00018120184540748596,
      -0.0005616582930088043,
      -0.029445983469486237,
      0.029431220144033432,
      -0.017519828863441944,
      -0.008767396211624146,
      -0.00037984829396009445,
      -0.00020018219947814941,
      0.00010300986468791962,
      0.028956573456525803,
      -0.00971868634223938,
      -0.0011950265616178513,
      0.02980133891105652,
      -0.010554544627666473,
      0.0002468191087245941,
      0.01407034695148468,
      0.014806568622589111,
      -0.010457731783390045,
      0.018831446766853333,
      3.2261013984680176e-05,
      0.02871016412973404,
      0.00032685697078704834,
      0.007091395556926727,
      -0.02636808715760708,
      0.0009111203253269196,
      -0.017971321940422058,
      0.0013101771473884583,
      0.0024436041712760925,
      0.0005802661180496216,
      -0.0005677677690982819,
      -0.027577554807066917,
      -0.02727498486638069,
      -0.02708487957715988,
      0.0008699819445610046,
      0.0007265787571668625,
      0.0009375531226396561,
      0.0008870204910635948,
      0.0036379974335432053,
      -0.0012394636869430542,
      0.009530552662909031,
      0.0029486650601029396,
      0.0011292658746242523,
      0.029509134590625763,
      0.029618650674819946,
      -0.0019069314002990723,
      0.0007231924682855606,
      0.02671244367957115,
      0.00126606784760952,
      -0.02462252974510193,
      0.0009554997086524963,
      -0.028304236009716988,
      0.025790691375732422,
      -0.027417179197072983,
      -0.011262491345405579,
      6.381981074810028e-05,
      0.001372113823890686,
      -0.02513943612575531,
      -0.026300057768821716,
      -0.008728187531232834,
      0.00045471638441085815,
      -0.02765614539384842,
      -0.0007321815937757492,
      0.003085250034928322,
      0.0009471569210290909,
      -0.02836655080318451,
      0.029657185077667236,
      8.738785982131958e-05,
      0.0013651251792907715,
      -0.013314198702573776,
      -0.001782834529876709,
      -0.015203095972537994,
      0.01612846553325653,
      -0.026300016790628433,
      0.0033563002943992615,
      0.00012058019638061523,
      0.01111283153295517,
      -0.0002244599163532257,
      -0.0002674087882041931,
      -0.029304057359695435,
      -0.028619810938835144,
      -0.02861083298921585,
      0.00035830773413181305,
      -0.01619172841310501,
      -0.02229463681578636,
      -0.0016307272017002106,
      0.0005250871181488037,
      0.02801840752363205,
      0.0008267071098089218,
      -0.028000762686133385,
      -0.027177564799785614,
      0.0027756989002227783,
      -0.001428636722266674,
      -0.02931634709239006,
      -0.00013948418200016022,
      0.002454198896884918,
      0.00038498640060424805,
      -0.029450230300426483,
      0.02988383173942566,
      0.003346756100654602,
      0.0007118657231330872,
      -0.0006333701312541962,
      -0.0124364560469985,
      -0.02663387358188629,
      0.004663359373807907,
      -0.028013158589601517,
      0.0028133951127529144,
      -0.0009248480200767517,
      0.02926573157310486,
      0.001428365707397461,
      0.0011585354804992676,
      -0.02880903799086809,
      -0.02815972175449133,
      -0.02927917242050171,
      0.0160350538790226,
      -0.00021274760365486145,
      -0.02787797898054123,
      -0.0003192685544490814,
      0.02981722541153431,
      0.01873854175209999,
      0.029791058972477913,
      -0.0011851079761981964,
      -0.0008411593735218048,
      0.028518712148070335,
      -0.0011547515168786049,
      0.001211613416671753,
      0.02872811257839203,
      0.029423575848340988,
      0.029857875779271126,
      -0.00012001395225524902,
      0.00027211010456085205,
      -0.021334052085876465,
      0.029731571674346924,
      -0.0006372109055519104,
      -0.0016123754903674126,
      0.008021168410778046,
      -0.023707222193479538,
      0.0001281946897506714,
      0.02920234017074108,
      -0.028030898422002792,
      -0.02700945734977722,
      0.015806681476533413,
      0.0008050277829170227,
      -0.0003121569752693176,
      0.00025553256273269653,
      -2.1345913410186768e-05,
      0.00028398633003234863,
      0.029452746734023094,
      0.00022221170365810394,
      0.029692649841308594,
      0.00021423399448394775,
      -0.0027404408901929855,
      7.845088839530945e-05,
      0.0018894411623477936,
      0.029616937041282654,
      8.653849363327026e-06,
      0.0005182325839996338,
      0.02994091808795929,
      5.62816858291626e-05,
      0.00019596144556999207,
      0.0006606876850128174,
      0.014452598989009857,
      -0.0019526518881320953,
      -0.002075701951980591,
      0.00013722386211156845,
      0.005437036976218224,
      0.02956569567322731,
      0.0019562728703022003,
      -0.012947067618370056,
      0.007164541631937027,
      -0.0007980093359947205,
      0.0018154485151171684,
      -0.0033019986003637314,
      -0.0035430341958999634,
      -0.01436416432261467,
      0.029824775643646717,
      0.000716477632522583,
      0.029329082928597927,
      -0.00011963583528995514,
      0.000750374048948288,
      0.01662847399711609,
      -0.006208650767803192,
      1.7471611499786377e-06,
      0.00018014665693044662,
      -0.00011466443538665771,
      0.029809633269906044,
      0.02791513502597809,
      -0.0005895653739571571,
      0.0003991946578025818,
      0.029990635812282562,
      0.02842368185520172,
      0.0003232136368751526,
      0.015042178332805634,
      0.029836438596248627,
      -0.02998142782598734,
      0.00010006874799728394,
      0.028516463935375214,
      0.026984884403645992,
      0.0226820707321167,
      0.029487423598766327,
      -9.213574230670929e-05,
      0.029988020658493042,
      -0.0014666318893432617,
      0.017892081290483475,
      3.160908818244934e-05,
      0.02948400005698204,
      -0.013180650770664215,
      0.029932662844657898,
      0.029624734073877335,
      0.029805518686771393,
      0.02376788854598999,
      0.0014931466430425644,
      0.028569243848323822,
      0.0009252429008483887,
      0.0004564523696899414,
      0.028553253039717674,
      0.0008389893919229507,
      0.0031555145978927612,
      -0.0013185814023017883,
      0.004561319947242737,
      0.014915529638528824,
      -0.02873456198722124,
      0.0006009861826896667,
      0.0010560974478721619,
      0.0002867169678211212,
      -0.0004747025668621063,
      0.030014313757419586,
      0.029363321140408516,
      0.0010369233787059784,
      0.005235321819782257,
      0.02871110290288925,
      0.000588834285736084,
      0.02995407208800316,
      -0.0003558564931154251,
      0.006328011862933636,
      0.027635816484689713,
      0.029723815619945526,
      0.0012950301170349121,
      0.024910293519496918,
      -0.016948996111750603,
      0.0012905150651931763,
      -0.0026878174394369125,
      0.008374564349651337,
      -4.8547983169555664e-05,
      -0.02930499240756035,
      -1.7756596207618713e-05,
      -0.003558909520506859,
      0.000272577628493309,
      -0.005210369825363159,
      0.02955361269414425,
      0.029915373772382736,
      -0.00027812737971544266,
      0.029650241136550903,
      0.029620930552482605,
      -0.015121502801775932,
      0.00027963146567344666,
      -0.022745557129383087,
      0.014793815091252327,
      7.270835340023041e-05,
      0.001567743718624115,
      -0.00020097941160202026,
      0.029621310532093048,
      0.015575915575027466,
      0.003762410953640938,
      5.5108219385147095e-05,
      -0.0007163360714912415,
      -0.002311713993549347,
      0.0035271644592285156,
      0.0005104755982756615,
      -0.0013884752988815308,
      0.02797219157218933,
      0.013066880404949188,
      -0.004263967275619507,
      -0.0035174302756786346,
      0.0279851071536541,
      -0.013815648853778839,
      0.01848563924431801,
      -0.011888924986124039,
      0.014959357678890228,
      -0.029772624373435974,
      0.014380097389221191,
      -0.002609357237815857,
      -0.003982704132795334,
      0.004921186715364456,
      -0.014876557514071465,
      -0.00021064653992652893,
      -0.02890535071492195,
      0.0002097785472869873,
      -4.27737832069397e-05,
      -0.00022120028734207153,
      -0.02703336626291275,
      -0.02968333661556244,
      -0.0003561507910490036,
      0.011425044387578964,
      -0.004776701331138611,
      0.014489825814962387,
      -0.015007132664322853,
      -0.00016697868704795837,
      -0.0014708563685417175,
      -0.015019744634628296,
      -0.014906615018844604,
      0.014714508317410946,
      -0.014799252152442932,
      0.01489858329296112,
      0.014570936560630798,
      -7.651373744010925e-05,
      -0.0025091171264648438,
      0.014992788434028625,
      0.014186546206474304,
      0.015016138553619385,
      -0.02921393420547247,
      -0.018554698675870895,
      -0.028839625418186188,
      -0.013529661111533642,
      0.0016790302470326424,
      -0.02867177128791809,
      5.774945020675659e-05,
      -9.149685502052307e-05,
      -0.0282696932554245,
      -0.028451167047023773,
      -0.028762899339199066,
      0.0004892125725746155,
      0.0003693867474794388,
      9.649991989135742e-05,
      -0.02870369702577591,
      -0.025346510112285614,
      0.0006125196814537048,
      -0.02800384908914566,
      -7.417052984237671e-06,
      -0.012546115554869175,
      0.0004966072738170624,
      0.00023633800446987152,
      0.0009350813925266266,
      -0.02941371686756611,
      8.873920887708664e-05,
      8.471310138702393e-06,
      -0.02840353548526764,
      0.0005239695310592651,
      -0.026496201753616333,
      -0.02894940972328186,
      0.0013970248401165009,
      -0.02839023619890213,
      -0.029422298073768616,
      0.0013321265578269958,
      -0.028818296268582344,
      0.00016955286264419556,
      0.0015867697075009346,
      -0.028792813420295715,
      0.03001363482326269,
      0.0001257099211215973,
      -0.027118787169456482,
      -0.028507059440016747,
      -0.02912338823080063,
      0.00023426860570907593,
      0.0001409333199262619,
      0.02933012694120407,
      -0.028965719044208527,
      0.014184193685650826,
      0.013251490890979767,
      -0.011667569167912006,
      0.02874237485229969,
      -0.025323307141661644,
      -0.027457118034362793,
      0.011385474354028702,
      0.0015132129192352295,
      -0.02806742489337921,
      0.014387745410203934,
      0.0002477094531059265,
      -0.01249513030052185,
      0.00036529824137687683,
      -0.018808074295520782,
      -0.029096268117427826,
      0.0019013043493032455,
      -0.027880337089300156,
      0.02919146418571472,
      -0.0006916634738445282,
      0.02842626255005598,
      0.01639734022319317,
      -0.00468404870480299,
      0.025470994412899017,
      -0.0001239180564880371,
      -0.00291384756565094,
      -0.00014998763799667358,
      0.028574466705322266,
      0.029150575399398804,
      0.024545536376535892,
      0.00024700164794921875,
      2.5603920221328735e-05,
      0.027135495096445084,
      -0.015708759427070618,
      -0.029850415885448456,
      0.006863106042146683,
      6.095319986343384e-05,
      0.0009668804705142975,
      0.027243252843618393,
      -0.001062631607055664,
      -0.00034501031041145325,
      0.028659505769610405,
      -0.0002453606575727463,
      0.01583931501954794,
      0.028458833694458008,
      -4.491489380598068e-05,
      3.538653254508972e-05,
      0.029645008966326714,
      -0.006334714591503143,
      0.02941087633371353,
      -0.029663704335689545,
      0.0010810941457748413,
      -0.02885295543819666,
      0.001603563316166401,
      0.0036142468452453613,
      -0.026994531974196434,
      0.028526196256279945,
      0.0003944598138332367,
      -0.027049146592617035,
      -0.02820458635687828,
      -0.02907807007431984,
      0.0005609989166259766,
      9.370595216751099e-05,
      -7.1302056312561035e-06,
      -0.02890632674098015,
      0.028916269540786743,
      0.028083976358175278,
      0.0038927942514419556,
      0.0006213933229446411,
      -0.012501820921897888,
      -0.026808001101017,
      0.021850325167179108,
      0.0006265230476856232,
      -0.011729158461093903,
      0.02951110154390335,
      0.00031724944710731506,
      0.0004058852791786194,
      0.0005439072847366333,
      -0.015725016593933105,
      -0.0291893407702446,
      0.0026137828826904297,
      -0.029207900166511536,
      0.00017134938389062881,
      -0.02219468727707863,
      5.632173269987106e-05,
      0.029869932681322098,
      0.029951483011245728,
      -4.0553510189056396e-05,
      -0.0006455862894654274,
      0.02994309365749359,
      0.012716904282569885,
      2.9742717742919922e-05,
      0.0005956366658210754,
      0.02994392439723015,
      -0.028977736830711365,
      -0.029690353199839592,
      0.0005220361053943634,
      0.02991071343421936,
      0.030043640173971653,
      0.013794580474495888,
      0.0004519745707511902,
      0.028701648116111755,
      0.00016246363520622253,
      0.029796041548252106,
      -0.02799106389284134,
      7.589533925056458e-05,
      -0.016444601584225893,
      0.02958792820572853,
      0.028189770877361298,
      0.02986373007297516,
      -0.0007221214473247528,
      0.0007223021239042282,
      0.02988431788980961,
      0.000921156257390976,
      0.0009447038173675537,
      -0.0017141848802566528,
      0.0010018125176429749,
      -0.023612789809703827,
      -0.02880917116999626,
      0.0012853890657424927,
      -0.02547716349363327,
      -0.027877856977283955,
      -0.022166326642036438,
      0.001795392483472824,
      -9.449943900108337e-05,
      -0.028407120145857334,
      0.005224121734499931,
      -0.02436113264411688,
      0.0011290907859802246,
      -0.02784540131688118,
      -0.02790599688887596,
      -0.025466017425060272,
      0.001766052097082138,
      -0.0289255790412426,
      0.0013818508014082909,
      -0.028543232940137386,
      -0.021502159535884857,
      0.0006697922945022583,
      -0.025904813781380653,
      -0.028387024998664856,
      -0.028135329484939575,
      -0.029112383723258972,
      -0.01201733946800232,
      0.001081450842320919,
      -0.02676190435886383,
      -0.02918986603617668,
      -0.02943142130970955,
      0.0006407946348190308,
      -0.028945792466402054,
      0.0057705603539943695,
      0.0026738494634628296,
      -0.02744206041097641,
      0.029961280524730682,
      0.00035369209945201874,
      -0.025938361883163452,
      -0.02864452451467514,
      -0.029065735638141632,
      0.0006668679416179657,
      6.776303052902222e-06,
      3.3464282751083374e-05,
      -0.028895877301692963,
      0.013888537883758545,
      0.029971661046147346,
      0.001377604901790619,
      0.02991245687007904,
      -0.0013985894620418549,
      -0.02737955003976822,
      0.002787858247756958,
      0.0022378573194146156,
      -0.027819782495498657,
      0.01677780970931053,
      0.0004614889621734619,
      0.0007115118205547333,
      0.0005449652671813965,
      -0.016275695990771055,
      -0.028631504625082016,
      0.0019839350134134293,
      -0.02906956896185875,
      0.026547053828835487,
      -0.006197851151227951,
      0.029566466808319092,
      -0.0005363970994949341,
      -0.0018258783966302872,
      0.028521860018372536,
      -0.012212015688419342,
      0.0002620052546262741,
      0.01538248360157013,
      0.02884223684668541,
      0.02900584787130356,
      -6.408896297216415e-05,
      0.012274973094463348,
      -0.026597972959280014,
      0.028847239911556244,
      -0.01678895577788353,
      -0.0033424012362957,
      -0.0024236179888248444,
      -0.02803964912891388,
      0.0005774423480033875,
      0.012194804847240448,
      -0.0029140114784240723,
      -0.028252195566892624,
      0.00047800689935684204,
      -0.015181459486484528,
      -0.006900191307067871,
      -0.0029177814722061157,
      -5.052238702774048e-05,
      -0.010148346424102783,
      0.016431376338005066,
      -0.0072145406156778336,
      0.02651047334074974,
      0.0015252232551574707,
      -0.027065187692642212,
      0.012082040309906006,
      0.014995165169239044,
      0.02765958569943905,
      -0.0001788102090358734,
      -3.5832636058330536e-05,
      0.029779009521007538,
      0.027822885662317276,
      0.023233287036418915,
      0.0012066224589943886,
      0.029605187475681305,
      -0.029504895210266113,
      -7.640570402145386e-05,
      0.020992896519601345,
      0.01541966199874878,
      0.001968391239643097,
      0.028587273322045803,
      -0.014159824699163437,
      0.029626958072185516,
      -0.0023908987641334534,
      -0.00804717093706131,
      -0.02900419384241104,
      0.014445353299379349,
      -0.00030219927430152893,
      0.02970372885465622,
      0.02902827225625515,
      0.02928580716252327,
      -0.0027120355516672134,
      0.0010513495653867722,
      0.027996601536870003,
      0.016942979767918587,
      -0.001120932400226593,
      0.0001322813332080841,
      -0.025065381079912186,
      0.029064878821372986,
      0.017327655106782913,
      7.824599742889404e-05,
      -0.0001917630434036255,
      0.02890732418745756,
      -0.01575586386024952,
      -0.018196694552898407,
      -0.028884029015898705,
      -0.013599012047052383,
      -0.00029173120856285095,
      0.000409761443734169,
      -0.00036001577973365784,
      0.029946215450763702,
      0.02985670045018196,
      -0.00018253177404403687,
      0.009579695761203766,
      0.005505107343196869,
      0.00037966296076774597,
      0.028738729655742645,
      0.001025104895234108,
      -0.0011887643486261368,
      0.0005990266799926758,
      0.029224656522274017,
      -0.023452699184417725,
      0.0019344687461853027,
      0.00027595460414886475,
      0.0010755732655525208,
      0.028333069756627083,
      -0.01911560818552971,
      0.029015380889177322,
      -0.0004609115421772003,
      0.028757311403751373,
      -0.013569403439760208,
      -0.002753131091594696,
      0.02131158486008644,
      -0.0014645792543888092,
      -0.00038253143429756165,
      0.0022451430559158325,
      0.01918179541826248,
      0.02935357391834259,
      -0.0007131882011890411,
      1.9360333681106567e-05,
      -0.0006588250398635864,
      0.028950132429599762,
      -0.02850792370736599,
      -0.029783643782138824,
      -0.013039927929639816,
      -0.0005795583128929138,
      0.0006567798554897308,
      0.0007049553096294403,
      -0.0005032401531934738,
      -0.001002047210931778,
      0.024068454280495644,
      -0.0030786506831645966,
      -0.0008628964424133301,
      0.027805672958493233,
      0.027920452877879143,
      -0.0006740186363458633,
      0.0285213440656662,
      -0.029827358201146126,
      0.02913043648004532,
      -0.029049552977085114,
      -0.0015206634998321533,
      -0.02835521101951599,
      -0.027797579765319824,
      -0.0257255956530571,
      -0.028529129922389984,
      -0.013699889183044434,
      -0.02765258215367794,
      -0.026148557662963867,
      -0.028012866154313087,
      -0.028429944068193436,
      -0.029240384697914124,
      0.0012640543282032013,
      0.0015637120231986046,
      -0.02869574259966612,
      -0.021323181688785553,
      -0.021765582263469696,
      -0.028102174401283264,
      0.02887619286775589,
      -0.029430601745843887,
      -0.027690771967172623,
      -0.026757843792438507,
      0.00011855177581310272,
      -0.028145315125584602,
      0.0027379244565963745,
      -0.028621815145015717,
      -0.026147903874516487,
      -0.014226913452148438,
      -0.016822343226522207,
      -0.029064977541565895,
      -0.0024616271257400513,
      -0.02892260253429413,
      -0.00024344772100448608,
      -0.019386254251003265,
      0.0007909312844276428,
      -0.02892899513244629,
      -0.0287080779671669,
      0.0010210946202278137,
      0.00033329427242279053,
      -0.02940685674548149,
      0.00035489723086357117,
      0.0008616745471954346,
      0.00039785541594028473,
      -0.029219545423984528,
      0.028112441301345825,
      0.00227496400475502,
      0.00025599077343940735,
      -0.028953442350029945,
      -0.02806764841079712,
      -0.012335553765296936,
      0.00913570448756218,
      -0.02879560925066471,
      0.000880114734172821,
      -0.024605114944279194,
      0.007194332778453827,
      0.0006302911788225174,
      -0.01814192533493042,
      -0.02952234260737896,
      -0.02624832931905985,
      -0.029551245272159576,
      -0.02541401982307434,
      -1.1004507541656494e-05,
      -0.0290770186111331,
      7.134489715099335e-05,
      0.0020354166626930237,
      -0.02119007334113121,
      0.0020221471786499023,
      0.005028918385505676,
      0.029076412320137024,
      -0.00047655776143074036,
      -0.02751222625374794,
      0.02966262400150299,
      0.0041554756462574005,
      0.0026241708546876907,
      0.0030360668897628784,
      0.029425403103232384,
      -0.027581429108977318,
      -0.02319958060979843,
      0.003543894737958908,
      0.01544547826051712,
      0.0014705955982208252,
      0.008298510685563087,
      -0.023996548727154732,
      0.028166335076093674,
      -0.02756219543516636,
      0.011443249881267548,
      -0.027054015547037125,
      0.0058692749589681625,
      -0.022948257625102997,
      0.0035930033773183823,
      0.009089367464184761,
      0.01696699019521475,
      0.028078816831111908,
      0.002433367073535919,
      0.02981622889637947,
      0.004300158470869064,
      0.029672859236598015,
      0.018270526081323624,
      0.029450956732034683,
      -0.0010342476889491081,
      -0.0015244437381625175,
      0.02892496809363365,
      0.0037557072937488556,
      -0.00035306811332702637,
      0.028277456760406494,
      0.029444877058267593,
      0.029630744829773903,
      -0.00039779581129550934,
      0.022240012884140015,
      0.0003514401614665985,
      0.029432855546474457,
      -0.015190601348876953,
      -0.003574952483177185,
      0.019698336720466614,
      0.00037157535552978516,
      0.013063883408904076,
      0.025819841772317886,
      0.029196731746196747,
      0.01256098598241806,
      0.010293006896972656,
      0.005395811051130295,
      -0.0013989191502332687,
      0.022017688490450382,
      3.248080611228943e-05,
      0.02149954065680504,
      0.029396742582321167,
      -0.0010745003819465637,
      0.029126673936843872,
      9.400863200426102e-05,
      -0.026081182062625885,
      0.0008258000016212463,
      -0.00035303831100463867,
      -0.0018516108393669128,
      -0.005878947675228119,
      -0.028040409088134766,
      0.0008978992700576782,
      -0.00013121962547302246,
      -0.0011507682502269745,
      0.0017977561801671982,
      0.0027468502521514893,
      -0.028723696246743202,
      -0.029687203466892242,
      0.0013652630150318146,
      -0.029050767421722412,
      -0.024535082280635834,
      0.003599904477596283,
      -0.0280902162194252,
      0.0026050321757793427,
      -0.027575083076953888,
      -0.002548547461628914,
      -0.028759317472577095,
      -0.028010375797748566,
      -0.02920158952474594,
      0.016732938587665558,
      0.0006672143936157227,
      0.029536746442317963,
      -0.029036886990070343,
      0.0006241239607334137,
      0.02970324456691742,
      -0.015603329986333847,
      -0.028054066002368927,
      -0.010380879044532776,
      -0.028507009148597717,
      0.02894783765077591,
      0.0019297488033771515,
      -0.015405118465423584,
      0.0006253272294998169,
      0.00039577018469572067,
      -0.02806197851896286,
      -0.028120756149291992,
      -0.02725321054458618,
      0.0007645739242434502,
      0.00012397021055221558,
      5.977228283882141e-05,
      -0.01793574169278145,
      0.00016371812671422958,
      0.03001529723405838,
      0.001424349844455719,
      0.029306964948773384,
      5.352683365345001e-05,
      -0.0013267546892166138,
      -0.018871361389756203,
      -0.011399000883102417,
      0.0013128668069839478,
      0.027911461889743805,
      0.02899741753935814,
      0.00832628458738327,
      0.0006818193942308426,
      0.008931095711886883,
      -0.028091005980968475,
      0.0018067583441734314,
      -0.017986014485359192,
      -0.027600785717368126,
      0.02921484038233757,
      -0.02857174165546894,
      0.0013620425015687943,
      0.0025639310479164124,
      -0.000343887135386467,
      0.02987048774957657,
      0.0003764927387237549,
      -0.028771307319402695,
      -0.015464013442397118,
      0.0006844867020845413,
      0.001357339322566986,
      0.0001079244539141655,
      0.029877882450819016,
      0.0008814921602606773,
      0.007081488147377968,
      0.01206234097480774,
      0.0026046186685562134,
      0.030036240816116333,
      0.00044686347246170044,
      -0.026957843452692032,
      -0.02221771329641342,
      0.029425814747810364,
      0.000405333936214447,
      0.0015701372176408768,
      0.0008092746138572693,
      0.001662924885749817,
      0.0006769448518753052,
      0.004612194374203682,
      -0.028819628059864044,
      0.003007303923368454,
      -0.021715646144002676,
      0.0015101153403520584,
      0.028827574104070663,
      0.0015749214217066765,
      -0.0192612512037158,
      -0.025026317685842514,
      0.0028148945420980453,
      0.0024164486676454544,
      -0.027838166803121567,
      0.006773661822080612,
      0.002282865345478058,
      0.0006765127182006836,
      -0.028614841401576996,
      0.029735073447227478,
      0.0020675212144851685,
      0.0028588315472006798,
      -0.001207508146762848,
      -0.011873269453644753,
      -0.021508345380425453,
      0.013844962231814861,
      -0.021381374448537827,
      0.004989787004888058,
      0.005572594702243805,
      0.02979998290538788,
      0.0010712631046772003,
      0.00809941440820694,
      -0.026895901188254356,
      -0.02659548632800579,
      -0.027407795190811157,
      -0.010577958077192307,
      0.0008419640362262726,
      -0.019579030573368073,
      -0.012307003140449524,
      -0.011840377002954483,
      -0.024237297475337982,
      0.00017913058400154114,
      0.002185314893722534,
      0.0004949141293764114,
      -0.028874605894088745,
      -0.02404609601944685,
      3.709830343723297e-05,
      -0.025260351598262787,
      0.0010825879871845245,
      0.0014706198126077652,
      0.029457949101924896,
      -0.02929404191672802,
      -0.028538471087813377,
      -0.016894467175006866,
      0.0017050057649612427,
      0.0005454011261463165,
      0.0005910992622375488,
      -0.0013430193066596985,
      -0.012739932164549828,
      -0.00010800361633300781,
      -0.011483415961265564,
      -0.02865304797887802,
      -0.00014876015484333038,
      -0.01928490772843361,
      0.01738956058397889,
      0.01684446632862091,
      0.02988264337182045,
      -0.028497301042079926,
      0.0007589217275381088,
      0.026356548070907593,
      0.0012108515948057175,
      0.02998344600200653,
      -0.01695851981639862,
      0.029511630535125732,
      -0.008997630327939987,
      -0.010812699794769287,
      0.0015189889818429947,
      -0.028372719883918762,
      0.00011341273784637451,
      0.022325284779071808,
      0.027534428983926773,
      0.02892491966485977,
      -8.043274283409119e-05,
      0.0013877246528863907,
      -0.027918487787246704,
      0.029576756060123444,
      -0.029602371156215668,
      -0.029643714427947998,
      -0.0017120465636253357,
      -0.027985624969005585,
      -3.4905970096588135e-05,
      -0.0002777501940727234,
      -0.027095837518572807,
      -0.00046696141362190247,
      -0.002477940171957016,
      -0.028414027765393257,
      -0.03002177458256483,
      0.009030967950820923,
      -0.00011119246482849121,
      -0.0017898008227348328,
      0.02968754991889,
      -0.022902946919202805,
      0.0288415364921093,
      0.00043809134513139725,
      0.029308147728443146,
      0.0007146820425987244,
      -0.014899063855409622,
      -0.02499854564666748,
      0.013317376375198364,
      2.0818784832954407e-05,
      -0.029562515206635,
      0.0015079155564308167,
      0.00042140111327171326,
      0.00032283365726470947,
      -0.02932903543114662,
      0.029935737140476704,
      0.004139125347137451,
      0.0005217790603637695,
      -0.02700704336166382,
      -0.0009100288152694702,
      0.0018459558486938477,
      0.009852848947048187,
      -0.028622932732105255,
      0.0012629888951778412,
      0.012066503055393696,
      0.029594391584396362,
      0.0017339736223220825,
      0.02969907596707344,
      -0.0208161398768425,
      -0.0008566342294216156,
      -0.02954740822315216,
      0.0051286593079566956,
      -0.00033425260335206985,
      -0.027052377350628376,
      0.0001659579575061798
    ],
    [
      0.00011953432112932205,
      0.0006301403045654297,
      -0.02346747647970915,
      0.0027637286111712456,
      0.016257563838735223,
      0.000521145761013031,
      0.029592975974082947,
      0.0008818851783871651,
      -8.74195247888565e-05,
      -0.0009795045480132103,
      -0.028366733342409134,
      -0.02739183697849512,
      0.012371270917356014,
      -0.02715955674648285,
      0.0007903203368186951,
      -0.02801083493977785,
      -0.02778114192187786,
      0.013089985586702824,
      0.028721592389047146,
      0.00038614775985479355,
      0.011929206782951951,
      -0.02819869387894869,
      -0.01249958318658173,
      0.0035572871565818787,
      0.028764760121703148,
      -0.02755445521324873,
      -0.016274505760520697,
      0.0014133825898170471,
      -0.008848013821989298,
      -0.017332241404801607,
      -0.007334464928135276,
      0.0009400593116879463
    ],
    [
      0.029489537701010704,
      -0.014265604317188263,
      0.009335240349173546,
      -0.0015557259321212769,
      0.022608090192079544,
      0.0023698844015598297,
      0.02975834719836712,
      -0.0011482387781143188,
      -0.029356203973293304,
      0.029155679047107697,
      -0.0010375101119279861,
      0.004237160086631775,
      -0.030003497377038002,
      -0.026805147528648376,
      0.00390944629907608,
      0.013951435685157776,
      0.004490900784730911,
      0.029566597193479538,
      0.0297626331448555,
      -0.02468538098037243,
      -0.029996171593666077,
      0.00018973462283611298,
      0.027475275099277496,
      0.008683271706104279,
      -0.0001655668020248413,
      0.00147227942943573,
      0.027343958616256714,
      0.027517400681972504,
      0.019822776317596436,
      0.0016306787729263306,
      0.029779747128486633,
      -0.009824052453041077
    ],
    [
      -0.0008032536134123802
    ]
  ],
  "num_updates": 2,
  "client_ids": [
    "client-1",
    "client-2"
  ],
  "mean_final_loss": 8.358511924743652,
  "aggregation_timestamp": 1784208928.4465337
}