{
  "version": "v9",
  "base_version": "v8",
  "round_id": 6,
  "aggregation": "fedavg",
  "averaged_weight_delta": [
    [
      0.02941305935382843,
      0.029404960572719574,
      0.02953786961734295,
      0.029714934527873993,
      0.029831238090991974,
      0.029824018478393555,
      0.029524261131882668,
      0.029986577108502388,
      0.0291369017213583,
      0.029257595539093018,
      -0.023074626922607422,
      -0.01765552908182144,
      -0.022412178106606007,
      -0.028497761115431786,
      -0.025811780244112015,
      1.2889504432678223e-06,
      -0.014807775616645813,
      -0.023217557929456234,
      -0.006382055580615997,
      0.00010690279304981232,
      -7.385388016700745e-06,
      -0.006842061877250671,
      -0.008864395320415497,
      0.00018185749650001526,
      0.0036655664443969727,
      -0.0016879914328455925,
      0.001138005405664444,
      0.0013152025640010834,
      -0.028827844187617302,
      -0.01580994948744774,
      -0.0020742565393447876,
      0.028068259358406067,
      0.02366241067647934,
      0.028349317610263824,
      0.0011850669980049133,
      0.00894645694643259,
      0.026657231152057648,
      0.023606371134519577,
      0.027688592672348022,
      0.018717095255851746,
      0.012354359030723572,
      -0.0002795485779643059,
      -0.0004149284213781357,
      -0.00015667080879211426,
      -0.00031593069434165955,
      -8.48621129989624e-05,
      -0.00023721158504486084,
      -5.786865949630737e-05,
      -0.00016477704048156738,
      0.012012988328933716,
      0.0289837047457695,
      0.029663391411304474,
      0.02680516242980957,
      0.029026374220848083,
      0.02918688952922821,
      0.029072269797325134,
      0.027411751449108124,
      0.026646122336387634,
      0.02594894915819168,
      0.028649426996707916,
      -0.029309473931789398,
      0.010471493005752563,
      -0.01441157702356577,
      0.020535457879304886,
      0.015165896154940128,
      -0.01626665738876909,
      0.0009628832340240479,
      0.011777177453041077,
      -0.02222335059195757,
      -0.02540683001279831,
      0.0013637878000736237,
      0.024350873194634914,
      0.02512906864285469,
      0.008972888812422752,
      0.026299181394279003,
      0.024750955402851105,
      0.0009535700082778931,
      0.01758174691349268,
      0.025506649166345596,
      0.028644748032093048,
      0.00608111172914505,
      0.004158452153205872,
      0.004239289090037346,
      0.004092006012797356,
      0.0010647550225257874,
      0.003921844065189362,
      0.004419662058353424,
      0.029740266501903534,
      0.016108490526676178,
      0.0020587071776390076,
      0.0031746532768011093,
      0.02633664384484291,
      0.026756837032735348,
      0.020179137587547302,
      0.0263853520154953,
      0.026868730783462524,
      0.028291266411542892,
      0.017872298136353493,
      -0.0007008891552686691,
      0.018718020990490913,
      0.0005093440413475037,
      0.00033874716609716415,
      0.013025343418121338,
      0.00019960105419158936,
      0.006501726806163788,
      0.01894216611981392,
      0.0005262754857540131,
      0.025691965594887733,
      0.025341564789414406,
      -8.520856499671936e-05,
      -1.0415911674499512e-05,
      -3.756210207939148e-05,
      2.0015984773635864e-05,
      0.00013337843120098114,
      -8.330494165420532e-05,
      2.0094215869903564e-05,
      -0.029416799545288086,
      -8.545815944671631e-06,
      0.013085298240184784,
      -0.000148736871778965,
      5.551334470510483e-05,
      -0.029490754008293152,
      0.003399074077606201,
      0.0032058190554380417,
      -0.00026407092809677124,
      -1.5482306480407715e-05,
      8.553266525268555e-05,
      -0.029868250712752342,
      0.013190016150474548,
      -0.02971769869327545,
      -0.02904506027698517,
      -0.027562357485294342,
      -0.02874740958213806,
      -0.027720846235752106,
      -0.028980039060115814,
      -0.028943493962287903,
      -0.029103294014930725,
      -0.028991863131523132,
      -0.02950334921479225,
      -0.02952618896961212,
      0.02766391634941101,
      0.028888488188385963,
      0.029531314969062805,
      0.029797233641147614,
      0.028815671801567078,
      0.02991366758942604,
      0.02922651916742325,
      0.029770001769065857,
      0.02858710289001465,
      0.02935030311346054,
      -6.27860426902771e-05,
      2.2800639271736145e-05,
      0.0008332282304763794,
      -0.00040377676486968994,
      0.015497587621212006,
      0.00023059546947479248,
      0.0002958625555038452,
      5.17750158905983e-05,
      -0.00023595336824655533,
      5.336292088031769e-05,
      0.01719627156853676,
      0.016993865370750427,
      0.02669649012386799,
      0.020431965589523315,
      0.012781975790858269,
      0.020488716661930084,
      0.021326832473278046,
      0.016515247523784637,
      0.02440600097179413,
      0.0009074211120605469,
      0.02395014278590679,
      0.015421316027641296,
      -0.0240635946393013,
      0.01352011039853096,
      0.022151270881295204,
      -0.027289360761642456,
      -0.0081596989184618,
      0.012095078825950623,
      -0.014639094471931458,
      0.012567371129989624,
      0.025577533058822155,
      0.00015976279973983765,
      0.027516400441527367,
      0.022580623626708984,
      0.027220964431762695,
      0.0016895215958356857,
      0.029597770422697067,
      0.013421177864074707,
      0.024485886096954346,
      0.025748327374458313,
      -0.0287657231092453,
      -0.029073253273963928,
      -0.02867253590375185,
      -0.028384774923324585,
      -0.02945128083229065,
      -0.029934714548289776,
      -0.013225555419921875,
      -0.029643301852047443,
      -0.02781832218170166,
      -0.029237672686576843,
      -0.0027364790439605713,
      -0.0011629611253738403,
      -0.0010078251361846924,
      -0.002428777515888214,
      0.002825390547513962,
      -0.00400678813457489,
      -0.0011071115732192993,
      -0.00034617260098457336,
      -0.01322764903306961,
      -0.0007819235324859619,
      -0.028310000896453857,
      -0.02919737808406353,
      -0.027356520295143127,
      -0.0285014808177948,
      -0.02985101193189621,
      -0.02986954152584076,
      -0.029320120811462402,
      -0.029796406626701355,
      0.012509241700172424,
      -0.006567967124283314,
      0.02936242427676916,
      0.0025349920615553856,
      0.02966931462287903,
      0.030025217682123184,
      0.029650874435901642,
      0.029972247779369354,
      0.015167277306318283,
      0.029731009155511856,
      0.0005113035440444946,
      0.0024718567728996277,
      -0.029591821134090424,
      -0.029990877956151962,
      -0.029737474396824837,
      -0.003890935331583023,
      -0.029948659241199493,
      -0.029706604778766632,
      -0.00016776472330093384,
      -0.029524944722652435,
      -0.025522449985146523,
      -0.029815681278705597,
      -0.027774330228567123,
      -0.027521212585270405,
      -0.017332464456558228,
      0.008714165538549423,
      -0.009176984429359436,
      -0.02876432053744793,
      0.012057900428771973,
      -0.016845821402966976,
      -0.02854207158088684,
      -0.027460306882858276,
      -0.029907554388046265,
      -0.029422413557767868,
      -0.029787197709083557,
      -0.029522042721509933,
      -0.029830530285835266,
      -0.02983175218105316,
      -0.029929663985967636,
      -0.029347211122512817,
      -0.029794923961162567,
      -0.030016228556632996,
      0.02906305342912674,
      0.027672916650772095,
      0.029428739100694656,
      0.0288444384932518,
      0.029148586094379425,
      0.02909916639328003,
      0.028394073247909546,
      0.02930908463895321,
      0.005404634401202202,
      0.029203876852989197,
      0.029821205884218216,
      -0.010776450857520103,
      0.0011846739798784256,
      0.0024113208055496216,
      0.012045539915561676,
      0.029132649302482605,
      0.0013038283213973045,
      0.004752526059746742,
      -0.027419631369411945,
      0.0010094121098518372,
      -0.011802908033132553,
      0.00031929463148117065,
      -0.0014567524194717407,
      -0.0023582950234413147,
      3.1966716051101685e-05,
      -0.005325280129909515,
      -0.0002803308889269829,
      0.000367533415555954,
      0.0015222113579511642,
      -0.0004951730370521545,
      0.0018900036811828613,
      0.029957173392176628,
      0.02957199327647686,
      0.0299273869022727,
      0.02929176390171051,
      0.028606195002794266,
      0.029888220131397247,
      0.02963969949632883,
      0.030021962709724903,
      0.030013378709554672,
      -6.375182420015335e-05,
      4.969164729118347e-05,
      -0.017576079815626144,
      0.00013684667646884918,
      3.5278499126434326e-05,
      0.0008008554577827454,
      0.0001538693904876709,
      0.00017807446420192719,
      0.013575151562690735,
      0.00022223219275474548,
      0.00021246075630187988,
      -0.0008499622344970703,
      -0.029528461396694183,
      -0.029964618384838104,
      -0.02947661280632019,
      -0.02834903448820114,
      -0.028541794046759605,
      -0.029170671477913857,
      -0.029320809058845043,
      -0.029904348775744438
    ],
    [
      -0.009177700383588672,
      0.016349250450730324,
      0.028875339776277542,
      -0.02873221319168806,
      0.0004686545580625534,
      -0.007027319632470608,
      0.0016005095094442368,
      0.007039054296910763,
      0.0059005944058299065,
      -0.017801860347390175,
      0.029380273073911667,
      -0.011088656028732657,
      0.02881559357047081,
      -0.0009442213922739029,
      -0.004667951725423336,
      -0.000540655106306076,
      0.005397438071668148,
      -0.011896384414285421,
      0.00460517592728138,
      0.0006564343348145485,
      -0.025255787186324596,
      0.0001350902020931244,
      0.027429545298218727,
      0.00032812729477882385,
      0.00016986671835184097,
      0.0287134051322937,
      0.003489484079182148,
      0.028922579251229763,
      -0.02530923020094633,
      0.02950321137905121,
      0.02951488457620144,
      0.028732496313750744
    ],
    [
      5.491077899932861e-05,
      -0.0003320164978504181,
      -0.027770737186074257,
      -0.029436584562063217,
      9.029358625411987e-05,
      -0.027466434985399246,
      0.0007955096662044525,
      0.0293513722717762,
      -0.000631965696811676,
      -0.028841111809015274,
      0.029782995581626892,
      -0.015132144093513489,
      7.48857855796814e-05,
      -0.0027041658759117126,
      0.026543155312538147,
      -0.028730119578540325,
      0.01639475068077445,
      -0.02977607026696205,
      0.028888151049613953,
      0.02890130691230297,
      -0.028886262327432632,
      0.00013803690671920776,
      -0.029693596065044403,
      -0.029816620983183384,
      0.00020729191601276398,
      -0.019886381924152374,
      0.02955533377826214,
      -0.029103746637701988,
      -0.029615404084324837,
      -0.028898926451802254,
      0.029977155849337578,
      0.0005259774625301361,
      0.002996046096086502,
      -0.02724047750234604,
      0.029477424919605255,
      0.005389494821429253,
      0.0013949964195489883,
      -0.016691822558641434,
      0.0008594319224357605,
      0.029612094163894653,
      2.180039882659912e-05,
      -0.0016315821558237076,
      0.0006377324461936951,
      -0.0035349875688552856,
      0.00036444514989852905,
      -0.0015508010983467102,
      -0.013039077632129192,
      -0.021201595664024353,
      0.015318484045565128,
      -0.02920372225344181,
      0.0012947246432304382,
      -0.00019362568855285645,
      -0.026165902614593506,
      4.8547983169555664e-05,
      0.002490619197487831,
      -0.028402268886566162,
      0.0027675069868564606,
      -0.012601524591445923,
      0.029833324253559113,
      -1.1008232831954956e-05,
      -0.029259927570819855,
      -0.02970823273062706,
      0.030023813247680664,
      0.000424068421125412,
      0.01719251275062561,
      -0.0001613963395357132,
      5.83156943321228e-05,
      0.015845738351345062,
      0.029910646378993988,
      0.026801809668540955,
      0.004020117223262787,
      6.775557994842529e-05,
      -0.02926037460565567,
      -0.0005652531981468201,
      0.00012360699474811554,
      0.013541802763938904,
      0.005905606783926487,
      -0.028341012075543404,
      0.009011685848236084,
      -0.006448984146118164,
      0.0043542832136154175,
      2.2083520889282227e-05,
      -0.0030965879559516907,
      0.0008417628705501556,
      -8.563697338104248e-05,
      0.029846247285604477,
      0.02600877732038498,
      1.7762184143066406e-05,
      0.03000660240650177,
      0.00020875036716461182,
      0.00012590736150741577,
      -0.029796957969665527,
      -3.769993782043457e-06,
      -0.02986712008714676,
      0.00013306736946105957,
      0.029993563890457153,
      0.02160966396331787,
      -0.02957083284854889,
      0.029738083481788635,
      0.029838649556040764,
      0.0005410891026258469,
      -0.028139399364590645,
      0.029829395934939384,
      0.0298488587141037,
      -0.00010001100599765778,
      0.029689081013202667,
      0.029954127967357635,
      -0.0005039740353822708,
      0.029259858652949333,
      -0.00016495585441589355,
      0.028187770396471024,
      0.02928362414240837,
      0.02936236932873726,
      -0.014804163947701454,
      0.029575254768133163,
      0.02986402064561844,
      -0.029624423012137413,
      -2.4743378162384033e-05,
      0.0294107124209404,
      -0.00025223568081855774,
      -1.298263669013977e-05,
      -2.3618340492248535e-06,
      0.029514193534851074,
      0.01676885038614273,
      -0.029817834496498108,
      0.00013820640742778778,
      0.02997356653213501,
      5.029141902923584e-06,
      -0.004796378314495087,
      -0.005535636097192764,
      -0.0005178600549697876,
      0.0017830971628427505,
      0.029802940785884857,
      0.028775978833436966,
      0.02998197078704834,
      0.00016281567513942719,
      -0.01581742614507675,
      -0.00014916155487298965,
      0.00011190865188837051,
      0.015482494374737144,
      0.00042241066694259644,
      -0.0017608478665351868,
      0.027336739003658295,
      0.027997277677059174,
      -8.904188871383667e-05,
      0.0010355785489082336,
      -0.0013812556862831116,
      0.0005881935358047485,
      0.02985350787639618,
      0.029873967170715332,
      -2.9161572456359863e-05,
      0.026988424360752106,
      0.029960617423057556,
      0.028759131208062172,
      -0.0001381058245897293,
      -4.6487897634506226e-05,
      0.02990530990064144,
      -0.0048872968181967735,
      5.1215291023254395e-05,
      0.02980019897222519,
      0.006587129086256027,
      0.0023949071764945984,
      -0.026707567274570465,
      -0.02513941377401352,
      -0.027745322324335575,
      0.0012087076902389526,
      -0.028799498453736305,
      0.0021580010652542114,
      0.029302645474672318,
      -0.020298920571804047,
      -0.027167469263076782,
      -0.02421540580689907,
      0.011332795023918152,
      0.012738227844238281,
      0.0010093040764331818,
      0.0010510776191949844,
      -0.023184597492218018,
      -0.017514213919639587,
      0.014420133084058762,
      0.0005902759730815887,
      0.0022915229201316833,
      -0.025340676307678223,
      -0.005628742277622223,
      -0.018602553755044937,
      -0.025688614696264267,
      -0.02798973023891449,
      0.014393012039363384,
      0.0026561394333839417,
      -0.027367673814296722,
      0.0007873885333538055,
      -0.000108351930975914,
      -0.028772402554750443,
      0.0069679562002420425,
      0.029888476245105267,
      -0.0004577096551656723,
      0.000514601357281208,
      0.0001635923981666565,
      0.025379300117492676,
      -0.0008288398385047913,
      -0.015351839363574982,
      0.00015822425484657288,
      0.0003104396164417267,
      8.184090256690979e-05,
      0.0017343685030937195,
      0.015169822610914707,
      0.004968460649251938,
      -0.024538757279515266,
      0.028978852555155754,
      -0.01680704951286316,
      0.01735178753733635,
      0.0053435564041137695,
      -0.0015277639031410217,
      0.029725930653512478,
      0.000265657901763916,
      0.01601642370223999,
      0.029751796275377274,
      0.00010091811418533325,
      -0.0001233033835887909,
      -0.021605856716632843,
      0.005392442457377911,
      0.0297244843095541,
      0.029457777738571167,
      -0.029839671216905117,
      7.584318518638611e-05,
      0.029329096898436546,
      0.02995551284402609,
      -0.025848902761936188,
      -0.024237461388111115,
      -0.029228609055280685,
      0.0001849289983510971,
      -0.0295918807387352,
      0.0005458332598209381,
      0.029832541942596436,
      0.008415928110480309,
      0.000566825270652771,
      -0.008351355791091919,
      0.005053199827671051,
      0.029681887477636337,
      0.011105986777693033,
      -0.0005593076348304749,
      0.0008244365453720093,
      -0.014247342944145203,
      0.003270171582698822,
      6.938353180885315e-05,
      0.000405922532081604,
      -0.02909909188747406,
      0.014133892953395844,
      -0.012655217200517654,
      -0.029335394501686096,
      -0.02613847330212593,
      0.0033621378242969513,
      0.029516255483031273,
      0.0015988387167453766,
      0.017147067934274673,
      0.00016051717102527618,
      -0.029730998910963535,
      0.029751218855381012,
      3.6213546991348267e-05,
      0.010298928245902061,
      -0.019553296267986298,
      -0.028830595314502716,
      1.8481165170669556e-05,
      -0.02918686717748642,
      0.002443850040435791,
      0.029760129749774933,
      0.00775277242064476,
      0.001095592975616455,
      -0.001415204256772995,
      0.018243364989757538,
      0.02930575981736183,
      0.012277133762836456,
      0.002620600163936615,
      0.004259362816810608,
      0.00020982325077056885,
      0.013737110421061516,
      0.00730554386973381,
      0.0004169940948486328,
      -0.02528419904410839,
      0.0014637112617492676,
      -1.735985279083252e-06,
      -0.025566019117832184,
      -0.017197296023368835,
      0.009925331454724073,
      0.030014455318450928,
      0.0001618713140487671,
      0.013148695230484009,
      0.00036565959453582764,
      -0.029780853539705276,
      0.012543935328722,
      -0.029909656383097172,
      0.029967276379466057,
      -0.00016266480088233948,
      0.00019115209579467773,
      -0.029348082840442657,
      5.7052820920944214e-05,
      0.0296783447265625,
      -0.00013828091323375702,
      -0.0030079185962677,
      0.029853418469429016,
      -0.0030844174325466156,
      -0.0020937779918313026,
      0.029049680568277836,
      0.0009036436676979065,
      -0.029255855828523636,
      0.028444567695260048,
      -0.00627288781106472,
      0.001244284212589264,
      0.029645856469869614,
      -0.029771804809570312,
      -0.000112093985080719,
      -0.02681167796254158,
      -0.0003569573163986206,
      3.093015402555466e-05,
      -0.028704793192446232,
      0.02814340405166149,
      2.1345913410186768e-05,
      -0.02974046766757965,
      -0.029482081532478333,
      0.02963212877511978,
      1.4021992683410645e-05,
      -0.0007343441247940063,
      -0.0268157497048378,
      0.029014294035732746,
      -4.661828279495239e-05,
      0.029953986406326294,
      0.029827959835529327,
      0.029926061630249023,
      0.0021974537521600723,
      -0.024132736027240753,
      0.02941122278571129,
      0.02843270357698202,
      0.017609961330890656,
      0.005458982661366463,
      -0.0005924608558416367,
      0.02912813052535057,
      0.027633093297481537,
      0.004896264523267746,
      -0.024155303835868835,
      0.001996925100684166,
      0.000976579263806343,
      0.028728753328323364,
      0.028360411524772644,
      0.006531606428325176,
      0.011365695390850306,
      0.0024580005556344986,
      0.029658667743206024,
      0.0015760399401187897,
      -0.01195143535733223,
      -0.019865086302161217,
      0.00775735080242157,
      0.0009215995669364929,
      0.029390424489974976,
      -0.013643115758895874,
      -0.02979867160320282,
      0.014279678463935852,
      0.0013718605041503906,
      0.0010445304214954376,
      -0.027798245660960674,
      0.002003878355026245,
      0.029751460999250412,
      -0.00025757402181625366,
      0.008911330252885818,
      0.029671937227249146,
      -0.000692158006131649,
      0.00011961907148361206,
      0.01701781153678894,
      -0.0008018761873245239,
      -0.012920234352350235,
      -0.00011204183101654053,
      -0.013507075607776642,
      0.029157273471355438,
      0.029164547100663185,
      -0.029352933168411255,
      0.0001454465091228485,
      -0.011418952606618404,
      9.515136480331421e-05,
      0.00040585920214653015,
      -0.00021166354417800903,
      0.029312709346413612,
      -0.02289792150259018,
      -0.02940228208899498,
      -0.029350772500038147,
      0.029952555894851685,
      0.001485586166381836,
      0.018075183033943176,
      0.0011905627325177193,
      0.029909327626228333,
      0.030000392347574234,
      0.02998366393148899,
      0.019876152276992798,
      0.030025720596313477,
      0.00013580918312072754,
      -0.01688816025853157,
      0.024868756532669067,
      1.3634562492370605e-05,
      0.029758252203464508,
      0.029445501044392586,
      0.0010471493005752563,
      0.029225870966911316,
      0.029774616472423077,
      0.0288694454357028,
      0.024312540888786316,
      -4.1466206312179565e-05,
      0.00023951008915901184,
      0.025366514921188354,
      0.02982376702129841,
      0.023956015706062317,
      0.029875420033931732,
      0.029928404837846756,
      0.029844891279935837,
      -0.0005037263035774231,
      -0.005147725343704224,
      0.025856204330921173,
      0.021040357649326324,
      -4.869513213634491e-05,
      0.029882311820983887,
      8.211657404899597e-05,
      -0.02844007033854723,
      0.0006581209599971771,
      0.010466006584465504,
      0.02994006872177124,
      0.029685113579034805,
      0.030030786991119385,
      0.00045632757246494293,
      -0.028309485875070095,
      0.0006028264760971069,
      0.0002799592912197113,
      0.012541890144348145,
      0.0012244675308465958,
      0.0008396711200475693,
      0.0019702650606632233,
      0.0006824061274528503,
      0.0008430331945419312,
      -0.02702096849679947,
      -0.002243686467409134,
      0.0011166483163833618,
      -0.00017425790429115295,
      0.029802795499563217,
      -0.006744079291820526,
      0.0020039156079292297,
      0.029957400634884834,
      0.010722748935222626,
      0.0003497246652841568,
      -0.0295131653547287,
      -0.00026904791593551636,
      -0.028476431965827942,
      0.0004150392487645149,
      0.03000451996922493,
      0.02968105673789978,
      0.0017707981169223785,
      0.00644325464963913,
      -0.015203502029180527,
      0.00028748810291290283,
      0.02983891684561968,
      0.0020474400371313095,
      -0.02836807817220688,
      0.0014032498002052307,
      -0.01789163239300251,
      -0.028507649898529053,
      -0.012277297675609589,
      0.027913685888051987,
      0.0021238625049591064,
      -0.008034031838178635,
      0.029501914978027344,
      -0.010622940957546234,
      0.027836918830871582,
      -0.0015969760715961456,
      -0.01341838389635086,
      0.0299693513661623,
      0.00044805649667978287,
      0.0007090047001838684,
      0.017096377909183502,
      0.0006038695573806763,
      0.029972057789564133,
      -3.8312748074531555e-05,
      0.0005517564713954926,
      0.029887638986110687,
      9.009242057800293e-05,
      -0.029064777307212353,
      0.00026324763894081116,
      -0.021306286565959454,
      0.015064585953950882,
      0.00010450556874275208,
      -0.012458786368370056,
      -0.029024213552474976,
      -0.0017211083322763443,
      -0.027334704995155334,
      0.0006279023364186287,
      0.029805947095155716,
      0.0007973238825798035,
      0.0003407550975680351,
      -0.027081899344921112,
      -0.025386735796928406,
      9.137392044067383e-05,
      -6.7882239818573e-05,
      0.024135466665029526,
      9.347125887870789e-05,
      -0.028528012335300446,
      0.01127295196056366,
      0.00019831955432891846,
      -0.02739377785474062,
      -0.029152194038033485,
      -0.00718826986849308,
      -0.029344134032726288,
      -0.029533948749303818,
      -0.029646441340446472,
      0.0007743611931800842,
      -0.0005383715033531189,
      -0.026602603495121002,
      -0.002852298319339752,
      8.9205801486969e-05,
      -0.029370279982686043,
      0.027866180986166,
      -0.02959403023123741,
      0.029285423457622528,
      0.0007507354021072388,
      0.0012336745858192444,
      -0.028826840221881866,
      0.0007548034191131592,
      0.02892402559518814,
      -0.0006254985928535461,
      0.028702215291559696,
      0.02923477254807949,
      -0.0007315129041671753,
      0.013220459222793579,
      0.028063536621630192,
      0.0011007003486156464,
      -0.02953927218914032,
      0.029070213437080383,
      -0.01585364155471325,
      0.024551142007112503,
      0.028641781769692898,
      -0.02886205166578293,
      0.0005601588636636734,
      0.00019082054495811462,
      0.00015495717525482178,
      0.0009193010628223419,
      -0.0285252183675766,
      0.028968614526093006,
      -0.0006004013121128082,
      -0.02888648211956024,
      -0.02577538788318634,
      0.028576470911502838,
      0.0007603373378515244,
      0.00038123130798339844,
      -0.02059914916753769,
      0.0017211027443408966,
      0.02983202040195465,
      0.029825545847415924,
      8.507072925567627e-05,
      0.029139075428247452,
      0.0003926604986190796,
      -0.028737373650074005,
      0.0032745525240898132,
      0.007677249610424042,
      0.015752136707305908,
      0.005270961672067642,
      0.0005742907524108887,
      0.0007988549768924713,
      -0.029131067916750908,
      -0.0006794575601816177,
      -0.019216172397136688,
      -0.00025966018438339233,
      0.0012100636959075928,
      -0.029607154428958893,
      0.02993191033601761,
      -0.01742720976471901,
      0.02967742457985878,
      0.006294287741184235,
      0.0073080649599432945,
      0.0004197731614112854,
      -0.02927131950855255,
      -0.00028630904853343964,
      -0.026891790330410004,
      0.0006349906325340271,
      0.02993608918040991,
      -0.028327306732535362,
      -0.027419624850153923,
      0.001100068911910057,
      0.00028264522552490234,
      0.0019480697810649872,
      -0.027500949800014496,
      0.0016716495156288147,
      0.001295940950512886,
      -0.02839154563844204,
      0.00013416633009910583,
      0.0017245560884475708,
      0.001248374581336975,
      -0.01220664381980896,
      0.0015115700662136078,
      -0.02881566435098648,
      -0.027489932253956795,
      -0.003248848021030426,
      0.001480691134929657,
      -0.02749469131231308,
      0.001652829349040985,
      -0.028663935139775276,
      0.016324294731020927,
      -0.02900920808315277,
      -0.01161106675863266,
      0.0014729872345924377,
      0.003200199455022812,
      -0.013061455450952053,
      -0.028549850918352604,
      -0.028308503329753876,
      -0.028154343366622925,
      0.0014412030577659607,
      0.003378927707672119,
      -0.011826612055301666,
      0.029881812632083893,
      -0.02921634539961815,
      0.0006044358015060425,
      0.00048055499792099,
      0.028811542317271233,
      0.0019692666828632355,
      -0.02863581944257021,
      0.0007461505010724068,
      0.0002333223819732666,
      -0.029084889218211174,
      0.0008464604616165161,
      -0.01168227568268776,
      0.0006715310737490654,
      -0.027543749660253525,
      -0.016007957980036736,
      -0.028140075504779816,
      0.028206298127770424,
      -0.027335450053215027,
      -0.028825290501117706,
      0.029154006391763687,
      0.0001933574676513672,
      0.0020974427461624146,
      0.00935140997171402,
      0.00035310350358486176,
      0.0015642419457435608,
      -0.02358635887503624,
      0.00019909068942070007,
      0.029626820236444473,
      0.0004123374819755554,
      -0.02826056070625782,
      0.0003910772502422333,
      7.880479097366333e-05,
      0.0012677796185016632,
      -0.005531623959541321,
      -0.011796992272138596,
      -0.028210505843162537,
      0.00031429994851350784,
      -8.871406316757202e-05,
      -0.027801694348454475,
      0.0003363862633705139,
      -0.0006591891869902611,
      -0.02774531114846468,
      -0.0184142729267478,
      0.0005407100543379784,
      0.00025409087538719177,
      -7.265061140060425e-05,
      0.00024665892124176025,
      -0.00048200786113739014,
      5.313567817211151e-05,
      -0.0013275090605020523,
      -0.018834464251995087,
      0.0001358240842819214,
      -0.028807837516069412,
      -0.00017914175987243652,
      0.0002700742334127426,
      -0.017893772572278976,
      0.001986198127269745,
      0.00018345564603805542,
      0.00010143592953681946,
      0.0010651983320713043,
      -0.00033576786518096924,
      -0.028476718813180923,
      -0.02921959012746811,
      0.012823764234781265,
      0.0007293149828910828,
      0.029724527150392532,
      0.029133986681699753,
      0.03000950627028942,
      -4.855357110500336e-05,
      0.029705271124839783,
      0.029798993840813637,
      -1.1935830116271973e-05,
      0.02999825030565262,
      0.029856715351343155,
      0.029743172228336334,
      0.0003728047013282776,
      1.4603137969970703e-06,
      0.01790837198495865,
      0.0017619701102375984,
      0.029162228107452393,
      0.02937237359583378,
      0.024336159229278564,
      0.029683522880077362,
      -1.2606382369995117e-05,
      0.029848702251911163,
      0.013123907148838043,
      0.028471630066633224,
      0.02965928241610527,
      0.0010813698172569275,
      0.01928706094622612,
      0.029902823269367218,
      -5.982816219329834e-06,
      0.0008446965366601944,
      0.029425829648971558,
      0.02985526993870735,
      0.02918785810470581,
      0.004364669322967529,
      0.029969405382871628,
      0.0006665065884590149,
      -0.027790246531367302,
      0.00013056769967079163,
      -0.025937620550394058,
      0.001927293837070465,
      0.029697978869080544,
      0.0010562371462583542,
      0.002388864755630493,
      -0.014620788395404816,
      -0.0012252852320671082,
      0.0008395612239837646,
      -0.023493818938732147,
      0.0014790110290050507,
      0.0021419525146484375,
      0.0016231127083301544,
      0.001474715769290924,
      0.004510756582021713,
      0.0010153166949748993,
      -0.029284492135047913,
      0.003919884562492371,
      0.00031970441341400146,
      -0.028241923078894615,
      -0.016066424548625946,
      0.004232387989759445,
      0.030001461505889893,
      0.0009150430560112,
      0.000630699098110199,
      0.0018109437078237534,
      -0.029081955552101135,
      0.007322218269109726,
      2.1707266569137573e-05,
      0.01044490560889244,
      0.029424451291561127,
      0.016613997519016266,
      0.02737145684659481,
      0.029776999726891518,
      0.029789336025714874,
      0.00026076938956975937,
      0.02869708091020584,
      0.02941307984292507,
      0.000573422759771347,
      0.028886552900075912,
      0.007895760238170624,
      0.017537306994199753,
      0.00041097402572631836,
      0.02949415147304535,
      0.00012862682342529297,
      0.029313355684280396,
      0.01761525124311447,
      -0.026735369116067886,
      -0.00031179189682006836,
      0.000997401773929596,
      -0.012254527769982815,
      -0.0014442503452301025,
      -0.01386326365172863,
      0.02983202040195465,
      3.0025839805603027e-06,
      -0.02928762510418892,
      0.0002483595162630081,
      0.03001011349260807,
      0.029894009232521057,
      0.01577526330947876,
      0.029928200878202915,
      -0.0005519110709428787,
      0.0006702803075313568,
      0.00015629734843969345,
      0.029332298785448074,
      -6.966665387153625e-05,
      8.022692054510117e-05,
      0.02979688812047243,
      0.002316448837518692,
      -5.972757935523987e-05,
      0.0017577484250068665,
      0.02847999334335327,
      0.0300237899646163,
      0.0007565170526504517,
      0.029866408556699753,
      0.003408484160900116,
      0.02960514836013317,
      0.010224426630884409,
      0.00047267600893974304,
      0.029021982103586197,
      -0.001552964560687542,
      0.007436063140630722,
      0.029602227732539177,
      3.485381603240967e-05,
      0.028876759111881256,
      0.009404554963111877,
      0.029737744480371475,
      0.02992340922355652,
      0.02977593243122101,
      0.00030021369457244873,
      0.00011681485921144485,
      0.002056591212749481,
      0.030017300508916378,
      -0.027960188686847687,
      0.002175731584429741,
      0.0008587762713432312,
      0.029901749454438686,
      0.0008125156164169312,
      -0.02845807559788227,
      0.0008612498641014099,
      0.0016255676746368408,
      -0.0296190045773983,
      0.006084844470024109,
      0.029682040214538574,
      0.007017212919890881,
      -0.008766446262598038,
      0.02921928558498621,
      -0.025137823075056076,
      0.029908236116170883,
      -0.021020505111664534,
      -0.028609637171030045,
      0.02999614179134369,
      0.0007644891738891602,
      0.028235914185643196,
      0.02889450639486313,
      0.0014309510588645935,
      0.02961070090532303,
      -0.012854192405939102,
      0.029605955816805363,
      0.02999049797654152,
      0.02990517020225525,
      -0.029384158551692963,
      0.0002014562487602234,
      0.028585955500602722,
      2.8289854526519775e-05,
      0.0295318141579628,
      0.029979802668094635,
      0.02997562661767006,
      0.00039492547512054443,
      0.029938749969005585,
      0.029922977089881897,
      -3.565102815628052e-05,
      0.02750607207417488,
      0.029894769191741943,
      0.028352449648082256,
      0.02994862198829651,
      0.029662329703569412,
      0.029904955998063087,
      0.027364402078092098,
      0.029657632112503052,
      0.022368052043020725,
      0.028904514387249947,
      0.029829513281583786,
      0.0191453006118536,
      0.0002063959836959839,
      0.023573756217956543,
      0.016878396272659302,
      0.02995590679347515,
      0.029485639184713364,
      0.029818560928106308,
      0.013088155537843704,
      0.000269569456577301,
      0.0009528696537017822,
      0.030005373060703278,
      0.0010245367884635925,
      -0.015105850994586945,
      -0.013440319336950779,
      0.013029038906097412,
      0.016230780631303787,
      0.017071999609470367,
      -0.012303341180086136,
      0.004850864410400391,
      0.012515679001808167,
      -0.017869241535663605,
      0.016968414187431335,
      0.013766085729002953,
      0.013719595968723297,
      -0.014426052570343018,
      -0.019199663773179054,
      -0.0158548466861248,
      -0.02240796573460102,
      0.014464382082223892,
      -0.012350093573331833,
      -0.016270354390144348,
      0.011371210217475891,
      -0.012113772332668304,
      0.016427258029580116,
      -0.012979289516806602,
      -0.013392098248004913,
      0.01702573522925377,
      -0.012498199939727783,
      -0.01679263636469841,
      -0.014936953783035278,
      -0.012446505948901176,
      -0.011523563414812088,
      0.01325847115367651,
      0.016436227597296238,
      -0.025582604110240936,
      -0.02215498685836792,
      -0.025301530957221985,
      -0.027010507881641388,
      -0.022769256494939327,
      -0.027589119970798492,
      -0.02670064941048622,
      -0.02744610235095024,
      -0.02654692530632019,
      -0.024818740785121918,
      -0.025890588760375977,
      -0.02505864854902029,
      -0.025059755891561508,
      -0.02803354524075985,
      -0.02768862247467041,
      -0.028237324208021164,
      -0.028011090122163296,
      -0.01150253415107727,
      -0.028822243213653564,
      -0.026012733578681946,
      0.005152605473995209,
      0.002996191382408142,
      -0.026810012757778168,
      -0.021960724145174026,
      0.0017204228788614273,
      -0.020582016557455063,
      -0.0278850756585598,
      -0.025081194937229156,
      -0.010380610823631287,
      -0.024358251132071018,
      -0.0279354490339756,
      -0.025542408227920532,
      0.011440683156251907,
      0.015488496981561184,
      0.00029578059911727905,
      -0.008812269195914268,
      0.0006722733378410339,
      0.029323872178792953,
      0.0018915385007858276,
      -0.027861960232257843,
      0.00043969228863716125,
      0.0070881955325603485,
      -0.02662891149520874,
      0.009359098970890045,
      -0.011210484430193901,
      0.0007473938167095184,
      0.015445724129676819,
      -0.004160845652222633,
      -0.02567425835877657,
      0.012604400515556335,
      -0.024771349504590034,
      -0.027193833142518997,
      0.029940813779830933,
      0.004278369247913361,
      0.0011676289141178131,
      0.014540895819664001,
      0.0013849884271621704,
      0.013232964091002941,
      -0.02236083522439003,
      0.00021307356655597687,
      0.005311053246259689,
      0.0012582838535308838,
      -0.02747481409460306,
      0.0022267475724220276,
      0.02583259902894497,
      -0.0268564410507679,
      0.029151301831007004,
      0.005220592021942139,
      0.0007750168442726135,
      0.0010630693286657333,
      0.00141172856092453,
      0.029974810779094696,
      -8.553266525268555e-06,
      0.012882523238658905,
      0.029889177531003952,
      0.0008495235815644264,
      0.0020296163856983185,
      5.9932470321655273e-05,
      0.015441067516803741,
      -0.002165667712688446,
      0.0244789719581604,
      -0.0288853719830513,
      0.02799803391098976,
      0.029864471405744553,
      -0.029473131522536278,
      0.00022990256547927856,
      0.004388019442558289,
      -0.028384458273649216,
      0.00044908467680215836,
      0.00018493086099624634,
      0.02936669811606407,
      -0.0003481954336166382,
      -0.02840399369597435,
      -0.0008602198213338852,
      0.0299218762665987,
      0.0006539970636367798,
      0.0015947017818689346,
      0.000721026211977005,
      -0.014393697492778301,
      0.01171959564089775,
      0.02872389554977417,
      0.022753000259399414,
      0.00558152049779892,
      0.00043482333421707153,
      -0.027206726372241974,
      -0.0038393614813685417,
      9.83215868473053e-05,
      0.012470598332583904,
      0.027728531509637833,
      -0.015377208590507507,
      0.002342221327126026,
      -0.022954486310482025,
      -0.01414535939693451,
      0.000987236388027668,
      -0.0074599385261535645,
      0.00012446194887161255,
      -0.00014173239469528198,
      0.02972729504108429,
      -0.010279364883899689,
      0.000902026891708374,
      0.02898173499852419,
      0.0020158234983682632,
      3.091152757406235e-05,
      -0.02496686577796936,
      0.0007295086979866028,
      0.0001913122832775116,
      0.00030347704887390137,
      0.029443729668855667
    ],
    [
      -0.022481197491288185,
      0.008730743080377579,
      0.005191362462937832,
      0.029819944873452187,
      0.0018408894538879395,
      -0.024685444310307503,
      0.0012191422283649445,
      0.002449970692396164,
      -0.012666474562138319,
      -0.0025907931849360466,
      0.016957735177129507,
      0.0007315175607800484,
      0.02981211431324482,
      0.002253107726573944,
      0.013661670265719295,
      -0.0027767550200223923,
      0.00030073337256908417,
      0.001263693906366825,
      0.0006101271137595177,
      -0.025993037037551403,
      0.0001256801187992096,
      0.02520486433058977,
      -0.008004273753613234,
      0.014847901184111834,
      0.010293996892869473,
      0.01586782280355692,
      0.02975616417825222,
      -0.014813067158684134,
      -0.026892323046922684,
      -0.015933810733258724,
      0.011598718352615833,
      0.0031716367229819298
    ],
    [
      -0.02668534219264984,
      -0.024081598967313766,
      -0.00885472446680069,
      -2.6151537895202637e-06,
      -0.001466698944568634,
      -0.013136755675077438,
      -0.028185859322547913,
      -0.022761128842830658,
      0.01739904284477234,
      -0.027173899114131927,
      -0.017553845420479774,
      -0.028480246663093567,
      -0.03003272507339716,
      -0.0013453178107738495,
      0.022601142525672913,
      0.0005571246147155762,
      -0.028614635579288006,
      -0.0006414428353309631,
      -0.0023488011211156845,
      -0.0002377741038799286,
      0.029132336378097534,
      0.004119545221328735,
      -0.012496307492256165,
      0.014598608016967773,
      0.009440090507268906,
      -0.0006214641034603119,
      -3.2685697078704834e-05,
      0.01603213814087212,
      5.3942203521728516e-06,
      0.0015336871147155762,
      -0.018806204199790955,
      -0.009343428537249565
    ],
    [
      -0.027190808206796646
    ]
  ],
  "num_updates": 2,
  "client_ids": [
    "client-2",
    "client-1"
  ],
  "mean_final_loss": 6.978562831878662,
  "aggregation_timestamp": 1784208474.4093843
}