{
  "version": "v28",
  "base_version": "v27",
  "round_id": 25,
  "aggregation": "fedavg",
  "averaged_weight_delta": [
    [
      -0.0009098798036575317,
      0.003649204969406128,
      0.0012073516845703125,
      0.02640579082071781,
      0.000929906964302063,
      -0.028643719851970673,
      0.011776428669691086,
      -0.009775052079930902,
      0.0034294389188289642,
      0.015022963285446167,
      -0.02954709157347679,
      -0.027871440164744854,
      -0.008658584207296371,
      -0.02914668619632721,
      -0.014081686735153198,
      -0.01692420244216919,
      -0.02710994891822338,
      -0.018952473998069763,
      -0.029056206345558167,
      -0.028280578553676605,
      -0.02510889247059822,
      4.929304122924805e-05,
      -0.0027358904480934143,
      -0.00015395879745483398,
      2.0459294319152832e-05,
      -0.0001144111156463623,
      -0.0214705690741539,
      -0.0013826396316289902,
      0.00010197609663009644,
      5.744025111198425e-05,
      0.0004021301865577698,
      0.01728348433971405,
      0.0158705897629261,
      0.017560705542564392,
      0.022268258035182953,
      0.006389610469341278,
      0.0007953941822052002,
      0.020231693983078003,
      0.012802518904209137,
      0.013691904954612255,
      0.00022446922957897186,
      -0.0002612592652440071,
      -0.0004969630390405655,
      -0.00022267550230026245,
      0.0001440085470676422,
      -0.0003063660115003586,
      -1.0274350643157959e-05,
      -7.08363950252533e-05,
      -0.00021050125360488892,
      -0.00027398020029067993,
      -0.02618570625782013,
      -0.014949750155210495,
      -0.028727123513817787,
      -0.00048172473907470703,
      -0.020996123552322388,
      -0.029825076460838318,
      -0.02929973602294922,
      -0.01595904678106308,
      -0.029718756675720215,
      -0.016459088772535324,
      -0.01896698772907257,
      -0.0009868890047073364,
      -0.0003479868173599243,
      0.003621683456003666,
      4.079751670360565e-05,
      0.02913700044155121,
      -3.688037395477295e-05,
      4.541128873825073e-06,
      -0.01205570250749588,
      0.0037617087364196777,
      -0.014995168894529343,
      -0.029332183301448822,
      -0.028515547513961792,
      -0.028423525393009186,
      -0.02964726835489273,
      -0.029669180512428284,
      -0.02779358346015215,
      -0.005073055624961853,
      -0.006301462650299072,
      -0.0281626358628273,
      -0.02815943956375122,
      -0.027604319155216217,
      -0.01152985543012619,
      -0.027861416339874268,
      -0.027775472030043602,
      -0.00013879314064979553,
      -0.0294302087277174,
      -0.016147319227457047,
      -0.0004810560494661331,
      -0.024518609046936035,
      -0.01708543300628662,
      -0.00013562291860580444,
      -0.02990894950926304,
      -0.012627281248569489,
      -0.02925768494606018,
      -0.006488293409347534,
      -0.029260575771331787,
      0.012087028473615646,
      -0.028150349855422974,
      -0.02979274094104767,
      -0.029420647770166397,
      -0.029777574352920055,
      -0.02975118439644575,
      -0.02926657721400261,
      -0.029787124134600163,
      0.02366248518228531,
      -0.028839430771768093,
      -0.029917091131210327,
      -0.029325067065656185,
      -0.02701398730278015,
      -0.011133198626339436,
      -0.015449808910489082,
      -0.028212448582053185,
      0.0017470866441726685,
      2.127140760421753e-05,
      -0.02770467847585678,
      0.0008847266435623169,
      0.0040804073214530945,
      0.001588042825460434,
      0.0013823369517922401,
      -0.0009010285139083862,
      0.017027415335178375,
      -0.0003972277045249939,
      -0.00030493177473545074,
      -0.00026108697056770325,
      0.028606923297047615,
      -0.0003301277756690979,
      -0.00010673515498638153,
      9.470432996749878e-05,
      -6.436556577682495e-05,
      0.015478459186851978,
      0.012505527585744858,
      0.011972442269325256,
      0.029808804392814636,
      0.02867548167705536,
      1.895427703857422e-05,
      0.029971633106470108,
      0.028159156441688538,
      0.004654377698898315,
      0.02976468112319708,
      0.011684217490255833,
      0.02486424148082733,
      0.0016237609088420868,
      0.01330020185559988,
      0.01030208170413971,
      -0.005418248474597931,
      0.009213272482156754,
      0.026949845254421234,
      -0.00275392085313797,
      -0.02804301679134369,
      0.025598689913749695,
      0.029045358300209045,
      0.0013024583458900452,
      0.029638387262821198,
      0.02985881268978119,
      0.014012578874826431,
      0.028510548174381256,
      0.02822763565927744,
      0.02659909427165985,
      0.028962671756744385,
      -0.003633590415120125,
      -0.011923030018806458,
      -0.0005441196262836456,
      -0.010187827050685883,
      -0.026378687471151352,
      7.282942533493042e-06,
      -7.677637040615082e-05,
      0.011443405412137508,
      0.0006415694952011108,
      -0.02858094871044159,
      0.0020052604377269745,
      0.029584024101495743,
      -0.025317959487438202,
      -0.01638290286064148,
      -0.02096414938569069,
      -0.01976582407951355,
      0.0015099868178367615,
      0.0026385141536593437,
      -0.012313636019825935,
      -0.011400779709219933,
      0.027003180235624313,
      0.02779664844274521,
      0.02425391972064972,
      0.02871815115213394,
      0.02392864227294922,
      -0.0050454773008823395,
      0.012462012469768524,
      0.01483270525932312,
      0.011712614446878433,
      0.02932053804397583,
      0.016576670110225677,
      -0.00025650858879089355,
      -0.00023882463574409485,
      -4.25633043050766e-05,
      -3.615673631429672e-05,
      0.0014270469546318054,
      0.018879310227930546,
      -5.377084016799927e-05,
      0.0009540785104036331,
      -0.0003220997750759125,
      1.88387930393219e-05,
      0.014150142669677734,
      0.01631992682814598,
      0.013564437627792358,
      0.015113040804862976,
      -0.013541653752326965,
      0.0004340978339314461,
      -0.00907977670431137,
      0.000538388267159462,
      0.0004795938730239868,
      0.017428860068321228,
      0.0006085783243179321,
      -0.0002935165539383888,
      0.0008264034986495972,
      0.0005085989832878113,
      -1.496821641921997e-05,
      7.988512516021729e-05,
      0.0006126612424850464,
      -0.00039078108966350555,
      6.750226020812988e-06,
      1.7777085304260254e-05,
      -0.00014244019985198975,
      0.009787440299987793,
      -0.0017449185252189636,
      -0.0012430483475327492,
      -0.0005432553589344025,
      0.006403286010026932,
      -0.00013704132288694382,
      0.01159445196390152,
      -0.001202806830406189,
      -0.02695654332637787,
      -0.008159996941685677,
      -0.01625201851129532,
      -0.003627173602581024,
      -0.02738773822784424,
      0.029253214597702026,
      -0.026040498167276382,
      -0.007684282958507538,
      -0.007062241435050964,
      -0.0035224780440330505,
      -0.002762153744697571,
      -0.002139553427696228,
      -0.022648215293884277,
      -0.010392855852842331,
      -0.002389233559370041,
      -0.0009324140846729279,
      -0.00751660019159317,
      -0.003930248320102692,
      -0.00358392670750618,
      0.02490362524986267,
      -0.028764478862285614,
      -0.02785445749759674,
      -0.026129260659217834,
      -0.028644046746194363,
      -0.0287410169839859,
      -0.029357202351093292,
      -0.028433753177523613,
      -0.022886186838150024,
      -0.028566256165504456,
      -0.02828770875930786,
      0.02830125018954277,
      0.026935549452900887,
      0.029329370707273483,
      0.02925888914614916,
      0.029191799461841583,
      0.029391087591648102,
      0.029137209057807922,
      0.029202754609286785,
      0.02868327498435974,
      0.029780060052871704,
      0.029442697763442993,
      0.014172999188303947,
      0.0005681011825799942,
      0.006685655564069748,
      0.015912339091300964,
      0.00588395819067955,
      0.005058299750089645,
      0.0013999193906784058,
      0.013531271368265152,
      0.028415769338607788,
      0.01873745024204254,
      0.000174596905708313,
      -0.00103779137134552,
      0.0002011619508266449,
      0.026871904730796814,
      0.0011549293994903564,
      1.0959804058074951e-05,
      -0.017420602962374687,
      -7.881969213485718e-05,
      -0.0004626139998435974,
      0.001360483467578888,
      -0.00019839312881231308,
      -0.0002443995326757431,
      -2.2251158952713013e-05,
      5.266070365905762e-05,
      0.008134093135595322,
      -6.876885890960693e-05,
      0.0005026645958423615,
      1.0332092642784119e-05,
      -3.2961368560791016e-05,
      0.025753391906619072,
      0.028834715485572815,
      0.0176580548286438,
      0.023510610684752464,
      -0.00102899968624115,
      0.012184521183371544,
      0.021753599867224693,
      0.024216674268245697,
      0.02870703674852848,
      0.029027335345745087,
      -0.02817413955926895,
      -0.024187922477722168,
      -0.028888501226902008,
      -0.025085989385843277,
      -0.02766701951622963,
      -0.029742591083049774,
      -0.0016728788614273071,
      -0.026178494095802307,
      -0.02865312248468399,
      -0.022935710847377777
    ],
    [
      -0.0018159926403313875,
      0.029940602369606495,
      -7.334817200899124e-05,
      0.01030503073707223,
      0.0026832884177565575,
      0.013290435308590531,
      0.029772954061627388,
      0.029759462922811508,
      0.01483926735818386,
      0.01522433920763433,
      -2.197548747062683e-05,
      0.029187100008130074,
      0.000488579273223877,
      0.017327727284282446,
      -0.013332755770534277,
      0.016871140338480473,
      -0.01833580620586872,
      0.0011437474749982357,
      -0.011350595392286777,
      0.01582761714234948,
      -0.01514880289323628,
      0.029141186736524105,
      -0.014502639649435878,
      0.008515282534062862,
      -0.02511836588382721,
      0.0008565196767449379,
      -0.0006272569298744202,
      -0.0012812642380595207,
      0.002234743908047676,
      0.0026139970868825912,
      -0.028686700388789177,
      0.029583869501948357
    ],
    [
      0.015432526357471943,
      0.029454633593559265,
      0.00026922672986984253,
      0.029581502079963684,
      0.029659803956747055,
      0.02978821098804474,
      -4.147551953792572e-05,
      0.03004578873515129,
      0.02992041502147913,
      0.029750023037195206,
      0.01596740633249283,
      0.01274813711643219,
      0.029820810072124004,
      -0.029032304883003235,
      0.03001725859940052,
      -0.00043811649084091187,
      0.029465574771165848,
      0.007796980440616608,
      0.028808407485485077,
      0.029715776443481445,
      0.02959625795483589,
      -1.7508864402770996e-05,
      0.02984163910150528,
      0.028199322521686554,
      7.538311183452606e-05,
      0.00013409554958343506,
      6.358325481414795e-05,
      -0.00017116591334342957,
      -3.838539123535156e-05,
      0.028807351365685463,
      0.029786057770252228,
      0.02877795323729515,
      0.0011884449049830437,
      0.00018530339002609253,
      0.029426440596580505,
      0.0003450419753789902,
      0.0010198429226875305,
      0.0007139258086681366,
      -0.027529276907444,
      8.95671546459198e-05,
      8.134543895721436e-05,
      7.570534944534302e-05,
      -0.01269247755408287,
      -0.021755464375019073,
      0.00020054727792739868,
      -0.0003913789987564087,
      0.0002003740519285202,
      -0.029564693570137024,
      0.0006117820739746094,
      -0.017620913684368134,
      0.00189131498336792,
      0.0008881110697984695,
      0.0008241431787610054,
      -0.02970142289996147,
      0.0007967650890350342,
      -0.01025879755616188,
      -0.02891017496585846,
      -0.02944464609026909,
      -0.028892766684293747,
      -0.0286458358168602,
      -0.02906545251607895,
      0.0033243149518966675,
      0.000618375837802887,
      -0.0008006906136870384,
      -0.021509163081645966,
      2.592429518699646e-05,
      -0.0008186157792806625,
      -0.013598740100860596,
      -0.029352344572544098,
      -0.029365837574005127,
      9.992718696594238e-05,
      -0.029718399047851562,
      -0.029636185616254807,
      -0.0019330251961946487,
      -0.006846189498901367,
      -0.009421156719326973,
      -0.029912900179624557,
      0.02950284630060196,
      -0.029445454478263855,
      0.000712638720870018,
      -0.029116127640008926,
      -0.00011356174945831299,
      -0.028720984235405922,
      -0.029003482311964035,
      -0.028944462537765503,
      0.0003416966646909714,
      -0.028916649520397186,
      0.0004894398152828217,
      0.0004720063880085945,
      0.0003568436950445175,
      0.0006968304514884949,
      0.0006347885355353355,
      0.00042090006172657013,
      -0.02961934357881546,
      -0.0291006937623024,
      -0.02793261408805847,
      0.016530433669686317,
      -0.023074764758348465,
      0.029664707370102406,
      -0.02935802936553955,
      0.002928212285041809,
      -0.013026569038629532,
      5.16008585691452e-05,
      0.00010875239968299866,
      0.029757700860500336,
      -0.013238199055194855,
      -0.024124689400196075,
      -0.02884393371641636,
      0.028668146580457687,
      0.00016755610704421997,
      -0.029690813273191452,
      -0.028218031860888004,
      -0.015512574464082718,
      0.0007565096020698547,
      0.029504723846912384,
      -0.028343397192656994,
      -0.027483005076646805,
      -0.029721474274992943,
      0.0007855333387851715,
      -0.024084188044071198,
      -0.029007449746131897,
      -0.029410406947135925,
      -0.028911665081977844,
      -0.029043812304735184,
      -0.029364977031946182,
      0.0031526610255241394,
      0.003484431654214859,
      -0.028808332979679108,
      -0.0009371861815452576,
      0.029989540576934814,
      -0.004369176924228668,
      0.0063984692096710205,
      0.01518343761563301,
      0.0021481961011886597,
      -0.0012000873684883118,
      0.014998383820056915,
      -0.029921554028987885,
      0.02869119495153427,
      0.029552893713116646,
      0.029838651418685913,
      0.027569115161895752,
      -0.00016960501670837402,
      0.029436638578772545,
      0.029418926686048508,
      0.006045632064342499,
      -0.0224759504199028,
      -0.02854558452963829,
      0.029520820826292038,
      0.022405488416552544,
      0.030034013092517853,
      0.029334139078855515,
      0.021830223500728607,
      0.02998473308980465,
      0.028882191516458988,
      0.029389078728854656,
      0.029850568622350693,
      0.022308971732854843,
      0.01956697180867195,
      0.02085765451192856,
      0.028152172453701496,
      -0.01123775914311409,
      -0.028239987790584564,
      -0.0004660077393054962,
      -0.023764677345752716,
      -0.025761839002370834,
      -0.027956624515354633,
      0.00042307935655117035,
      -0.029345969669520855,
      0.0005484782159328461,
      -0.029126368463039398,
      -0.029566770419478416,
      -0.028135590255260468,
      -0.029475290328264236,
      0.002575056627392769,
      -0.02831464819610119,
      0.0014921948313713074,
      -0.028613836504518986,
      0.00013802200555801392,
      -0.022613227367401123,
      -0.02805505320429802,
      -0.02818794921040535,
      0.0003556981682777405,
      -0.027693526819348335,
      -0.027439966797828674,
      -0.0015585795044898987,
      0.0004139244556427002,
      -0.00010983273386955261,
      0.0007093548774719238,
      0.0005784165114164352,
      -0.02657865732908249,
      -0.027395467273890972,
      -0.008049901574850082,
      -5.3219497203826904e-05,
      0.0014858618378639221,
      -0.000761173665523529,
      0.029935047030448914,
      -0.006292697042226791,
      -0.029615778475999832,
      1.697242259979248e-05,
      1.3008713722229004e-05,
      -0.0024487562477588654,
      2.419203519821167e-05,
      0.023496665060520172,
      0.027208756655454636,
      -0.028444815427064896,
      -0.0003750920295715332,
      0.0029186438769102097,
      0.024134745821356773,
      0.029479822143912315,
      -0.0037555377930402756,
      -0.029539678245782852,
      0.017139071598649025,
      0.014043286442756653,
      0.029957879334688187,
      -0.0002356208860874176,
      0.02430030982941389,
      0.029455259442329407,
      0.02942664921283722,
      0.029813827946782112,
      0.029163718223571777,
      0.02999041322618723,
      -0.011222796514630318,
      -0.007086161524057388,
      -0.002618340775370598,
      0.0009830668568611145,
      0.0034145675599575043,
      0.012812808156013489,
      0.01489327847957611,
      -4.264712333679199e-05,
      0.0024998262524604797,
      0.0011418312788009644,
      -0.011758297681808472,
      0.005669020116329193,
      -9.174086153507233e-05,
      0.014375336468219757,
      0.01460975781083107,
      0.007540889084339142,
      0.014951324090361595,
      0.014681562781333923,
      0.01500631868839264,
      0.0030423030257225037,
      0.014517873525619507,
      0.006549626588821411,
      0.0008921697735786438,
      0.0010318979620933533,
      0.004056941717863083,
      -0.02773245330899954,
      0.00373033806681633,
      0.014864679425954819,
      0.0038404883816838264,
      0.0012463591992855072,
      0.003983341157436371,
      0.004044743254780769,
      0.00024824589490890503,
      0.004201963543891907,
      0.0018877461552619934,
      0.005749434232711792,
      0.00027045607566833496,
      0.0007626302540302277,
      0.0007896795868873596,
      0.002995956689119339,
      0.007336079142987728,
      -0.0294246394187212,
      0.0009538978338241577,
      0.003390248864889145,
      0.0013357773423194885,
      0.0007023289799690247,
      0.0011388212442398071,
      0.0008293688297271729,
      0.02983214147388935,
      0.0007637627422809601,
      -0.0290217287838459,
      0.002285357564687729,
      0.00850885733962059,
      0.003171687014400959,
      0.001467190682888031,
      0.0022284500300884247,
      -0.02769813872873783,
      0.00305032916367054,
      0.0016869977116584778,
      -0.02822413668036461,
      -0.028448767960071564,
      0.0004851175472140312,
      -0.02701705787330866,
      -0.029237158596515656,
      0.003940358757972717,
      0.0021633654832839966,
      0.0013937652111053467,
      0.01669909805059433,
      0.02772986888885498,
      -0.005981512367725372,
      0.02996145188808441,
      -0.016909491270780563,
      0.022037319839000702,
      0.029719756916165352,
      0.012425941415131092,
      0.02505556493997574,
      0.01546373963356018,
      0.0297037735581398,
      0.0020167753100395203,
      0.016082335263490677,
      0.00038399361073970795,
      0.030018093064427376,
      0.015885382890701294,
      0.027717426419258118,
      0.0008940659463405609,
      0.02650081366300583,
      0.02318713814020157,
      0.0017705783247947693,
      0.02900177240371704,
      0.00038238242268562317,
      0.02970673982053995,
      0.029870279133319855,
      0.029085233807563782,
      0.03002103418111801,
      0.024234265089035034,
      0.0298040509223938,
      0.02126244828104973,
      -0.008854696527123451,
      0.008188953623175621,
      -0.0005461275577545166,
      0.023772642016410828,
      -0.0004935264587402344,
      0.02905626967549324,
      -0.00017713941633701324,
      0.029939034953713417,
      -0.0010685995221138,
      0.021784618496894836,
      -8.169561624526978e-05,
      0.029886968433856964,
      0.01009898167103529,
      0.00027790293097496033,
      -0.0018116161227226257,
      -0.00013577193021774292,
      0.029699817299842834,
      -7.055327296257019e-05,
      0.028230668045580387,
      -0.00032512471079826355,
      -0.0008499110117554665,
      0.029367350041866302,
      0.029326306656003,
      0.02767118066549301,
      0.020787857472896576,
      0.00038890540599823,
      -2.386048436164856e-05,
      0.026472982950508595,
      0.029288504272699356,
      0.02705947309732437,
      -0.00027810782194137573,
      0.012172266840934753,
      1.5994533896446228e-05,
      0.012493140995502472,
      0.0032696640118956566,
      -0.0025214217603206635,
      3.215949982404709e-05,
      -0.02564286906272173,
      9.831041097640991e-06,
      0.0003975890576839447,
      0.0013844072818756104,
      -0.02930320054292679,
      -0.026731546968221664,
      -0.02490178495645523,
      0.00014019012451171875,
      0.014984719455242157,
      -0.02710956335067749,
      0.029904721304774284,
      4.6662986278533936e-05,
      0.012159302830696106,
      -0.019374944269657135,
      0.015264179557561874,
      -0.02349545806646347,
      0.0048560649156570435,
      0.001847713254392147,
      0.003051973879337311,
      -0.02548985369503498,
      0.0026631057262420654,
      0.0017732344567775726,
      0.0018252972513437271,
      0.0009591430425643921,
      0.005799014121294022,
      0.0004870891571044922,
      0.029556553810834885,
      -0.021412307396531105,
      0.02996833622455597,
      0.02959972620010376,
      -0.008579326793551445,
      0.030024085193872452,
      -0.0009216777980327606,
      0.012235108762979507,
      0.028278816491365433,
      -0.00024231895804405212,
      0.0011244826018810272,
      0.03000381588935852,
      0.0011418536305427551,
      -0.0016075782477855682,
      -0.007114441599696875,
      0.02979561686515808,
      0.0014311671257019043,
      0.0011429674923419952,
      0.00020672008395195007,
      0.0023751631379127502,
      0.029991844668984413,
      0.029315315186977386,
      0.0015484346076846123,
      0.0013020038604736328,
      -0.02808614820241928,
      0.0006311498582363129,
      -0.01845000684261322,
      -0.02558515965938568,
      -0.027726829051971436,
      -0.027765199542045593,
      -0.026608262211084366,
      -0.02803640440106392,
      0.010902449488639832,
      0.01684279553592205,
      0.029252484440803528,
      -0.024955201894044876,
      -0.020362891256809235,
      0.02954091504216194,
      -0.026401041075587273,
      0.0008980818092823029,
      0.0004023835062980652,
      -0.027530493214726448,
      0.0002054944634437561,
      5.1509588956832886e-05,
      -0.0006699822843074799,
      -0.023049436509609222,
      -0.018795140087604523,
      0.0004237815737724304,
      0.0005750805139541626,
      0.0005091875791549683,
      -0.029226827435195446,
      -0.014883477240800858,
      -0.025766728445887566,
      0.0027483180165290833,
      0.0026060640811920166,
      0.0018478678539395332,
      -0.029651913791894913,
      0.0006446400657296181,
      -0.026767645962536335,
      -0.02906048484146595,
      -0.029372692108154297,
      -0.028913237154483795,
      -0.02905801683664322,
      -0.029402825981378555,
      0.001153409481048584,
      0.0007106922566890717,
      -0.00046139955520629883,
      0.029927868396043777,
      0.004493117332458496,
      0.030015435069799423,
      0.0015745460987091064,
      0.026930302381515503,
      -0.008447326719760895,
      0.029660613276064396,
      -0.02854643389582634,
      0.0016399361193180084,
      -0.00046562589704990387,
      0.0016162842512130737,
      0.02741357684135437,
      0.027376090176403522,
      0.030011624097824097,
      -0.008521702140569687,
      0.02999401092529297,
      0.001724190078675747,
      0.028903011232614517,
      0.012571107596158981,
      -0.006428121123462915,
      -0.0031660161912441254,
      0.0019660592079162598,
      -0.028801913373172283,
      0.029135987162590027,
      0.009592918679118156,
      0.0028062649071216583,
      0.0017388686537742615,
      0.0033627189695835114,
      0.002040702849626541,
      -0.01077423244714737,
      0.0004642605781555176,
      -0.0013702064752578735,
      -0.027578018605709076,
      0.0006797425448894501,
      -0.027427121996879578,
      -0.00039410218596458435,
      0.013721369206905365,
      0.015449769794940948,
      -0.029962189495563507,
      0.02991638332605362,
      0.01569710671901703,
      0.0027292072772979736,
      0.0007299426943063736,
      0.0004930095747113228,
      0.02782835066318512,
      -0.029994070529937744,
      0.00020994991064071655,
      -0.0008583646267652512,
      0.00047362223267555237,
      -0.02258063666522503,
      0.029737448319792747,
      0.014406420290470123,
      0.029670845717191696,
      2.0138919353485107e-05,
      0.030026111751794815,
      -0.0004978030920028687,
      0.00028683990240097046,
      0.00016884785145521164,
      2.3655593395233154e-06,
      -8.76113772392273e-05,
      -0.0005179271101951599,
      0.02515830099582672,
      0.02935127541422844,
      0.0009617432951927185,
      0.000991176813840866,
      0.0032081864774227142,
      0.0002232380211353302,
      -0.006350085139274597,
      -0.0007688179612159729,
      0.0009057223796844482,
      0.029921256005764008,
      -0.02883133664727211,
      0.0005137473344802856,
      -0.02949333470314741,
      0.026528477668762207,
      0.0280853733420372,
      0.0008271746337413788,
      0.008237802889198065,
      -0.027836494147777557,
      0.029626701027154922,
      -0.026865946128964424,
      0.029899179935455322,
      0.0009348811581730843,
      0.0017217174172401428,
      -0.021011429838836193,
      0.0014956146478652954,
      -0.02927739918231964,
      0.014207819476723671,
      0.029642850160598755,
      0.00014147348701953888,
      0.010973731987178326,
      0.0029730722308158875,
      0.0010862648487091064,
      -0.0006471015512943268,
      0.00014445744454860687,
      0.02989020198583603,
      0.029645929113030434,
      -0.012445984408259392,
      0.03003697097301483,
      -0.012224331498146057,
      0.011279754340648651,
      0.03001178801059723,
      0.00012515299022197723,
      0.00044302642345428467,
      0.02998419851064682,
      0.00020960718393325806,
      0.016031041741371155,
      -0.011912122368812561,
      0.02955302596092224,
      1.909583806991577e-05,
      0.00034656748175621033,
      -0.01296220999211073,
      0.001020178198814392,
      0.005676679313182831,
      0.0298011377453804,
      0.029076389968395233,
      0.008511815220117569,
      -0.02839343249797821,
      0.0005770772695541382,
      -0.019416386261582375,
      -0.02871127426624298,
      -0.028477925807237625,
      -0.028283043764531612,
      -0.027242448180913925,
      -0.029591571539640427,
      0.010861847549676895,
      0.02844630926847458,
      0.02930621150881052,
      -0.02899518609046936,
      0.024490337818861008,
      -0.029967330396175385,
      0.00029026903212070465,
      -0.0015354305505752563,
      -0.029701709747314453,
      0.005704499781131744,
      6.44102692604065e-05,
      2.358853816986084e-05,
      0.00018359720706939697,
      0.02667505294084549,
      0.001003853976726532,
      -0.024237170815467834,
      -0.028390444815158844,
      0.0004293471574783325,
      0.028903014957904816,
      -0.00011886283755302429,
      -0.0034713968634605408,
      -0.02787117101252079,
      -0.028718143701553345,
      -0.011560305953025818,
      0.02983051910996437,
      -0.00041106436401605606,
      -0.011827316135168076,
      0.02961392141878605,
      0.029630258679389954,
      0.029393612407147884,
      0.029650766402482986,
      0.02970365434885025,
      0.0004484206438064575,
      0.00027436763048171997,
      -0.0003409832715988159,
      -0.011982955038547516,
      0.02967042475938797,
      -0.02904137596487999,
      0.010980609804391861,
      -0.0008249394595623016,
      -0.01596193015575409,
      0.017184948548674583,
      0.00011558458209037781,
      -0.0003153085708618164,
      0.005680818110704422,
      0.027709849178791046,
      0.01928194146603346,
      0.0002770461142063141,
      0.0005655921995639801,
      0.0003081075847148895,
      0.029666244983673096,
      -0.00020813941955566406,
      0.023702722042798996,
      -0.001500481739640236,
      -0.0001812409609556198,
      6.932206451892853e-05,
      0.029957138001918793,
      -0.00035152584314346313,
      0.0290851891040802,
      0.029788337647914886,
      0.02977783791720867,
      0.029961928725242615,
      0.029185958206653595,
      0.030015937983989716,
      -0.002058415673673153,
      -0.0012702122330665588,
      -8.47894698381424e-05,
      -0.025623466819524765,
      0.02813376486301422,
      -0.03000110760331154,
      0.028374098241329193,
      -0.017455626744776964,
      -0.02971634641289711,
      5.231797695159912e-05,
      6.122514605522156e-05,
      -0.028634168207645416,
      0.023781373165547848,
      0.028022141195833683,
      -0.00382782518863678,
      0.00015554577112197876,
      -0.00013725459575653076,
      0.000537678599357605,
      0.0008103251457214355,
      -0.0004258789122104645,
      -0.0006517544388771057,
      -0.029342416673898697,
      -0.0009971149265766144,
      -0.0010210126638412476,
      0.029843859374523163,
      -0.00018055178225040436,
      0.000264093279838562,
      0.029474791139364243,
      0.02972164936363697,
      0.029836483299732208,
      0.02699778601527214,
      0.029912425205111504,
      -0.028886999934911728,
      -0.02843390218913555,
      -0.01616089791059494,
      0.015247397124767303,
      -2.823770046234131e-06,
      -3.377348184585571e-05,
      0.0288681760430336,
      0.029991857707500458,
      0.02984452247619629,
      -0.0005461722612380981,
      0.0291602686047554,
      0.0006181122735142708,
      0.029136191122233868,
      0.014431893825531006,
      -0.00027773529291152954,
      0.018072649836540222,
      -0.024426907300949097,
      0.029420198872685432,
      -0.029993683099746704,
      0.029749495908617973,
      0.010560303926467896,
      0.013016290962696075,
      0.029502470046281815,
      0.029284320771694183,
      -0.00044496823102235794,
      0.02984449826180935,
      0.028554342687129974,
      -0.0014565736055374146,
      -2.473592758178711e-06,
      -0.0008640121668577194,
      -0.0006139585748314857,
      -0.029870808124542236,
      0.029636681079864502,
      0.029906065203249454,
      -0.0003836601972579956,
      0.029572496190667152,
      -0.012286320328712463,
      0.029739320278167725,
      -0.026353998109698296,
      0.007690258324146271,
      0.004530902951955795,
      0.00017544813454151154,
      0.00024211779236793518,
      0.029476704075932503,
      -0.016342364251613617,
      -0.0020485613495111465,
      -0.01996566727757454,
      0.029935582540929317,
      6.792321801185608e-05,
      -0.0011021383106708527,
      1.8998980522155762e-05,
      -0.02278883010149002,
      0.0008976906538009644,
      0.029513521119952202,
      -0.024741902947425842,
      -0.013380169868469238,
      -0.029389146715402603,
      0.001617245376110077,
      -0.014145055785775185,
      -0.016622400376945734,
      -0.028987644240260124,
      -0.012763328850269318,
      -0.028580215759575367,
      -0.02336786687374115,
      -0.009714893996715546,
      0.008099295198917389,
      0.002341305837035179,
      -0.000404934398829937,
      0.029941977933049202,
      -0.002697266638278961,
      0.029971405863761902,
      -0.009649157524108887,
      2.3603439331054688e-05,
      1.8998980522155762e-07,
      -1.4133751392364502e-05,
      -0.00020720809698104858,
      0.0297800712287426,
      0.029941178858280182,
      0.028966734185814857,
      -7.015839219093323e-05,
      -0.0003043264150619507,
      0.0007737018167972565,
      0.023591917008161545,
      0.029706889763474464,
      -2.5331974029541016e-06,
      -0.029516072943806648,
      0.0011748801916837692,
      0.001188766211271286,
      0.03002411127090454,
      6.24731183052063e-05,
      0.012383714318275452,
      0.02983433846384287,
      0.030029498040676117,
      0.029901430010795593,
      0.029747605323791504,
      0.02999984845519066,
      -0.0011252304539084435,
      -0.008967756293714046,
      -2.730637788772583e-05,
      -0.026250474154949188,
      0.0024207010865211487,
      -0.029980115592479706,
      0.029849857091903687,
      -0.006368790753185749,
      -0.02144904062151909,
      0.029271051287651062,
      7.544085383415222e-05,
      -0.02180982567369938,
      0.00044587254524230957,
      0.022564657032489777,
      0.029187885113060474,
      0.00021077878773212433,
      -0.0010388046503067017,
      0.00019899755716323853,
      0.02935878187417984,
      -7.569789886474609e-06,
      0.0010521039366722107,
      -0.0025560734793543816,
      -0.0007370263338088989,
      -0.0003039166331291199,
      0.03000611439347267,
      -0.00034711509943008423,
      0.007865287829190493,
      0.029825512319803238,
      0.030018990859389305,
      0.029507167637348175,
      0.029098108410835266,
      0.029964275658130646,
      -0.028617430478334427,
      -0.0056884437799453735,
      0.01347825676202774,
      -0.029677048325538635,
      -0.0023026783019304276,
      -0.020748116075992584,
      0.00017004460096359253,
      0.013461992144584656,
      0.018186336383223534,
      -0.0014755502343177795,
      0.03002581186592579,
      -0.006698179990053177,
      0.0007844865322113037,
      0.0019501075148582458,
      -0.01659434661269188,
      -0.004050344228744507,
      -0.029784850776195526,
      2.356991171836853e-05,
      -0.028883669525384903,
      -0.0026517584919929504,
      -0.017369519919157028,
      0.017414752393960953,
      -0.0006407685577869415,
      0.003918439149856567,
      -7.040053606033325e-05,
      0.02956940233707428,
      -0.007107420824468136,
      -0.0004996806383132935,
      0.00018408894538879395,
      -0.00021113455295562744,
      -0.002735815942287445,
      3.2220035791397095e-05,
      0.011864893138408661,
      0.019481465220451355,
      -0.026429861783981323,
      0.0062896087765693665,
      -0.023865537717938423,
      0.003368683159351349,
      -0.019189298152923584,
      -0.018941989168524742,
      0.005233258008956909,
      0.029197558760643005,
      -0.02633627876639366,
      0.011370912194252014,
      -0.026029234752058983,
      -0.00040309131145477295,
      0.0013434812426567078,
      -0.02571686264127493,
      0.009339377284049988,
      -0.018893949687480927,
      0.005092188715934753,
      -0.02158815786242485,
      0.029365114867687225,
      0.002294858917593956,
      0.0031683333218097687,
      -0.013600509613752365,
      -0.000195319764316082,
      -0.0275209778919816,
      0.005684264004230499,
      -3.162771463394165e-05,
      0.00015388429164886475,
      0.00031080469489097595,
      0.0003250539302825928,
      7.852911949157715e-05,
      -0.013507786206901073,
      -0.021329480223357677,
      0.006566822528839111,
      0.0030427277088165283,
      -0.02817756962031126,
      3.614649176597595e-05,
      -0.028749242424964905,
      -0.025091875344514847,
      -0.0006020888686180115,
      0.029386676847934723,
      -0.028611324727535248,
      -0.00025021471083164215,
      -0.02803158201277256,
      -0.02503395825624466,
      -0.014203369617462158,
      -0.028611548244953156,
      0.028406396508216858,
      -0.028337977826595306,
      0.0036957822740077972,
      -0.028528288006782532,
      -6.658211350440979e-05,
      -0.000220566987991333,
      -0.028539754450321198,
      -0.028064130805432796,
      0.0013906732201576233,
      -0.028540508821606636,
      0.0024109501391649246,
      0.0010866373777389526,
      0.0009758174419403076,
      0.0010897070169448853,
      0.0023010671138763428,
      0.0008689146488904953,
      -0.02322457730770111,
      -0.02164652943611145,
      -0.0008791163563728333,
      -0.026310143060982227,
      0.013722509145736694,
      0.02987821027636528,
      -0.02928505465388298,
      0.029441915452480316,
      0.02944754809141159,
      -0.025439515709877014,
      0.0007378607988357544,
      0.0294541222974658,
      -0.00040686875581741333,
      -0.01981455832719803,
      0.008780185133218765,
      0.0002930443733930588,
      9.687431156635284e-05,
      0.0002826899290084839,
      -0.0006338655948638916,
      -0.007185537368059158,
      0.0011470578610897064,
      0.014064420014619827,
      0.0025430694222450256,
      0.0010560043156147003,
      -0.01444351114332676,
      0.00010253302752971649,
      0.0009402260184288025,
      -0.029192358255386353,
      -0.028841465711593628,
      -0.029168851673603058,
      -0.0009928978979587555,
      -0.02902119606733322,
      0.029732991009950638,
      0.029785335063934326,
      0.008090587332844734,
      0.01196100190281868,
      -0.0231800377368927,
      0.0006289742887020111,
      -0.0006967317312955856,
      -0.02339768037199974,
      -0.02093571424484253,
      0.029857851564884186,
      -0.028312139213085175,
      0.0066195521503686905,
      -0.027441471815109253,
      0.0008114315569400787,
      -0.013724733144044876,
      0.0018769912421703339,
      0.029106510803103447,
      -0.02792470157146454,
      0.005335044115781784,
      0.0001401510089635849,
      0.028931375592947006,
      0.002821875736117363,
      -0.025115976110100746,
      -0.027720831334590912,
      -0.00014800019562244415,
      -0.02787276729941368,
      0.0024736374616622925,
      0.000399712473154068,
      6.526708602905273e-05,
      0.0005538128316402435,
      0.0009403228759765625,
      0.00013241171836853027,
      -0.018664589151740074,
      -0.02266622707247734,
      0.009417861700057983,
      -0.0084523381665349,
      -0.014386950060725212,
      0.0065844133496284485,
      -0.0262692179530859,
      0.014904558658599854,
      0.004083637148141861,
      -0.021715836599469185,
      0.0029036030173301697,
      -0.008979707956314087,
      -0.010367609560489655,
      -0.012808501720428467,
      0.00234429445117712,
      6.558746099472046e-05,
      0.013226132839918137,
      0.002159513533115387,
      -0.025003142654895782,
      -0.010420966893434525,
      -0.011154547333717346,
      0.0040552495047450066,
      0.0039331503212451935,
      0.004083361476659775,
      -0.01718703703954816,
      0.004017377272248268,
      -0.01766627375036478,
      -0.028242191299796104,
      -0.025382807478308678,
      -0.02073085680603981,
      -0.02494191750884056,
      -0.025293790735304356,
      0.0032003670930862427,
      0.004591621458530426,
      0.003989538177847862,
      5.47654926776886e-05,
      0.00012836605310440063,
      0.0010769739747047424,
      -0.025658576749265194,
      0.0003915466368198395,
      0.0004484131932258606,
      7.222592830657959e-05,
      -0.02801024541258812,
      6.644800305366516e-05,
      -0.028784215450286865,
      0.00025794655084609985,
      8.945725858211517e-05,
      0.0002941573038697243,
      1.404155045747757e-05,
      -0.029073692858219147,
      2.4404376745224e-05,
      -0.012869417667388916,
      0.0006935968995094299,
      0.0003068055957555771,
      -0.019877862185239792,
      -0.023583553731441498,
      -0.020323030650615692,
      -0.016316398978233337,
      0.0001119077205657959,
      -0.0004935599863529205,
      -0.028476521372795105,
      -0.02439913898706436,
      -0.016592249274253845,
      -0.013898234814405441,
      0.00010465271770954132,
      0.0012574642896652222,
      0.0008210167288780212
    ],
    [
      0.02947439532727003,
      0.0002150489017367363,
      0.0004577580839395523,
      -0.02898398879915476,
      0.029855284839868546,
      -0.028123443946242332,
      0.029688751325011253,
      0.0022633373737335205,
      0.0011668168008327484,
      0.029956039041280746,
      0.02124505629763007,
      0.0011595990508794785,
      0.001034463755786419,
      -0.02571314573287964,
      0.005476078949868679,
      0.000276847742497921,
      0.013446450931951404,
      0.00015117228031158447,
      0.0001440197229385376,
      0.028935409151017666,
      0.029872898012399673,
      0.029777646996080875,
      -0.02203725278377533,
      0.02999848686158657,
      0.01226134761236608,
      9.87006351351738e-05,
      -0.018445356283336878,
      -0.02051222464069724,
      -0.025829792022705078,
      -0.012461144709959626,
      -0.01061523100361228,
      -0.013196199666708708
    ],
    [
      -0.02997206151485443,
      -0.012435853481292725,
      -0.00157917570322752,
      -0.002782251685857773,
      -0.00021982192993164062,
      -0.02842080593109131,
      -0.013503298163414001,
      0.003297600895166397,
      -0.028042912483215332,
      0.00013084709644317627,
      0.0003186715766787529,
      0.0018844828009605408,
      0.015346534550189972,
      -0.009644418954849243,
      0.029165461659431458,
      -0.000621497631072998,
      0.005295518785715103,
      0.013204842805862427,
      -0.028371483087539673,
      -6.8247318267822266e-06,
      0.015577822923660278,
      -0.029741451144218445,
      0.02325613796710968,
      -0.00012212246656417847,
      -0.018932268023490906,
      -0.0007400251924991608,
      -0.018046915531158447,
      0.0013160882517695427,
      0.0026343613862991333,
      0.0003807544708251953,
      -0.011952206492424011,
      0.029147326946258545
    ],
    [
      -0.015970941400155425
    ]
  ],
  "num_updates": 2,
  "client_ids": [
    "client-1",
    "client-2"
  ],
  "mean_final_loss": 7.724566698074341,
  "aggregation_timestamp": 1784208578.1990972
}