{
  "version": "v49",
  "base_version": "v48",
  "round_id": 129,
  "aggregation": "fedavg",
  "averaged_weight_delta": [
    [
      -0.023197486996650696,
      -0.029112838208675385,
      -0.02970230206847191,
      -0.029977306723594666,
      -0.029029957950115204,
      -0.02978520467877388,
      -0.029798954725265503,
      -0.029997020959854126,
      -0.030012845993041992,
      -0.02966054528951645,
      0.02958674728870392,
      0.02984391152858734,
      0.02963721752166748,
      0.029560178518295288,
      0.029979459941387177,
      0.02964865416288376,
      0.030002504587173462,
      0.029631823301315308,
      0.02962741255760193,
      0.029789388179779053,
      0.029852986335754395,
      0.02643340826034546,
      0.03002345561981201,
      0.030009130015969276,
      0.02996443584561348,
      0.029983550310134888,
      -0.02966715395450592,
      0.02974221110343933,
      0.0199272483587265,
      0.02995249629020691,
      -0.003877103328704834,
      -0.029470600187778473,
      -0.03002677857875824,
      -0.029996022582054138,
      -0.029160380363464355,
      -0.03002209961414337,
      -0.029607299715280533,
      -0.02992093563079834,
      -0.029142990708351135,
      -0.02909739315509796,
      -0.02626378834247589,
      -0.003632679581642151,
      0.025508519262075424,
      0.0008391439914703369,
      -0.02861340343952179,
      0.013712704181671143,
      0.002533942461013794,
      -0.028083816170692444,
      0.008748233318328857,
      -0.028273150324821472,
      -0.029127106070518494,
      -0.029673397541046143,
      -0.028996825218200684,
      -0.029560014605522156,
      -0.029699742794036865,
      -0.02886277437210083,
      -0.02950243651866913,
      -0.028197571635246277,
      -0.028656654059886932,
      -0.029099375009536743,
      0.029225938022136688,
      0.02885548770427704,
      0.02968084067106247,
      0.028786785900592804,
      0.02285906672477722,
      0.02869529277086258,
      0.029829666018486023,
      0.02832818403840065,
      0.029946118593215942,
      0.029695533215999603,
      -0.029356718063354492,
      0.026910558342933655,
      -0.01222943514585495,
      -0.027646072208881378,
      0.020823359489440918,
      0.028572216629981995,
      0.014719843864440918,
      0.024962641298770905,
      0.02464453876018524,
      -0.025232791900634766,
      0.02939007058739662,
      0.026865482330322266,
      0.02980330027639866,
      0.02963539958000183,
      0.029886841773986816,
      0.029856503009796143,
      -0.01749458909034729,
      0.005334436893463135,
      -0.020966917276382446,
      0.02928260713815689,
      -0.02844555675983429,
      0.028339296579360962,
      0.01619046926498413,
      0.0184585303068161,
      0.004514425992965698,
      0.027548469603061676,
      0.02777191996574402,
      0.02169671654701233,
      0.014266874641180038,
      0.027932390570640564,
      0.029843706637620926,
      0.029680557548999786,
      0.02885499596595764,
      0.030034810304641724,
      0.027027621865272522,
      0.02962779998779297,
      -0.014617383480072021,
      0.029811561107635498,
      0.029343388974666595,
      0.029970437288284302,
      0.02879159152507782,
      0.02988346666097641,
      -0.005481034517288208,
      -0.028913170099258423,
      -0.020189210772514343,
      0.0044159479439258575,
      0.02994677424430847,
      -0.027969496324658394,
      -0.021586477756500244,
      0.029495656490325928,
      0.02908448874950409,
      0.02928531914949417,
      0.029228761792182922,
      0.029504507780075073,
      0.02947194129228592,
      0.02915942668914795,
      0.03001469373703003,
      0.02895815670490265,
      0.02934035286307335,
      0.02953086793422699,
      -0.029315218329429626,
      -0.030039295554161072,
      0.02455073595046997,
      -0.029925256967544556,
      -0.030003994703292847,
      -0.029874831438064575,
      -0.02997478097677231,
      0.029027923941612244,
      -0.030016079545021057,
      -0.029979050159454346,
      -0.02745017409324646,
      0.02146318554878235,
      0.008648127317428589,
      0.019363492727279663,
      0.01311136782169342,
      0.019222229719161987,
      0.007724151015281677,
      0.028137408196926117,
      -0.0027538761496543884,
      0.018869809806346893,
      0.00408182293176651,
      -0.029393315315246582,
      -0.02619093656539917,
      -0.02612425573170185,
      0.005205288529396057,
      0.0030853748321533203,
      0.01301698386669159,
      -0.026511386036872864,
      0.01647534966468811,
      -0.028563372790813446,
      0.020991086959838867,
      0.029436498880386353,
      0.026249386370182037,
      -0.0034847483038902283,
      -0.02976667881011963,
      -0.02650643140077591,
      0.02142760157585144,
      0.026710808277130127,
      0.0032931044697761536,
      -0.029346182942390442,
      0.008269637823104858,
      -0.029953286051750183,
      -0.02983534336090088,
      0.019111424684524536,
      -0.029738470911979675,
      -0.029829472303390503,
      -0.030004382133483887,
      0.018793970346450806,
      -0.0298631489276886,
      -0.02923072874546051,
      -0.0050528645515441895,
      0.022740229964256287,
      -0.02689749002456665,
      -0.029537886381149292,
      0.023864276707172394,
      -0.028264090418815613,
      0.016797170042991638,
      -0.02949756383895874,
      -0.029536515474319458,
      0.013132978230714798,
      -0.029413118958473206,
      -0.028173774480819702,
      -0.029630929231643677,
      -0.02994602732360363,
      -0.030032575130462646,
      -0.029974237084388733,
      -0.02972552180290222,
      -0.029836401343345642,
      -0.030045658349990845,
      -0.03003472089767456,
      0.02484220638871193,
      -0.02840922772884369,
      -0.02899712324142456,
      -0.02803511917591095,
      -0.030004948377609253,
      -0.02963845431804657,
      -0.029911845922470093,
      -0.02687107026576996,
      -0.029610125347971916,
      -0.02932991087436676,
      0.029940664768218994,
      0.026526570320129395,
      0.015267446637153625,
      0.02882593870162964,
      0.02999473735690117,
      -0.029819637537002563,
      0.029659032821655273,
      -0.02913704514503479,
      -0.029995158314704895,
      -0.029894351959228516,
      0.029720723628997803,
      0.029757648706436157,
      0.029939666390419006,
      0.02987624704837799,
      0.029307082295417786,
      0.029706262052059174,
      0.029205381870269775,
      0.029660262167453766,
      0.029375314712524414,
      0.029645517468452454,
      0.019045323133468628,
      0.011410325765609741,
      -0.029971875250339508,
      -0.004194527864456177,
      0.019314050674438477,
      -0.02888873592019081,
      0.00067853182554245,
      -0.03001715987920761,
      -0.029931429773569107,
      0.0200330913066864,
      0.0287952721118927,
      0.029856979846954346,
      0.02924726903438568,
      0.029630184173583984,
      0.02913518249988556,
      0.03004644811153412,
      0.02290995419025421,
      0.030033811926841736,
      0.029677992686629295,
      0.030034705996513367,
      -0.029351666569709778,
      -0.029945969581604004,
      -0.02815145254135132,
      0.001764961052685976,
      -0.028530225157737732,
      -0.029281295835971832,
      -0.000180855393409729,
      0.006659209728240967,
      -0.0017827749252319336,
      -0.02770780771970749,
      0.02936685085296631,
      -0.01125255972146988,
      0.02748197317123413,
      0.029560307040810585,
      0.028523027896881104,
      0.029697388410568237,
      -0.01683361642062664,
      0.029989689588546753,
      0.029999271035194397,
      0.029537737369537354,
      -0.028776943683624268,
      -0.029982000589370728,
      -0.028852254152297974,
      -0.030010223388671875,
      -0.02802327275276184,
      -0.029764190316200256,
      0.003720030188560486,
      -0.030000001192092896,
      0.012697726488113403,
      -0.028004765510559082,
      -0.03004641830921173,
      -0.029892727732658386,
      -0.02999560534954071,
      -0.030013740062713623,
      -0.03002031147480011,
      -0.029980391263961792,
      -0.029947131872177124,
      -0.029792264103889465,
      -0.029693488031625748,
      -0.027970463037490845,
      0.029792502522468567,
      0.030032217502593994,
      0.02874593436717987,
      0.029919520020484924,
      0.029879987239837646,
      0.030041038990020752,
      0.029736146330833435,
      0.028281360864639282,
      0.029707252979278564,
      0.0300370454788208,
      0.02942822501063347,
      0.0291854590177536,
      0.030026324093341827,
      0.030022263526916504,
      0.030018001794815063,
      0.03004273772239685,
      0.029444709420204163,
      0.029632240533828735,
      0.02976563572883606,
      0.030036866664886475,
      0.005584552884101868,
      0.023762255907058716,
      0.027765685692429543,
      0.02768053114414215,
      0.029083192348480225,
      0.026951909065246582,
      -0.01147376000881195,
      0.029920116066932678,
      0.029960185289382935,
      -0.003437608480453491
    ],
    [
      -0.026320749893784523,
      -0.02905752882361412,
      0.030030421912670135,
      0.030017919838428497,
      -0.02141401916742325,
      -0.02613259106874466,
      -0.02970976009964943,
      -0.02993473783135414,
      0.029719896614551544,
      -0.01304970495402813,
      0.028773337602615356,
      -0.02083057537674904,
      -0.0289042629301548,
      0.02978200651705265,
      -0.0044797807931900024,
      -0.015589660964906216,
      -0.010834215208888054,
      0.02942553721368313,
      0.0032360125333070755,
      0.003208945970982313,
      -0.027660250663757324,
      -0.029658883810043335,
      -0.029403403401374817,
      0.004871842451393604,
      0.02639058232307434,
      0.029779251664876938,
      0.02911972999572754,
      0.029886653646826744,
      0.016981646418571472,
      0.029566239565610886,
      0.028600022196769714,
      -0.028551850467920303
    ],
    [
      0.03001987934112549,
      -0.028895437717437744,
      0.00903061032295227,
      0.029984034597873688,
      0.029755176976323128,
      -0.029954969882965088,
      0.01423928514122963,
      -0.029887735843658447,
      0.021822623908519745,
      0.029817119240760803,
      -0.000937826931476593,
      -0.02933850884437561,
      0.025609329342842102,
      0.029995709657669067,
      0.029641643166542053,
      0.029929816722869873,
      0.02947135642170906,
      0.030032217502593994,
      0.02999119460582733,
      0.030002981424331665,
      -0.0026341862976551056,
      0.029240861535072327,
      0.029021617025136948,
      0.029998019337654114,
      0.005393967032432556,
      0.030018769204616547,
      -0.02998635172843933,
      0.030032098293304443,
      0.03003711998462677,
      0.02366100251674652,
      0.026858661323785782,
      0.014551058411598206,
      -0.02861231565475464,
      0.026110902428627014,
      0.028357528150081635,
      -0.0291939377784729,
      -0.028797507286071777,
      0.029696814715862274,
      0.027225062251091003,
      0.0032050758600234985,
      0.02904301881790161,
      -0.028453588485717773,
      -0.014360032975673676,
      0.027941778302192688,
      -0.028824299573898315,
      -0.029787659645080566,
      -0.02904755249619484,
      -0.028969591483473778,
      -0.029315143823623657,
      -0.029797062277793884,
      -0.029551256448030472,
      -0.028715983033180237,
      0.029894230887293816,
      0.02791304886341095,
      -0.0280827134847641,
      -0.02953576296567917,
      0.029838941991329193,
      -0.028315529227256775,
      0.03003932535648346,
      -0.029330002143979073,
      -0.028080597519874573,
      -0.022050946950912476,
      0.029734957963228226,
      -0.02804134599864483,
      0.029954522848129272,
      0.029652506113052368,
      0.0022090673446655273,
      0.029989853501319885,
      0.03002074733376503,
      -0.029616117477416992,
      0.028535179793834686,
      0.029963277280330658,
      -0.029908999800682068,
      0.0299547016620636,
      0.029533669352531433,
      -0.029222041368484497,
      0.02784397453069687,
      0.02988395094871521,
      0.029823925346136093,
      0.029904574155807495,
      0.02939830720424652,
      0.030047327280044556,
      0.030024036765098572,
      0.029823794960975647,
      0.030035585165023804,
      -0.03000946342945099,
      0.029081612825393677,
      0.030004143714904785,
      -0.003632534295320511,
      0.03002217411994934,
      -0.030040770769119263,
      0.030006960034370422,
      0.029464900493621826,
      0.0015946440398693085,
      -0.02984495460987091,
      0.0043081846088171005,
      0.03002825379371643,
      -0.02995254099369049,
      -0.029951006174087524,
      0.02990017831325531,
      0.030003126710653305,
      -0.019080907106399536,
      -0.02667076885700226,
      -0.029988199472427368,
      0.02948853373527527,
      0.03000020980834961,
      0.02920469641685486,
      -0.02410992980003357,
      0.026923157274723053,
      0.030012264847755432,
      0.029857583343982697,
      0.029938921332359314,
      0.02986776828765869,
      0.030038192868232727,
      0.029986828565597534,
      -0.029458150267601013,
      0.025582101196050644,
      -0.0020537972450256348,
      0.029572799801826477,
      0.03001059591770172,
      -0.029302433133125305,
      0.02999885380268097,
      -0.02997031807899475,
      0.030043676495552063,
      0.02999737858772278,
      0.02793300151824951,
      -0.02950860559940338,
      0.020413674414157867,
      -0.027143150568008423,
      0.027381926774978638,
      0.029927432537078857,
      -0.02835729718208313,
      -0.028796032071113586,
      0.029139799997210503,
      0.0027637630701065063,
      0.02673150599002838,
      0.02997613325715065,
      -0.027196213603019714,
      0.02811247482895851,
      0.029851768165826797,
      -0.024333670735359192,
      -0.029831737279891968,
      -0.02873779833316803,
      -0.028575927019119263,
      -0.027931973338127136,
      -0.029285971075296402,
      -0.02895612269639969,
      -0.02966313064098358,
      0.029717907309532166,
      0.029988646507263184,
      -0.02733549475669861,
      -0.029365085065364838,
      0.030018329620361328,
      -0.029144614934921265,
      0.02982684224843979,
      -0.029462695121765137,
      -0.02872428297996521,
      0.029705330729484558,
      0.029969505965709686,
      0.029238373041152954,
      -0.02998831868171692,
      0.028252989053726196,
      0.02945495769381523,
      -0.02993510663509369,
      -0.02811470627784729,
      0.02987387776374817,
      0.026961566880345345,
      0.029909472912549973,
      0.02969735860824585,
      -0.028946280479431152,
      0.0020064041018486023,
      0.030037090182304382,
      -0.02241024374961853,
      -0.028688177466392517,
      -0.028676725924015045,
      -0.029645293951034546,
      -0.02691054344177246,
      -0.0298473984003067,
      -0.029794083908200264,
      -0.029518499970436096,
      0.029833026230335236,
      0.030027031898498535,
      -0.027347087860107422,
      -0.02970665693283081,
      0.027397796511650085,
      -0.029704879969358444,
      0.03003549575805664,
      -0.02968732640147209,
      -0.02770666778087616,
      0.02673855423927307,
      0.029618635773658752,
      0.027329012751579285,
      -0.029977113008499146,
      -0.025883875787258148,
      -0.029315322637557983,
      -0.02982725203037262,
      -0.029499739408493042,
      -0.029696732759475708,
      -0.007024891674518585,
      -0.025542855262756348,
      -0.02905842661857605,
      -0.02946460247039795,
      -0.027758091688156128,
      -0.029213476926088333,
      -0.028831318020820618,
      -0.029781252145767212,
      -0.02874085307121277,
      -0.029668375849723816,
      -0.02929631620645523,
      -0.029656611382961273,
      -0.029637396335601807,
      -0.02826210856437683,
      -0.0281896460801363,
      -0.023438096046447754,
      -0.029242485761642456,
      -0.02962753176689148,
      0.028416380286216736,
      -0.029652602970600128,
      0.029874637722969055,
      -0.02977864444255829,
      -0.029901117086410522,
      -0.02974342554807663,
      -0.02380231022834778,
      -0.029349546879529953,
      0.02894766628742218,
      0.030012577772140503,
      0.029926352202892303,
      0.02906927838921547,
      0.029926657676696777,
      0.028822965919971466,
      0.01543465256690979,
      0.018222317099571228,
      0.029146544635295868,
      0.029919221997261047,
      0.029514331370592117,
      -0.002755984663963318,
      0.027230016887187958,
      0.025698602199554443,
      0.0299069881439209,
      0.02759241685271263,
      0.029611602425575256,
      0.029739022254943848,
      0.029427148401737213,
      0.029888242483139038,
      -0.0003764927387237549,
      0.02120315656065941,
      0.029273755848407745,
      0.029979929327964783,
      -0.02770114690065384,
      0.029326707124710083,
      -0.028938770294189453,
      0.029807627201080322,
      0.02953377366065979,
      0.029391184449195862,
      0.003171876072883606,
      0.02972659468650818,
      0.02975042164325714,
      0.03004908561706543,
      0.030035123229026794,
      -0.02973020076751709,
      -0.029227077960968018,
      0.029765449464321136,
      0.028557047247886658,
      0.030015133321285248,
      0.02995733916759491,
      0.029247187077999115,
      0.02962447702884674,
      0.029774755239486694,
      0.026004955172538757,
      -0.02778712660074234,
      -0.02738049626350403,
      -0.029417071491479874,
      -0.025269120931625366,
      -0.02995559573173523,
      -0.02970258891582489,
      0.029911112040281296,
      0.028796494007110596,
      0.0019949153065681458,
      -0.021239228546619415,
      -0.02962702512741089,
      0.029960699379444122,
      -0.027672335505485535,
      0.03003649413585663,
      -0.02950270101428032,
      -0.023265376687049866,
      0.030013930052518845,
      0.029893338680267334,
      0.029892131686210632,
      0.02911907434463501,
      -0.022907674312591553,
      0.0007855147123336792,
      -0.027290232479572296,
      -0.027511432766914368,
      0.02988089993596077,
      -0.024159610271453857,
      -0.02478862926363945,
      0.029438123106956482,
      -0.026775769889354706,
      0.029820945113897324,
      0.030030250549316406,
      -0.012452781200408936,
      -0.028811484575271606,
      -0.028072595596313477,
      -0.027614379301667213,
      -0.028186917304992676,
      -0.02924025058746338,
      -0.028016403317451477,
      -0.029402414336800575,
      0.02356569468975067,
      0.02813093736767769,
      -0.02283824235200882,
      -0.029293041676282883,
      0.004524149000644684,
      -0.029185764491558075,
      0.029003813862800598,
      -0.02908766269683838,
      -0.027517765760421753,
      0.028126567602157593,
      0.026322945952415466,
      0.0005965381860733032,
      0.02790837362408638,
      0.028141416609287262,
      0.02777908742427826,
      0.02803315408527851,
      0.02568534016609192,
      0.028631847351789474,
      0.027399659156799316,
      0.02831302583217621,
      0.027871370315551758,
      0.02618059515953064,
      0.027575314044952393,
      0.028159618377685547,
      0.02738937735557556,
      0.028332054615020752,
      -0.028256066143512726,
      0.02690349519252777,
      0.027336925268173218,
      -0.02813831716775894,
      -0.02886606752872467,
      0.028632253408432007,
      0.028204504400491714,
      0.027740642428398132,
      0.0020239725708961487,
      -0.028775304555892944,
      0.027858033776283264,
      0.026804164052009583,
      0.028123795986175537,
      -0.02872660756111145,
      0.028279900550842285,
      0.027811452746391296,
      0.027876511216163635,
      0.02775895595550537,
      0.028890207409858704,
      0.029929310083389282,
      0.009869575500488281,
      0.029338382184505463,
      0.029607534408569336,
      0.029190603643655777,
      -0.026885509490966797,
      0.029214590787887573,
      0.0297735333442688,
      0.029846757650375366,
      -0.001934245228767395,
      -0.028597086668014526,
      0.02980951964855194,
      0.02921663224697113,
      0.0297483429312706,
      0.029497094452381134,
      0.029643408954143524,
      0.029415220022201538,
      0.02943582460284233,
      0.022156983613967896,
      -0.02766546607017517,
      -0.004294350743293762,
      0.02989797294139862,
      0.029571153223514557,
      -0.023817822337150574,
      0.029693543910980225,
      -0.029020503163337708,
      0.029491007328033447,
      0.029246166348457336,
      0.030002176761627197,
      -0.005890294909477234,
      0.01747804880142212,
      -0.026964476332068443,
      0.026437871158123016,
      0.029546670615673065,
      -0.029587721452116966,
      -0.02042015641927719,
      0.02975425124168396,
      -0.0015401600394397974,
      -0.0171811506152153,
      0.030038099735975266,
      -0.027896776795387268,
      -0.010917559266090393,
      0.030039101839065552,
      -0.02350132167339325,
      0.029985837638378143,
      -0.02614252269268036,
      -0.029597431421279907,
      -0.0024124756455421448,
      -0.02948441356420517,
      -0.029498472809791565,
      -0.02328396588563919,
      0.0297832190990448,
      0.030034750699996948,
      -0.021842926740646362,
      -0.029141172766685486,
      0.02764827013015747,
      -0.02896200120449066,
      0.03003533184528351,
      -0.028862401843070984,
      -0.026162125170230865,
      0.029644593596458435,
      0.029644742608070374,
      0.029841365292668343,
      0.0047087520360946655,
      -0.00042045116424560547,
      0.00025186687707901,
      -0.003381863236427307,
      -0.005027338862419128,
      0.004344582557678223,
      -0.026913940906524658,
      0.002054770477116108,
      0.0024032965302467346,
      -0.00813451036810875,
      -0.025349438190460205,
      0.0025849342346191406,
      -0.02442188560962677,
      0.006709843873977661,
      -0.005519837141036987,
      -0.0040401071310043335,
      -0.011505022644996643,
      -0.0031853020191192627,
      -0.003532588481903076,
      -0.0030269622802734375,
      0.0033629387617111206,
      0.0013902857899665833,
      -0.010227188467979431,
      -0.0036907941102981567,
      -0.0007990226149559021,
      -0.0038857758045196533,
      0.0022749528288841248,
      -0.0034606754779815674,
      -0.003968775272369385,
      0.00045005232095718384,
      0.0012345612049102783,
      0.0003358572721481323,
      -0.028338812291622162,
      -0.029402727261185646,
      0.026668906211853027,
      -0.029585182666778564,
      -0.027069028466939926,
      0.026389088481664658,
      -0.026161715388298035,
      -0.028943652287125587,
      0.027355775237083435,
      -0.028443366289138794,
      0.0262872576713562,
      -0.02987179160118103,
      -0.02902502939105034,
      0.029994606971740723,
      -0.027853190898895264,
      -0.02938544750213623,
      -0.0015347003936767578,
      -0.029291868209838867,
      -0.029498860239982605,
      0.02319476008415222,
      -0.028122901916503906,
      0.025492340326309204,
      -0.02159249782562256,
      -0.024217940866947174,
      0.02818991243839264,
      -0.028085604310035706,
      0.027751773595809937,
      -0.02455177903175354,
      -0.02833084762096405,
      -0.01872633397579193,
      0.02837163209915161,
      -0.0006323754787445068,
      -0.030014067888259888,
      -0.012880980968475342,
      -0.02995935082435608,
      -0.029937461018562317,
      -0.028837770223617554,
      0.029343053698539734,
      -0.028367549180984497,
      -0.02636316418647766,
      0.029694348573684692,
      -0.02939288318157196,
      0.021906912326812744,
      0.012822441756725311,
      -0.027542591094970703,
      0.028071604669094086,
      -0.02901463210582733,
      -0.02934141457080841,
      -0.02946053445339203,
      -0.029719620943069458,
      -0.029541969299316406,
      -0.029997140169143677,
      -0.029559269547462463,
      -0.029046908020973206,
      -0.028624728322029114,
      -0.02915935590863228,
      -0.02647867240011692,
      -0.028937920928001404,
      0.029393270611763,
      -0.02847255766391754,
      -0.029356546700000763,
      -0.025357291102409363,
      -0.0294315367937088,
      -0.027936428785324097,
      -0.029425665736198425,
      -0.025196652859449387,
      0.02922913432121277,
      -0.02989177405834198,
      -0.028980553150177002,
      0.028244685381650925,
      0.029922649264335632,
      -0.024675339460372925,
      0.029905028641223907,
      -0.028925828635692596,
      0.027806058526039124,
      0.029990628361701965,
      -0.028801769018173218,
      -0.029899373650550842,
      -0.02873992919921875,
      -0.029574766755104065,
      -0.029165729880332947,
      -0.02985154464840889,
      -0.02970677614212036,
      -0.029988333582878113,
      0.029890775680541992,
      0.02994886040687561,
      -0.028749167919158936,
      -0.029594600200653076,
      0.026796281337738037,
      -0.029419034719467163,
      0.0296231210231781,
      -0.02963479608297348,
      -0.029764994978904724,
      -0.02664010226726532,
      0.029946506023406982,
      -0.021337486803531647,
      0.027857303619384766,
      -0.02995266765356064,
      -0.02996160089969635,
      0.029956713318824768,
      0.02923685312271118,
      -0.02937181293964386,
      -0.029853954911231995,
      -0.027794890105724335,
      -0.02965325117111206,
      0.029328085482120514,
      -0.02873855084180832,
      -0.029677867889404297,
      0.027369655668735504,
      -0.028310447931289673,
      0.026594877243041992,
      0.02975047379732132,
      -0.025588393211364746,
      0.029896855354309082,
      0.029790714383125305,
      -0.02911388874053955,
      -0.02957436442375183,
      -0.029804274439811707,
      0.029716618359088898,
      0.02989562787115574,
      -0.02999381348490715,
      0.02978319674730301,
      -0.029945284128189087,
      0.029970720410346985,
      -0.014120206236839294,
      -0.02803778648376465,
      -0.029849901795387268,
      -0.02993546426296234,
      0.02989080548286438,
      0.027400627732276917,
      0.029382407665252686,
      -0.018159635365009308,
      -0.026571523398160934,
      0.03003785014152527,
      0.027900606393814087,
      0.028454750776290894,
      0.02975831925868988,
      -0.024359866976737976,
      0.028531424701213837,
      0.029862865805625916,
      0.02970185875892639,
      -0.020419269800186157,
      -0.02735714614391327,
      -0.025947682559490204,
      0.028501734137535095,
      -0.030012965202331543,
      -0.029677294194698334,
      0.029653459787368774,
      0.029688432812690735,
      0.029636427760124207,
      -0.005653709173202515,
      -0.02956996113061905,
      0.02809542417526245,
      -0.027728840708732605,
      0.02923375368118286,
      -0.029477421194314957,
      0.023481622338294983,
      0.03001411259174347,
      0.02918018400669098,
      0.029895827174186707,
      0.02958017587661743,
      -0.029986411333084106,
      -0.027280917391180992,
      0.0290164053440094,
      0.02934698760509491,
      -0.0299515500664711,
      0.016023874282836914,
      -0.030012354254722595,
      -0.02991519868373871,
      0.029837779700756073,
      -0.027238979935646057,
      -0.0298524908721447,
      0.02098725736141205,
      -0.030018121004104614,
      0.029558885842561722,
      0.029469728469848633,
      0.029060810804367065,
      0.03003108501434326,
      0.030024662613868713,
      0.029977872967720032,
      0.025198593735694885,
      0.004341844469308853,
      0.028196558356285095,
      0.03001735359430313,
      -0.0282459557056427,
      0.014993339776992798,
      -0.030035577714443207,
      0.030022889375686646,
      0.029801182448863983,
      -0.002068459987640381,
      -0.02852797508239746,
      0.011086907237768173,
      -0.019308537244796753,
      -0.028078138828277588,
      -0.02788218855857849,
      -0.02366587519645691,
      -0.01419118046760559,
      -0.027834773063659668,
      -0.024934306740760803,
      -0.027658164501190186,
      -0.02866542339324951,
      0.0299631766974926,
      -0.027665942907333374,
      -0.022459030151367188,
      -0.02882447838783264,
      -0.029950112104415894,
      -0.028107590973377228,
      -0.027158424258232117,
      -0.025176480412483215,
      0.029498614370822906,
      0.007140666246414185,
      -0.023130295798182487,
      -0.01587098091840744,
      -0.020987480878829956,
      -0.025584638118743896,
      0.029870320111513138,
      -0.028374582529067993,
      -0.027092397212982178,
      -0.0275944322347641,
      0.02986288070678711,
      -0.024088695645332336,
      -0.02205704338848591,
      -0.027754075825214386,
      -0.026718687266111374,
      0.02979379892349243,
      -0.0289616659283638,
      -0.029242485761642456,
      0.028978198766708374,
      0.02906481921672821,
      -0.02863219380378723,
      -0.029051676392555237,
      -0.029605790972709656,
      -0.027715295553207397,
      0.028238601982593536,
      -0.02778145670890808,
      -0.029048752039670944,
      0.025529470294713974,
      -0.024464651942253113,
      0.028217291459441185,
      0.028465092182159424,
      -0.017498105764389038,
      0.02968055009841919,
      0.029315680265426636,
      -0.022294744849205017,
      -0.029035352170467377,
      -0.02892214059829712,
      -0.02352224290370941,
      0.02991553395986557,
      -0.029758408665657043,
      0.028621822595596313,
      -0.029879122972488403,
      0.029943160712718964,
      0.029410570859909058,
      -0.028588831424713135,
      -0.02897920459508896,
      0.004407450556755066,
      0.028959698975086212,
      -0.005209572613239288,
      0.0056971898302435875,
      0.029622554779052734,
      0.030023247003555298,
      -0.023285701870918274,
      0.029028713703155518,
      0.029173612594604492,
      -0.01943957805633545,
      0.02989695966243744,
      0.029123108834028244,
      0.028750672936439514,
      0.029926180839538574,
      -0.012124806642532349,
      0.029632342979311943,
      0.029539689421653748,
      0.029429420828819275,
      0.02997639775276184,
      0.029971271753311157,
      0.028816580772399902,
      0.02909204363822937,
      -0.008422024548053741,
      0.028414607048034668,
      0.02936052531003952,
      0.029956474900245667,
      0.029168857261538506,
      -0.025900140404701233,
      0.029373839497566223,
      0.029612958431243896,
      0.028638049960136414,
      -0.009676724672317505,
      0.02952657639980316,
      0.028724536299705505,
      0.029759395867586136,
      0.02953183650970459,
      -0.02551257610321045,
      -0.012057751417160034,
      0.029997944831848145,
      0.005860685370862484,
      0.029904469847679138,
      0.029911428689956665,
      -0.01754756271839142,
      0.0035076886415481567,
      0.029948070645332336,
      0.02718585729598999,
      0.029639147222042084,
      -0.028101950883865356,
      -0.025080054998397827,
      0.00482526421546936,
      -0.029895007610321045,
      -0.02953934669494629,
      -0.026557371020317078,
      0.02968817949295044,
      0.029299244284629822,
      -0.00029005110263824463,
      -0.029362156987190247,
      0.027922451496124268,
      -0.023002132773399353,
      0.030017197132110596,
      -0.02851492166519165,
      0.0007751584053039551,
      0.03000485897064209,
      0.0283048152923584,
      0.02982063591480255,
      0.029981404542922974,
      0.029491811990737915,
      -0.005231872200965881,
      0.030018359422683716,
      0.029596641659736633,
      -0.029306843876838684,
      0.003380224108695984,
      0.026901431381702423,
      -0.030027680099010468,
      0.029371727257966995,
      -0.0033595971763134003,
      -0.029970556497573853,
      0.0289800763130188,
      0.029572613537311554,
      0.029715657234191895,
      0.029927045106887817,
      0.02914433926343918,
      0.03001447021961212,
      0.029985129833221436,
      0.030012309551239014,
      -0.029994294047355652,
      -0.029985971748828888,
      0.028263308107852936,
      0.02993568778038025,
      -0.02957899495959282,
      0.02993861585855484,
      -0.03001895546913147,
      0.029989615082740784,
      0.029847484081983566,
      -0.029180625453591347,
      -0.02917865663766861,
      -0.001553911715745926,
      0.02963700331747532,
      -0.022059306502342224,
      -0.02942117303609848,
      0.0300269965082407,
      0.02983716130256653,
      -0.029215052723884583,
      -0.0036086440086364746,
      -0.01833794265985489,
      -0.03004235401749611,
      0.02971610426902771,
      -0.02731676958501339,
      -0.0300279688090086,
      0.029196500778198242,
      0.028135523200035095,
      0.029981136322021484,
      0.029942959547042847,
      0.029828384518623352,
      0.030037350952625275,
      0.029969990253448486,
      0.029329746961593628,
      -0.029128611087799072,
      -0.03000323474407196,
      0.028970904648303986,
      0.02999507263302803,
      -0.029805272817611694,
      0.030044645071029663,
      -0.029699500650167465,
      0.03004451096057892,
      0.02806985378265381,
      -0.028694286942481995,
      -0.029848098754882812,
      -0.025886505842208862,
      -0.008582957088947296,
      0.028394147753715515,
      0.02968922257423401,
      -0.026363208889961243,
      -0.029345694929361343,
      0.02995699644088745,
      0.02817314863204956,
      0.02621959149837494,
      0.029978498816490173,
      -0.027355525642633438,
      0.02739351987838745,
      0.029999852180480957,
      -0.017502613365650177,
      -0.01976732909679413,
      -0.029435232281684875,
      -0.02752866968512535,
      -0.029407469555735588,
      -0.0297984778881073,
      -0.029376059770584106,
      -0.0037255436182022095,
      0.0299360454082489,
      0.029963001608848572,
      -0.02435537427663803,
      -0.029753103852272034,
      0.029590800404548645,
      -0.027950987219810486,
      0.03002011775970459,
      -0.029616519808769226,
      -0.022460289299488068,
      0.02922254242002964,
      0.02959635853767395,
      0.02961273491382599,
      0.0,
      -0.02701689302921295,
      -0.029991142451763153,
      -0.021880030632019043,
      -0.021880127489566803,
      -0.02985846996307373,
      -0.021880103275179863,
      -0.029628336429595947,
      -0.029837802052497864,
      0.0,
      0.011412516236305237,
      -0.029871374368667603,
      -0.021880127489566803,
      -0.021880120038986206,
      -0.0218801349401474,
      -0.029592037200927734,
      -0.021880120038986206,
      -0.021871397271752357,
      -0.029786624014377594,
      -0.02942633628845215,
      -0.02188009023666382,
      0.02187986671924591,
      -0.021880120038986206,
      0.021879762411117554,
      -0.024509280920028687,
      0.021879956126213074,
      -0.02998398244380951,
      0.021867111325263977,
      -0.021880116313695908,
      -0.029988572001457214,
      -0.029662907123565674,
      -0.022507071495056152,
      -0.029882460832595825,
      0.029200918972492218,
      -0.014963433146476746,
      -0.023711686953902245,
      0.029534265398979187,
      -0.02634502202272415,
      0.029910579323768616,
      -0.023619025945663452,
      -0.02652108110487461,
      -0.018595747649669647,
      -0.026562929153442383,
      -0.027360931038856506,
      0.027941755950450897,
      0.029631301760673523,
      0.029764652252197266,
      0.029410630464553833,
      0.02956993132829666,
      0.03003951907157898,
      0.030009716749191284,
      0.029982298612594604,
      -0.01407507061958313,
      -0.02052948996424675,
      0.028871238231658936,
      0.029985278844833374,
      -0.02395300567150116,
      0.02883976697921753,
      -0.029920503497123718,
      0.029908210039138794,
      -0.028120823204517365,
      -0.02940453588962555,
      -0.024515986442565918,
      0.026324450969696045,
      -0.02850545197725296,
      -0.025259170681238174,
      -0.02460283786058426,
      -0.02697494626045227,
      -0.028873950242996216,
      0.028157144784927368,
      -0.012386709451675415,
      -0.012128561735153198,
      -0.013300135731697083,
      -0.02677757665514946,
      0.02781704068183899,
      0.0032548904418945312,
      -0.02435198426246643,
      -0.027615800499916077,
      -0.028578832745552063,
      -0.028538286685943604,
      -0.02825234830379486,
      -0.028745055198669434,
      -0.028385955840349197,
      -0.029367536306381226,
      0.02804863452911377,
      -0.018953267484903336,
      -0.028251878917217255,
      -0.028462857007980347,
      -0.003364741802215576,
      -0.028747042641043663,
      0.02922368049621582,
      -0.028713911771774292,
      -0.029109954833984375,
      -0.02944253385066986,
      -0.019242778420448303,
      0.026060283184051514,
      -0.014707155525684357,
      0.0006438195705413818,
      -0.013193562626838684,
      0.01848885416984558,
      0.0006256103515625,
      -0.02898598089814186,
      0.01047109067440033,
      0.022018125280737877,
      -0.029573900625109673,
      0.00271761417388916,
      0.0074518173933029175,
      -0.0019531100988388062,
      -0.029193952679634094,
      -0.02999994158744812,
      0.004289299249649048,
      0.02950509637594223,
      -0.026884153485298157,
      0.029807962477207184,
      0.02948950231075287,
      0.008294858038425446,
      0.002223961055278778,
      -0.02714817225933075,
      -0.0026311054825782776,
      0.006380267441272736,
      0.022907841950654984,
      0.029841478914022446,
      -0.023848574608564377,
      -0.029942795634269714,
      0.01733890175819397,
      -0.002391234040260315,
      0.027996212244033813,
      -0.026770398020744324,
      0.030038896948099136,
      -0.028791304677724838,
      -0.029208004474639893,
      0.0300263911485672,
      0.029802381992340088,
      -0.029792189598083496,
      -0.002308592200279236,
      -0.027046173810958862,
      -0.030029311776161194,
      0.029400058090686798,
      -0.003926724195480347,
      -0.03003816306591034,
      0.02887183427810669,
      0.029099315404891968,
      0.02979545295238495,
      0.029923439025878906,
      0.029748573899269104,
      0.030018210411071777,
      0.02996329963207245,
      0.03000616282224655,
      -0.029815495014190674,
      -0.02983430027961731,
      0.029087595641613007,
      0.029954656958580017,
      -0.029697773978114128,
      0.02995692938566208,
      -0.030047811567783356,
      0.02999649941921234,
      0.030015354976058006,
      -0.027386754751205444,
      -0.029704827815294266,
      0.006839439272880554
    ],
    [
      0.029222650453448296,
      -0.019247397780418396,
      0.029974021017551422,
      0.029834747314453125,
      -0.0018268181011080742,
      -0.006080735940486193,
      -0.029284071177244186,
      0.029400061815977097,
      0.029769809916615486,
      -0.020260751247406006,
      0.027965346351265907,
      0.029793694615364075,
      0.004389110952615738,
      -0.0012358729727566242,
      -0.021174075081944466,
      -0.029354672878980637,
      -0.025006912648677826,
      -0.029899194836616516,
      0.029155559837818146,
      -0.0276864655315876,
      -0.027134591713547707,
      -0.029096346348524094,
      0.028113141655921936,
      0.029486341401934624,
      0.028241626918315887,
      0.02747930958867073,
      0.028175048530101776,
      -0.028795041143894196,
      0.002780104987323284,
      -0.027439899742603302,
      0.00159858213737607,
      0.017203159630298615
    ],
    [
      -0.030029192566871643,
      -0.00784352421760559,
      -0.02994975447654724,
      -0.03003779798746109,
      -0.016693808138370514,
      -0.023991137742996216,
      -0.029093697667121887,
      -0.02977345883846283,
      0.002822369337081909,
      -0.02521160989999771,
      0.029403433203697205,
      -0.03004833310842514,
      0.004269808530807495,
      -0.021453477442264557,
      -0.023986533284187317,
      -0.02808523178100586,
      -0.028631389141082764,
      0.028918161988258362,
      -0.015361867845058441,
      -0.030040517449378967,
      0.02390766143798828,
      0.024600788950920105,
      -0.029440611600875854,
      0.030045263469219208,
      -0.030046656727790833,
      -0.029884561896324158,
      0.029168546199798584,
      0.026877880096435547,
      -0.02965441346168518,
      -0.02746291272342205,
      -0.029567182064056396,
      -0.030044302344322205
    ],
    [
      -0.0034250784665346146
    ]
  ],
  "num_updates": 1,
  "client_ids": [
    "client-2"
  ],
  "mean_final_loss": 10.071976661682129,
  "aggregation_timestamp": 1784209315.81932
}