{
  "version": "v34",
  "base_version": "v33",
  "round_id": 96,
  "aggregation": "fedavg",
  "averaged_weight_delta": [
    [
      -0.02724567800760269,
      -0.00040093157440423965,
      0.02637600153684616,
      1.042243093252182e-05,
      -0.013383712619543076,
      0.00013124756515026093,
      -0.0004234127700328827,
      0.0001188330352306366,
      -0.00011964142322540283,
      -0.0010611899197101593,
      0.0015324465930461884,
      -0.0002860128879547119,
      -7.277727127075195e-05,
      0.0003568846732378006,
      0.0006070975214242935,
      6.782263517379761e-05,
      0.00015845894813537598,
      0.0008734036237001419,
      0.029439073987305164,
      0.00021438300609588623,
      -0.028952404856681824,
      -0.027461664751172066,
      -0.02803603559732437,
      -0.0022237449884414673,
      -0.0008302256464958191,
      -0.016063377261161804,
      -0.00492086261510849,
      -0.010026171803474426,
      -0.028556987643241882,
      0.020698681473731995,
      -0.0017163604497909546,
      -0.00014277920126914978,
      -0.000393792986869812,
      -0.0008063074201345444,
      2.0187348127365112e-05,
      -0.0008153095841407776,
      -0.000685419887304306,
      -1.0643154382705688e-05,
      -0.0003130584955215454,
      -0.00033036433160305023,
      0.01436702162027359,
      -0.029678747057914734,
      -0.028587572276592255,
      -0.016387730836868286,
      -4.538893699645996e-05,
      -0.0017474070191383362,
      -0.010572372935712337,
      -0.029472313821315765,
      -0.014657501131296158,
      -0.02948978915810585,
      -0.00513032078742981,
      -0.029675993137061596,
      -0.028514547273516655,
      -0.01340147526934743,
      -0.011786378920078278,
      -0.02977324277162552,
      -0.02924586832523346,
      -0.0200723959133029,
      -0.028800752013921738,
      -0.02941795438528061,
      0.028068415820598602,
      0.004044933244585991,
      0.010119632817804813,
      0.01345902681350708,
      0.026848718523979187,
      0.00464235246181488,
      0.029282815754413605,
      0.0273498073220253,
      0.0017936509102582932,
      0.02943529188632965,
      0.0029578525573015213,
      0.0031406134366989136,
      0.0006809718906879425,
      0.0024357065558433533,
      4.820525646209717e-06,
      -0.027833642438054085,
      0.005773041397333145,
      -0.0088580921292305,
      5.128234624862671e-05,
      0.007586777210235596,
      -0.0003747493028640747,
      0.019952602684497833,
      0.025464333593845367,
      0.027759239077568054,
      0.009665487334132195,
      -0.001769624650478363,
      0.016287627164274454,
      0.02419344149529934,
      0.025390170514583588,
      0.023408401757478714,
      3.261864185333252e-05,
      0.0017097517848014832,
      -0.02008260414004326,
      0.0002965163439512253,
      0.00031172484159469604,
      0.002411767840385437,
      0.003323197364807129,
      0.0006199702620506287,
      0.0002119801938533783,
      0.002407751977443695,
      0.002911306917667389,
      -7.094442844390869e-05,
      -0.006479840725660324,
      0.0008243266493082047,
      0.00048047304153442383,
      -3.4675002098083496e-05,
      -0.0006893528625369072,
      0.014277353882789612,
      0.00020851939916610718,
      0.026278462260961533,
      -0.00031560659408569336,
      0.00020074192434549332,
      -0.012649021111428738,
      0.0005021318793296814,
      0.0011342493817210197,
      -2.1360814571380615e-05,
      3.857538104057312e-05,
      -0.00018383562564849854,
      0.0005768612027168274,
      0.00023235101252794266,
      0.003320351243019104,
      0.02812160551548004,
      0.0005457326769828796,
      0.001041310839354992,
      -0.02652571350336075,
      0.00019845366477966309,
      -0.0008192602545022964,
      -0.02446991205215454,
      -0.00025982223451137543,
      2.5175511837005615e-05,
      -0.026064351201057434,
      0.00015578046441078186,
      0.008947908878326416,
      0.0010495707392692566,
      -0.028764650225639343,
      0.00013486482203006744,
      -0.02912314236164093,
      -6.327778100967407e-05,
      -0.021257247775793076,
      -0.02754826843738556,
      -0.00045464932918548584,
      -0.0005579162389039993,
      -0.0016631931066513062,
      -0.0003892481327056885,
      -0.001777738332748413,
      -0.02856878563761711,
      -0.002406671643257141,
      -2.0831823348999023e-05,
      -0.0002473369240760803,
      -0.00027916207909584045,
      0.0013320883736014366,
      0.0017538955435156822,
      0.0004976736381649971,
      0.002045378088951111,
      0.00012513995170593262,
      0.00015913508832454681,
      0.00022062286734580994,
      -0.0003481674939393997,
      0.00012678001075983047,
      -2.598017454147339e-05,
      0.0010067075490951538,
      0.013298053294420242,
      -0.00023627467453479767,
      -0.0003155563026666641,
      0.0013358928263187408,
      -0.0045730918645858765,
      -0.011315010488033295,
      -0.010526282712817192,
      -0.008640371263027191,
      -0.027605067938566208,
      0.02886977046728134,
      0.028976842761039734,
      0.024554774165153503,
      0.02907744701951742,
      0.0290797408670187,
      0.02882741391658783,
      0.028645027428865433,
      0.029196403920650482,
      0.028874721378087997,
      0.028481535613536835,
      -0.014106269925832748,
      -0.0002876501530408859,
      0.02895895577967167,
      -0.016682831570506096,
      -0.005594015121459961,
      -0.029482183046638966,
      -0.0008582510054111481,
      -0.0006689019501209259,
      -0.00028308480978012085,
      0.0008773021399974823,
      -0.0285118967294693,
      -0.028300970792770386,
      -0.01988653466105461,
      0.0002593286335468292,
      -0.001004721038043499,
      -0.0004231957718729973,
      0.01315266452729702,
      0.00040199048817157745,
      0.013061529956758022,
      0.0016930140554904938,
      0.0005869418382644653,
      -0.0003183409571647644,
      0.004207611083984375,
      -0.02836606651544571,
      0.000149555504322052,
      0.0006972495466470718,
      0.0003819689154624939,
      0.00021555647253990173,
      0.0016148760914802551,
      -0.0002614213153719902,
      -0.029262706637382507,
      -0.029870741069316864,
      -0.028948120772838593,
      -0.028581641614437103,
      -0.02938580885529518,
      -0.029149753972887993,
      -0.029372429475188255,
      -0.029434673488140106,
      -0.028538569808006287,
      -0.029473230242729187,
      -0.02960251271724701,
      -0.02971235290169716,
      -0.029536360874772072,
      -0.00045185908675193787,
      -0.02962101623415947,
      -0.0003004521131515503,
      -0.02969960868358612,
      -0.02999008446931839,
      -0.02968488447368145,
      -0.029302038252353668,
      0.014245904982089996,
      0.015250727534294128,
      0.01400795765221119,
      0.0020203478634357452,
      0.0019362838938832283,
      -0.017515212297439575,
      0.012561477720737457,
      -0.02599632367491722,
      0.000177726149559021,
      0.0018172487616539001,
      -0.005388759076595306,
      0.005985938012599945,
      -0.0005769170820713043,
      -0.001039661467075348,
      0.023425672203302383,
      0.022816777229309082,
      0.009864430874586105,
      0.02472475916147232,
      0.029325546696782112,
      0.0004036650061607361,
      0.011336312629282475,
      0.018858972936868668,
      0.00829191505908966,
      -0.01456709299236536,
      0.029383808374404907,
      0.014576416462659836,
      0.0006719678640365601,
      0.014399687759578228,
      0.028626510873436928,
      0.0006711035966873169,
      -0.03000614047050476,
      -0.029918834567070007,
      -0.0295441672205925,
      -0.029909633100032806,
      -0.028632674366235733,
      -0.0022443681955337524,
      -0.029898416250944138,
      -0.02970791608095169,
      -0.029790431261062622,
      -0.030017852783203125,
      0.023880102671682835,
      -0.014936327934265137,
      0.02797037363052368,
      -0.022754069417715073,
      0.015897400677204132,
      -0.019561350345611572,
      -0.02904689684510231,
      -0.029096871614456177,
      -0.0037160590291023254,
      0.02756151556968689,
      0.016253791749477386,
      0.0030766502022743225,
      0.02923424541950226,
      0.016639580950140953,
      0.02903299778699875,
      0.001149449497461319,
      0.003192514181137085,
      -0.014551058411598206,
      0.02894030511379242,
      0.028775349259376526,
      -0.0001423358917236328,
      0.02987489104270935,
      0.00020385906100273132,
      -0.016569392755627632,
      -0.009130939841270447,
      5.1409006118774414e-05,
      9.278953075408936e-05,
      -0.00018511153757572174,
      -9.556114673614502e-05,
      0.0006091604009270668,
      0.006143897771835327,
      0.0006845109164714813,
      0.026769913733005524,
      0.0001269504427909851,
      0.029883727431297302,
      0.02899638656526804,
      0.006085537374019623,
      0.029952924698591232,
      -3.316998481750488e-05,
      0.0008220598101615906,
      0.0005912333726882935,
      0.00021629780530929565,
      0.0013514086604118347,
      0.00372275710105896,
      0.0010758191347122192,
      0.004116043448448181,
      0.0026333946734666824,
      0.00044428929686546326,
      0.027998708188533783,
      0.005755603313446045
    ],
    [
      -0.022250582464039326,
      0.0008086441084742546,
      0.010311277350410819,
      -0.02257348969578743,
      0.028475264087319374,
      -0.00018311664462089539,
      0.0012605376541614532,
      -0.02480247989296913,
      -0.026367420330643654,
      0.0017707087099552155,
      0.0001411084085702896,
      -0.002038116566836834,
      0.027851910330355167,
      0.0035510724410414696,
      0.0011238669976592064,
      0.0007764659821987152,
      -0.01959219016134739,
      -0.021964574232697487,
      -0.01165844383649528,
      0.02981095016002655,
      -0.028125041164457798,
      0.0016239527612924576,
      0.028019008226692677,
      0.024295500479638577,
      -0.029019933193922043,
      -9.36221331357956e-05,
      0.02959235943853855,
      0.0012265043333172798,
      0.0091212154366076,
      0.00043734442442655563,
      0.02804706245660782,
      -0.0002375766634941101
    ],
    [
      -0.021286211907863617,
      0.0032301396131515503,
      0.02971971035003662,
      0.028787218034267426,
      0.00019555538892745972,
      -0.02313997596502304,
      0.02907457947731018,
      0.0018298700451850891,
      -0.00013295374810695648,
      0.02830454148352146,
      0.02832692861557007,
      0.003978990018367767,
      0.029542282223701477,
      0.0013652965426445007,
      0.0004064813256263733,
      0.005070439539849758,
      -0.02623509243130684,
      0.028965450823307037,
      0.00021350756287574768,
      -0.017776417545974255,
      -0.027599386870861053,
      -0.02725407015532255,
      -0.00022403523325920105,
      0.001851651817560196,
      -0.019370097666978836,
      -0.027728013694286346,
      9.03792679309845e-05,
      -0.02739199623465538,
      0.0016503743827342987,
      0.0004613734781742096,
      0.0023141540586948395,
      -0.0008393190801143646,
      0.0033638551831245422,
      -0.02698860503733158,
      -0.02902316302061081,
      -0.02538210153579712,
      0.002496369183063507,
      0.0038491562008857727,
      -0.029437072575092316,
      -0.028816813603043556,
      0.0037601664662361145,
      -0.025803692638874054,
      -0.02352680265903473,
      -0.017295561730861664,
      -0.025651920586824417,
      -0.027534108608961105,
      -0.005889736115932465,
      -0.028781231492757797,
      0.0008851811289787292,
      -0.02621857076883316,
      -0.0037119537591934204,
      0.0013030832633376122,
      0.0005933493375778198,
      0.0007930435240268707,
      0.0023923441767692566,
      -0.028351735323667526,
      0.0019285697489976883,
      0.003197840414941311,
      0.0028389059007167816,
      0.0023418497294187546,
      -0.02890489622950554,
      -0.021504517644643784,
      -0.029000967741012573,
      -0.018143631517887115,
      0.001003943383693695,
      0.00134962797164917,
      0.0007706880569458008,
      0.0024149874225258827,
      0.01544259488582611,
      -0.028698645532131195,
      0.0007330477237701416,
      0.0007324032485485077,
      -0.0002853125333786011,
      0.001795959658920765,
      0.02906385064125061,
      0.001187894493341446,
      0.029812119901180267,
      0.0016188472509384155,
      0.02994563989341259,
      0.0024723894894123077,
      -0.02921079285442829,
      0.0020910343155264854,
      0.0017864294350147247,
      -0.006111927330493927,
      -0.029380258172750473,
      -0.028601832687854767,
      0.0029832683503627777,
      0.0008318796753883362,
      0.0007421709597110748,
      -0.028668083250522614,
      -0.027040041983127594,
      0.00111367367208004,
      0.0008202120661735535,
      0.010878324508666992,
      0.0005899369716644287,
      0.012981288833543658,
      -0.0001613190397620201,
      0.0013009971007704735,
      -0.000887703150510788,
      -0.00906369835138321,
      -0.029828853905200958,
      0.00010612513870000839,
      0.019157540053129196,
      0.0006814748048782349,
      -0.029692061245441437,
      0.0004357658326625824,
      -0.029815763235092163,
      -0.029605336487293243,
      -0.010341815650463104,
      0.001181080937385559,
      -0.029723187908530235,
      -2.9746443033218384e-05,
      0.0002963244915008545,
      -0.02707398682832718,
      -0.02629256062209606,
      -2.8327107429504395e-05,
      0.00021935999393463135,
      8.55959951877594e-05,
      -0.02986355870962143,
      -0.00014721322804689407,
      3.920122981071472e-05,
      -0.017797693610191345,
      -0.029881902039051056,
      8.383393287658691e-05,
      0.0004437491297721863,
      -0.029642448760569096,
      0.029869846999645233,
      -0.028750240802764893,
      -0.0007905680686235428,
      0.0061827152967453,
      0.029937300831079483,
      0.029357604682445526,
      0.0005197040736675262,
      -0.00014133751392364502,
      0.029918300919234753,
      0.000292082317173481,
      -8.09207558631897e-05,
      0.02461506426334381,
      0.02689628303050995,
      0.02780214697122574,
      0.029998520389199257,
      0.0013797543942928314,
      0.0022847428917884827,
      0.008128518238663673,
      -0.026700181886553764,
      0.029631853103637695,
      0.002359917387366295,
      -0.00010824296623468399,
      -0.029566805809736252,
      -0.025958582758903503,
      0.016120556741952896,
      0.01665283367037773,
      0.00016903318464756012,
      -0.029231060296297073,
      2.3774802684783936e-05,
      -0.02942299097776413,
      -3.7239864468574524e-05,
      0.0003169216215610504,
      0.00015427172183990479,
      0.029018282890319824,
      -0.027130715548992157,
      0.0005041081458330154,
      0.02998596429824829,
      0.029032692313194275,
      0.0012944843620061874,
      -0.029371269047260284,
      -4.1579827666282654e-05,
      -0.0008244030177593231,
      4.338100552558899e-05,
      -1.817941665649414e-06,
      0.014351069927215576,
      0.02954627014696598,
      0.0002634674310684204,
      0.0005861390382051468,
      0.00787036120891571,
      3.566686064004898e-05,
      -0.028072510845959187,
      0.02032369375228882,
      0.010302223265171051,
      -0.02943394146859646,
      -0.029181282967329025,
      -0.029455386102199554,
      0.005715492181479931,
      0.0002780407667160034,
      -0.02799217402935028,
      -0.02517091855406761,
      0.0008018314838409424,
      -0.019943115301430225,
      -0.0006793029606342316,
      -0.0017215162515640259,
      -9.208172559738159e-05,
      0.02368617057800293,
      0.00012582913041114807,
      -0.006890412420034409,
      0.028323091566562653,
      0.02855490706861019,
      0.029500224627554417,
      0.0008270516991615295,
      0.02926032990217209,
      -0.021191388368606567,
      0.029722221195697784,
      -0.0005285739898681641,
      0.028759852051734924,
      0.0006572343409061432,
      0.029887537471950054,
      -0.0036640120670199394,
      0.029770538210868835,
      0.00042244046926498413,
      0.0013268440961837769,
      0.0004023350775241852,
      0.002124849706888199,
      0.0005000121891498566,
      0.0006192512810230255,
      0.0007554106414318085,
      0.02935606986284256,
      0.029546566307544708,
      1.2530013918876648e-05,
      0.000551978126168251,
      0.0016384106129407883,
      0.0001089051365852356,
      -0.0011165514588356018,
      0.029831264168024063,
      0.00016096606850624084,
      0.028965890407562256,
      0.00029033422470092773,
      0.02602716162800789,
      -0.014809437096118927,
      0.029787305742502213,
      -0.028763961046934128,
      0.00022599101066589355,
      0.0071943774819374084,
      0.0019795671105384827,
      0.0003057830035686493,
      0.0034679826349020004,
      -0.02721824124455452,
      -0.027821265161037445,
      0.010130830109119415,
      0.003680337220430374,
      -0.0018134228885173798,
      0.00011051446199417114,
      0.0020974334329366684,
      -0.012165334075689316,
      -0.027995409443974495,
      0.0004226416349411011,
      0.00039505213499069214,
      0.0003695562481880188,
      -0.00014682114124298096,
      0.015491403639316559,
      -0.00010477565228939056,
      0.0015374775975942612,
      0.0005998741835355759,
      0.0009287018328905106,
      0.002943558618426323,
      -0.0019315555691719055,
      0.02839549258351326,
      0.0032161343842744827,
      0.016375809907913208,
      -0.0013648122549057007,
      -0.0004653260111808777,
      0.00014520436525344849,
      0.02953839674592018,
      0.02914702706038952,
      -8.419528603553772e-05,
      -0.026986755430698395,
      0.02947896718978882,
      0.02879880554974079,
      0.029568690806627274,
      -0.00027145445346832275,
      -0.0006219558417797089,
      -0.013909529894590378,
      0.02898332756012678,
      -0.022995606064796448,
      0.002347821369767189,
      0.0006600990891456604,
      0.02950921654701233,
      0.02965783327817917,
      0.00028153881430625916,
      0.0017565712332725525,
      0.029354523867368698,
      -0.012265976518392563,
      0.02918953448534012,
      0.029179029166698456,
      0.029208931140601635,
      0.027626268565654755,
      -0.02714717388153076,
      0.0023390930145978928,
      -0.02917124330997467,
      0.017231978476047516,
      -0.02491745725274086,
      0.0013102516531944275,
      0.029791874811053276,
      0.021514058113098145,
      0.00019534118473529816,
      -0.029091425240039825,
      0.01994095742702484,
      0.000106029212474823,
      0.00047065969556570053,
      -0.02928534708917141,
      -9.251013398170471e-05,
      0.02974376082420349,
      0.029972411692142487,
      0.0014513535425066948,
      0.001590692438185215,
      0.001177169382572174,
      -0.029228631407022476,
      0.028715316206216812,
      0.0024524033069610596,
      -0.0292965080589056,
      -0.02909216657280922,
      -0.029533613473176956,
      0.00023470446467399597,
      0.001260422170162201,
      -0.01892554759979248,
      -0.029204975813627243,
      0.0002017151564359665,
      -0.02400077134370804,
      -4.205852746963501e-05,
      0.029238630086183548,
      -5.434546619653702e-05,
      -0.00017768144607543945,
      -0.003131614997982979,
      -0.02587931975722313,
      -0.026238594204187393,
      -0.025488536804914474,
      0.003138013184070587,
      -0.003292735666036606,
      -0.013864824548363686,
      -0.02620052918791771,
      0.025862738490104675,
      -0.026324562728405,
      0.003272351808845997,
      -0.0263694915920496,
      0.003545098938047886,
      -0.025814566761255264,
      0.005000665783882141,
      -0.02590779960155487,
      -0.00268656387925148,
      0.002907341346144676,
      0.0034642787650227547,
      -0.0033311620354652405,
      -0.003215968608856201,
      -0.003931455314159393,
      -0.014130398631095886,
      -0.02561216428875923,
      -0.002907879650592804,
      -0.0035199522972106934,
      -0.002813681960105896,
      -0.026485130190849304,
      -0.026306149549782276,
      0.004035241901874542,
      -0.026350628584623337,
      -0.012293741106987,
      0.007584594190120697,
      0.0019028931856155396,
      0.030003546737134457,
      0.029928595758974552,
      0.02950134128332138,
      -0.029347166419029236,
      0.029929576441645622,
      0.0002857968211174011,
      1.9311904907226562e-05,
      0.02942257560789585,
      0.028569042682647705,
      0.02986343950033188,
      0.030030570924282074,
      0.0007481146603822708,
      0.009599447250366211,
      0.0042357295751571655,
      -0.029010597616434097,
      0.029460713267326355,
      0.02996957302093506,
      -0.028898470103740692,
      -0.029713094234466553,
      -0.028654439374804497,
      1.5418976545333862e-05,
      0.002267122268676758,
      -0.02209481969475746,
      -0.01444906834512949,
      -0.0001877918839454651,
      0.0005398467183113098,
      0.00010940060019493103,
      0.02973051741719246,
      1.5448778867721558e-05,
      0.028834905475378036,
      0.0004933308809995651,
      0.0003307126462459564,
      -0.02842310070991516,
      -0.028416287153959274,
      -0.0278935469686985,
      -0.02811993472278118,
      -0.02796301431953907,
      -0.0026595517992973328,
      0.0002517867833375931,
      -0.02575935795903206,
      -0.028614088892936707,
      -0.02814846858382225,
      -0.029145371168851852,
      -0.028489823453128338,
      -0.027923831716179848,
      -0.0015869140625,
      -0.02860856242477894,
      -0.028231248259544373,
      -0.0278447475284338,
      -0.028456777334213257,
      0.025529751554131508,
      -0.02780907228589058,
      -0.028060832992196083,
      -0.028253130614757538,
      -0.028700784780085087,
      -0.026787661015987396,
      -0.028651371598243713,
      -0.026851117610931396,
      0.0010590068995952606,
      -0.0284480107948184,
      -0.015071868896484375,
      -0.02828093245625496,
      -0.023490168154239655,
      0.005175657570362091,
      0.0002168361097574234,
      0.0009050890803337097,
      -0.02902287244796753,
      -0.029426515102386475,
      0.007313858717679977,
      0.029582951217889786,
      -0.02898266166448593,
      0.005630172789096832,
      -0.02867504581809044,
      0.00028977636247873306,
      0.0010274127125740051,
      0.009777303785085678,
      -0.022609170526266098,
      0.028661370277404785,
      0.00010988116264343262,
      0.0029914788901805878,
      -0.00043868832290172577,
      -0.01915566623210907,
      9.668245911598206e-05,
      0.00015041977167129517,
      -0.02892002835869789,
      0.005833623930811882,
      -0.028868328779935837,
      -0.028928417712450027,
      -0.029334409162402153,
      0.028067057952284813,
      0.029695273377001286,
      0.0002608243376016617,
      0.029398733749985695,
      0.0009007528424263,
      0.0007002465426921844,
      -0.028839487582445145,
      -0.008836233522742987,
      -0.0005279639735817909,
      0.02940431796014309,
      -0.00017514079809188843,
      -0.029917575418949127,
      -0.02898997813463211,
      0.029348536394536495,
      -0.013004807755351067,
      0.029281052760779858,
      2.1882355213165283e-05,
      -2.250075340270996e-06,
      -0.028198258951306343,
      0.029806068167090416,
      -0.02871321141719818,
      0.0008657500147819519,
      0.0291004478931427,
      0.029378995299339294,
      -0.0003596208989620209,
      0.00019447878003120422,
      0.00012228824198246002,
      0.029919516295194626,
      -0.0261196568608284,
      -0.02294987067580223,
      0.00036505237221717834,
      0.012322761118412018,
      0.0005094707012176514,
      -0.029540032148361206,
      0.005170509219169617,
      -0.029568754136562347,
      0.005167871713638306,
      0.004195601679384708,
      -6.807595491409302e-05,
      -0.02896643429994583,
      -0.028639160096645355,
      -0.0004111751914024353,
      0.02998555451631546,
      -0.028998196125030518,
      0.0003199242055416107,
      0.0007522627711296082,
      -0.02522322442382574,
      -0.0008078813552856445,
      -0.026409664191305637,
      -0.029411770403385162,
      3.4675002098083496e-05,
      0.00041607022285461426,
      -0.026552584022283554,
      5.488097667694092e-05,
      0.0004911161959171295,
      0.00013984553515911102,
      0.0007117092609405518,
      0.029832922853529453,
      0.029848791658878326,
      0.0002440139651298523,
      -0.01753322035074234,
      0.02945432811975479,
      0.029092004522681236,
      0.0007728002965450287,
      0.030008919537067413,
      0.0022130608558654785,
      0.0002726912498474121,
      0.0008488968014717102,
      -0.022424599155783653,
      -0.024978254921734333,
      0.029214724898338318,
      0.0010365620255470276,
      0.004704520106315613,
      -0.02908414602279663,
      -0.02427718508988619,
      0.006646804511547089,
      0.029697751626372337,
      -0.0264279767870903,
      -0.014210622757673264,
      -0.028257835656404495,
      0.0016399025917053223,
      0.0024681799113750458,
      0.008774377405643463,
      -0.027648642659187317,
      0.02947830781340599,
      0.00018195994198322296,
      -0.009494572877883911,
      0.00131186842918396,
      -0.02448539063334465,
      0.00012404471635818481,
      -0.012637244537472725,
      -0.02819857746362686,
      0.0012828484177589417,
      0.0007416233420372009,
      -0.024135634303092957,
      -0.026544466614723206,
      -0.02015133947134018,
      0.029825687408447266,
      -0.02296534925699234,
      0.029619302600622177,
      0.0026705488562583923,
      0.0008408417925238609,
      -0.0012065768241882324,
      -0.025846529752016068,
      -0.025289028882980347,
      -0.027811963111162186,
      0.012802466750144958,
      -0.011703107506036758,
      -0.0012008827179670334,
      -0.02388128638267517,
      -0.0078296959400177,
      -0.027628228068351746,
      -0.025472580455243587,
      -0.02573811262845993,
      -0.0010149292647838593,
      -0.027869582176208496,
      -0.000986761413514614,
      0.012910246849060059,
      -0.012126685120165348,
      -0.027289334684610367,
      -0.001359790563583374,
      0.0019813403487205505,
      -0.0018372070044279099,
      -0.027240179479122162,
      -0.016661107540130615,
      -0.019151268992573023,
      -0.023515883833169937,
      -0.012858759611845016,
      0.0020178519189357758,
      -0.0013432558625936508,
      -0.027053993195295334,
      -0.00012664496898651123,
      -0.027560994029045105,
      0.02506763581186533,
      0.02984798327088356,
      6.849318742752075e-05,
      0.008284486830234528,
      -0.00014990568161010742,
      0.0002079065889120102,
      0.017525089904665947,
      0.029878705739974976,
      -0.029955334961414337,
      0.029518354684114456,
      -3.086775541305542e-05,
      0.005019254982471466,
      -0.00039651989936828613,
      0.029958602972328663,
      -0.022694693878293037,
      0.029332056641578674,
      0.00012069940567016602,
      -0.007203869521617889,
      -0.00011003762483596802,
      0.0006413310766220093,
      0.00012650713324546814,
      0.029043637216091156,
      -0.028638468123972416,
      0.02984071522951126,
      0.008610721677541733,
      0.028486670926213264,
      -0.00022299587726593018,
      0.004280125722289085,
      0.029854477383196354,
      -0.0014254003763198853,
      0.029671278782188892,
      0.00021930411458015442,
      -0.0005727717652916908,
      0.000638820230960846,
      -0.024363994598388672,
      -0.025694064795970917,
      -0.02234591729938984,
      0.029925940558314323,
      -0.022030670195817947,
      0.001962527632713318,
      -0.0006299205124378204,
      -0.010272681713104248,
      -0.027119740843772888,
      0.0002242904156446457,
      -0.028780139982700348,
      0.0012041553854942322,
      -0.024191264994442463,
      0.0014380812644958496,
      0.029878074303269386,
      -0.0282481936737895,
      -0.02003665640950203,
      0.029539989307522774,
      0.029720822349190712,
      0.02838342823088169,
      -7.365643978118896e-05,
      0.0015566954389214516,
      -0.02026069536805153,
      0.028929337859153748,
      -0.0003980174660682678,
      0.028944119811058044,
      0.00442003458738327,
      -0.028806522488594055,
      0.0011569932103157043,
      -0.0002626553177833557,
      0.0005365163087844849,
      0.00019280053675174713,
      -0.027238324284553528,
      -0.008038043975830078,
      -0.02848118543624878,
      0.0004268139600753784,
      -0.0034369155764579773,
      0.0015798378735780716,
      -0.028115879744291306,
      0.0025107860565185547,
      -0.02667604759335518,
      -0.026785194873809814,
      -0.023203909397125244,
      0.0011165104806423187,
      -0.028529934585094452,
      0.00036139413714408875,
      0.0019257497042417526,
      -0.02623346447944641,
      -0.0286751389503479,
      5.636364221572876e-05,
      0.0013934522867202759,
      0.001591324806213379,
      -0.02868807315826416,
      -0.00011810380965471268,
      -0.02872312441468239,
      0.002099171280860901,
      -0.028301239013671875,
      0.0014602914452552795,
      0.00153312087059021,
      -0.02824532985687256,
      0.028178947046399117,
      -0.025753051042556763,
      0.021832029335200787,
      -0.0010694805532693863,
      -0.02917677816003561,
      -0.02754961885511875,
      0.00012762192636728287,
      0.02952730655670166,
      -0.028042912483215332,
      0.00024931132793426514,
      0.00026779621839523315,
      -0.01727992296218872,
      0.00034264102578163147,
      -0.029066555202007294,
      -0.029675506055355072,
      -0.00012639537453651428,
      -0.0009708870202302933,
      -0.0004388522356748581,
      0.029306575655937195,
      -0.029226649552583694,
      -0.0006725713610649109,
      0.029924439266324043,
      0.02966371364891529,
      0.029878031462430954,
      3.363564610481262e-05,
      -0.018816620111465454,
      0.0001251325011253357,
      0.01640399545431137,
      -2.3068860173225403e-05,
      0.01804602425545454,
      0.00048758089542388916,
      -0.013160273432731628,
      0.0005259811878204346,
      -0.02763471659272909,
      0.002016758546233177,
      0.013579954393208027,
      0.02983745187520981,
      0.029931428842246532,
      0.001199193298816681,
      0.0004023434594273567,
      0.029317468404769897,
      0.0009633898735046387,
      0.00043405406177043915,
      0.028721977025270462,
      0.028745058923959732,
      0.02953048050403595,
      0.028302818536758423,
      0.002287900075316429,
      0.012354886159300804,
      0.016762781888246536,
      0.000334128737449646,
      0.02966458350419998,
      0.028771555051207542,
      0.0007680356502532959,
      -0.02831149473786354,
      -0.027228010818362236,
      0.013159441761672497,
      0.00690741091966629,
      -0.00978069007396698,
      0.0007407218217849731,
      0.001849628984928131,
      -0.019141096621751785,
      0.00027885008603334427,
      -0.010917499661445618,
      0.005911275744438171,
      0.02949599362909794,
      -0.010719424113631248,
      0.0022877268493175507,
      0.029995668679475784,
      0.029904209077358246,
      0.0003245808184146881,
      -0.029007716104388237,
      0.030029378831386566,
      0.00026925280690193176,
      0.00010806508362293243,
      0.029307007789611816,
      0.02893685083836317,
      0.029895227402448654,
      0.029935695230960846,
      0.005857303738594055,
      0.0034957602620124817,
      0.014932520687580109,
      -0.02838926762342453,
      0.01662601623684168,
      0.01025296188890934,
      -0.0002679675817489624,
      -0.029593393206596375,
      -0.02955281361937523,
      -4.343688488006592e-06,
      0.010354883968830109,
      0.001688668504357338,
      -0.0014250623062252998,
      3.2335519790649414e-06,
      -0.02463473379611969,
      0.0001713130623102188,
      0.029027575626969337,
      0.00044167786836624146,
      0.025979284197092056,
      0.003231525421142578,
      0.0018975362181663513,
      0.029962636530399323,
      0.02913353592157364,
      0.02974637597799301,
      -0.029333170503377914,
      0.026166081428527832,
      0.0002843709662556648,
      -0.00015639513731002808,
      2.3886561393737793e-05,
      0.008442111313343048,
      0.029409432783722878,
      0.029849838465452194,
      0.0006842771545052528,
      0.029930785298347473,
      0.0008255299180746078,
      -0.029502559453248978,
      0.029050689190626144,
      0.03001592680811882,
      -0.029153306037187576,
      -0.010405190289020538,
      -0.0013693273067474365,
      0.026292107068002224,
      0.0006594285368919373,
      -0.011100895702838898,
      0.01600605435669422,
      0.0002693980932235718,
      0.0024734213948249817,
      9.608268737792969e-05,
      0.029237883165478706,
      -0.00011603906750679016,
      0.02940828539431095,
      0.02962968498468399,
      -0.013234332203865051,
      0.0010607093572616577,
      0.00010336935520172119,
      0.02999027445912361,
      0.030006621032953262,
      0.00016327016055583954,
      -0.02488512545824051,
      0.029985617846250534,
      0.027514629065990448,
      0.030017893761396408,
      0.005223773419857025,
      -7.506459951400757e-06,
      -0.0009306073188781738,
      0.029952220618724823,
      0.0003639422357082367,
      0.029068097472190857,
      0.028607355430722237,
      0.02996908314526081,
      0.029998794198036194,
      9.278766810894012e-05,
      0.0003384687006473541,
      0.029522388242185116,
      -7.902085781097412e-05,
      0.02994552254676819,
      0.029939466156065464,
      0.0299973227083683,
      0.027927041053771973,
      -0.0019938498735427856,
      0.01735660806298256,
      -0.0005831755697727203,
      0.009166806936264038,
      5.17871230840683e-05,
      0.029693158343434334,
      0.029927299357950687,
      0.02994915097951889,
      -0.02665121480822563,
      -0.00017797667533159256,
      0.02992260456085205,
      0.029957888647913933,
      -0.0011396333575248718,
      0.029470376670360565,
      -6.560981273651123e-05,
      0.02969091385602951,
      0.02937258780002594,
      0.029957417398691177,
      0.012350603938102722,
      0.029985971748828888,
      7.285177707672119e-05,
      0.02807513251900673,
      0.029069893062114716,
      0.0002092309296131134,
      0.0001500360667705536,
      -9.909272193908691e-06,
      -6.571412086486816e-05,
      0.02993355318903923,
      0.0007370039820671082,
      0.00018458813428878784,
      -0.0005856305360794067,
      0.028964202851057053,
      0.03003750368952751,
      0.028287854976952076,
      0.030010229907929897,
      0.02928096055984497,
      0.02778732031583786,
      -0.026980385184288025,
      0.001156458631157875,
      0.00032091885805130005,
      0.002278253436088562,
      0.0012953318655490875,
      0.0005875788629055023,
      -0.02843499183654785,
      0.02862457185983658,
      0.0005589127540588379,
      0.02954722661525011,
      0.0006957538425922394,
      0.0007963757961988449,
      -0.027826644480228424,
      0.026535429060459137,
      -0.01470172218978405,
      0.0007989807054400444,
      2.6809051632881165e-05,
      0.000574083998799324,
      0.015358563512563705,
      -0.0005548223853111267,
      0.0005722232162952423,
      0.02959396317601204,
      -0.01292426884174347,
      0.002623327076435089,
      -0.0008575394749641418,
      0.029328905045986176,
      -0.005987424403429031,
      -0.028741925954818726,
      0.0003557726740837097,
      -0.028569089248776436,
      0.0013689175248146057,
      -0.02594282291829586,
      0.0007187910377979279,
      -0.00017713475972414017,
      -0.000967816449701786,
      0.0008282847702503204,
      -0.013655394315719604,
      0.0236382856965065,
      -0.003222476691007614,
      -0.027487192302942276,
      -0.029713604599237442,
      -0.00017061829566955566,
      -0.0010184245184063911,
      0.00014021992683410645,
      -0.009090334177017212,
      -0.0020903199911117554,
      -0.02621170785278082,
      -0.02895992249250412,
      -0.029828928411006927,
      -0.0273654880002141,
      -0.02895987033843994,
      -0.026317086070775986,
      -0.027640696614980698,
      -0.016535956412553787,
      -0.00030949246138334274,
      0.0038372278213500977,
      -0.028321219608187675,
      -0.029073847457766533,
      -0.028642356395721436,
      -0.029027722775936127,
      -0.02790318988263607,
      -0.0011900365352630615,
      -0.0297754667699337,
      0.0019128341227769852,
      0.00157175213098526,
      0.0023254286497831345,
      0.0008849017322063446,
      0.02884569764137268,
      -0.02697061374783516,
      0.000328700989484787,
      0.001156974583864212,
      -0.028541432693600655,
      0.0010765958577394485,
      0.006523456424474716,
      0.0006684660911560059,
      0.004578448832035065,
      0.0006792973726987839,
      0.0008275136351585388,
      0.0010380074381828308,
      -0.02917230874300003,
      0.0006388425827026367,
      0.0008295699954032898,
      -0.029154437594115734,
      -0.029153577983379364,
      -0.027202673256397247,
      -0.028659019619226456,
      0.0007504075765609741,
      0.00286177359521389,
      -0.027707137167453766,
      -0.006888151168823242,
      0.0006168466061353683,
      0.001105576753616333,
      0.00048262905329465866,
      0.0011035799980163574,
      0.00035251863300800323,
      -0.025690391659736633,
      0.0012731179594993591,
      0.02993185818195343,
      0.02974130865186453,
      0.00023055262863636017,
      -0.02915429323911667,
      0.02804239373654127,
      0.00033985450863838196,
      0.0002192845568060875,
      -0.028250668197870255,
      -0.0002505667507648468,
      0.028271792456507683,
      0.030015628784894943,
      0.0006866157054901123,
      0.001075930893421173,
      0.0015492960810661316,
      -0.029221199452877045,
      0.0011431602761149406,
      0.0009132251143455505,
      -0.02986488863825798,
      -0.02950756624341011,
      -0.02944327425211668,
      0.00012545287609100342,
      0.00238674134016037,
      -0.012222349643707275,
      -0.020321637392044067,
      -0.00015153083950281143,
      -0.02913409285247326,
      0.0001527145504951477,
      0.0006830906495451927,
      1.5988945960998535e-05,
      0.0005010142922401428,
      -0.024588776752352715,
      -0.02542586624622345,
      -0.027757995761930943,
      -0.0005870014429092407,
      -0.0236078929156065,
      0.003873651847243309,
      -0.025855712592601776,
      0.0038490723818540573,
      0.0016342774033546448,
      -0.02514868788421154,
      0.0011959448456764221,
      -0.023977354168891907,
      -0.02664850652217865,
      -0.027349017560482025,
      0.0002605319023132324,
      -0.02515416592359543,
      0.0027651600539684296,
      -0.02492927759885788,
      0.0017623715102672577,
      0.0017909538000822067,
      -9.509176015853882e-05,
      -0.0015502199530601501,
      -0.02253688219934702,
      -0.029276877641677856,
      -0.00040566176176071167,
      0.012819483876228333,
      0.0038034580647945404,
      -0.008735030889511108,
      0.0012582167983055115,
      -0.00044407323002815247,
      0.0077945515513420105,
      -0.027734361588954926
    ],
    [
      -0.02330643218010664,
      -0.025700955651700497,
      0.0007668649777770042,
      0.00020465441048145294,
      0.0009430134668946266,
      -0.018046528566628695,
      0.0005521830171346664,
      0.0008341055363416672,
      0.029343202710151672,
      -0.02594876568764448,
      -0.026270701549947262,
      0.0039649587124586105,
      -0.02844509668648243,
      0.004057261161506176,
      -0.00023773126304149628,
      0.0006215367466211319,
      0.003289293497800827,
      -0.0012053679674863815,
      0.02984127216041088,
      0.0040400056168437,
      0.0013896459713578224,
      -0.006986904423683882,
      0.02796929143369198,
      0.0280834985896945,
      0.0004966314882040024,
      0.02978747058659792,
      0.02955824788659811,
      -0.01826414605602622,
      -0.028711728751659393,
      0.0008569154888391495,
      -0.02813538908958435,
      -0.023637833073735237
    ],
    [
      -0.011753951199352741,
      0.013114340603351593,
      0.029038667678833008,
      0.0005493015050888062,
      -0.019842304289340973,
      0.013548240065574646,
      -0.007977865636348724,
      0.001266680657863617,
      -0.02988194953650236,
      0.009595274925231934,
      0.029458127915859222,
      0.017007730901241302,
      -0.00014865398406982422,
      0.00109921395778656,
      0.009466647170484066,
      -0.025347791612148285,
      -0.021475262939929962,
      0.029275868088006973,
      0.029935713857412338,
      0.02558055892586708,
      0.0019325092434883118,
      -0.0046442411839962006,
      0.013740099966526031,
      -6.418675184249878e-05,
      0.017920851707458496,
      -0.030042072758078575,
      0.029736235737800598,
      0.023861726745963097,
      0.0004415251314640045,
      0.029129154980182648,
      -0.0011714547872543335,
      -0.0025509297847747803
    ],
    [
      0.029525909572839737
    ]
  ],
  "num_updates": 2,
  "client_ids": [
    "client-2",
    "client-1"
  ],
  "mean_final_loss": 8.764892816543579,
  "aggregation_timestamp": 1784208913.16558
}