{
  "version": "v97",
  "base_version": "v96",
  "round_id": 276,
  "aggregation": "fedavg",
  "averaged_weight_delta": [
    [
      0.00010536797344684601,
      -4.955008625984192e-05,
      -0.00014320015907287598,
      -7.074326276779175e-06,
      0.0004286430776119232,
      -0.0001132432371377945,
      0.00011751614511013031,
      -0.00011527538299560547,
      3.0413269996643066e-05,
      -4.23528254032135e-05,
      -0.029477611184120178,
      -0.0016954541206359863,
      -0.017371945083141327,
      -0.029829680919647217,
      -0.016294993460178375,
      -0.029610521160066128,
      -0.029646150767803192,
      -0.02971937507390976,
      -0.029690921306610107,
      -4.105269908905029e-06,
      -0.005193531513214111,
      -0.0014908909797668457,
      -0.029927588999271393,
      0.0002524629235267639,
      -0.02851799875497818,
      -0.028649523854255676,
      -3.6835670471191406e-05,
      -0.001411888748407364,
      -0.0010441839694976807,
      -0.008170787245035172,
      -0.02301994152367115,
      -0.026238881051540375,
      -0.02865888923406601,
      9.383261203765869e-05,
      -0.029509739950299263,
      -0.028496572747826576,
      -0.028212379664182663,
      -0.024570873007178307,
      -0.028837814927101135,
      -0.02775939181447029,
      -0.015078432857990265,
      -0.0016345083713531494,
      -0.029339447617530823,
      -0.027846171520650387,
      -0.006364917382597923,
      -0.012462079524993896,
      -0.028906259685754776,
      -0.0003167837858200073,
      -0.029125988483428955,
      -0.029262855648994446,
      0.015538215637207031,
      -0.029339276254177094,
      0.0009572356939315796,
      -0.003228917717933655,
      -0.0017331093549728394,
      -0.02929827570915222,
      -0.0010758470743894577,
      -0.015136288478970528,
      0.01839621365070343,
      -0.0005080960690975189,
      -0.023533601313829422,
      -0.000352662056684494,
      -0.01298665814101696,
      0.0006339512765407562,
      -0.028443561866879463,
      -0.01494373008608818,
      0.00028215348720550537,
      -0.02227570116519928,
      -4.064291715621948e-05,
      -0.017780762165784836,
      0.00026283785700798035,
      0.0012385249137878418,
      0.0009826794266700745,
      -0.00012758933007717133,
      -0.00031138956546783447,
      -0.00019447505474090576,
      0.0004545971751213074,
      0.0004972256720066071,
      0.0007143281400203705,
      0.00019102729856967926,
      0.029059819877147675,
      0.029820963740348816,
      0.011411763727664948,
      0.029326402582228184,
      0.0071911439299583435,
      0.017731767147779465,
      0.02813395857810974,
      0.02971014380455017,
      0.02890067920088768,
      0.02959650754928589,
      -0.00010912120342254639,
      0.0002193152904510498,
      -2.4087727069854736e-05,
      0.00014206022024154663,
      0.004921674728393555,
      0.00016737356781959534,
      0.0007173418998718262,
      0.00012990087270736694,
      5.3241848945617676e-05,
      3.209710121154785e-05,
      0.0003359690308570862,
      0.0006446987390518188,
      0.0005923844873905182,
      0.000356040894985199,
      0.0007295627146959305,
      -0.0004172883927822113,
      -0.0017124935984611511,
      0.00023896805942058563,
      0.0002989917993545532,
      0.0005277395248413086,
      -0.0006273388862609863,
      -0.00012115761637687683,
      1.54152512550354e-05,
      -0.001626521348953247,
      -0.01818806678056717,
      4.2051076889038086e-05,
      -3.914535045623779e-05,
      -0.0011956505477428436,
      0.00010194443166255951,
      -0.00032905489206314087,
      0.02946588210761547,
      0.029450885951519012,
      -0.00026698410511016846,
      0.027965808287262917,
      0.029116138815879822,
      -0.00019476190209388733,
      0.029782512225210667,
      0.029530838131904602,
      0.02918422967195511,
      0.0006926581263542175,
      0.013085324317216873,
      0.0015619322657585144,
      0.02028011903166771,
      0.011372197419404984,
      -0.0007058121263980865,
      0.016743704676628113,
      0.02251584082841873,
      0.0004187338054180145,
      0.010573096573352814,
      2.7990899980068207e-05,
      -0.0003067813813686371,
      0.01019249390810728,
      -4.310905933380127e-05,
      0.02204439416527748,
      0.02788638323545456,
      -0.011585898697376251,
      0.025838404893875122,
      0.024070575833320618,
      0.0016518868505954742,
      0.023635491728782654,
      -9.658932685852051e-05,
      -0.001284189522266388,
      2.1733343601226807e-05,
      -4.207063466310501e-05,
      -0.02464503049850464,
      0.00020682811737060547,
      0.014857538044452667,
      -0.00021910294890403748,
      -0.00017526838928461075,
      -3.061443567276001e-05,
      0.029918065294623375,
      0.02957458794116974,
      0.02952100709080696,
      0.02977784350514412,
      0.020888321101665497,
      0.027419491671025753,
      0.029575013555586338,
      0.029727019369602203,
      0.029781848192214966,
      0.0299949049949646,
      0.0024640224874019623,
      -1.9993633031845093e-05,
      0.002313368022441864,
      0.000620625913143158,
      0.0013261474668979645,
      0.0007913149893283844,
      0.0022935792803764343,
      0.0004730895161628723,
      0.00020960159599781036,
      0.000340806320309639,
      0.01768159121274948,
      0.02893945574760437,
      0.025809461250901222,
      0.02901371940970421,
      0.0013991370797157288,
      0.029708094894886017,
      0.00032971054315567017,
      0.02792729064822197,
      0.028429508209228516,
      0.02882758527994156,
      -0.029319211840629578,
      -0.026967324316501617,
      -0.02963051199913025,
      -0.02817932516336441,
      -0.009301096200942993,
      -0.02981216460466385,
      -0.02922995388507843,
      -0.028116166591644287,
      -0.016489005647599697,
      -0.008080698549747467,
      0.0002966746687889099,
      -0.000178605318069458,
      0.00014553125947713852,
      -7.055699825286865e-05,
      -0.021769985556602478,
      3.7573277950286865e-05,
      -3.6850571632385254e-05,
      0.00010960549116134644,
      0.00025572627782821655,
      -5.266163498163223e-05,
      0.01356855034828186,
      0.022204771637916565,
      0.029500186443328857,
      0.01482650637626648,
      0.0001340135931968689,
      0.029842600226402283,
      0.02900995034724474,
      0.00040027499198913574,
      0.029633905738592148,
      0.02447161078453064,
      -0.025508813560009003,
      -0.029424168169498444,
      -0.027047306299209595,
      -0.01348801702260971,
      -0.028794892132282257,
      -0.02103748917579651,
      -0.026455006562173367,
      -0.028050638735294342,
      -0.027727391570806503,
      -0.016052722930908203,
      -8.675456047058105e-05,
      -0.028500288724899292,
      0.0002961158752441406,
      -0.0003289114683866501,
      -0.01718263328075409,
      -0.0025953873991966248,
      -0.029096227139234543,
      3.0502676963806152e-05,
      0.0005015358328819275,
      -0.02956491056829691,
      0.028603747487068176,
      0.027724632062017918,
      0.02942834049463272,
      -7.062405347824097e-05,
      0.029054179787635803,
      -0.001021258533000946,
      0.02853342890739441,
      0.028963685035705566,
      0.027645647525787354,
      0.016164518892765045,
      0.02810847759246826,
      0.000687912106513977,
      0.02816280722618103,
      0.00024433434009552,
      0.00038785114884376526,
      0.027939733117818832,
      0.025130968540906906,
      0.017002075910568237,
      0.001606467179954052,
      0.02995622158050537,
      -0.017102360725402832,
      -0.02914811670780182,
      -0.029629739001393318,
      -0.029385056346654892,
      -0.029969539493322372,
      -0.02937038242816925,
      -0.02975061535835266,
      -0.029700273647904396,
      -0.02903897874057293,
      -0.029907124117016792,
      0.02765936776995659,
      0.029452160000801086,
      0.028234628960490227,
      0.02929070219397545,
      0.028189643286168575,
      0.0287855863571167,
      0.02850290760397911,
      0.02821342647075653,
      0.02854861132800579,
      0.028730422258377075,
      0.005982063710689545,
      0.028470642864704132,
      0.025728221982717514,
      0.005165696144104004,
      0.006517861038446426,
      0.00686221569776535,
      0.01425836980342865,
      0.0014204233884811401,
      0.017467282712459564,
      0.0061879269778728485,
      0.02705451101064682,
      0.015195701271295547,
      0.028229162096977234,
      0.026134230196475983,
      0.019926588982343674,
      0.019273675978183746,
      0.027181371115148067,
      0.0253043994307518,
      0.02881033718585968,
      0.02621755748987198,
      0.029217851348221302,
      0.027127016335725784,
      0.029655031859874725,
      0.006470128893852234,
      0.0022547710686922073,
      0.022843919694423676,
      0.028362542390823364,
      0.012917190790176392,
      0.028937719762325287,
      0.0268547385931015,
      0.02819165587425232,
      0.00022404640913009644,
      -1.3360753655433655e-05,
      0.027847446501255035,
      0.027300773188471794,
      0.00031741708517074585,
      0.0228152796626091,
      0.023582037538290024,
      0.0010523945093154907,
      0.004814520478248596
    ],
    [
      -0.028927670791745186,
      0.005517726764082909,
      0.013367876643314958,
      0.002747727558016777,
      -0.0013736952096223831,
      -0.005755593068897724,
      -0.00010748673230409622,
      -0.028774348087608814,
      9.12575051188469e-05,
      0.005208490416407585,
      -0.022250528912991285,
      0.029860595241189003,
      0.0003129923716187477,
      -0.015629298519343138,
      -0.02599375043064356,
      6.84298574924469e-05,
      -0.021164068952202797,
      0.021031351760029793,
      0.02809744793921709,
      0.006461815908551216,
      0.00020168814808130264,
      -0.020740658044815063,
      0.009581905324012041,
      -0.028095499612390995,
      -0.001162530854344368,
      0.0011880956590175629,
      0.0027374085038900375,
      0.0008246637880802155,
      -0.013821342727169394,
      -0.026085538789629936,
      0.0011929627507925034,
      0.00326338317245245
    ],
    [
      0.02983999252319336,
      -0.02382310852408409,
      -0.028897324576973915,
      0.02987036108970642,
      -0.0291646346449852,
      7.674843072891235e-05,
      0.017161330208182335,
      -0.029157735407352448,
      0.029902353882789612,
      0.007064208388328552,
      -6.0675665736198425e-05,
      0.02954862266778946,
      -0.029361349530518055,
      0.007023081183433533,
      0.029695693403482437,
      0.029908088967204094,
      -0.02976202964782715,
      -0.0007224045693874359,
      0.029940444976091385,
      3.697443753480911e-05,
      0.017018798738718033,
      -0.0275878868997097,
      -0.02952222153544426,
      -0.029706019908189774,
      0.015716396272182465,
      -0.029629461467266083,
      0.029328204691410065,
      -0.029515743255615234,
      -0.01608583703637123,
      6.48200511932373e-07,
      0.029851770028471947,
      -0.029485099017620087,
      0.027754511684179306,
      -0.005860686302185059,
      0.0009708134457468987,
      0.02926650643348694,
      -0.02756919525563717,
      0.001836426556110382,
      0.0009504370391368866,
      -0.025606341660022736,
      0.029130209237337112,
      -0.012849375605583191,
      -0.00018092244863510132,
      0.02997472509741783,
      -0.028086140751838684,
      9.745173156261444e-05,
      0.003752678632736206,
      0.005805507302284241,
      -0.0029413700103759766,
      -0.00036185793578624725,
      0.017073094844818115,
      -5.4853036999702454e-05,
      0.02993980422616005,
      9.207427501678467e-05,
      -0.028967728838324547,
      -0.025166237726807594,
      0.029704496264457703,
      -0.026943153701722622,
      0.02977045252919197,
      -0.028877142816781998,
      -2.964213490486145e-05,
      0.0006902776658535004,
      0.029601730406284332,
      -0.012689046561717987,
      1.7724931240081787e-05,
      0.024571701884269714,
      -0.025067538022994995,
      -5.64083456993103e-05,
      0.002443809062242508,
      -0.002335749566555023,
      0.0005406709387898445,
      0.029121939092874527,
      0.0007610544562339783,
      0.029857429675757885,
      0.02979391999542713,
      0.02995052933692932,
      -0.00030893832445144653,
      0.029492883943021297,
      -0.00013544410467147827,
      0.02982737123966217,
      -0.009251344949007034,
      0.029563359916210175,
      0.017470218241214752,
      0.01153089851140976,
      0.028732173144817352,
      0.029715553857386112,
      0.0012184977531433105,
      0.012904692441225052,
      0.00020833313465118408,
      0.00430496409535408,
      -0.00011738389730453491,
      0.0074483975768089294,
      -0.0007847771048545837,
      -0.02801564149558544,
      0.00014864467084407806,
      0.029257817193865776,
      0.0041083768010139465,
      -0.0007266514003276825,
      -0.012550138868391514,
      0.001694709062576294,
      -1.0369345545768738e-05,
      -0.012965094298124313,
      0.005184125155210495,
      0.001018572598695755,
      0.001672450453042984,
      0.029971059411764145,
      0.028305191546678543,
      0.028791964054107666,
      -0.0013759955763816833,
      -0.025169648230075836,
      0.0005373815074563026,
      -0.011467527598142624,
      0.0004931148141622543,
      0.026751704514026642,
      -0.01001257449388504,
      0.000757802277803421,
      0.002628367394208908,
      0.015852030366659164,
      0.0016811834648251534,
      0.00014038942754268646,
      -0.02729382924735546,
      0.000758826732635498,
      0.0007071327418088913,
      0.004507735371589661,
      -0.005506947636604309,
      -0.025593847036361694,
      0.01666843146085739,
      0.00028177350759506226,
      0.00030068308115005493,
      -0.02942603826522827,
      -0.013537301681935787,
      -0.0001757172867655754,
      -7.874518632888794e-05,
      -0.024938169866800308,
      7.36825168132782e-05,
      0.0002529248595237732,
      0.0002726316452026367,
      0.0014159530401229858,
      0.029739245772361755,
      0.0040864497423172,
      -0.029099933803081512,
      -0.021784352138638496,
      0.0001232549548149109,
      -0.00011793151497840881,
      -0.02480052039027214,
      0.029918660409748554,
      0.0011308491230010986,
      -0.0292319655418396,
      0.015478722751140594,
      0.008908513933420181,
      -2.652406692504883e-06,
      -0.0005660764873027802,
      -0.021446451544761658,
      -0.013420194387435913,
      3.098510205745697e-05,
      0.0005459971725940704,
      -0.0284724161028862,
      -0.028594613075256348,
      0.00067099928855896,
      0.0007051564753055573,
      0.02803323045372963,
      -0.016495823860168457,
      -0.0003648679703474045,
      0.029432608745992184,
      -0.02848495915532112,
      8.626282215118408e-05,
      0.028838573023676872,
      -0.029184646904468536,
      0.008074581623077393,
      0.015424709767103195,
      -6.744638085365295e-05,
      0.015090031549334526,
      -0.029681749641895294,
      0.0005005449056625366,
      0.007272638380527496,
      0.0015931390225887299,
      -0.009596392512321472,
      -0.022230944596230984,
      0.008851252496242523,
      7.811561226844788e-05,
      -0.012466460466384888,
      -0.02922084555029869,
      -0.02936975657939911,
      -0.02969934791326523,
      0.011400438845157623,
      -0.028815291821956635,
      0.029754072427749634,
      -0.02930271625518799,
      -0.00025521963834762573,
      -6.69136643409729e-05,
      0.027817774564027786,
      -0.028958596289157867,
      0.029907353222370148,
      -0.006119241006672382,
      -0.02935640513896942,
      0.029791786335408688,
      -0.027447869069874287,
      -0.001776076853275299,
      0.013723926618695259,
      -0.0272248275578022,
      0.03004311118274927,
      0.015584737062454224,
      0.00047878362238407135,
      0.028640929609537125,
      -0.02804836630821228,
      0.02981230616569519,
      0.03003905713558197,
      0.028989404439926147,
      -0.0007987357676029205,
      0.00015234202146530151,
      0.030022156424820423,
      1.2673437595367432e-05,
      0.016477327793836594,
      0.000514589250087738,
      -0.0231744647026062,
      -0.02810821682214737,
      0.030026372522115707,
      -0.027582012116909027,
      0.029324673116207123,
      -0.028878502547740936,
      0.029819685965776443,
      3.007054328918457e-05,
      0.030035043135285378,
      0.0009165424853563309,
      0.029754236340522766,
      -0.0004261136054992676,
      -0.0008617118000984192,
      0.029784388840198517,
      -0.013614203780889511,
      0.00019488763064146042,
      0.029094044119119644,
      -0.001451621763408184,
      0.029699720442295074,
      0.017346814274787903,
      0.027558064088225365,
      0.02971184439957142,
      -0.0012501450255513191,
      0.016063272953033447,
      0.030015192925930023,
      0.029767759144306183,
      -0.013072773814201355,
      -0.00041013211011886597,
      0.030030500143766403,
      -0.0005611106753349304,
      0.029682571068406105,
      0.01056615263223648,
      -0.028477929532527924,
      -0.00022142380475997925,
      0.02935841679573059,
      0.005252033472061157,
      0.029500845819711685,
      -0.019711535423994064,
      0.02697891741991043,
      0.00023331306874752045,
      0.029884986579418182,
      -0.012644775211811066,
      -0.02516881376504898,
      -0.024622930213809013,
      0.02591829001903534,
      -0.02447701245546341,
      0.025795351713895798,
      -0.007386162877082825,
      0.0040470510721206665,
      0.0040025655180215836,
      -0.02240946888923645,
      0.0038048550486564636,
      0.004019409418106079,
      0.004081945866346359,
      0.025785486213862896,
      -0.02366599068045616,
      -0.025472313165664673,
      -0.024089232087135315,
      0.003942146897315979,
      0.004082575440406799,
      -0.025679178535938263,
      0.0030980296432971954,
      0.0036075105890631676,
      0.004082061350345612,
      0.014876171946525574,
      0.004079408943653107,
      -0.025454837828874588,
      0.004075493663549423,
      -0.025781825184822083,
      0.02594136819243431,
      -0.0027983933687210083,
      0.0010811369866132736,
      -0.025688275694847107,
      0.015006959438323975,
      0.0023353397846221924,
      -0.0034006312489509583,
      -0.022864073514938354,
      -7.008761167526245e-05,
      0.0002830997109413147,
      -4.461035132408142e-06,
      0.01336212083697319,
      0.0010101646184921265,
      -0.0007174834609031677,
      0.02608010359108448,
      0.030039459466934204,
      0.029859833419322968,
      -1.6197562217712402e-05,
      0.002746718004345894,
      0.00014806166291236877,
      -0.00037579797208309174,
      -0.001409316435456276,
      0.029962614178657532,
      0.007215235382318497,
      -0.02884813491255045,
      0.029714662581682205,
      0.006138496100902557,
      -0.00024211779236793518,
      0.010320857167243958,
      0.00038684532046318054,
      0.0018199216574430466,
      -2.263486385345459e-05,
      5.4016709327697754e-05,
      -0.026218391954898834,
      -0.027811430394649506,
      0.005077039822936058,
      0.030030064284801483,
      0.029286179691553116,
      0.00013691280037164688,
      0.000721074640750885,
      0.028212103992700577,
      -0.01249966211616993,
      -0.013333264738321304,
      0.02845136448740959,
      -0.02953096479177475,
      0.02887449413537979,
      0.02817249298095703,
      0.021250739693641663,
      0.02843628078699112,
      -0.029454858973622322,
      0.0037555908784270287,
      0.028934690169990063,
      0.027608104050159454,
      0.00033859722316265106,
      -0.0006671994924545288,
      0.028687169775366783,
      -0.00011681020259857178,
      0.0279863141477108,
      0.0010680481791496277,
      -0.026686789467930794,
      -0.015937473624944687,
      0.028099041432142258,
      -0.0004409998655319214,
      0.029074703343212605,
      -0.029576972126960754,
      0.02865627408027649,
      0.0001725219190120697,
      0.029033564031124115,
      -0.028312012553215027,
      -6.90855085849762e-05,
      0.0011747851967811584,
      0.0012218877673149109,
      -0.0009493473917245865,
      0.00122784823179245,
      0.0012199543416500092,
      0.0037471801042556763,
      0.00154960248619318,
      0.001048896461725235,
      0.004110962152481079,
      0.0006442330777645111,
      0.027917595580220222,
      0.0017622048035264015,
      0.0006280913949012756,
      -0.016693804413080215,
      2.419017255306244e-05,
      0.0017543518915772438,
      0.001541879028081894,
      0.0051870569586753845,
      0.0010786987841129303,
      0.0015211589634418488,
      0.0012995311990380287,
      0.0008948482573032379,
      0.0036968737840652466,
      -0.010367559269070625,
      0.002524004317820072,
      -0.01026018988341093,
      0.0015277564525604248,
      0.0002461923286318779,
      -0.027753032743930817,
      0.003596212714910507,
      0.001272600144147873,
      1.9855797290802002e-05,
      0.029869362711906433,
      0.029508108273148537,
      0.00044349581003189087,
      0.01480796653777361,
      0.030017845332622528,
      -0.0012836754322052002,
      0.006407309323549271,
      0.027488037943840027,
      0.028738215565681458,
      0.02259713038802147,
      0.0005249828100204468,
      0.005603305995464325,
      0.029218638315796852,
      0.0002541420981287956,
      0.019963718950748444,
      0.0283467099070549,
      0.01164928451180458,
      0.029810097068548203,
      0.02892950363457203,
      0.001627136953175068,
      0.0001920461654663086,
      0.010364081710577011,
      0.01205330528318882,
      0.029430754482746124,
      0.006424127146601677,
      0.028744161128997803,
      0.004438687115907669,
      0.029888026416301727,
      0.029956206679344177,
      0.0286878552287817,
      0.001294977031648159,
      0.02974340133368969,
      -0.01204023975878954,
      -0.029015708714723587,
      0.029719225130975246,
      -0.028821882791817188,
      -0.02813929319381714,
      0.007280942052602768,
      -0.026726990938186646,
      0.029742364771664143,
      0.0011459887027740479,
      -3.2504089176654816e-05,
      0.000780835747718811,
      -0.02875708043575287,
      0.02873092144727707,
      0.030006904155015945,
      0.012728344649076462,
      -0.02886662632226944,
      8.471310138702393e-05,
      0.023289760574698448,
      -0.025897160172462463,
      -1.3539567589759827e-05,
      -0.012206487357616425,
      -0.029488056898117065,
      -0.0185856893658638,
      0.029670804738998413,
      -0.0001594647765159607,
      0.02889726310968399,
      -0.02938556671142578,
      0.029934369027614594,
      -0.01873648725450039,
      0.029742490500211716,
      -0.01262262836098671,
      -0.0009193019941449165,
      0.02953093871474266,
      0.004486173391342163,
      -0.02969924360513687,
      0.029653470031917095,
      -7.487088441848755e-05,
      -0.0006603505462408066,
      0.02916506864130497,
      -0.029281536117196083,
      -0.01760413870215416,
      0.0001868419349193573,
      -0.029592408798635006,
      0.02980726957321167,
      -0.01358069572597742,
      -0.029449917376041412,
      -0.02978286985307932,
      0.029255297034978867,
      0.0008279532194137573,
      -0.02982659637928009,
      -8.575618267059326e-06,
      -0.02886240743100643,
      0.02491849660873413,
      0.029824327677488327,
      0.029987873509526253,
      -0.029745647683739662,
      0.029978148639202118,
      -0.029139064252376556,
      0.029717329889535904,
      -0.011590387672185898,
      -6.794929504394531e-06,
      -0.02155359834432602,
      0.0005397684872150421,
      0.028585076332092285,
      -0.029095083475112915,
      -0.027539229951798916,
      0.02993476577103138,
      -0.02834877371788025,
      -0.029159747064113617,
      0.006949875503778458,
      -0.028768833726644516,
      0.02997710555791855,
      0.012208081781864166,
      -3.6772340536117554e-05,
      0.0051353201270103455,
      -0.028642624616622925,
      0.009672649204730988,
      0.029883083887398243,
      0.029747631400823593,
      -0.029780570417642593,
      -0.00024306681007146835,
      0.0298348069190979,
      -0.0001296577975153923,
      9.994581341743469e-05,
      -0.026058224961161613,
      -0.002075856551527977,
      -0.029463905841112137,
      0.029827788472175598,
      0.00011267885565757751,
      0.029752608388662338,
      -0.029429856687784195,
      0.02870986983180046,
      4.757195711135864e-06,
      0.0003265365958213806,
      0.0004294067621231079,
      5.25452196598053e-05,
      0.029879809357225895,
      0.02991296350955963,
      0.00037665292620658875,
      0.0008654408156871796,
      0.0299932062625885,
      0.00044142454862594604,
      0.00036493968218564987,
      -3.6675482988357544e-06,
      -0.0163577264174819,
      -0.029834767803549767,
      -0.014882163144648075,
      0.029867179691791534,
      0.022124826908111572,
      -0.0001455778256058693,
      -0.0005975328385829926,
      0.028146596625447273,
      -0.02842731773853302,
      -0.0001718774437904358,
      0.029947206377983093,
      -0.0012048520147800446,
      -0.0003023836761713028,
      0.0002999939024448395,
      -2.1301209926605225e-05,
      -0.00015803426504135132,
      0.0005354061722755432,
      0.001789012923836708,
      -0.0001400671899318695,
      0.011990159749984741,
      0.029741838574409485,
      0.00011191703379154205,
      0.00010282918810844421,
      0.029950138181447983,
      0.024546202272176743,
      -0.0006321147084236145,
      0.02954104356467724,
      0.013142426498234272,
      5.360692739486694e-06,
      0.029407761991024017,
      0.001671922393143177,
      0.03002694435417652,
      0.029649749398231506,
      0.029825197532773018,
      0.029012411832809448,
      -5.698949098587036e-05,
      0.02993142604827881,
      0.02988477423787117,
      0.02926042303442955,
      0.0299203023314476,
      0.02920455113053322,
      0.03000742197036743,
      0.025166312232613564,
      0.029983816668391228,
      0.027236707508563995,
      0.02776455506682396,
      0.02923402562737465,
      0.02990828827023506,
      -0.0031413291580975056,
      0.029478848911821842,
      -0.021466895937919617,
      0.029751441441476345,
      -0.00012256205081939697,
      0.030025571584701538,
      0.006130915135145187,
      -0.0006352756172418594,
      0.029544115997850895,
      0.011879540979862213,
      0.0001051872968673706,
      0.0056575387716293335,
      0.029979005455970764,
      -0.00017212331295013428,
      -0.0014461055397987366,
      0.0001087849959731102,
      -0.0005031721666455269,
      -0.02933429554104805,
      -0.0004525408148765564,
      0.02838568389415741,
      0.029483232647180557,
      0.004730284214019775,
      0.005133036524057388,
      0.027230408042669296,
      -0.001576269045472145,
      -0.00010177120566368103,
      0.029908986762166023,
      0.029800484888255596,
      -1.0307878255844116e-05,
      3.959983587265015e-06,
      0.011895857751369476,
      0.001154094934463501,
      0.0002524815499782562,
      0.0007507652044296265,
      0.0001343861222267151,
      0.02976805344223976,
      0.0299837589263916,
      -7.616076618432999e-05,
      -0.018633891828358173,
      0.012001194059848785,
      0.029383584856987,
      0.029827982187271118,
      -0.0012235939502716064,
      0.01815408654510975,
      0.02988689672201872,
      0.0012964121997356415,
      0.028775032609701157,
      0.025897637009620667,
      0.021006308495998383,
      0.014582894742488861,
      -0.018772047013044357,
      0.029905930161476135,
      -6.288290023803711e-06,
      -0.01766272261738777,
      -0.00039321184158325195,
      0.015728257596492767,
      0.018184943590313196,
      -0.028248455375432968,
      0.029510822147130966,
      0.027305029332637787,
      0.027850806713104248,
      0.0280491691082716,
      0.0009515918791294098,
      -0.008576516062021255,
      0.029788956977427006,
      0.029283879324793816,
      0.029949087649583817,
      0.0014291983097791672,
      0.030036352574825287,
      -0.02786346897482872,
      0.014995820820331573,
      0.0015619806945323944,
      -0.025630995631217957,
      -0.0005373433232307434,
      0.029842324554920197,
      -0.029339410364627838,
      0.00012479163706302643,
      -0.013481177389621735,
      -0.029388420283794403,
      0.028732802718877792,
      0.00497572124004364,
      -0.0002484293654561043,
      0.02992667257785797,
      -0.029587353579699993,
      -0.02739914134144783,
      0.029637789353728294,
      0.004336461424827576,
      -0.028367169201374054,
      -0.02832416258752346,
      0.001027907244861126,
      0.00010687112808227539,
      0.0004352293908596039,
      -0.029603607952594757,
      -0.02969273552298546,
      -0.02952021360397339,
      0.0005823373794555664,
      -0.029708512127399445,
      0.0004283040761947632,
      -0.02971968986093998,
      2.557411789894104e-06,
      2.928823232650757e-05,
      0.027939077466726303,
      -0.0297866053879261,
      0.029259398579597473,
      0.017534342594444752,
      -0.0011171996593475342,
      0.030037399381399155,
      -0.023532714694738388,
      0.0010754317045211792,
      0.029283881187438965,
      -0.0007316432893276215,
      0.02977052703499794,
      0.011375606060028076,
      0.0007280707359313965,
      0.008143909275531769,
      -0.01603829860687256,
      0.029020288959145546,
      0.029642924666404724,
      0.029269486665725708,
      0.010631997138261795,
      0.0010878965258598328,
      0.02976507693529129,
      0.024637386202812195,
      0.012744709849357605,
      0.00010960176587104797,
      0.0012815147638320923,
      -0.029028119519352913,
      0.02986500132828951,
      -0.01878754422068596,
      0.029986705631017685,
      -0.025748915039002895,
      0.027933016419410706,
      0.00023911893367767334,
      0.02992498315870762,
      0.0025755278766155243,
      -0.026935137808322906,
      -0.02417038381099701,
      -0.028791485354304314,
      -0.0015186071395874023,
      -0.028063084930181503,
      -0.02802664041519165,
      -0.02824242413043976,
      -0.027878155931830406,
      0.010519221425056458,
      -0.028026157990098,
      -0.028549276292324066,
      0.0006210580468177795,
      -0.028258047997951508,
      -0.028122018091380596,
      -0.0017501600086688995,
      -0.023947233334183693,
      -0.028659949079155922,
      -0.02857116237282753,
      -0.02829880267381668,
      -0.02879744116216898,
      -0.027821257710456848,
      -0.013617344200611115,
      -0.028380975127220154,
      -0.028359911404550076,
      0.0022807652130723,
      -0.028241553343832493,
      -0.00041128695011138916,
      -0.024508576840162277,
      -0.013456042855978012,
      -0.0013938834890723228,
      -0.025419941172003746,
      -0.02789495140314102,
      -0.0002934299409389496,
      0.02686901018023491,
      0.029457587748765945,
      0.0010556206107139587,
      0.029841342009603977,
      0.029893703758716583,
      0.0006780475378036499,
      0.028729252517223358,
      -0.019478078931570053,
      0.0011230111122131348,
      0.0008626468479633331,
      0.00017938017845153809,
      0.02999192476272583,
      0.0015822164714336395,
      -0.028276352211833,
      0.00047413259744644165,
      0.029866166412830353,
      0.0007956298068165779,
      0.00125817209482193,
      0.02950789500027895,
      0.0001642964780330658,
      0.029241129755973816,
      0.029891910031437874,
      0.02985904924571514,
      -0.029005255550146103,
      0.029949428513646126,
      -0.0290944529697299,
      0.029842544347047806,
      0.012578986585140228,
      0.029232613742351532,
      -0.0241987407207489,
      0.0034231357276439667,
      0.02502286806702614,
      3.933906555175781e-06,
      0.00011399388313293457,
      0.013173028826713562,
      -0.00011001527309417725,
      -0.000893130898475647,
      0.029752034693956375,
      0.00010037235915660858,
      0.014037808403372765,
      0.026567718014121056,
      0.029876824468374252,
      0.016986601054668427,
      0.0002413736656308174,
      -0.016823984682559967,
      0.0012765973806381226,
      -0.00944623351097107,
      -0.001732703298330307,
      0.029866374097764492,
      0.020453806966543198,
      -0.013922926038503647,
      0.013417251408100128,
      0.02965126931667328,
      0.029638096690177917,
      -5.8300793170928955e-05,
      -0.015544172376394272,
      -0.0013620108366012573,
      0.01673409529030323,
      0.02991069108247757,
      0.029778133146464825,
      -0.01755496859550476,
      0.007049260661005974,
      6.826594471931458e-05,
      0.0002947412431240082,
      0.029421452432870865,
      0.021556630730628967,
      -0.0008716918528079987,
      0.00715966522693634,
      0.029702186584472656,
      -0.007256675511598587,
      -0.01774539053440094,
      -0.007856786251068115,
      -0.001268826425075531,
      -0.008033998310565948,
      -0.0003480203449726105,
      0.02646593004465103,
      -0.011385731399059296,
      0.00028676167130470276,
      -2.9966235160827637e-05,
      0.028952859342098236,
      -0.004523448646068573,
      -0.0002983100712299347,
      0.013002054765820503,
      -2.021901309490204e-05,
      -0.005731251090764999,
      -0.0009733997285366058,
      -0.017820820212364197,
      -0.0007526054978370667,
      -0.007296672090888023,
      0.0005072131752967834,
      0.026090968400239944,
      0.000290602445602417,
      0.029676267877221107,
      0.00012236833572387695,
      0.00021982192993164062,
      0.02753601409494877,
      0.001019902527332306,
      0.0023456066846847534,
      0.0005168318748474121,
      0.001219630241394043,
      -0.0009044259786605835,
      0.0006666183471679688,
      -0.0014878958463668823,
      -0.00027839094400405884,
      0.0007344111800193787,
      0.00013361498713493347,
      -7.65342265367508e-05,
      -0.019698143005371094,
      0.00010394211858510971,
      0.02943900879472494,
      0.0002673361450433731,
      1.7452985048294067e-05,
      0.0003424994647502899,
      2.678483724594116e-06,
      -0.006468810141086578,
      0.0001609697937965393,
      -5.5089592933654785e-05,
      0.0005711857229471207,
      -0.00019331276416778564,
      0.021998101845383644,
      -2.3242086172103882e-05,
      0.03003232181072235,
      -0.009633779525756836,
      0.0008969306945800781,
      -0.022845573723316193,
      0.02799381222575903,
      -0.0007593706250190735,
      -0.00018308311700820923,
      -0.029339779168367386,
      -0.029160071164369583,
      0.029791206121444702,
      -0.027830876410007477,
      -0.028850020840764046,
      0.0001286342740058899,
      -0.02909792587161064,
      -3.91155481338501e-06,
      -0.013169726356863976,
      0.0009406507015228271,
      0.00817851722240448,
      -0.029685528948903084,
      -0.0006341040134429932,
      0.0049369558691978455,
      0.0013231392949819565,
      -0.025280602276325226,
      -0.028784211724996567,
      0.027992814779281616,
      -0.014124706387519836,
      -0.02307184226810932,
      -0.029008652083575726,
      -0.027888283133506775,
      -0.029666215181350708,
      0.0288273673504591,
      -0.029544398188591003,
      0.02799641340970993,
      -0.02868751622736454,
      0.00010147131979465485,
      0.00012037158012390137,
      0.0003233775496482849,
      -0.02956743910908699,
      0.002794981002807617,
      -0.003555942326784134,
      -0.025914788246154785,
      0.003349192440509796,
      -0.027574267238378525,
      -0.014351285994052887,
      0.0013736225664615631,
      0.0004982724785804749,
      0.0017151497304439545,
      0.004066631197929382,
      0.004013679921627045,
      0.0005976781249046326,
      -0.029200250282883644,
      0.004080500453710556,
      0.0021625543013215065,
      0.004060640931129456,
      -0.025474967435002327,
      0.0038226619362831116,
      0.02596043050289154,
      -0.01731841452419758,
      0.025880618020892143,
      0.0038723237812519073,
      -0.025921348482370377,
      -0.015003673732280731,
      0.003884829580783844,
      -0.029583927243947983,
      0.0006913430988788605,
      -0.02736901119351387,
      -0.0036329999566078186,
      -0.026709377765655518,
      0.025940079241991043,
      -0.0004195794463157654,
      0.0007244721055030823,
      -0.00012165307998657227,
      -3.4807249903678894e-05,
      -0.0004156157374382019,
      0.021545708179473877,
      0.0006502680480480194,
      0.00022363848984241486,
      0.02937983348965645,
      -7.473304867744446e-05,
      -0.007369359955191612,
      0.016073379665613174,
      0.020685450173914433,
      0.029998681508004665,
      0.0004432089626789093,
      -0.011667028069496155,
      -0.0009933188557624817,
      0.0066729094833135605,
      0.0300215445458889,
      -0.017671585083007812,
      3.644824028015137e-05,
      0.029078572988510132,
      0.02999489288777113,
      0.02939322590827942,
      0.02921038120985031,
      0.0002486826851963997,
      0.02921481430530548,
      -0.007065907120704651,
      0.02868962287902832,
      0.00037469249218702316,
      0.0004085944965481758,
      0.0003731139004230499,
      0.029328353703022003,
      -0.02623390406370163,
      0.003280147910118103,
      0.003935243934392929,
      -0.024642571806907654,
      0.027224101126194,
      0.00321897491812706,
      0.002991117537021637,
      0.026937663555145264,
      0.0031042098999023438,
      0.000650390051305294,
      -0.002789519727230072,
      -0.026653362438082695,
      0.02723795175552368,
      0.0031470060348510742,
      0.00198923796415329,
      0.001781245693564415,
      0.004014298319816589,
      0.026979193091392517,
      0.0030483752489089966,
      0.003391766920685768,
      0.002051008865237236,
      0.02637389302253723,
      0.026964664459228516,
      0.027046576142311096,
      0.0030509047210216522,
      0.026817485690116882,
      0.002881459891796112,
      0.026966985315084457,
      0.0031769126653671265,
      0.0031448304653167725,
      -0.0017216727137565613,
      0.026930302381515503,
      -0.029495298862457275,
      0.029405463486909866,
      0.029239695519208908,
      -0.02987559884786606,
      0.029699303209781647,
      0.000606197863817215,
      -0.02951940894126892,
      0.029756247997283936,
      -0.029840979725122452,
      -0.017413165420293808,
      9.622424840927124e-05,
      -0.029867731034755707,
      0.029930301010608673,
      -0.0009481906890869141,
      -0.029950793832540512,
      -0.02886010706424713,
      0.00561261922121048,
      0.0019084103405475616,
      -0.02947535365819931,
      1.5519559383392334e-05,
      -0.02922084741294384,
      0.027967218309640884,
      0.02992699295282364,
      0.030040942132472992,
      -0.012990912422537804,
      0.029921002686023712,
      -0.029471635818481445,
      0.02986638993024826,
      0.00038137286901474,
      0.00022323615849018097,
      -0.029800591990351677,
      0.02994580566883087
    ],
    [
      -0.02377634309232235,
      -0.02487296611070633,
      0.02945609949529171,
      -0.014028046745806932,
      -0.02729370817542076,
      0.00031000375747680664,
      0.016432987758889794,
      0.0015945835039019585,
      0.003916287794709206,
      0.029593216255307198,
      0.0278394827619195,
      0.0014714822173118591,
      0.02979495283216238,
      -0.00020423159003257751,
      0.007346145808696747,
      0.000644247978925705,
      0.02976188436150551,
      0.029886125586926937,
      0.02986664418131113,
      0.02805640734732151,
      -0.02208618400618434,
      0.014847123762592673,
      -0.028112628497183323,
      0.028780607506632805,
      0.00045408401638269424,
      0.00025466829538345337,
      0.0004699351266026497,
      -0.028822213411331177,
      0.0002555772662162781,
      0.0009140344336628914,
      0.003343496471643448,
      0.030024634674191475
    ],
    [
      -0.013016030192375183,
      0.0037413854151964188,
      0.028117090463638306,
      0.0004065856337547302,
      -0.023618526756763458,
      -0.0005716755986213684,
      0.014060653746128082,
      -0.023741915822029114,
      0.02583448402583599,
      0.009202785789966583,
      0.0005430784076452255,
      0.0013217702507972717,
      -0.029810696840286255,
      0.02928043156862259,
      0.019458793103694916,
      0.013622447848320007,
      0.02017407864332199,
      0.00015427544713020325,
      -0.016384121030569077,
      -0.0004264563322067261,
      -0.017382726073265076,
      0.015933144837617874,
      0.00038205087184906006,
      0.021814391016960144,
      0.0015178322792053223,
      -1.784786581993103e-05,
      0.029515810310840607,
      0.00023771822452545166,
      0.0001285150647163391,
      -0.027128219604492188,
      -0.029843982309103012,
      -0.0009807273745536804
    ],
    [
      -0.029927032999694347
    ]
  ],
  "num_updates": 2,
  "client_ids": [
    "client-2",
    "client-1"
  ],
  "mean_final_loss": 9.635722637176514,
  "aggregation_timestamp": 1784209682.1812828
}