{
  "version": "v22",
  "base_version": "v21",
  "round_id": 19,
  "aggregation": "fedavg",
  "averaged_weight_delta": [
    [
      0.02824578434228897,
      0.029484890401363373,
      0.02905095648020506,
      0.028495244681835175,
      0.028892651200294495,
      0.026546979323029518,
      0.026493679732084274,
      0.028146319091320038,
      0.028487607836723328,
      0.029019705951213837,
      0.00012172386050224304,
      -4.046037793159485e-05,
      5.639903247356415e-05,
      -9.56319272518158e-05,
      0.0006571114063262939,
      -0.0005738846957683563,
      -0.00010896474123001099,
      0.0005425289273262024,
      0.0005865134298801422,
      0.001367136836051941,
      -0.012949824333190918,
      0.0001533105969429016,
      -0.0004916228353977203,
      -0.00014274194836616516,
      0.00016667693853378296,
      0.002628946676850319,
      0.007376968860626221,
      -0.029840830713510513,
      -0.00044724345207214355,
      -0.0005542747676372528,
      -0.026367267593741417,
      -0.023093749769032,
      -0.015125647187232971,
      -0.018981721252202988,
      -0.02625802904367447,
      -0.014369457960128784,
      -0.025423549115657806,
      -0.029692966490983963,
      0.007410153746604919,
      -0.027975745499134064,
      0.028558913618326187,
      -0.0110122449696064,
      0.0258274395018816,
      0.0004008375108242035,
      0.0005768686532974243,
      -0.0022669490426778793,
      -0.0006157904863357544,
      0.020965225994586945,
      -0.017571784555912018,
      -0.02338072657585144,
      -0.015350982546806335,
      -0.005232539027929306,
      -0.024326900020241737,
      -0.01650319993495941,
      0.020139552652835846,
      -0.012401195243000984,
      -0.009805753827095032,
      -0.0022731292992830276,
      0.012177810072898865,
      -0.02313559502363205,
      -0.0008481703698635101,
      -0.0006443681195378304,
      -0.0015299580991268158,
      -0.00010347366333007812,
      -0.0006224736571311951,
      -0.02791266143321991,
      -0.0012169405817985535,
      0.00040797144174575806,
      0.0012618470937013626,
      0.0001828223466873169,
      -0.025006726384162903,
      -0.00027624238282442093,
      0.0030497312545776367,
      0.0018287412822246552,
      -0.0004185512661933899,
      -0.0002466738224029541,
      0.017076298594474792,
      0.029065806418657303,
      0.0122627392411232,
      0.001689232885837555,
      0.016988344490528107,
      0.01595445815473795,
      0.028985917568206787,
      0.02979406714439392,
      0.029405951499938965,
      0.02480480447411537,
      0.0015428606420755386,
      0.029627278447151184,
      0.000978812575340271,
      0.02913551777601242,
      -0.02917613834142685,
      -0.02907548751682043,
      -0.02835030108690262,
      -0.02948679029941559,
      -0.029539503157138824,
      -0.029590126127004623,
      -0.029322586953639984,
      -0.028979472815990448,
      -0.02926519513130188,
      -0.02896055020391941,
      0.028896774165332317,
      0.028751231729984283,
      0.01263340562582016,
      0.012006890028715134,
      0.010125498287379742,
      0.02866840362548828,
      0.029170822352170944,
      0.003588074818253517,
      0.029577486217021942,
      0.028339000418782234,
      -0.02613966539502144,
      -0.017042338848114014,
      -0.023404079489409924,
      -0.01964249648153782,
      -0.016214855015277863,
      -0.026613841764628887,
      -0.011877264827489853,
      -0.020297721028327942,
      -0.027527179569005966,
      -0.02564429957419634,
      -0.00023991242051124573,
      -0.0007921252399682999,
      -0.00021576881408691406,
      -0.001000829041004181,
      -0.000990256667137146,
      -0.005396541208028793,
      -0.00045187026262283325,
      0.0022835247218608856,
      0.027480315417051315,
      -0.028794214129447937,
      0.004120923578739166,
      0.029529977589845657,
      0.000315091572701931,
      0.0009763613343238831,
      0.00013826042413711548,
      -0.0017605572938919067,
      0.0029228180646896362,
      -0.008832717314362526,
      0.028679948300123215,
      0.0020870938897132874,
      0.029410718008875847,
      0.029881980270147324,
      0.02980169840157032,
      0.02982386201620102,
      0.028072789311408997,
      0.02994244545698166,
      0.02997526526451111,
      0.029597893357276917,
      0.028192684054374695,
      0.0040231794118881226,
      0.029163725674152374,
      0.024506598711013794,
      0.028595812618732452,
      0.02969210222363472,
      0.02779078483581543,
      0.02868029661476612,
      0.02887830138206482,
      0.026168237440288067,
      0.01303768903017044,
      -1.745671033859253e-05,
      0.027576565742492676,
      0.029441706836223602,
      0.029702894389629364,
      0.026347175240516663,
      0.029497800394892693,
      0.011844970285892487,
      0.02864767052233219,
      0.02778703346848488,
      0.028433866798877716,
      0.02917497791349888,
      -0.012214913964271545,
      -0.00034628063440322876,
      0.0038551725447177887,
      0.02948644384741783,
      0.0002823546528816223,
      6.117857992649078e-05,
      -0.00404174393042922,
      -0.018619820475578308,
      -0.009171195328235626,
      -0.0003894120454788208,
      -0.0021983832120895386,
      -0.001014426350593567,
      -0.0019293427467346191,
      -0.009599847719073296,
      -0.005626402795314789,
      -0.0027442388236522675,
      -0.02853354811668396,
      -0.028159869834780693,
      0.004278451204299927,
      -0.020468056201934814,
      0.010198384523391724,
      0.003063306212425232,
      0.002402801066637039,
      0.0019089169800281525,
      0.0017785951495170593,
      0.015363365411758423,
      0.028595179319381714,
      0.001408349722623825,
      4.8547983169555664e-05,
      0.005688667297363281,
      -0.002579254098236561,
      9.475648403167725e-05,
      -0.0037881284952163696,
      -0.005023263394832611,
      -0.003849610686302185,
      -0.006995290517807007,
      -0.006225256249308586,
      -0.029530420899391174,
      -0.005218431353569031,
      -0.029451865702867508,
      0.0007005147635936737,
      0.00017467141151428223,
      -0.01395571418106556,
      0.00024197809398174286,
      8.52346420288086e-06,
      0.0002938695251941681,
      0.00029862672090530396,
      0.0005610622465610504,
      -0.0006562042981386185,
      0.029720641672611237,
      -0.0003625229001045227,
      -0.00022585690021514893,
      -0.0224982388317585,
      -0.0004904856905341148,
      -0.0038493797183036804,
      -8.086487650871277e-05,
      8.570961654186249e-06,
      0.00010551512241363525,
      -0.021088719367980957,
      0.024347208440303802,
      0.010003720410168171,
      -0.010501662269234657,
      -0.009218498133122921,
      0.00909406691789627,
      -0.01598641276359558,
      0.000168483704328537,
      0.0019086077809333801,
      -0.027501258999109268,
      0.0004891753196716309,
      0.02886117994785309,
      0.027589254081249237,
      0.023263439536094666,
      0.027198269963264465,
      0.00021510012447834015,
      0.021852567791938782,
      0.02833856176584959,
      0.025984421372413635,
      0.021993428468704224,
      -0.013251513242721558,
      0.028515025973320007,
      0.02996586263179779,
      0.029900461435317993,
      0.029964521527290344,
      0.029012665152549744,
      0.0299815833568573,
      0.029913630336523056,
      0.02994716167449951,
      0.007647532969713211,
      0.002398880198597908,
      0.029974251985549927,
      0.0014827614650130272,
      -0.013270460069179535,
      -0.0066214995458722115,
      -0.0014544501900672913,
      0.00040471553802490234,
      0.00879131630063057,
      -0.002827748656272888,
      -0.001313803717494011,
      0.009241670370101929,
      -0.0006728637963533401,
      -0.02010062336921692,
      -0.015860311686992645,
      -0.021538781467825174,
      -0.015367794781923294,
      -0.015011662617325783,
      -0.02560819685459137,
      -0.022736597806215286,
      -0.023161351680755615,
      0.00018217787146568298,
      -0.014464899897575378,
      -0.02992326021194458,
      -0.029770370572805405,
      -0.029934637248516083,
      -0.02968432568013668,
      -0.029252946376800537,
      -0.029971012845635414,
      -0.029654450714588165,
      -0.029879137873649597,
      -0.027943181805312634,
      -0.02969488501548767,
      0.02852211892604828,
      0.0003424324095249176,
      0.01423471700400114,
      0.014955243095755577,
      0.0007962323725223541,
      -2.7045607566833496e-05,
      -0.01826457493007183,
      0.028415605425834656,
      0.0037175938487052917,
      0.0020788051187992096,
      -0.029868909157812595,
      -0.02964833378791809,
      -0.029757101088762283,
      -0.029493827372789383,
      -0.0212005153298378,
      -0.02992020547389984,
      -0.02949867770075798,
      -0.029677927494049072,
      -0.011086300015449524,
      -0.029237794689834118,
      0.028301939368247986,
      0.029833218082785606,
      0.029937684535980225,
      0.029781769961118698,
      0.029390737414360046,
      0.029944125562906265,
      0.029697224497795105,
      0.011961005628108978,
      0.02936866506934166,
      0.001022621989250183
    ],
    [
      -0.028455061838030815,
      -0.0006571672856807709,
      0.006894077640026808,
      0.0013077650219202042,
      -0.01144946226850152,
      -0.014978864695876837,
      -0.02764545939862728,
      -0.02578355371952057,
      0.02961588092148304,
      0.0006797732785344124,
      -0.011807686882093549,
      -0.026340799406170845,
      -0.02904503047466278,
      -0.029003768227994442,
      0.02973231580108404,
      0.002989521250128746,
      -0.0006486242637038231,
      0.01720737828873098,
      -0.028275215066969395,
      -0.01774166990071535,
      -0.0008140066638588905,
      -1.5866942703723907e-05,
      0.02907799370586872,
      0.0006317831575870514,
      -0.021303811110556126,
      0.029327820986509323,
      -0.020550268702208996,
      0.00811188668012619,
      0.015467418823391199,
      0.02615914959460497,
      0.0063593024387955666,
      0.01426121755503118
    ],
    [
      5.402415990829468e-05,
      4.5124441385269165e-05,
      0.010775923728942871,
      -0.003348901867866516,
      0.0300191855058074,
      0.030013300478458405,
      0.029833566397428513,
      0.029905112460255623,
      0.02980327606201172,
      0.029935628175735474,
      0.029965408146381378,
      -1.9781291484832764e-05,
      0.028816270641982555,
      0.029542604461312294,
      -0.02727523446083069,
      0.00107668898999691,
      0.0183444838039577,
      0.0005017891526222229,
      0.029914923012256622,
      0.0299266055226326,
      0.029770687222480774,
      0.00019607506692409515,
      0.009272515773773193,
      -9.393319487571716e-05,
      3.9108097553253174e-05,
      0.0001943632960319519,
      0.0292318407446146,
      -0.029841428622603416,
      0.028064310550689697,
      0.01441962644457817,
      0.02883455902338028,
      -0.0006616897881031036,
      -0.00022611767053604126,
      -0.024080008268356323,
      -0.004868045449256897,
      0.0007995646446943283,
      -0.02878242637962103,
      -0.02860759850591421,
      -0.027044927701354027,
      -0.027833186089992523,
      0.0012937076389789581,
      -0.028847254812717438,
      -0.0285948496311903,
      0.0010465532541275024,
      0.0007802890613675117,
      -0.028735481202602386,
      -1.562759280204773e-05,
      -0.028444603085517883,
      -0.026755116879940033,
      0.0007393360137939453,
      -0.02682084869593382,
      -0.028246207162737846,
      -0.02685639262199402,
      0.00012627243995666504,
      -0.02583293989300728,
      0.00032599642872810364,
      0.006165727972984314,
      0.0006655752658843994,
      -0.011991705745458603,
      0.01729855127632618,
      -0.02811711747199297,
      -0.025942295789718628,
      -0.029242616146802902,
      0.0006369799375534058,
      -0.00024949386715888977,
      -0.00038339197635650635,
      0.0195312462747097,
      -0.02986113354563713,
      0.029657967388629913,
      0.029338277876377106,
      -0.0002209087833762169,
      0.02875654399394989,
      -0.02940826490521431,
      0.029596145264804363,
      0.029154472053050995,
      -0.00039149820804595947,
      -0.01839528977870941,
      0.028721997514367104,
      -0.02974627912044525,
      -0.0003398507833480835,
      0.02587502170354128,
      -0.02835676819086075,
      5.544349551200867e-05,
      0.028215520083904266,
      0.01799234002828598,
      0.0001463480293750763,
      -0.029419444501399994,
      -0.024947218596935272,
      -0.029480494558811188,
      -0.02430901676416397,
      -0.000306595116853714,
      -0.029926158487796783,
      -6.777234375476837e-05,
      -0.0005249008536338806,
      0.0005594789981842041,
      -0.02831190638244152,
      -0.028039127588272095,
      -0.02745701838284731,
      0.013007186353206635,
      0.024302490055561066,
      0.000921003520488739,
      0.001164846122264862,
      -1.4409422874450684e-05,
      0.0017066989094018936,
      0.02975977584719658,
      0.00031744688749313354,
      0.00033559650182724,
      0.02971060946583748,
      0.029499627649784088,
      0.0003263503313064575,
      -0.0009512044489383698,
      0.00017877668142318726,
      0.0013306373730301857,
      0.029430292546749115,
      0.0030355099588632584,
      0.0008483007550239563,
      0.0012772474437952042,
      0.02978341281414032,
      -0.00036213546991348267,
      0.02937476709485054,
      -0.01383017748594284,
      0.02995537966489792,
      -0.0015785833820700645,
      -2.653989940881729e-05,
      -0.008960592560470104,
      -0.02287503518164158,
      -0.004677397198975086,
      0.02990543842315674,
      0.030010897666215897,
      0.028992051258683205,
      -0.028989914804697037,
      -0.025125086307525635,
      0.0006726570427417755,
      0.0006512515246868134,
      0.0010270923376083374,
      -0.013216979801654816,
      -0.02186344563961029,
      0.0006837360560894012,
      0.0002127513289451599,
      -0.027885179966688156,
      -0.018714104779064655,
      0.00035331398248672485,
      -0.026648588478565216,
      0.0006487630307674408,
      0.0005398988723754883,
      9.896606206893921e-05,
      0.0012429095804691315,
      0.0009366758167743683,
      0.0009310469031333923,
      0.0005974322557449341,
      0.0007241144776344299,
      -0.029195202514529228,
      0.029922153800725937,
      9.723007678985596e-07,
      0.0008296817541122437,
      -0.026321716606616974,
      0.001874968409538269,
      -0.02704945206642151,
      -0.0008314326405525208,
      -0.013099461793899536,
      -0.00021091382950544357,
      6.635859608650208e-05,
      0.027786992490291595,
      0.02814384549856186,
      0.029472440481185913,
      0.02952064573764801,
      0.02891012653708458,
      0.029860593378543854,
      0.028308015316724777,
      0.029317094013094902,
      0.02972332015633583,
      0.0001609092578291893,
      0.029660429805517197,
      0.02972851786762476,
      0.02895023673772812,
      0.028903275728225708,
      0.028935011476278305,
      0.02927360124886036,
      0.028810322284698486,
      0.029431773349642754,
      0.006766960024833679,
      0.0278545543551445,
      0.00224249716848135,
      0.010363884270191193,
      -0.0006039999425411224,
      0.02192110475152731,
      0.026850786060094833,
      -0.020920952782034874,
      0.0006475299596786499,
      0.027811333537101746,
      0.02133407210931182,
      0.029762623831629753,
      0.0009612664580345154,
      0.0038341358304023743,
      0.002328239381313324,
      0.0005739862099289894,
      -0.014344388619065285,
      -0.028237638995051384,
      0.0014168843626976013,
      0.0006006434559822083,
      0.0004407651722431183,
      -0.029103606939315796,
      -0.028252724558115005,
      0.000759519636631012,
      0.0003839358687400818,
      -0.028904937207698822,
      0.00017911940813064575,
      -0.029346395283937454,
      -0.028891688212752342,
      0.0005351696163415909,
      0.00046124309301376343,
      -0.021563448011875153,
      -0.026538953185081482,
      0.0004949793219566345,
      -0.0005315663293004036,
      0.0010597500950098038,
      0.02923799306154251,
      0.00023837760090827942,
      -0.02697393298149109,
      0.02949562668800354,
      -0.023170556873083115,
      0.004909157752990723,
      -0.02916940674185753,
      0.00025689229369163513,
      0.0005925185978412628,
      0.0005971230566501617,
      -0.01326277107000351,
      -0.01922210492193699,
      -0.029391102492809296,
      -0.02815734315663576,
      -0.026694215834140778,
      -0.028981786221265793,
      -0.02713749185204506,
      -0.028840232640504837,
      -0.028557822108268738,
      -0.003503461368381977,
      -0.02501877397298813,
      -0.02376919612288475,
      0.0009456072002649307,
      -0.0007041990756988525,
      -0.0145665742456913,
      -0.026748880743980408,
      -0.014273956418037415,
      -0.02871115133166313,
      -0.025429796427488327,
      -0.028786588460206985,
      0.014935381710529327,
      -0.025864025577902794,
      0.014993369579315186,
      -0.028427678160369396,
      -0.023382745683193207,
      0.00025322288274765015,
      -0.015981733798980713,
      0.0001882314682006836,
      -0.017923757433891296,
      -0.02548368275165558,
      -1.1451542377471924e-05,
      -1.2516975402832031e-06,
      0.02660616673529148,
      0.0013714320957660675,
      0.02985680103302002,
      0.029849786311388016,
      0.029721740633249283,
      0.029919729568064213,
      0.027429603040218353,
      0.029972601681947708,
      0.029879668727517128,
      0.00022090226411819458,
      0.02962329052388668,
      0.029478564858436584,
      -0.0004929378628730774,
      0.0294408667832613,
      0.02982141822576523,
      0.029841348528862,
      0.02974623814225197,
      0.029859029687941074,
      0.029213646426796913,
      0.02947874367237091,
      0.0014371499419212341,
      0.022803358733654022,
      -0.00031912699341773987,
      0.026786014437675476,
      0.027129393070936203,
      -0.0281740203499794,
      0.00022700801491737366,
      0.02522861585021019,
      0.0010150037705898285,
      0.016800589859485626,
      0.0007276609539985657,
      0.0013751164078712463,
      0.0036137327551841736,
      0.01647864282131195,
      -0.028400518000125885,
      -0.027483818121254444,
      -0.0005135741084814072,
      -0.017918512225151062,
      -0.013909943401813507,
      -0.02936478704214096,
      -0.02851281315088272,
      0.0002720961347222328,
      -0.024100199341773987,
      -0.026285754516720772,
      0.029176322743296623,
      -0.026279913261532784,
      -0.027931172400712967,
      0.0004837159067392349,
      -0.028279699385166168,
      -0.017192834988236427,
      -0.012252502143383026,
      8.014123886823654e-05,
      6.373226642608643e-05,
      0.02930545061826706,
      0.001054663211107254,
      0.0001059211790561676,
      0.0007599201053380966,
      0.029922977089881897,
      0.00043673068284988403,
      0.017715992406010628,
      -0.0010203719139099121,
      0.017011253628879786,
      0.029923003166913986,
      0.030034074559807777,
      0.0025536753237247467,
      0.0006332173943519592,
      0.0023173727095127106,
      0.003319432958960533,
      0.002100348472595215,
      0.0020543746650218964,
      0.008786261081695557,
      0.002036307007074356,
      0.0030123144388198853,
      -0.027902277186512947,
      -0.0019621700048446655,
      0.0014500226825475693,
      -0.0003035441040992737,
      0.013624712824821472,
      0.003705308772623539,
      0.006371304392814636,
      0.0011589890345931053,
      0.0013705138117074966,
      0.012320108711719513,
      0.003107108175754547,
      0.029963968321681023,
      -0.028385432437062263,
      0.029872611165046692,
      0.0007701106369495392,
      0.0073426030576229095,
      0.0007793344557285309,
      0.004701865836977959,
      0.010285098105669022,
      0.028217338025569916,
      0.004786888137459755,
      0.02987481001764536,
      0.029918137937784195,
      0.002739131450653076,
      0.0019445717334747314,
      0.0004520239308476448,
      0.0006801187992095947,
      0.001008845865726471,
      0.0006455890834331512,
      0.0012605786323547363,
      0.0007451213896274567,
      0.0005164146423339844,
      -0.02902303636074066,
      0.00037590041756629944,
      0.00151149183511734,
      0.0049855075776577,
      0.0026650140061974525,
      0.000516548752784729,
      -0.0003777742385864258,
      0.0006015952676534653,
      0.00026875734329223633,
      0.0012760758399963379,
      -0.0003964453935623169,
      0.000806175172328949,
      0.000988602638244629,
      0.029904339462518692,
      0.0003265663981437683,
      0.001348378136754036,
      0.028249025344848633,
      0.006925702095031738,
      0.0008389223366975784,
      0.001979328691959381,
      -0.0003450149670243263,
      0.0012474656105041504,
      0.006609823554754257,
      0.0011798059567809105,
      0.009732183068990707,
      -0.028872206807136536,
      -0.02337048016488552,
      -0.026395045220851898,
      -0.026802338659763336,
      -0.001014474779367447,
      -0.028524942696094513,
      -0.028794240206480026,
      0.0004928894340991974,
      -0.02599664032459259,
      -0.027670822106301785,
      0.02822667732834816,
      -0.027045841328799725,
      -0.0007026791572570801,
      -0.0151049280539155,
      -0.027776941657066345,
      -0.026799485087394714,
      -0.027659527957439423,
      0.00037980079650878906,
      0.0003492124378681183,
      0.0008015669882297516,
      0.001341329887509346,
      0.0006264187395572662,
      -0.025924596935510635,
      0.030008606612682343,
      -0.02109260857105255,
      -0.019885189831256866,
      -0.02675555646419525,
      4.3157488107681274e-06,
      -0.028469018638134003,
      -0.02273386623710394,
      0.025452814996242523,
      -6.096716970205307e-05,
      2.2434629499912262e-05,
      0.015041224658489227,
      -0.0004308074712753296,
      0.028942158445715904,
      0.029114902950823307,
      -0.00040926970541477203,
      -0.0006198473274707794,
      0.02942173182964325,
      0.0023965835571289062,
      -0.0013726502656936646,
      -0.00020047277212142944,
      -0.0005928371101617813,
      0.0052748993039131165,
      0.0023697465658187866,
      0.028661598451435566,
      0.013082392513751984,
      -0.025149285793304443,
      0.0002790922299027443,
      -0.01856052433140576,
      0.02926526963710785,
      -0.0293690487742424,
      0.02960974909365177,
      0.0019865622743964195,
      -0.00027424097061157227,
      -0.013173714280128479,
      -0.0007965043187141418,
      -0.006562419235706329,
      0.0009284317493438721,
      -0.028647299855947495,
      -0.027805402874946594,
      0.00038057006895542145,
      -0.000899776816368103,
      0.00019665155559778214,
      0.00013367459177970886,
      0.00014123693108558655,
      0.00018434971570968628,
      -0.00030656903982162476,
      -3.182142972946167e-05,
      0.00022213906049728394,
      0.029642395675182343,
      0.00023480132222175598,
      -0.00028328225016593933,
      -0.000728655606508255,
      -3.0077993869781494e-05,
      -5.7853758335113525e-05,
      -2.3088417947292328e-05,
      1.0549090802669525e-05,
      0.00018322467803955078,
      -0.00034055858850479126,
      -2.0012259483337402e-05,
      -4.413630813360214e-05,
      0.029680900275707245,
      -0.016779519617557526,
      -1.6286969184875488e-05,
      -0.000967666506767273,
      0.015429632738232613,
      -0.0023444481194019318,
      -7.481127977371216e-05,
      -0.005706138908863068,
      6.04577362537384e-05,
      -0.011586848646402359,
      -0.011109933257102966,
      -0.010512281209230423,
      -0.011097880080342293,
      -0.010508768260478973,
      -0.012949759140610695,
      -0.010285288095474243,
      -0.010610640048980713,
      -0.010780266486108303,
      -0.010685700923204422,
      -0.010922752320766449,
      -0.010983884334564209,
      -0.010669998824596405,
      -0.010954715311527252,
      -0.01052236557006836,
      0.0,
      -0.010935604572296143,
      -0.011162951588630676,
      -0.01065649650990963,
      -0.01037147268652916,
      -0.010506212711334229,
      -0.011168554425239563,
      -0.010816793888807297,
      -0.01083683967590332,
      -0.010939760133624077,
      -0.01094069704413414,
      -0.009839460253715515,
      -0.010812774300575256,
      -0.010727282613515854,
      -0.011057044379413128,
      -0.010793626308441162,
      -0.010851368308067322,
      0.029170960187911987,
      0.02881382405757904,
      -0.02874186635017395,
      -0.026840150356292725,
      -0.028051162138581276,
      0.0013284655287861824,
      0.004068747162818909,
      -0.028857555240392685,
      -0.028932474553585052,
      0.0012111272662878036,
      0.0010357946157455444,
      -0.029031211510300636,
      -0.026471860706806183,
      0.0020341426134109497,
      -0.029807154089212418,
      0.005167106166481972,
      0.00012880563735961914,
      -0.028686217963695526,
      -0.014062948524951935,
      -0.02135599311441183,
      -0.0012883096933364868,
      -0.028480131179094315,
      0.0012577548623085022,
      -0.02713192254304886,
      -0.0005101077258586884,
      -0.025364398956298828,
      0.004295108839869499,
      -0.017507418990135193,
      0.005283556878566742,
      -0.02894304320216179,
      0.0020946674048900604,
      -0.027592606842517853,
      0.0010592425242066383,
      0.0009676739573478699,
      -0.02628038078546524,
      -0.025318164378404617,
      -0.028508111834526062,
      -0.02813506033271551,
      -0.028082823380827904,
      -0.028383523225784302,
      -0.027758978307247162,
      -0.02880012057721615,
      -0.027672044932842255,
      -0.0006693154573440552,
      -0.028410837054252625,
      -0.0277775377035141,
      -0.019112586975097656,
      -0.02184582781046629,
      -0.028449751436710358,
      -0.02880079671740532,
      -0.028102591633796692,
      -0.027939570136368275,
      -0.027197889983654022,
      -0.028369326144456863,
      0.0007474496960639954,
      -0.027750736102461815,
      0.0015375763177871704,
      -0.028483746573328972,
      -0.025772128254175186,
      0.0006185714155435562,
      -0.02759925089776516,
      -0.02237086370587349,
      -0.01732751727104187,
      -0.028939182870090008,
      0.001570296473801136,
      0.002831757068634033,
      -0.026017047464847565,
      -0.025365039706230164,
      -0.02855609357357025,
      -0.026850158348679543,
      -0.026232894510030746,
      -0.025479961186647415,
      -0.027793459594249725,
      -0.0287492498755455,
      -0.02935582399368286,
      -0.014534883201122284,
      -0.028989579528570175,
      -0.02830597013235092,
      0.00032395124435424805,
      -0.027742691338062286,
      -0.027583450078964233,
      -0.02759859710931778,
      -0.028302110731601715,
      -0.02889028936624527,
      -0.0283289672806859,
      -0.028590179979801178,
      0.0005512833595275879,
      -0.02586696669459343,
      0.0013277670368552208,
      -0.028851866722106934,
      -0.023925920948386192,
      0.0031013041734695435,
      -0.018000386655330658,
      -0.020320463925600052,
      -0.025412678718566895,
      -0.027375459671020508,
      -0.0005991533398628235,
      -0.00030225515365600586,
      -0.026647016406059265,
      -0.01000000350177288,
      -0.02826540172100067,
      -0.02803131937980652,
      -0.02692101150751114,
      -0.0275267381221056,
      -0.02667570859193802,
      -0.028247252106666565,
      -0.02828219160437584,
      0.0015426762402057648,
      -0.026977956295013428,
      -0.027338795363903046,
      -8.870474994182587e-05,
      -0.027881372720003128,
      -0.028195876628160477,
      -0.028005175292491913,
      -0.027645476162433624,
      -0.02783646434545517,
      -0.02716270089149475,
      -0.028591299429535866,
      -0.000592254102230072,
      -0.024479448795318604,
      -0.0001540854573249817,
      -0.02814329508692026,
      -0.026709958910942078,
      0.016883961856365204,
      -0.024100806564092636,
      -0.027636555954813957,
      -0.026826608926057816,
      -0.027480244636535645,
      -0.01933016674593091,
      -0.01901593804359436,
      -0.011846191249787807,
      0.010032158344984055,
      -0.02305404096841812,
      -0.019880584441125393,
      -0.01675889641046524,
      -0.006852187216281891,
      -0.0061521828174591064,
      -0.007348664104938507,
      -0.021038275212049484,
      0.020894959568977356,
      0.027787506580352783,
      -0.017863750457763672,
      0.009376753121614456,
      -0.0186164528131485,
      -0.019419167190790176,
      0.008746578358113766,
      0.0006956867873668671,
      -0.0017507746815681458,
      -0.01219966635107994,
      -0.011563718318939209,
      -0.012723339721560478,
      0.01070365309715271,
      -0.015125401318073273,
      0.011181272566318512,
      -0.01733589917421341,
      0.009019061923027039,
      -0.017859920859336853,
      -0.020322725176811218,
      -0.017222821712493896,
      0.00999874621629715,
      -0.02919053565710783,
      -0.029182471334934235,
      0.025822337716817856,
      0.027743086218833923,
      0.00031319446861743927,
      -4.036352038383484e-05,
      7.120519876480103e-05,
      0.008410006761550903,
      0.029585808515548706,
      -8.854269981384277e-05,
      0.00016051530838012695,
      0.030016452074050903,
      0.029872283339500427,
      0.0044676437973976135,
      0.027885564602911472,
      1.383759081363678e-05,
      -0.0008894652128219604,
      0.030005689710378647,
      0.016167782247066498,
      0.002807486802339554,
      0.028864189982414246,
      0.02996748499572277,
      0.0007838532328605652,
      0.02969333529472351,
      -0.017933715134859085,
      0.03000437468290329,
      -0.0017045773565769196,
      4.3122097849845886e-05,
      -0.007585115730762482,
      0.029044967144727707,
      -0.002497650682926178,
      0.029884954914450645,
      -0.0003287866711616516,
      -0.02986796572804451,
      -0.001161821186542511,
      -0.001880943775177002,
      0.029620587825775146,
      0.029682524502277374,
      0.02765851840376854,
      -3.439188003540039e-05,
      -0.00019588321447372437,
      0.02977430447936058,
      0.029589936137199402,
      -2.3983418941497803e-05,
      -0.00015884637832641602,
      0.028719179332256317,
      -0.030017307959496975,
      0.028721041977405548,
      0.020447630435228348,
      -1.1436641216278076e-05,
      0.029073521494865417,
      0.00012158602476119995,
      0.0005384944379329681,
      0.0003731139004230499,
      -0.0020041577517986298,
      -0.0006325291469693184,
      -0.0017096027731895447,
      5.504116415977478e-05,
      0.024617932736873627,
      -0.02989915758371353,
      0.00022807717323303223,
      -0.0029467791318893433,
      0.020352087914943695,
      -1.5106052160263062e-06,
      -0.02138112485408783,
      -0.020902015268802643,
      -0.005848601460456848,
      -0.00632302463054657,
      -0.007229633629322052,
      -0.007172103971242905,
      -0.02026510424911976,
      -0.00731838122010231,
      -0.007846742868423462,
      -0.009313918650150299,
      -0.0074876099824905396,
      0.02117224782705307,
      -0.018473617732524872,
      -0.007386133074760437,
      -0.019122101366519928,
      -0.006797201000154018,
      -0.008373185992240906,
      -0.023696698248386383,
      -0.006163935177028179,
      -0.005893547087907791,
      -0.0012941863387823105,
      -0.008425461128354073,
      -0.0208870992064476,
      -0.014559306204319,
      -0.021281510591506958,
      -0.02129340171813965,
      -0.0017888545989990234,
      -0.019508739933371544,
      -0.02044803462922573,
      -0.008566845208406448,
      -0.0019226949661970139,
      -0.024193279445171356,
      0.001149393618106842,
      0.0017023449763655663,
      -0.013316923752427101,
      0.0030539333820343018,
      -0.027939654886722565,
      -0.02717873454093933,
      -0.026980504393577576,
      -0.026517972350120544,
      0.001728992909193039,
      -0.028028197586536407,
      -0.028381899930536747,
      0.00042013078927993774,
      -0.022651612758636475,
      -0.02715440932661295,
      -0.01301073282957077,
      -0.024999462068080902,
      -0.02753959596157074,
      0.00038123130798339844,
      -0.02827678993344307,
      -0.02757306396961212,
      -0.027211837470531464,
      -0.029299737885594368,
      -0.027580253779888153,
      0.0021204501390457153,
      0.0026212260127067566,
      0.0002774745225906372,
      -0.02263087034225464,
      0.02957567758858204,
      -0.027573496103286743,
      -0.024511419236660004,
      -0.01598517596721649,
      -0.028286799788475037,
      -0.02531835436820984,
      -0.004037175327539444,
      0.016060378402471542,
      0.0017360635101795197,
      0.005390733480453491,
      0.002539791166782379,
      0.003612508997321129,
      0.0050805360078811646,
      0.01248276187106967,
      0.0027854163199663162,
      0.0011102333664894104,
      0.029233615845441818,
      0.029438380151987076,
      0.002156190574169159,
      0.00924495980143547,
      -0.009857401251792908,
      0.002545401453971863,
      -0.0002416558563709259,
      0.029691040515899658,
      0.004908338189125061,
      0.0017348695546388626,
      0.0015664715319871902,
      -0.022335948422551155,
      0.029954767785966396,
      -0.00015521235764026642,
      0.0006556306034326553,
      0.0007724836468696594,
      2.530217170715332e-05,
      0.000987648032605648,
      0.0029320698231458664,
      -0.029467450454831123,
      -0.0279921293258667,
      -0.0005937181413173676,
      -0.001329672522842884,
      -0.02444281056523323,
      -0.025958487764000893,
      -0.0260065458714962,
      -0.02588346228003502,
      -0.024849586188793182,
      -0.025262989103794098,
      -0.0250703701749444,
      -0.026097454130649567,
      -0.02592766098678112,
      0.003078162670135498,
      -0.0236359853297472,
      -0.02530466765165329,
      -0.013675712049007416,
      -0.02229922264814377,
      -0.025686688721179962,
      -0.025441091507673264,
      -0.025928910821676254,
      -0.02581832930445671,
      -0.026662707328796387,
      -0.02424149587750435,
      -0.02640911191701889,
      0.003111615777015686,
      -0.0019666049629449844,
      -0.025616392493247986,
      -0.025307025760412216,
      0.0018718689680099487,
      -0.02533373236656189,
      -0.025781703181564808,
      -0.026145081967115402,
      -0.023980356752872467,
      6.087124347686768e-06,
      0.00032979995012283325,
      -0.012103885412216187,
      0.01181749626994133,
      -0.029456742107868195,
      -0.029217354953289032,
      -0.02861710637807846,
      -0.029252082109451294,
      -0.0004717651754617691,
      -0.02947279065847397,
      -0.02948611229658127,
      0.0001967698335647583,
      -0.02271905168890953,
      -0.029592547565698624,
      0.01691846176981926,
      -0.028375163674354553,
      -0.029661377891898155,
      -0.0010900944471359253,
      -0.0293518528342247,
      -0.029250378720462322,
      -0.0256960429251194,
      -5.6292861700057983e-05,
      -7.927417755126953e-06,
      0.0005457401275634766,
      0.0003924453631043434,
      4.8667192459106445e-05,
      -0.028355665504932404,
      0.029931068420410156,
      1.831352710723877e-05,
      -0.029770465567708015,
      -0.001042376272380352,
      0.0055464208126068115,
      -0.029269319027662277,
      -0.02895171381533146,
      0.02983703836798668,
      -0.029752750881016254,
      0.0004447922110557556,
      0.0005592480301856995,
      0.00135856494307518,
      -0.00012893229722976685,
      -0.00019724667072296143,
      0.00017823465168476105,
      0.0006713513284921646,
      0.02881021425127983,
      5.298107862472534e-05,
      0.00026996806263923645,
      0.008675243705511093,
      -0.0006774123758077621,
      -0.01338171400129795,
      -0.003753662109375,
      -0.011552885174751282,
      0.000841185450553894,
      0.0008460469543933868,
      0.00011319294571876526,
      -0.026295214891433716,
      0.029533669352531433,
      -0.02947235107421875,
      0.0005378872156143188,
      -0.028712505474686623,
      6.285682320594788e-05,
      -0.0021042600274086,
      -0.02350204437971115,
      -0.01191512867808342,
      0.028514618054032326,
      -0.02904878556728363,
      -0.02909991890192032,
      -0.015075638890266418,
      0.0011085942387580872,
      -0.029389559291303158,
      -0.029492896050214767,
      -0.029362335801124573,
      -0.024806490167975426,
      -0.0025239363312721252,
      -0.02868826501071453,
      -0.0006506107747554779,
      0.0014422796666622162,
      -0.025016067549586296,
      -0.02868005633354187,
      -0.013431437313556671,
      -0.0007293522357940674,
      -0.029423082247376442,
      -4.910677671432495e-05,
      -0.02846174594014883,
      -0.029278218746185303,
      -0.028795134276151657,
      0.0003416016697883606,
      -0.028108319267630577,
      0.00022348761558532715,
      -0.027321642264723778,
      6.489455699920654e-05,
      -0.028782255947589874,
      0.0006177611649036407,
      -0.02962319552898407,
      -0.028859270736575127,
      -0.029292427003383636,
      0.0005327127873897552,
      0.00035716593265533447,
      0.0012079589068889618,
      -0.0018518418073654175,
      0.0012293532490730286,
      0.0013320967555046082,
      0.0013933852314949036,
      0.0007803291082382202,
      0.0011653751134872437,
      -0.005661629140377045,
      0.0013692770153284073,
      0.0009579136967658997,
      -0.027547694742679596,
      0.00014632940292358398,
      0.0006916150450706482,
      0.01435431744903326,
      0.00015402957797050476,
      0.0013814270496368408,
      -0.02798058930784464,
      0.004057079553604126,
      0.0005572885274887085,
      0.0012214332818984985,
      0.00017106439918279648,
      -8.933339267969131e-05,
      -0.017345452215522528,
      0.014995448291301727,
      -0.029175743460655212,
      0.0013361359015107155,
      -0.013856067322194576,
      0.0010273326188325882,
      0.0017523057758808136,
      0.0010964535176753998,
      -0.028430067002773285,
      0.000609617680311203,
      0.00032341480255126953,
      -0.006777893751859665,
      -0.02790588140487671,
      0.029190674424171448,
      0.028527282178401947,
      0.003987610340118408,
      0.029296696186065674,
      -0.023633763194084167,
      0.02996852621436119,
      0.029681429266929626,
      0.00018012337386608124,
      -0.011580847203731537,
      0.0010378193110227585,
      -0.014557957649230957,
      0.006772544234991074,
      0.0014020279049873352,
      -0.01679781824350357,
      0.029541663825511932,
      0.028999067842960358,
      0.0036597102880477905,
      0.028287183493375778,
      0.0014832168817520142,
      0.0001611858606338501,
      0.0001183580607175827,
      -0.028528302907943726,
      0.0049501582980155945,
      -0.02968471869826317,
      0.0010115578770637512,
      -0.024112827144563198,
      0.0006162822246551514,
      -0.011537719517946243
    ],
    [
      0.02988169714808464,
      -0.027581801638007164,
      -0.002456710673868656,
      0.0047558085061609745,
      -0.00022666435688734055,
      0.029491718858480453,
      0.0007093483582139015,
      -0.014256067341193557,
      0.029697366058826447,
      0.0061736078932881355,
      0.010455744341015816,
      0.0014731017872691154,
      -0.021627542562782764,
      0.000700618140399456,
      -0.00019549671560525894,
      -0.0108816372230649,
      -0.02805309183895588,
      -0.02740046102553606,
      -0.026726407930254936,
      -0.02753568533807993,
      -0.01727931573987007,
      0.028869385831058025,
      -0.0013869404792785645,
      -0.0075186798349022865,
      -0.026169873774051666,
      0.0033526327461004257,
      -0.025520218536257744,
      -0.028676364570856094,
      0.00016743317246437073,
      -0.028692323714494705,
      0.0009813671931624413,
      0.0013400306925177574
    ],
    [
      -0.001223401166498661,
      -0.0003550797700881958,
      -0.0007715858519077301,
      0.007036246359348297,
      0.014674445614218712,
      -0.02511032670736313,
      0.028370365500450134,
      -0.02916276454925537,
      -5.157291889190674e-05,
      -0.012353919446468353,
      -0.0102110356092453,
      -0.0010532140731811523,
      0.0012591816484928131,
      0.00035058706998825073,
      0.0006494522094726562,
      0.014583263546228409,
      0.028438374400138855,
      -0.0015125647187232971,
      -0.0023183152079582214,
      0.00010676309466362,
      -0.027504133991897106,
      0.029624447226524353,
      0.029418841004371643,
      -0.02836309466511011,
      0.007026955485343933,
      0.010839931666851044,
      0.0008620321750640869,
      -0.00021714717149734497,
      0.0009942017495632172,
      -0.024636834859848022,
      -0.0012999102473258972,
      -0.002660069614648819
    ],
    [
      -0.0014717858284711838
    ]
  ],
  "num_updates": 2,
  "client_ids": [
    "client-2",
    "client-1"
  ],
  "mean_final_loss": 8.351871967315674,
  "aggregation_timestamp": 1784208545.2922425
}