{
  "version": "v25",
  "base_version": "v24",
  "round_id": 22,
  "aggregation": "fedavg",
  "averaged_weight_delta": [
    [
      -0.007160861045122147,
      -0.0004315376281738281,
      0.0001692492514848709,
      -0.0004826560616493225,
      -0.0003852173686027527,
      -0.00027742236852645874,
      -0.0008072741329669952,
      -0.00027444958686828613,
      -0.0004053041338920593,
      -0.000497814267873764,
      -0.007990997284650803,
      0.022743195295333862,
      -0.02964341640472412,
      -0.00199798122048378,
      -0.011719509959220886,
      -0.012179210782051086,
      -0.028844191692769527,
      -0.0166083425283432,
      -0.016187965869903564,
      -0.01245936006307602,
      -5.4854899644851685e-06,
      0.00011413544416427612,
      0.001296207308769226,
      -0.00017470400780439377,
      0.00013002008199691772,
      -1.6316771507263184e-06,
      0.0001973360776901245,
      0.007913162000477314,
      2.615898847579956e-05,
      0.00033128634095191956,
      -9.806454181671143e-05,
      0.01525743305683136,
      -0.00042404234409332275,
      -0.00019598007202148438,
      -8.4705650806427e-05,
      -0.015970438718795776,
      -0.00023809820413589478,
      -0.000683959573507309,
      0.026027917861938477,
      0.023276513442397118,
      3.4496188163757324e-06,
      0.029431067407131195,
      0.0007141232490539551,
      0.013865500688552856,
      0.000524500384926796,
      0.009852379560470581,
      0.00014130957424640656,
      0.00019578635692596436,
      0.006361514329910278,
      0.000504419207572937,
      0.029414739459753036,
      0.028556063771247864,
      0.0293443500995636,
      0.029785572551190853,
      0.003881394863128662,
      0.027551129460334778,
      0.029444538056850433,
      0.017715301364660263,
      0.029387950897216797,
      0.029458656907081604,
      -0.027229472994804382,
      -0.02443355694413185,
      -0.026222359389066696,
      -0.02870696783065796,
      -0.02623627334833145,
      -4.336051642894745e-05,
      -0.01994694024324417,
      -0.028564758598804474,
      -0.028490320779383183,
      -0.029575534164905548,
      -0.02998426929116249,
      -0.0023944899439811707,
      -0.030031386762857437,
      -0.02990847732871771,
      -0.029949981719255447,
      -0.029437243938446045,
      -0.02947127167135477,
      -0.002548500895500183,
      -0.029969438910484314,
      -0.029899241402745247,
      -0.000460207462310791,
      -0.005311435088515282,
      0.023026831448078156,
      0.014237776398658752,
      -0.0011262744665145874,
      -3.2417476177215576e-05,
      0.00011980533599853516,
      9.78708267211914e-05,
      0.028669657185673714,
      0.0007125940173864365,
      -0.0002742856740951538,
      -0.0006983131170272827,
      -0.00027298927307128906,
      -0.0005446672439575195,
      -0.00026293471455574036,
      0.011263172142207623,
      -0.000496160238981247,
      0.011740140616893768,
      -0.00035059452056884766,
      -0.0003934688866138458,
      0.005191408097743988,
      -0.0008332356810569763,
      0.0009250640869140625,
      -6.593577563762665e-05,
      -0.00017739459872245789,
      -0.0020359493792057037,
      7.256679236888885e-05,
      -4.491955041885376e-05,
      -0.00038618966937065125,
      9.510107338428497e-05,
      0.00034349411725997925,
      0.009809136390686035,
      0.0027644336223602295,
      0.00048666447401046753,
      0.0020586438477039337,
      0.00042184069752693176,
      8.738972246646881e-05,
      -0.00015698373317718506,
      0.010511212050914764,
      0.027424920350313187,
      -0.028965030796825886,
      -0.011062376201152802,
      -0.028990983963012695,
      -0.017012253403663635,
      -0.013832084834575653,
      -0.029909051954746246,
      -0.02871796116232872,
      -0.029748115688562393,
      -0.02999035082757473,
      -0.02914048731327057,
      0.005700238049030304,
      0.02802737057209015,
      -5.890056490898132e-05,
      0.027214819565415382,
      -0.001112222671508789,
      0.013739243149757385,
      0.028201840817928314,
      0.027782827615737915,
      0.002489335834980011,
      0.028903020545840263,
      0.00047178566455841064,
      -0.013554423116147518,
      0.02625589817762375,
      -0.02864493429660797,
      -0.029457824304699898,
      0.00014293380081653595,
      0.02567678689956665,
      0.0001943632960319519,
      -0.0019850581884384155,
      -0.0013084113597869873,
      -0.029555294662714005,
      -0.014605328440666199,
      -0.01705280877649784,
      -0.011318463599309325,
      -0.016598409041762352,
      -0.028836332261562347,
      -0.010066628456115723,
      -0.0057862671092152596,
      -0.02978825569152832,
      -0.029651466757059097,
      0.005176469683647156,
      0.029227040708065033,
      0.010417260229587555,
      0.015539410524070263,
      0.017596833407878876,
      0.028782248497009277,
      0.007465630769729614,
      0.0021993163973093033,
      0.010061018168926239,
      0.029072389006614685,
      0.006327450275421143,
      -0.0008426681160926819,
      0.013721868745051324,
      0.0028488636016845703,
      -0.00034857168793678284,
      -0.002021223306655884,
      0.02792031317949295,
      0.0007188469171524048,
      0.029081759974360466,
      0.029190029948949814,
      0.0073738694190979,
      -0.0003048926591873169,
      0.020567432045936584,
      0.02572372555732727,
      0.005808893591165543,
      0.014729209244251251,
      0.023561615496873856,
      -0.0005690157413482666,
      0.015315895900130272,
      0.002273082733154297,
      -0.029377534985542297,
      -0.01473505049943924,
      -0.0007094200700521469,
      0.023346491158008575,
      -0.008514017798006535,
      -0.004736997187137604,
      -0.005399756133556366,
      -0.029920261353254318,
      -0.0021115317940711975,
      -0.004572601988911629,
      -0.02776135876774788,
      -0.02213968336582184,
      -0.0003288276493549347,
      -0.014400564134120941,
      -0.025268081575632095,
      -0.02554941736161709,
      -0.02166111022233963,
      -0.025994621217250824,
      -0.017389878630638123,
      -0.025894951075315475,
      -0.0004130033776164055,
      -0.0002940744161605835,
      -0.0013480037450790405,
      -0.00024915672838687897,
      -0.00012126564979553223,
      0.00048301368951797485,
      -9.313970804214478e-05,
      0.025597065687179565,
      -0.0002881661057472229,
      -0.00031949393451213837,
      0.0004284083843231201,
      0.014784865081310272,
      0.02354859560728073,
      0.023568675853312016,
      0.025300823152065277,
      0.02398819476366043,
      0.01745942048728466,
      -0.008709728717803955,
      0.016068637371063232,
      0.015240900218486786,
      1.0006129741668701e-05,
      -0.00022883713245391846,
      -0.00010162591934204102,
      -1.401454210281372e-05,
      0.028056067414581776,
      -0.028686612844467163,
      4.126131534576416e-05,
      0.00037489086389541626,
      8.374452590942383e-06,
      2.588517963886261e-05,
      0.02674628049135208,
      0.026861395686864853,
      -0.006656002253293991,
      0.026481110602617264,
      0.025528824888169765,
      0.02706730365753174,
      0.021219730377197266,
      0.0222601518034935,
      -0.0018526837229728699,
      -0.0011593960225582123,
      0.029427260160446167,
      0.02791733853518963,
      0.026515323668718338,
      0.029201428405940533,
      0.029466181993484497,
      0.029029186815023422,
      0.02904406189918518,
      0.029240163043141365,
      0.011141106486320496,
      0.028189167380332947,
      0.028625850565731525,
      0.025697266682982445,
      0.0037380047142505646,
      0.002419527620077133,
      0.012220606207847595,
      2.8543174266815186e-05,
      0.02907732129096985,
      0.003955865278840065,
      0.005861286073923111,
      0.0021929293870925903,
      -0.00029255449771881104,
      4.786252975463867e-05,
      -0.00041093677282333374,
      -0.00023115798830986023,
      0.00017064809799194336,
      -0.00025903433561325073,
      -9.144097566604614e-05,
      -5.041435360908508e-05,
      -3.571063280105591e-05,
      -0.0004890169948339462,
      -0.005992420017719269,
      0.00015375018119812012,
      -0.002785496413707733,
      0.021726496517658234,
      0.007702521979808807,
      8.45789909362793e-05,
      -0.0009257420897483826,
      -0.017474282532930374,
      0.0006006285548210144,
      0.0260823592543602,
      -0.0010479521006345749,
      -0.005523147992789745,
      0.01181080937385559,
      -0.029667522758245468,
      -0.0006418600678443909,
      -0.00037707388401031494,
      -0.0009422823786735535,
      -0.0006849169731140137,
      -0.00044731050729751587,
      -0.0005079489201307297,
      0.02089647948741913,
      0.0004839859902858734,
      0.012023195624351501,
      0.01655593514442444,
      0.016614049673080444,
      -0.004439525306224823,
      -0.0023070131428539753,
      0.01497158408164978,
      5.289912223815918e-06,
      -0.026055164635181427,
      -1.1406838893890381e-05,
      3.57702374458313e-05,
      1.7937272787094116e-05,
      9.052455425262451e-06,
      0.012369096279144287,
      -0.028267734684050083,
      2.5140121579170227e-05,
      0.0005079284310340881,
      5.250982940196991e-05,
      6.966292858123779e-05
    ],
    [
      -0.029339492321014404,
      0.0011355485767126083,
      0.029933249577879906,
      0.029718848876655102,
      0.0012567546218633652,
      -0.026235317811369896,
      -0.008400063961744308,
      0.028800703585147858,
      0.01183293480426073,
      0.0007598735392093658,
      -0.003324759192764759,
      0.006390522932633758,
      0.004298866726458073,
      -0.022970961406826973,
      0.03001742996275425,
      0.028844605199992657,
      0.0023277681320905685,
      0.0011805426329374313,
      0.0004993584007024765,
      -7.290393114089966e-06,
      -0.025471135042607784,
      0.029909713193774223,
      -0.022463983856141567,
      -0.00018396787345409393,
      -0.02301175147294998,
      -0.010280989576131105,
      0.029155582189559937,
      -0.028191380202770233,
      -0.005431097932159901,
      -0.02851931657642126,
      0.02854502759873867,
      -6.290152668952942e-05
    ],
    [
      0.029346130788326263,
      -0.0014959489926695824,
      0.02948727458715439,
      -0.029497193172574043,
      -0.028498977422714233,
      -0.029247187077999115,
      0.0007482618093490601,
      0.000254213809967041,
      -0.0005325805395841599,
      -0.00016213208436965942,
      0.001455976627767086,
      -0.028809748589992523,
      0.0007789591327309608,
      0.004393918439745903,
      0.00018157996237277985,
      -9.331852197647095e-06,
      -0.00025997869670391083,
      0.002262849360704422,
      0.028113048523664474,
      -0.00021218229085206985,
      -0.019382026977837086,
      -0.029775597155094147,
      0.0001667160540819168,
      0.029512770473957062,
      0.0007845163345336914,
      -0.001557905226945877,
      9.313225746154785e-07,
      0.0033388156443834305,
      0.005915723741054535,
      0.001031637191772461,
      -0.029627330601215363,
      0.02979515679180622,
      0.029622294008731842,
      -0.0012399423867464066,
      0.029892265796661377,
      -0.029793068766593933,
      -0.02988329529762268,
      -0.029202202335000038,
      0.00030620861798524857,
      0.00019294396042823792,
      -0.0001405663788318634,
      0.0002989433705806732,
      0.017841920256614685,
      -0.029854143038392067,
      1.4077872037887573e-05,
      0.001138102263212204,
      0.0009566843509674072,
      -0.027564413845539093,
      -7.0231035351753235e-06,
      0.029867740347981453,
      0.02979089319705963,
      6.52465969324112e-05,
      3.16426157951355e-05,
      -0.02989134844392538,
      0.0002231411635875702,
      0.029865510761737823,
      -2.484302967786789e-05,
      -0.028668470680713654,
      -5.733128637075424e-05,
      0.0016317684203386307,
      0.012800861150026321,
      -0.0002939607948064804,
      -0.029840514063835144,
      0.03003425896167755,
      0.0009223110973834991,
      -0.02433236688375473,
      0.010846882127225399,
      0.00100737065076828,
      0.0016087666153907776,
      0.0012827739119529724,
      -0.025697924196720123,
      -0.024669930338859558,
      -0.027266427874565125,
      -0.013706818222999573,
      -0.015782421454787254,
      -0.020370081067085266,
      -0.02738066017627716,
      -0.02199210412800312,
      -0.021911315619945526,
      -0.021519087255001068,
      0.029803477227687836,
      -0.016407031565904617,
      0.008370541036128998,
      -0.02696136385202408,
      0.005906254053115845,
      0.0012018103152513504,
      -0.028149820864200592,
      0.00799497589468956,
      -0.025617096573114395,
      -0.021337319165468216,
      0.029570214450359344,
      -0.027910588309168816,
      -0.014609599485993385,
      -0.025665920227766037,
      0.0006751641631126404,
      0.002064161002635956,
      -0.029029536992311478,
      0.0007467940449714661,
      0.00017991475760936737,
      5.09507954120636e-05,
      0.0013103783130645752,
      0.02982485294342041,
      0.026921315118670464,
      -0.00034449249505996704,
      0.006857587024569511,
      -0.028493009507656097,
      0.006889035925269127,
      -3.1068921089172363e-06,
      -0.005935113877058029,
      0.0010383203625679016,
      -0.0007280260324478149,
      0.029743291437625885,
      0.00010951608419418335,
      -0.028387058526277542,
      0.001261293888092041,
      0.0006753131747245789,
      0.0022344738245010376,
      0.029888391494750977,
      -0.00010866671800613403,
      0.00033266469836235046,
      -0.0003998763859272003,
      0.02852016966789961,
      0.0010234639048576355,
      0.024726901203393936,
      -0.0002629384398460388,
      0.029336560517549515,
      0.029732726514339447,
      -0.0001407340168952942,
      0.028773386031389236,
      -0.0294466782361269,
      0.017363248392939568,
      -0.02959609404206276,
      -0.029788721352815628,
      -0.02684817835688591,
      1.031532883644104e-05,
      0.00022630766034126282,
      -0.0005913581699132919,
      -0.0005639810115098953,
      -0.023733705282211304,
      -0.029662318527698517,
      -0.00019811280071735382,
      -0.0008577853441238403,
      -0.0016908012330532074,
      -0.027610216289758682,
      -0.00016620755195617676,
      0.028337713330984116,
      -0.007110759615898132,
      0.00043816864490509033,
      -0.026140175759792328,
      -0.029466427862644196,
      -0.00015776604413986206,
      0.028344012796878815,
      -0.0018454119563102722,
      -0.02774869278073311,
      9.95732843875885e-05,
      -0.01533491164445877,
      0.0025945957750082016,
      -0.02675376459956169,
      -0.02970670908689499,
      0.028816968202590942,
      0.00033016130328178406,
      -0.021881701424717903,
      0.0002362169325351715,
      0.004459347575902939,
      0.0018770694732666016,
      0.0018086358904838562,
      -0.012887388467788696,
      -0.012632936239242554,
      -0.02555566281080246,
      -0.0006126826629042625,
      -0.011408314108848572,
      0.017296139150857925,
      -0.01445123553276062,
      0.00013196095824241638,
      -0.012186452746391296,
      0.0009135082364082336,
      0.030001778155565262,
      -0.0015168488025665283,
      0.0013665910810232162,
      -0.02821776084601879,
      0.013669801875948906,
      0.004046907648444176,
      -0.029074471443891525,
      2.7220696210861206e-05,
      -0.02668953686952591,
      -0.024397898465394974,
      0.029918531887233257,
      0.006144911050796509,
      -0.012410290539264679,
      -0.028710750862956047,
      4.184246063232422e-05,
      8.57226550579071e-05,
      -0.029997877776622772,
      0.02954763174057007,
      0.028361580334603786,
      0.029832981526851654,
      0.029159747064113617,
      0.030041635036468506,
      0.027333594858646393,
      0.028446104377508163,
      0.028909295797348022,
      9.727012366056442e-05,
      0.029516316950321198,
      0.029880493879318237,
      -7.72625207901001e-06,
      0.029952585697174072,
      0.02976418286561966,
      0.029804237186908722,
      0.02585404273122549,
      0.0004466623067855835,
      0.029740147292613983,
      -1.0065734386444092e-05,
      0.029791854321956635,
      0.030023127794265747,
      -3.03611159324646e-06,
      0.029256992042064667,
      0.028553472831845284,
      0.02949647605419159,
      0.00019830837845802307,
      0.017027605324983597,
      0.0008049681782722473,
      0.028914328664541245,
      0.02992519736289978,
      0.029934274032711983,
      -0.00012953579425811768,
      0.004768240265548229,
      -0.02842553611844778,
      0.0008336938917636871,
      -9.85562801361084e-05,
      0.00013630837202072144,
      0.029604986310005188,
      0.017044715583324432,
      0.028826221823692322,
      0.02921244502067566,
      0.005133591592311859,
      0.028496813029050827,
      0.007833074778318405,
      0.0003651082515716553,
      0.0021373704075813293,
      0.029564269818365574,
      -0.029060684144496918,
      0.029685288667678833,
      0.013311486691236496,
      0.029933959245681763,
      0.0004101991653442383,
      0.0037397369742393494,
      0.029284141957759857,
      -0.02508387342095375,
      0.02848811075091362,
      0.02782827615737915,
      -0.029353586956858635,
      0.004409424960613251,
      0.010326303541660309,
      0.002511177211999893,
      0.0005042478442192078,
      2.7488917112350464e-05,
      0.0002762963995337486,
      0.0004585394635796547,
      -0.00011025369167327881,
      -0.0002707168459892273,
      -0.000170145183801651,
      -4.772841930389404e-05,
      0.029062390327453613,
      0.029420502483844757,
      0.02926945686340332,
      0.025438517332077026,
      0.02909250371158123,
      -0.01829860545694828,
      0.029782548546791077,
      -0.0004608910530805588,
      0.026218662038445473,
      0.028446516022086143,
      -0.03003630042076111,
      0.00025488249957561493,
      -0.0006879055872559547,
      0.029329486191272736,
      -0.018831799738109112,
      -6.541609764099121e-06,
      0.029894143342971802,
      -0.00021279789507389069,
      0.02961212769150734,
      0.019753925502300262,
      -0.030016102828085423,
      0.02809731662273407,
      0.02868117019534111,
      0.029853306710720062,
      8.675828576087952e-05,
      0.00011214055120944977,
      0.00031987205147743225,
      0.029444048181176186,
      -9.284541010856628e-05,
      -0.009950574487447739,
      -3.620237112045288e-05,
      0.013016875833272934,
      0.0009638071060180664,
      0.02923225238919258,
      0.029439312405884266,
      0.0023942403495311737,
      -6.5267086029052734e-06,
      0.02950311452150345,
      0.029315492138266563,
      -0.00018348731100559235,
      0.0006042299792170525,
      0.02960134670138359,
      -0.028586862608790398,
      0.00034797191619873047,
      0.0003148932009935379,
      0.029588207602500916,
      -0.02907440811395645,
      0.0008238032460212708,
      0.029405834153294563,
      0.00031581148505210876,
      0.029097415506839752,
      -0.0001259930431842804,
      -0.029379844665527344,
      0.02745213359594345,
      0.0005979016423225403,
      0.02978555392473936,
      0.015080280601978302,
      0.00031925737857818604,
      5.636364221572876e-05,
      0.0025835298001766205,
      -0.0270775705575943,
      0.0004409169778227806,
      -4.0762126445770264e-05,
      0.0027605583891272545,
      0.02971619740128517,
      0.029075987637043,
      0.02992294542491436,
      0.029765501618385315,
      0.014620386064052582,
      0.029487043619155884,
      0.029854372143745422,
      0.0005270428955554962,
      0.02960367128252983,
      0.028971971943974495,
      -0.029787536710500717,
      -2.3670494556427002e-05,
      -0.028358398005366325,
      0.02982237935066223,
      0.0006648581475019455,
      0.0002965480089187622,
      0.029851488769054413,
      -0.02492530643939972,
      0.0017089489847421646,
      0.029127806425094604,
      -0.029645048081874847,
      0.028444301337003708,
      0.026765286922454834,
      0.014621497539337724,
      0.0007881186902523041,
      -0.0006726570427417755,
      0.0007095038890838623,
      -0.026305824518203735,
      0.0010765418410301208,
      0.00021573156118392944,
      0.0013941051438450813,
      -0.011404603719711304,
      -0.025295525789260864,
      -0.025197677314281464,
      -0.02884887158870697,
      -0.026053063571453094,
      -0.013978103175759315,
      -0.019909944385290146,
      -0.029178179800510406,
      -0.022433282807469368,
      -0.025512687861919403,
      -0.0292002335190773,
      0.030044520273804665,
      0.000353371724486351,
      0.0030716480687260628,
      -0.028893422335386276,
      0.017252936959266663,
      0.0004226686432957649,
      -0.02890126407146454,
      0.0010017454624176025,
      -0.02627614326775074,
      -0.02478647604584694,
      0.008410563692450523,
      -0.027114607393741608,
      -0.013101775199174881,
      -0.02805410325527191,
      -0.028830647468566895,
      0.00030358415096998215,
      0.025078739039599895,
      0.029790647327899933,
      0.011641714721918106,
      0.021216413006186485,
      0.0001659877598285675,
      0.02935857977718115,
      0.02028978057205677,
      0.022847980260849,
      0.029758218675851822,
      0.015812594909220934,
      0.02934851683676243,
      0.029687747359275818,
      0.02858113870024681,
      0.025816375389695168,
      0.0289943628013134,
      0.03002385050058365,
      -0.0076884739100933075,
      0.029780983924865723,
      0.029805287718772888,
      0.029926352202892303,
      0.02762480266392231,
      -0.0001626536250114441,
      0.02980615943670273,
      0.024605009704828262,
      0.029899507761001587,
      0.029400527477264404,
      0.0281573086977005,
      0.029736727476119995,
      0.02260613441467285,
      0.028278544545173645,
      0.02850347012281418,
      0.02829795330762863,
      -0.025403164327144623,
      -0.017349302768707275,
      0.02856425568461418,
      0.0010052472352981567,
      0.001264907419681549,
      0.0017826110124588013,
      -0.017503563314676285,
      -0.022183426655828953,
      -0.02064720168709755,
      0.0019806474447250366,
      -0.015433674678206444,
      0.02581978589296341,
      -0.02401788905262947,
      -0.011080361902713776,
      0.00045987218618392944,
      -0.012783996760845184,
      0.009794105775654316,
      -0.02502623852342367,
      -0.01223713904619217,
      -0.01841025799512863,
      0.0020591355860233307,
      0.0034588463604450226,
      -0.024163834750652313,
      0.009129993617534637,
      -0.022471291944384575,
      -0.012313349172472954,
      0.0034368112683296204,
      -0.012021868489682674,
      0.0031641311943531036,
      -0.01331416331231594,
      0.0014996379613876343,
      0.012632198631763458,
      0.00043126940727233887,
      -0.011277787387371063,
      0.00391247496008873,
      0.0004316810518503189,
      0.002461381256580353,
      0.0010786335915327072,
      -0.02864406257867813,
      -0.01809382438659668,
      -0.02852582186460495,
      0.000768125057220459,
      0.0016138777136802673,
      -0.020536530762910843,
      -0.02891460806131363,
      -0.02488601580262184,
      -0.023898698389530182,
      0.0004362426698207855,
      0.029965929687023163,
      0.0004232265055179596,
      0.0068845972418785095,
      -0.02811295911669731,
      0.011596066877245903,
      0.0007825382053852081,
      -0.028930187225341797,
      0.002007298171520233,
      -0.025530848652124405,
      -0.008334092795848846,
      0.029952368699014187,
      0.0013246014714241028,
      0.0006378181278705597,
      -0.02609146758913994,
      0.0004572570323944092,
      0.0004575606435537338,
      0.028923265635967255,
      0.006569260731339455,
      0.030028266832232475,
      0.001218460500240326,
      0.004121556878089905,
      -0.0005669966340065002,
      0.029814494773745537,
      0.028824754059314728,
      0.0006416700780391693,
      0.004003771580755711,
      0.028861191123723984,
      0.0017801299691200256,
      0.003330327570438385,
      0.005977742373943329,
      0.002713669091463089,
      0.0010378584265708923,
      0.02967488206923008,
      0.0009750118479132652,
      0.0014323927462100983,
      0.001210598275065422,
      0.0038111358880996704,
      0.0007835626602172852,
      0.0013494566082954407,
      0.030036166310310364,
      0.007180941291153431,
      0.0012279823422431946,
      0.028565511107444763,
      0.003353589214384556,
      0.012841894291341305,
      0.0011920006945729256,
      0.0007166434079408646,
      0.029867716133594513,
      0.028623417019844055,
      0.029884912073612213,
      0.0019121021032333374,
      2.4728477001190186e-05,
      -0.00013061054050922394,
      0.0010254085063934326,
      0.02988850511610508,
      0.029855959117412567,
      0.029553732834756374,
      0.02966848760843277,
      0.02872307598590851,
      0.00031994283199310303,
      0.030029162764549255,
      0.029491430148482323,
      0.029833339154720306,
      0.029206834733486176,
      -0.02915302664041519,
      0.029722444713115692,
      0.029664762318134308,
      0.02986452728509903,
      0.0001477450132369995,
      9.491667151451111e-05,
      0.029815010726451874,
      0.013920798897743225,
      0.029522127471864223,
      0.026950441300868988,
      -0.017917796969413757,
      0.029570691287517548,
      0.02782578393816948,
      0.011293863877654076,
      0.0256621316075325,
      0.013231860473752022,
      0.0014999937266111374,
      -0.003957539796829224,
      0.0004633404314517975,
      -0.02662772312760353,
      -0.02961999550461769,
      -0.029734015464782715,
      0.007075734436511993,
      0.00045485422015190125,
      0.02703745663166046,
      0.0029141269624233246,
      0.00019176490604877472,
      -0.029832560569047928,
      0.028612758964300156,
      0.000157281756401062,
      0.0002891756594181061,
      0.027822427451610565,
      -0.029414103366434574,
      0.0004904493689537048,
      0.001249494031071663,
      0.0005302242934703827,
      -0.02931395173072815,
      -0.008902929723262787,
      0.0007203593850135803,
      0.00012758374214172363,
      0.00021391361951828003,
      -0.001878209412097931,
      -0.007385425269603729,
      0.0029949024319648743,
      0.0031328238546848297,
      7.241964340209961e-05,
      0.01700490340590477,
      0.0006112083792686462,
      0.00037505757063627243,
      0.029953492805361748,
      0.011463023722171783,
      0.029996715486049652,
      0.029724009335041046,
      0.0299910269677639,
      0.02918330207467079,
      0.02825861983001232,
      0.030015159398317337,
      0.02984115667641163,
      0.02943580225110054,
      0.029957016929984093,
      0.02753591351211071,
      0.028616439551115036,
      0.029719173908233643,
      0.029691778123378754,
      -4.583969712257385e-06,
      0.019457528367638588,
      0.02900754101574421,
      0.028909355401992798,
      0.029842443764209747,
      0.030031008645892143,
      0.021745633333921432,
      -0.0010965317487716675,
      0.02962859347462654,
      0.029849546030163765,
      0.00020075775682926178,
      0.029453203082084656,
      0.028104837983846664,
      0.029896751046180725,
      0.02992238849401474,
      0.027633879333734512,
      -0.029150672256946564,
      -0.028186921030282974,
      -0.019460849463939667,
      0.00019565224647521973,
      0.0016297437250614166,
      -0.00011505186557769775,
      -0.02829299494624138,
      -0.02793699409812689,
      -0.028607316315174103,
      -0.029286548495292664,
      -0.029412072151899338,
      -0.022243395447731018,
      -0.029177531599998474,
      -0.027494046837091446,
      -0.027125034481287003,
      -0.028949975036084652,
      0.0004468187689781189,
      -0.028790182434022427,
      -0.022667407989501953,
      -0.028044957667589188,
      0.0005735456943511963,
      0.0015111044049263,
      -0.008338738232851028,
      -0.026317715644836426,
      -0.02819712460041046,
      -0.027360890991985798,
      0.00022831931710243225,
      -0.029582230374217033,
      -0.0291822524741292,
      0.0014821086078882217,
      0.02536282315850258,
      -0.028230156749486923,
      -0.02848825789988041,
      0.02985301800072193,
      -0.001821780577301979,
      0.02996046096086502,
      0.02995859459042549,
      0.029779594391584396,
      0.016232414171099663,
      0.0008154138922691345,
      0.013598699122667313,
      0.0038705356419086456,
      -0.0005324669182300568,
      0.029994189739227295,
      0.0018085604533553123,
      -0.0003127455711364746,
      0.002781212329864502,
      0.029638994485139847,
      5.007535219192505e-05,
      -7.477402687072754e-05,
      0.029813136905431747,
      0.002036638557910919,
      0.029910478740930557,
      0.030008897185325623,
      0.00037786364555358887,
      -0.00036322418600320816,
      0.029701330699026585,
      0.029400192201137543,
      -4.9797818064689636e-05,
      0.007156597450375557,
      -0.002143651247024536,
      0.02529619261622429,
      0.02999037504196167,
      -0.029356397688388824,
      -0.02897203527390957,
      0.030041001737117767,
      9.21487808227539e-05,
      0.02998281642794609,
      0.02990925870835781,
      0.02964206226170063,
      -0.029058106243610382,
      -0.022278152406215668,
      0.0024077892303466797,
      -0.021516084671020508,
      0.020606614649295807,
      0.02985232323408127,
      0.013556962832808495,
      0.00020858272910118103,
      0.005161453038454056,
      0.02784518338739872,
      0.00029871612787246704,
      -0.026480279862880707,
      0.0016114655882120132,
      0.0007876530289649963,
      0.028563447296619415,
      0.030024930834770203,
      -0.0001966729760169983,
      -0.015887171030044556,
      0.002675402909517288,
      0.029401764273643494,
      0.00045448169112205505,
      0.019281916320323944,
      -0.02877967059612274,
      0.029186086729168892,
      0.02875305712223053,
      -0.026857778429985046,
      -0.029164857231080532,
      -0.0002997741103172302,
      -0.029131218791007996,
      0.0006876513361930847,
      0.011995140463113785,
      0.002189960330724716,
      0.0006626546382904053,
      0.0010606441646814346,
      0.0005077319219708443,
      1.7389655113220215e-05,
      -0.008384034037590027,
      0.002381846308708191,
      -0.00014742091298103333,
      0.0006814822554588318,
      -0.029312536120414734,
      0.00012186449021100998,
      0.00027614086866378784,
      -0.029394514858722687,
      -0.0273221954703331,
      0.000987054780125618,
      0.0002964381128549576,
      0.029981184750795364,
      -7.144361734390259e-05,
      -0.0291071068495512,
      -0.02758357860147953,
      -0.02342597395181656,
      -0.02851974219083786,
      -0.01454199105501175,
      -0.028325960971415043,
      -0.0002109035849571228,
      0.0023938342928886414,
      -0.029619509354233742,
      0.02976565808057785,
      -0.0013165920972824097,
      0.02994810789823532,
      -0.027850471436977386,
      -0.029700592160224915,
      -0.02898663654923439,
      0.002008747309446335,
      0.0013977661728858948,
      0.0007090698927640915,
      0.0021205581724643707,
      0.0015840083360671997,
      1.9140541553497314e-05,
      0.0014683892950415611,
      0.0028800219297409058,
      0.026771636679768562,
      -0.00031996890902519226,
      -0.0015666298568248749,
      0.00047824904322624207,
      0.02908402495086193,
      0.0006682202219963074,
      -0.028951086103916168,
      -0.02864045649766922,
      0.0010385476052761078,
      0.004353916272521019,
      0.000309700146317482,
      0.0001688450574874878,
      -0.02816150337457657,
      0.0012666946277022362,
      0.02947966754436493,
      0.0003918781876564026,
      -0.028708282858133316,
      0.02997121587395668,
      6.596557796001434e-05,
      -0.02751251682639122,
      0.00017273984849452972,
      0.0009999237954616547,
      0.00036545656621456146,
      -0.00018534809350967407,
      -0.029409706592559814,
      -0.029224727302789688,
      -0.029084332287311554,
      -0.02775963768362999,
      -0.026471607387065887,
      -0.0015112683176994324,
      -0.029404036700725555,
      -0.027179673314094543,
      -0.02899504452943802,
      -0.02908691018819809,
      0.02991032600402832,
      -0.02947334200143814,
      -0.02597925439476967,
      -0.029104769229888916,
      0.0004120543599128723,
      0.0006489604711532593,
      -0.028942488133907318,
      -0.0002826787531375885,
      -0.02826862409710884,
      -0.027664490044116974,
      0.01066090352833271,
      -0.029039103537797928,
      -0.025223607197403908,
      -0.0294627845287323,
      0.00019561126828193665,
      0.00021424144506454468,
      -0.026263423264026642,
      0.003448057919740677,
      -0.026205587200820446,
      0.023445814847946167,
      0.02586454153060913,
      0.003574095666408539,
      0.0025156736373901367,
      0.002697668969631195,
      0.0034047840163111687,
      0.0034870728850364685,
      0.003284703940153122,
      0.003075428307056427,
      0.003558918833732605,
      0.0006176382303237915,
      0.003175996243953705,
      0.008714400231838226,
      -0.004016240127384663,
      -0.025052092969417572,
      -0.024411339312791824,
      0.0035326071083545685,
      0.025934133678674698,
      0.025043077766895294,
      0.003428603522479534,
      -0.02653515338897705,
      0.003478607162833214,
      0.0033750198781490326,
      -0.004497334361076355,
      0.003486962988972664,
      -0.0006432905793190002,
      0.003588840365409851,
      0.009465843439102173,
      -0.02623720094561577,
      0.0007019788026809692,
      -7.654726505279541e-05,
      0.0019656186923384666,
      0.030012935400009155,
      0.029970623552799225,
      0.0009186230599880219,
      -0.026879936456680298,
      -0.028739340603351593,
      -0.02902616187930107,
      0.0009160842746496201,
      -9.195506572723389e-05,
      0.011264188215136528,
      7.570534944534302e-05,
      -0.019313368946313858,
      0.0029892027378082275,
      -0.0098087377846241,
      0.030033288523554802,
      0.0004600435495376587,
      0.0035184621810913086,
      -0.02882297709584236,
      0.029774019494652748,
      9.75094735622406e-05,
      -0.029175270348787308,
      0.0018753735348582268,
      -0.019736014306545258,
      0.004115402698516846,
      0.02976076304912567,
      -0.011603478342294693,
      0.0002714088186621666,
      0.0010042376816272736,
      -0.0002322625368833542,
      0.0007634162902832031,
      -5.227699875831604e-05,
      0.025175802409648895,
      0.005744680762290955,
      0.00045058131217956543,
      -4.931911826133728e-05,
      0.0006277039647102356,
      0.029306435957551003,
      0.02989019826054573,
      0.029862990602850914,
      0.02937714196741581,
      0.02966503147035837,
      0.02478179521858692,
      0.029686495661735535,
      -5.249679088592529e-05,
      0.0001913122832775116,
      0.03003872185945511,
      -0.028395507484674454,
      0.017305903136730194,
      -0.00041293539106845856,
      0.029821695759892464,
      0.00016990303993225098,
      0.0007053688168525696,
      0.029773016460239887,
      -0.029102666303515434,
      0.017060481011867523,
      0.02903495356440544,
      -0.028465602546930313,
      0.0035452991724014282,
      0.02952376753091812,
      0.02992416452616453,
      0.00047321803867816925,
      0.004457731731235981,
      0.0009812191128730774,
      -0.027185216546058655,
      0.0027732402086257935,
      0.0008341409265995026,
      0.0009603872895240784,
      0.0010762140154838562,
      -0.027798809111118317,
      -0.027523890137672424,
      -0.02747582644224167,
      -0.028437688946723938,
      -0.023276813328266144,
      -0.0008809864521026611,
      -0.029055528342723846,
      -0.024808992631733418,
      -0.02642468735575676,
      -0.027607928961515427,
      0.02988133206963539,
      0.00044445134699344635,
      0.00759337842464447,
      -0.027391936630010605,
      0.004981659352779388,
      0.0008024461567401886,
      -0.028162941336631775,
      0.0006182678043842316,
      -0.027029305696487427,
      -0.022669624537229538,
      0.028430426493287086,
      -0.028236024081707,
      -0.026663482189178467,
      -0.028178580105304718,
      0.0004845764487981796,
      0.0008462369441986084,
      -0.02959287539124489,
      0.00010129809379577637,
      -0.029301408678293228,
      0.029704440385103226,
      0.029335953295230865,
      0.01760672125965357,
      0.00018183887004852295,
      0.00014758482575416565,
      0.0007291659712791443,
      0.0003917515277862549,
      0.00029046647250652313,
      0.006964113563299179,
      -0.0001617148518562317,
      0.000304635614156723,
      -0.0010941624641418457,
      0.0014321208000183105,
      4.861503839492798e-05,
      -0.0015285834670066833,
      0.0010271817445755005,
      5.847029387950897e-05,
      0.028643222525715828,
      0.029883548617362976,
      0.00034502893686294556,
      -0.02802865579724312,
      3.996305167675018e-05,
      0.0024541765451431274,
      -5.751848220825195e-05,
      0.00042691081762313843,
      -0.0015896186232566833,
      0.0001320093870162964,
      0.02900674194097519,
      -0.0278887078166008,
      -0.0291320588439703,
      0.0005102306604385376,
      -0.027414703741669655,
      0.029800698161125183,
      0.029890887439250946,
      0.0005187857896089554,
      0.0007158499211072922,
      0.002110261470079422,
      0.0007065357640385628,
      0.0007566679269075394,
      0.011230707168579102,
      0.0002834443002939224,
      0.00023628398776054382,
      0.003910304978489876,
      0.0018883049488067627,
      0.00021526217460632324,
      -0.0002742800861597061,
      -0.028758831322193146,
      -0.028259016573429108,
      0.0005027651786804199,
      0.002531442791223526,
      0.028070349246263504,
      0.0005102381110191345,
      -0.0263937097042799,
      0.0019477540627121925,
      -0.00023020245134830475,
      -0.027095619589090347,
      0.02860918641090393,
      -0.009793221950531006,
      0.00020882859826087952,
      0.002407863736152649,
      -0.029623471200466156,
      0.0004902184009552002,
      -0.00022377260029315948,
      0.02983509749174118,
      0.00020002108067274094,
      0.00012068822979927063,
      0.0004948601126670837,
      -0.0006640283390879631,
      -0.0004897266626358032,
      -0.01995980367064476,
      -0.018232550472021103,
      0.011360298842191696,
      9.337812662124634e-05,
      -0.00037608295679092407,
      0.008021986111998558,
      0.016155729070305824,
      0.00015554390847682953,
      0.030012845993041992,
      0.0026986319571733475,
      0.029864737764000893,
      -0.02504620887339115,
      0.029927805066108704,
      0.00013552606105804443,
      -0.02889716997742653,
      0.02984359860420227,
      6.38272613286972e-05,
      0.0030273105949163437,
      0.029871609061956406,
      0.0016297008842229843,
      6.988644599914551e-05,
      0.00047879666090011597,
      9.570270776748657e-05,
      0.029999837279319763
    ],
    [
      -0.00021764636039733887,
      0.0011017154902219772,
      -0.02068081498146057,
      0.0001954995095729828,
      -0.029224051162600517,
      0.002183993346989155,
      0.030003633350133896,
      0.014792721020057797,
      0.024256275966763496,
      0.0003085210919380188,
      0.028105598874390125,
      -0.024498560465872288,
      0.02972334437072277,
      -0.009869557805359364,
      -0.007555233081802726,
      0.0035552214831113815,
      0.029769434593617916,
      0.0005859527736902237,
      0.0299589978531003,
      -0.026427154429256916,
      0.02972598560154438,
      0.029654557816684246,
      -0.0002494305372238159,
      0.0019551776349544525,
      -0.027883999049663544,
      0.00329782348126173,
      0.0055114710703492165,
      0.0031511085107922554,
      -0.025224615819752216,
      0.0009947093203663826,
      0.0006250562146306038,
      0.0035584568977355957
    ],
    [
      -0.00572381354868412,
      -0.002219080924987793,
      -0.008232437074184418,
      0.029539234936237335,
      -0.0003796210512518883,
      0.001209348440170288,
      0.00017677992582321167,
      -0.004157327115535736,
      -0.004023559391498566,
      -0.00012390315532684326,
      -0.028890147805213928,
      -0.022014155983924866,
      -0.029965996742248535,
      0.002720288932323456,
      -0.0069277361035346985,
      -0.023836210370063782,
      -0.030032023787498474,
      -0.001435834914445877,
      4.814565181732178e-05,
      0.00622144341468811,
      -8.051842451095581e-05,
      -0.012892365455627441,
      -0.0031462833285331726,
      -0.027818061411380768,
      -0.02564825862646103,
      -0.02918861247599125,
      0.0069669559597969055,
      -0.011619646102190018,
      -0.023135147988796234,
      -0.028415673412382603,
      -0.028792977333068848,
      0.013925716280937195
    ],
    [
      -0.028267079032957554
    ]
  ],
  "num_updates": 2,
  "client_ids": [
    "client-2",
    "client-1"
  ],
  "mean_final_loss": 7.419252395629883,
  "aggregation_timestamp": 1784208560.4409552
}