{
  "version": "v101",
  "base_version": "v100",
  "round_id": 280,
  "aggregation": "fedavg",
  "averaged_weight_delta": [
    [
      0.0008577965199947357,
      0.028455104678869247,
      -0.0019735805690288544,
      0.028698666021227837,
      0.02211661823093891,
      -0.0002899523824453354,
      0.02933671325445175,
      0.02282639406621456,
      0.02929459512233734,
      0.0282498337328434,
      -0.012460470199584961,
      -0.01117100939154625,
      -0.00969870388507843,
      -0.011872665956616402,
      -0.013539936393499374,
      -0.0032096952199935913,
      -0.02889283001422882,
      -0.00465636420994997,
      -0.006334185600280762,
      -0.017131268978118896,
      0.02899838238954544,
      0.02287224680185318,
      0.010045789182186127,
      0.02792185265570879,
      0.025272628292441368,
      0.01798069290816784,
      0.000688113272190094,
      0.004328269511461258,
      0.024584278464317322,
      0.01671345718204975,
      0.00040947459638118744,
      -0.0016414374113082886,
      0.018846429884433746,
      -0.004538699984550476,
      0.012905159965157509,
      0.011291630566120148,
      0.015619006007909775,
      -0.0008346214890480042,
      -0.0012085884809494019,
      0.014930732548236847,
      -0.00278434157371521,
      -0.0004948712885379791,
      0.0248078815639019,
      -0.0003126487135887146,
      0.0006481539458036423,
      0.01107892394065857,
      -0.0011858455836772919,
      0.018498968333005905,
      0.01285376027226448,
      0.015823639929294586,
      -0.016211058013141155,
      -0.0003605801612138748,
      -6.188079714775085e-05,
      -0.00014866888523101807,
      2.7582049369812012e-05,
      -0.0004804655909538269,
      -0.0006592273712158203,
      -0.0008332356810569763,
      -0.0007683485746383667,
      0.0002471804618835449,
      -0.00028277933597564697,
      0.012154459953308105,
      0.0011222874745726585,
      -0.02770736813545227,
      -0.00011161155998706818,
      0.014517873525619507,
      -0.00013026967644691467,
      -0.00021572411060333252,
      0.02542838454246521,
      0.0122318877838552,
      -0.0017760954797267914,
      -0.0019233599305152893,
      -0.0033277682960033417,
      -0.0008148252964019775,
      -0.0014684423804283142,
      -0.004607111215591431,
      -0.0011391807347536087,
      -0.0028551295399665833,
      -0.006438806653022766,
      -0.0009287837892770767,
      0.012232035398483276,
      0.021679449826478958,
      0.029430169612169266,
      0.02852276712656021,
      0.029832996428012848,
      0.02931944839656353,
      0.028413422405719757,
      0.026201440021395683,
      0.028601642698049545,
      0.029883868992328644,
      0.023195646703243256,
      0.00043480098247528076,
      0.025641195476055145,
      0.028267771005630493,
      5.041435360908508e-05,
      0.02745523490011692,
      0.001579437404870987,
      0.00027520209550857544,
      0.00042635202407836914,
      0.0003900974988937378,
      -0.029040977358818054,
      0.019851647317409515,
      0.023305177688598633,
      0.012750638648867607,
      0.022167377173900604,
      0.021682754158973694,
      0.0075254887342453,
      0.02041003853082657,
      0.01577320694923401,
      0.0012846291065216064,
      0.029833097010850906,
      0.013600317761301994,
      0.02879103645682335,
      0.02904367633163929,
      0.029808111488819122,
      0.003710918128490448,
      0.029746396467089653,
      0.030010034330189228,
      0.02953523676842451,
      0.02986091375350952,
      0.028423959389328957,
      0.027707943692803383,
      0.008495412766933441,
      0.028539106249809265,
      0.027720388025045395,
      0.027862519025802612,
      0.00944662094116211,
      0.024154245853424072,
      0.028804540634155273,
      0.027297239750623703,
      -0.001187250018119812,
      -0.0019646696746349335,
      0.022505934350192547,
      0.015210848301649094,
      0.015236247330904007,
      0.015637874603271484,
      0.026200376451015472,
      0.009496677666902542,
      0.016005247831344604,
      0.01792590692639351,
      -0.027435123920440674,
      -0.0013341493904590607,
      0.025760913267731667,
      -0.0008021779358386993,
      4.521384835243225e-05,
      -0.0005538724362850189,
      0.02288506180047989,
      -0.0008248984813690186,
      0.0001801513135433197,
      -0.00024193525314331055,
      -0.0007889661937952042,
      -0.028745286166667938,
      -0.027819130569696426,
      -0.024061046540737152,
      -0.02816600911319256,
      0.0007536476477980614,
      -0.02872137725353241,
      -0.028473004698753357,
      -0.026314809918403625,
      -0.026849854737520218,
      -0.025142138823866844,
      -0.0005423575639724731,
      -0.0011847317218780518,
      -0.00018714368343353271,
      -0.0012534335255622864,
      -0.00021076202392578125,
      -4.567205905914307e-06,
      3.5762786865234375e-05,
      -0.00033055245876312256,
      -0.0007874667644500732,
      -0.027054352685809135,
      0.012743521481752396,
      0.0009316354990005493,
      0.01605907455086708,
      -0.001249067485332489,
      1.6028061509132385e-05,
      -0.00019061565399169922,
      0.021676957607269287,
      0.012873511761426926,
      1.2036412954330444e-05,
      -0.028553657233715057,
      -0.02996046096086502,
      -0.029808498919010162,
      -0.0018808692693710327,
      -0.02996203303337097,
      -0.029708297923207283,
      -0.028966352343559265,
      -0.02962607890367508,
      -0.029547523707151413,
      -0.016621332615613937,
      -0.011407405138015747,
      -0.002461947500705719,
      -0.02933502197265625,
      -0.029947632923722267,
      -0.028828740119934082,
      -0.024009034037590027,
      -0.015236429870128632,
      -0.022472310811281204,
      0.0001004338264465332,
      -0.02842973917722702,
      -0.00016665831208229065,
      -0.0002484237775206566,
      -0.0005907211452722549,
      -9.902380406856537e-05,
      -0.00015828758478164673,
      -0.0013359487056732178,
      0.0008126869797706604,
      0.00018166005611419678,
      -0.00048249028623104095,
      -0.00011343136429786682,
      0.02965662069618702,
      0.029011478647589684,
      0.029593707993626595,
      0.011083051562309265,
      0.02992904558777809,
      0.02964722365140915,
      0.02988463267683983,
      0.029770024120807648,
      0.029331287369132042,
      0.029911354184150696,
      0.027691349387168884,
      0.0002805255353450775,
      0.0023973770439624786,
      -0.001564808189868927,
      0.0016868356615304947,
      9.96813178062439e-05,
      -1.3768672943115234e-05,
      -0.0006319135427474976,
      0.00014466885477304459,
      0.004253938794136047,
      0.000758761540055275,
      -0.02127336710691452,
      -0.010605146642774343,
      -0.005848415195941925,
      -0.02641993761062622,
      0.028545127250254154,
      8.629262447357178e-05,
      -0.006692342460155487,
      -0.0033687353134155273,
      -0.007999882102012634,
      0.025387097150087357,
      -0.029549814760684967,
      0.0017591416835784912,
      -0.015744827687740326,
      -0.0020310161635279655,
      -0.014888116158545017,
      -0.02740272507071495,
      -0.004366202279925346,
      -0.026405837386846542,
      -0.0013427920639514923,
      0.02784108743071556,
      0.017634794116020203,
      -2.019573003053665e-05,
      0.027550123631954193,
      0.023833759129047394,
      0.013546586036682129,
      -2.9183924198150635e-05,
      0.018107227981090546,
      0.013860844075679779,
      0.02113821730017662,
      0.029706791043281555,
      0.02953317016363144,
      0.02914174646139145,
      0.029763013124465942,
      0.029911372810602188,
      0.015718162059783936,
      0.029495788738131523,
      0.002742469310760498,
      0.028934240341186523,
      0.02984973043203354,
      0.00012777000665664673,
      0.001226581633090973,
      -0.00029937922954559326,
      -0.028213560581207275,
      0.00044064223766326904,
      -0.00016768276691436768,
      0.00013227760791778564,
      9.93683934211731e-05,
      -0.00034399330615997314,
      0.00011214427649974823,
      0.028306186199188232,
      1.1958181858062744e-05,
      -0.027040611021220684,
      -0.0010220259428024292,
      -0.0004132222384214401,
      -0.0004990845918655396,
      -0.001080542802810669,
      -0.0011921152472496033,
      0.0002674870193004608,
      -0.00046156346797943115,
      0.012123078107833862,
      0.02791670151054859,
      0.027552515268325806,
      0.02777836285531521,
      0.02814442664384842,
      0.029850274324417114,
      0.028392046689987183,
      -0.004437141120433807,
      0.02747579663991928,
      0.02815936505794525,
      0.016448765993118286,
      0.025948353111743927,
      0.02967364341020584,
      0.015057675540447235,
      0.029471557587385178,
      0.0295841246843338,
      0.029774293303489685,
      0.029199667274951935,
      0.02932017296552658,
      0.029711678624153137,
      0.013524286448955536,
      0.016887713223695755,
      0.0005150437355041504,
      0.02927626296877861,
      0.027832407504320145,
      0.01567242294549942,
      0.02882302552461624,
      0.008192911744117737,
      0.028913691639900208,
      0.01636912953108549
    ],
    [
      -0.00016458798199892044,
      0.0012320075184106827,
      -0.02820979803800583,
      0.002755977213382721,
      0.00040310807526111603,
      0.01708489004522562,
      0.0017706407234072685,
      0.0038231825456023216,
      -0.019529339391738176,
      0.004737650975584984,
      0.0016696471720933914,
      0.02762243989855051,
      -0.013703389093279839,
      -0.02674646768718958,
      0.0021129376254975796,
      -0.019715660251677036,
      -4.898291081190109e-05,
      0.0025717439129948616,
      0.004318601451814175,
      0.015615348471328616,
      0.004861077293753624,
      0.0103122154250741,
      -0.008933341829106212,
      -0.02681092917919159,
      -0.018880056217312813,
      -0.010300681693479419,
      0.0015467507764697075,
      0.015456761932000518,
      -0.00045855622738599777,
      -0.012422251515090466,
      0.028484205715358257,
      0.007011177949607372
    ],
    [
      0.03002331033349037,
      0.0007679760456085205,
      -0.02835935354232788,
      -0.027248404920101166,
      0.00012892112135887146,
      0.000517040491104126,
      -0.028667601756751537,
      -0.029408257454633713,
      -3.715232014656067e-05,
      0.0005054250359535217,
      0.0006245877593755722,
      0.0011324407532811165,
      0.000758640468120575,
      0.000599883496761322,
      0.00027082301676273346,
      0.02974889613687992,
      0.0004326626658439636,
      -0.0013172216713428497,
      -0.029361522756516933,
      -0.029357977211475372,
      -0.02722250670194626,
      0.0029383599758148193,
      0.0023243725299835205,
      -1.613236963748932e-05,
      0.0012034513056278229,
      0.00022029131650924683,
      0.007902961689978838,
      0.02911844104528427,
      0.00030876509845256805,
      0.02960395161062479,
      0.008227124810218811,
      0.029963718727231026,
      -0.026645705103874207,
      0.005546783097088337,
      -0.02250638883560896,
      0.0006237365305423737,
      0.001771971583366394,
      0.020071711391210556,
      0.002111148089170456,
      0.0001605544239282608,
      -0.028613634407520294,
      0.029907499440014362,
      -0.014619279652833939,
      0.028263866901397705,
      0.028794770129024982,
      0.005242176353931427,
      0.008631125092506409,
      0.00014891847968101501,
      0.0031342972069978714,
      0.0015183314681053162,
      0.0013354755938053131,
      -0.0005318149924278259,
      -0.02792518585920334,
      0.028611943125724792,
      0.00041149184107780457,
      -0.02905261144042015,
      0.02888734918087721,
      0.0297696590423584,
      0.0032517388463020325,
      0.018054340034723282,
      0.02970382571220398,
      3.063678741455078e-05,
      -8.455291390419006e-05,
      -5.2303075790405273e-05,
      -0.027322715148329735,
      -0.02875686064362526,
      -0.028235074132680893,
      -0.0037503764033317566,
      0.0006234562024474144,
      -0.009121589362621307,
      -0.026027611456811428,
      -0.014575808309018612,
      -0.02824909519404173,
      0.02988438308238983,
      -0.0010153679177165031,
      0.013784922659397125,
      0.016275417059659958,
      -0.013314276933670044,
      -0.006499826908111572,
      0.0008662296459078789,
      0.0005573555827140808,
      -0.026295848190784454,
      -0.02826433628797531,
      -0.014892719686031342,
      -0.02993326634168625,
      0.02978767454624176,
      0.0007220059633255005,
      -0.0286262184381485,
      -0.012606143951416016,
      -0.024873316287994385,
      0.0016307216137647629,
      -0.02770029753446579,
      0.01812893897294998,
      0.0007562153041362762,
      0.0009998679161071777,
      0.0015457719564437866,
      0.0015684999525547028,
      -0.012728450819849968,
      -0.026152897626161575,
      -0.025679048150777817,
      -0.022422678768634796,
      -0.009039891883730888,
      -0.02718774974346161,
      -0.02771638333797455,
      0.0004178956151008606,
      0.0009981244802474976,
      0.0007866034284234047,
      0.001195363700389862,
      0.0005068928003311157,
      -0.02758665382862091,
      -0.023129930719733238,
      0.02992207556962967,
      -0.0011774227023124695,
      -0.02726970613002777,
      -0.013317771255970001,
      -0.027526892721652985,
      -5.84721565246582e-05,
      0.029039164073765278,
      0.029262080788612366,
      0.0017247200012207031,
      0.014764264225959778,
      -0.022270571440458298,
      0.029509246349334717,
      0.029620245099067688,
      0.0006172060966491699,
      0.0027538053691387177,
      0.02965960744768381,
      0.02995387464761734,
      0.02996637672185898,
      0.012553304433822632,
      0.029413938522338867,
      0.029677022248506546,
      0.027905363589525223,
      0.00832909345626831,
      0.0171247785910964,
      0.02929443120956421,
      0.029871545732021332,
      -0.0133587047457695,
      0.02908441796898842,
      -0.02724810689687729,
      0.00923541933298111,
      0.012221474200487137,
      0.00021883472800254822,
      0.001394413411617279,
      0.02958127111196518,
      0.028727165423333645,
      0.029858233407139778,
      0.029709741473197937,
      0.029873758554458618,
      -2.4165958166122437e-05,
      0.006494913250207901,
      0.02991768717765808,
      0.01625610888004303,
      -0.007138639688491821,
      2.1047890186309814e-06,
      0.029297657310962677,
      0.0010940656065940857,
      0.029885747469961643,
      -5.406513810157776e-05,
      -2.1401792764663696e-06,
      -0.029241017997264862,
      0.0004481673240661621,
      0.00036913156509399414,
      -0.0007117092609405518,
      0.0008320696651935577,
      0.0030165724456310272,
      -0.0007347799837589264,
      0.00036134570837020874,
      -0.02962815761566162,
      0.03000764548778534,
      0.005074859596788883,
      0.028787441551685333,
      0.013313434086740017,
      0.0005345940589904785,
      0.0018103048205375671,
      -0.0002505853772163391,
      0.0005062222480773926,
      0.0006927624344825745,
      0.00013038888573646545,
      -3.695394843816757e-05,
      -0.029245205223560333,
      0.01819305121898651,
      0.00013890303671360016,
      -0.02930605411529541,
      0.026206552982330322,
      0.029748886823654175,
      0.0002621300518512726,
      -0.003897756338119507,
      0.005465880036354065,
      -0.028916822746396065,
      0.0010575996711850166,
      0.00015605241060256958,
      0.029486101120710373,
      -0.00044919271022081375,
      0.02759966254234314,
      0.029700646176934242,
      0.005584340542554855,
      0.026302579790353775,
      0.0020291805267333984,
      0.0017226841300725937,
      0.02974184975028038,
      -0.029157551005482674,
      -0.0042434632778167725,
      -0.010086994618177414,
      -0.0055885277688503265,
      0.00045090168714523315,
      -0.003999829292297363,
      0.0006477981805801392,
      0.016023695468902588,
      0.00047343969345092773,
      0.02970452979207039,
      0.0015371330082416534,
      0.009401172399520874,
      -0.01115732453763485,
      -0.012238550931215286,
      0.029895339161157608,
      0.029805075377225876,
      -0.0013730339705944061,
      -0.013488277792930603,
      0.030020393431186676,
      0.00045049935579299927,
      0.029647350311279297,
      0.0005981661379337311,
      0.017663460224866867,
      0.001348160207271576,
      -0.026511333882808685,
      -0.027962390333414078,
      -0.024693197570741177,
      -0.02870730310678482,
      -0.0004793955013155937,
      -0.024826916866004467,
      -0.027092747390270233,
      0.0008548833429813385,
      0.00016910582780838013,
      -0.011809634044766426,
      0.003028370440006256,
      -0.027157075703144073,
      -0.02741115540266037,
      -0.026855913922190666,
      0.026919222436845303,
      -0.028165303170681,
      -0.027460291981697083,
      -0.029153145849704742,
      -0.027555719017982483,
      -0.023256443440914154,
      0.006009098142385483,
      0.009101521223783493,
      0.0009055472910404205,
      -0.011487632989883423,
      -0.027297750115394592,
      0.028778601437807083,
      -0.00011997483670711517,
      -0.003611089661717415,
      -0.026521209627389908,
      0.004633408039808273,
      0.029674429446458817,
      -0.029110394418239594,
      0.0032980982214212418,
      -7.95125961303711e-05,
      -0.0003464147448539734,
      0.0002487674355506897,
      0.015790991485118866,
      0.0261533223092556,
      0.0004448145627975464,
      -0.029392791911959648,
      0.029911993071436882,
      0.0011522099375724792,
      0.029639260843396187,
      0.02978667989373207,
      0.0005429461598396301,
      0.028245373629033566,
      -0.00015805289149284363,
      0.028839923441410065,
      0.0021061524748802185,
      0.00011732615530490875,
      0.00011813081800937653,
      -0.0007858350872993469,
      0.002268098294734955,
      0.015841137617826462,
      -0.002614472061395645,
      -0.012497521936893463,
      0.029895134270191193,
      2.425163984298706e-05,
      0.022474803030490875,
      0.02901498693972826,
      -0.014843687415122986,
      0.01226533018052578,
      -0.007866467349231243,
      -0.021887803450226784,
      0.0172179383225739,
      0.00031867437064647675,
      -0.0010792091488838196,
      0.0016313213855028152,
      0.016612812876701355,
      -0.0010826867073774338,
      0.0007597571238875389,
      -0.02952698804438114,
      0.030011052265763283,
      0.02906765043735504,
      0.028456270694732666,
      0.02933574467897415,
      0.01179380714893341,
      0.01713191717863083,
      9.919516742229462e-06,
      0.009800411760807037,
      0.02889011800289154,
      0.028868582099676132,
      0.0019052335992455482,
      -0.02902283798903227,
      0.0004243999719619751,
      0.0010506287217140198,
      -0.02866513282060623,
      0.017996499314904213,
      0.028833676129579544,
      0.0004205070436000824,
      -6.0012564063072205e-05,
      0.029880140908062458,
      -0.02262052148580551,
      0.0006989352405071259,
      -0.0003548339009284973,
      0.029829412698745728,
      0.028411414474248886,
      0.01478259265422821,
      0.02976270206272602,
      0.025243323296308517,
      0.0007445290684700012,
      0.02922484278678894,
      0.029495064169168472,
      0.030027762055397034,
      -0.029577212408185005,
      0.007524557411670685,
      -0.0001692790538072586,
      -0.023983119055628777,
      0.0009099831804633141,
      0.0003412701189517975,
      0.02889547497034073,
      -0.01493579219095409,
      0.00792752392590046,
      0.029926682822406292,
      0.029904454946517944,
      0.029125310480594635,
      -0.00029963627457618713,
      0.028223112225532532,
      0.003926753997802734,
      0.014532972127199173,
      0.0006352290511131287,
      0.0001850724220275879,
      0.028262166306376457,
      -0.017781440168619156,
      0.029972434043884277,
      0.00037004798650741577,
      0.00035128742456436157,
      0.029715288430452347,
      -2.12937593460083e-05,
      0.00036336854100227356,
      0.0006376877427101135,
      -0.00010087341070175171,
      -0.0011036694049835205,
      0.0008330643177032471,
      5.030818283557892e-05,
      0.02934199944138527,
      -0.02968430519104004,
      -0.006443589925765991,
      -0.01733038853853941,
      -0.016239497810602188,
      0.00020775757730007172,
      -0.0015142615884542465,
      0.0006498098373413086,
      -0.00014112144708633423,
      -0.00027991458773612976,
      3.9886683225631714e-05,
      0.00011751055717468262,
      0.0007849410176277161,
      -0.029338433407247066,
      -0.028294425457715988,
      0.029650919139385223,
      -0.02863975055515766,
      -0.029374152421951294,
      -0.01816132664680481,
      -0.015048563480377197,
      -0.018317767418920994,
      0.0003807954490184784,
      -0.02886846661567688,
      -0.00025181844830513,
      0.0004282444715499878,
      0.015325196087360382,
      0.029546737670898438,
      0.029649578034877777,
      0.006467759609222412,
      -0.02750811167061329,
      0.0271211015060544,
      0.029826335608959198,
      0.00018685311079025269,
      -1.249462366104126e-05,
      -0.02275736629962921,
      3.6630779504776e-05,
      -6.704777479171753e-05,
      0.029646635055541992,
      0.02912988420575857,
      -0.028472019359469414,
      0.02919629216194153,
      0.02932698279619217,
      0.002181604504585266,
      0.008981656283140182,
      0.005194284021854401,
      -0.013966843485832214,
      -0.027589142322540283,
      0.0003138631582260132,
      0.0006011389195919037,
      0.026714734733104706,
      -0.029688982293009758,
      0.027807779610157013,
      0.004288822412490845,
      -0.00851352233439684,
      -0.029009290039539337,
      -0.02901545912027359,
      -0.021295052021741867,
      0.004831962287425995,
      0.003900490701198578,
      -2.7123838663101196e-05,
      0.018042603507637978,
      -0.02658582478761673,
      -0.0001289471983909607,
      0.028482683934271336,
      1.8635764718055725e-05,
      0.001126457005739212,
      0.0013393685221672058,
      -0.011065861210227013,
      0.002777380868792534,
      0.0013017049059271812,
      0.0015465542674064636,
      -0.02642364799976349,
      0.003329891711473465,
      0.02587016671895981,
      -0.025684984400868416,
      -0.00034534186124801636,
      0.027488991618156433,
      -0.02668049745261669,
      -0.025728441774845123,
      -0.025652222335338593,
      -0.024015314877033234,
      0.00014354288578033447,
      -0.027821309864521027,
      -0.01639726758003235,
      0.00303640216588974,
      -0.028157390654087067,
      -0.0022838935256004333,
      -0.02625831589102745,
      -0.029174022376537323,
      0.0030843988060951233,
      0.000716106966137886,
      -0.029453203082084656,
      0.00081653892993927,
      -0.020666316151618958,
      -0.000295465812087059,
      -0.000742688775062561,
      -0.0292267557233572,
      0.029923217371106148,
      0.009984059259295464,
      0.025598551146686077,
      0.0168365016579628,
      0.0005642734467983246,
      0.005883369594812393,
      -0.0005458444356918335,
      0.007096588611602783,
      0.0018266495317220688,
      -0.028577841818332672,
      -0.0004579871892929077,
      -0.01578035205602646,
      0.00048280321061611176,
      -0.00024054944515228271,
      -0.02709818258881569,
      0.02884883899241686,
      0.02806682512164116,
      0.0002584531903266907,
      -0.026771508157253265,
      0.003370709717273712,
      -0.02864474058151245,
      -0.00011846423149108887,
      -9.93683934211731e-05,
      -0.02908436208963394,
      -4.507601261138916e-05,
      2.9616057872772217e-05,
      -0.02973221242427826,
      8.907914161682129e-05,
      -0.017788805067539215,
      -0.0016711223870515823,
      0.0003119204193353653,
      -0.029322706162929535,
      0.029720155522227287,
      0.0006399340927600861,
      0.0010700877755880356,
      0.0006376281380653381,
      0.0003805086016654968,
      0.001198887825012207,
      -0.029268398880958557,
      -1.3637356460094452e-05,
      0.00018233433365821838,
      -0.023889025673270226,
      -0.023260721936821938,
      -0.0004931725561618805,
      -0.008294408209621906,
      -0.025834206491708755,
      -0.02960827946662903,
      -0.02919658273458481,
      0.000328749418258667,
      -0.004092663526535034,
      -0.03002292849123478,
      0.01942596584558487,
      -0.0289466455578804,
      0.00010796263813972473,
      -0.02629629522562027,
      0.004433974623680115,
      -0.02162187546491623,
      -0.026295378804206848,
      -0.026117201894521713,
      -0.026424571871757507,
      0.0008178427815437317,
      -0.025356097146868706,
      -0.028660237789154053,
      8.974224328994751e-06,
      0.0002389363944530487,
      0.0005823420360684395,
      0.0009799227118492126,
      0.0011325255036354065,
      -0.016282691503874958,
      -0.011711210012435913,
      0.029434040188789368,
      -0.023280292749404907,
      -0.02543606236577034,
      -0.029010742902755737,
      -0.024904806166887283,
      -0.02892015129327774,
      0.006554149091243744,
      0.0014602113515138626,
      0.014126434922218323,
      0.004687141627073288,
      0.0006780233234167099,
      0.002695739269256592,
      0.028925728052854538,
      0.0007312977686524391,
      0.001581396907567978,
      0.0030478276312351227,
      0.030041292309761047,
      -0.0003765346482396126,
      -0.02910560742020607,
      -0.028476133942604065,
      0.000691315159201622,
      -0.0008438806980848312,
      -0.015847956761717796,
      0.001648586243391037,
      0.0001421794295310974,
      0.015091607347130775,
      -0.02962300553917885,
      -0.029501869343221188,
      -0.02888612449169159,
      -0.0292365700006485,
      -0.029421502724289894,
      -0.028518758714199066,
      -0.0010910183191299438,
      7.048994302749634e-05,
      0.0002273768186569214,
      0.0002443138509988785,
      0.0003670547157526016,
      0.000545937567949295,
      -0.02933758683502674,
      -0.028625231236219406,
      0.029636623337864876,
      0.0009435610845685005,
      -2.1647661924362183e-05,
      -0.01775120198726654,
      0.0019866526126861572,
      -0.027624623849987984,
      -0.02732998877763748,
      -0.02789190039038658,
      -0.026069849729537964,
      0.0296824648976326,
      0.00012075155973434448,
      0.0004005748778581619,
      0.0021393559873104095,
      7.965974509716034e-05,
      -0.002298124134540558,
      0.0065783485770225525,
      0.00017441995441913605,
      0.02986872661858797,
      -0.029736459255218506,
      -0.002105461433529854,
      -0.025858696550130844,
      -0.028876209631562233,
      0.00020625628530979156,
      -0.0020603984594345093,
      0.008412834256887436,
      -0.0003124214708805084,
      0.00021871179342269897,
      -0.00045245885848999023,
      0.0011040493845939636,
      0.003382936120033264,
      -0.019561517983675003,
      -0.006848769029602408,
      0.029795873910188675,
      -0.015398270450532436,
      -0.0008072070777416229,
      -0.0004555918276309967,
      0.029887993820011616,
      -0.024024244397878647,
      0.029704091139137745,
      -0.0014476310461759567,
      -3.3602118492126465e-06,
      7.133930921554565e-05,
      -0.0005427300930023193,
      0.0004933644086122513,
      -0.00019509624689817429,
      -0.022204644046723843,
      -0.007206752896308899,
      -7.33761116862297e-05,
      0.00018648803234100342,
      0.0004835687577724457,
      0.02884303778409958,
      0.0012335479259490967,
      0.00032391399145126343,
      -0.0060861557722091675,
      -0.006944982334971428,
      -0.02340911701321602,
      0.00021408312022686005,
      -0.006444923579692841,
      0.0001830216497182846,
      1.7331913113594055e-06,
      -0.0006492845714092255,
      -0.0014261556789278984,
      2.6270747184753418e-05,
      8.424371480941772e-05,
      0.0002810917794704437,
      -0.0011250488460063934,
      -0.0010530315339565277,
      0.015204846858978271,
      -0.001346305012702942,
      -0.016575254499912262,
      -0.0010223090648651123,
      -0.000141926109790802,
      -0.00013770908117294312,
      0.0008127093315124512,
      -0.026239119470119476,
      -0.028835318982601166,
      -0.022658349946141243,
      -0.028335440903902054,
      -0.020473958924412727,
      -0.022277597337961197,
      -0.02593567967414856,
      0.00034689903259277344,
      0.0005011260509490967,
      0.000823579728603363,
      0.001840047538280487,
      0.001626521348953247,
      -0.027615532279014587,
      -0.017469748854637146,
      0.02922622486948967,
      -0.027383826673030853,
      -0.02657412178814411,
      -0.028991203755140305,
      -0.024607321247458458,
      -0.023240827023983,
      0.012483458034694195,
      0.013476844877004623,
      0.0002611186355352402,
      -0.0013757012784481049,
      -0.02747783437371254,
      0.028910916298627853,
      0.003222804516553879,
      0.00023630261421203613,
      -0.01389104500412941,
      0.005586826242506504,
      0.030015690252184868,
      0.002644956111907959,
      -0.02231430448591709,
      -0.028733481653034687,
      -0.028304323554039,
      -0.027438178658485413,
      0.00010512582957744598,
      -0.02817712537944317,
      -0.029286060482263565,
      0.00023318827152252197,
      0.0004787519574165344,
      0.0005263173952698708,
      -0.0007239487022161484,
      0.0003330595791339874,
      -0.0002611503005027771,
      -0.02869078889489174,
      0.004517358727753162,
      -0.028941232711076736,
      -0.028704829514026642,
      -0.028796648606657982,
      -0.029141025617718697,
      -0.027878902852535248,
      -0.01611344702541828,
      0.003436662256717682,
      -0.0004219040274620056,
      -0.021137893199920654,
      -0.028976207599043846,
      0.00199010968208313,
      0.015745960641652346,
      0.00039236806333065033,
      0.02850307524204254,
      0.007579166442155838,
      0.008928567171096802,
      0.0007786303758621216,
      0.0006186803802847862,
      0.0016328152269124985,
      0.0006581805646419525,
      0.001832570880651474,
      0.0004430115222930908,
      0.000467102974653244,
      0.0016948794946074486,
      0.0028770864009857178,
      -0.0021037831902503967,
      0.0008748192340135574,
      0.0015142615884542465,
      0.0016443133354187012,
      -0.021085280925035477,
      -0.01682313345372677,
      0.022026166319847107,
      0.0010808035731315613,
      0.002593054436147213,
      0.00029481202363967896,
      0.000255463644862175,
      0.0006635431200265884,
      0.02997203916311264,
      0.002301417291164398,
      0.0004417896270751953,
      0.02808515913784504,
      0.000795900821685791,
      0.0005334913730621338,
      0.0011435337364673615,
      -0.01849639229476452,
      0.0003363005816936493,
      0.013978071510791779,
      0.0004362361505627632,
      -0.00023335404694080353,
      0.029596514999866486,
      0.029482845216989517,
      0.02455177903175354,
      0.029698630794882774,
      0.02853277325630188,
      0.015237364917993546,
      0.029900841414928436,
      -5.3923577070236206e-05,
      -6.342679262161255e-05,
      0.024306315928697586,
      -0.0016118772327899933,
      0.02438970562070608,
      0.02969478815793991,
      0.027239354327321053,
      1.5929341316223145e-05,
      0.029719624668359756,
      0.029661337845027447,
      0.0027082934975624084,
      0.026796543039381504,
      0.019472631625831127,
      -0.028534316457808018,
      0.0006023533642292023,
      -9.523611515760422e-05,
      0.014792896807193756,
      0.029673831537365913,
      -0.016741521656513214,
      -0.0001465044915676117,
      0.001979093998670578,
      -0.0001630745828151703,
      -0.029725633561611176,
      -0.029901675879955292,
      0.02974177896976471,
      0.007417343556880951,
      0.0008801370859146118,
      0.006094127893447876,
      0.008842898532748222,
      0.0016638636589050293,
      0.028363652527332306,
      0.005019892938435078,
      0.029936939477920532,
      -0.02946595847606659,
      -0.0085068978369236,
      -0.0006693005561828613,
      -0.015157505869865417,
      0.0007618945091962814,
      -0.0005721151828765869,
      0.000585826113820076,
      0.00017819181084632874,
      0.00497465580701828,
      0.014017121400684118,
      0.014541774988174438,
      0.02946922369301319,
      -0.0005881190299987793,
      -0.0005440190434455872,
      0.029948435723781586,
      -0.010145417414605618,
      -0.0282243974506855,
      -3.7066638469696045e-05,
      0.02964840643107891,
      0.0007850928232073784,
      0.029722832143306732,
      -0.0010186582803726196,
      0.00215735100209713,
      -0.025872550904750824,
      0.0016129836440086365,
      0.000564277172088623,
      6.8712979555130005e-06,
      0.00047774985432624817,
      0.004025876522064209,
      -0.00011248141527175903,
      0.00033856555819511414,
      -0.005580097436904907,
      0.029948529787361622,
      0.02945658378303051,
      0.029743481427431107,
      0.029930027201771736,
      0.0030145375058054924,
      0.013853965327143669,
      0.02475527673959732,
      0.0008588619530200958,
      0.0012427251785993576,
      6.370246410369873e-05,
      0.00014715082943439484,
      -0.000346355140209198,
      0.029986241832375526,
      0.02879958599805832,
      -0.023669704794883728,
      0.026993028819561005,
      0.029824696481227875,
      0.028546690940856934,
      0.013978132978081703,
      0.029076121747493744,
      0.000406704843044281,
      0.02905459702014923,
      0.028655923902988434,
      -0.01436130702495575,
      0.017669571563601494,
      0.00032047927379608154,
      0.0008883774280548096,
      0.0002608373761177063,
      0.02980116754770279,
      -0.028701260685920715,
      -0.000148087739944458,
      -0.02953381836414337,
      0.03002789616584778,
      0.02977032959461212,
      0.029390249401330948,
      0.005918927490711212,
      0.029856424778699875,
      0.030012259259819984,
      -0.0023947767913341522,
      0.017466671764850616,
      0.001869741827249527,
      0.0003139488399028778,
      -0.00012658629566431046,
      -0.02840955462306738,
      -0.0064101871103048325,
      0.021439414471387863,
      -0.02909111976623535,
      -0.002336014062166214,
      0.00012350082397460938,
      0.00031400471925735474,
      -0.02951774001121521,
      0.029427599161863327,
      0.01758965104818344,
      0.02626410499215126,
      1.901760697364807e-05,
      0.00032142549753189087,
      0.02982558310031891,
      0.03002719022333622,
      0.030012376606464386,
      0.030010506510734558,
      0.029695112258195877,
      0.029971729964017868,
      0.02994328737258911,
      0.0013449639081954956,
      3.9149075746536255e-05,
      0.001903526484966278,
      0.0002962276339530945,
      0.028162376955151558,
      0.030011738650500774,
      0.02974054589867592,
      -0.02609969489276409,
      0.02989673987030983,
      0.029984164983034134,
      0.029518205672502518,
      0.029882188886404037,
      0.029972542077302933,
      0.0009263530373573303,
      0.00416828878223896,
      0.0005180239677429199,
      0.029403358697891235,
      0.029952354729175568,
      -0.0002618841826915741,
      0.016658522188663483,
      0.02910064533352852,
      0.001173555850982666,
      0.0006913356482982635,
      -0.02911469340324402,
      -0.0048857033252716064,
      0.0005554035305976868,
      0.000252467580139637,
      -0.00011913478374481201,
      0.0004983339458703995,
      0.01210313430055976,
      -0.00037675630301237106,
      0.00035649538040161133,
      -0.003945790231227875,
      0.02994552068412304,
      0.028568975627422333,
      0.029549017548561096,
      0.029541343450546265,
      0.0005397498607635498,
      0.006002441048622131,
      0.026099853217601776,
      0.0012966804206371307,
      0.0005901381373405457,
      -9.517371654510498e-05,
      -0.00015026144683361053,
      -0.0003444105386734009,
      0.02967621386051178,
      0.02938322350382805,
      -0.0001799706369638443,
      0.029022466391324997,
      0.029869183897972107,
      0.02931324392557144,
      0.0016254708170890808,
      0.029230725020170212,
      -4.886835813522339e-05,
      0.029628917574882507,
      0.029896222054958344,
      0.021971426904201508,
      -0.00301925465464592,
      0.0004700571298599243,
      0.003250742331147194,
      9.856373071670532e-05,
      -0.007940761744976044,
      0.0022630486637353897,
      0.00024728477001190186,
      0.030004803091287613,
      -0.0297783724963665,
      -0.029576092958450317,
      -0.02930486761033535,
      -0.02893802337348461,
      -0.01596522331237793,
      -0.001306101679801941,
      -3.755837678909302e-05,
      0.00015176832675933838,
      0.0004084557294845581,
      -0.0010958202183246613,
      0.0011212751269340515,
      0.0027019791305065155,
      0.02914411760866642,
      -0.02085871994495392,
      0.02953772246837616,
      0.00625532865524292,
      -0.0010157637298107147,
      -0.0005356110632419586,
      0.028969407081604004,
      -0.02823456935584545,
      0.0005125999450683594,
      0.025622472167015076,
      2.8520822525024414e-05,
      0.0035384297370910645,
      -0.024916648864746094,
      0.02882510144263506,
      0.028753414750099182,
      -0.02676907181739807,
      0.0007779933512210846,
      0.00534270703792572,
      -7.331371307373047e-06,
      0.030020952224731445,
      -0.0293227881193161,
      0.00011093169450759888,
      -0.012750476598739624,
      -0.027422170154750347,
      -0.02914338745176792,
      -0.028621643781661987,
      0.002244974486529827,
      -0.024101629853248596,
      -0.028606045991182327,
      0.01633366569876671,
      0.00848381221294403,
      0.02826054021716118,
      -0.015045944601297379,
      0.0009786859154701233,
      0.003888919949531555,
      0.0032528825104236603,
      -0.025411397218704224,
      9.472668170928955e-05,
      0.0014764294028282166,
      -0.02900628000497818,
      0.0022297129034996033,
      0.0006430335342884064,
      0.0021522007882595062,
      0.0005766376852989197,
      -0.02809714898467064,
      -0.028126899152994156,
      -0.019138939678668976,
      -0.028047330677509308,
      -0.021951697766780853,
      -0.028072841465473175,
      -0.029127012938261032,
      0.0004757978022098541,
      0.0004605501890182495,
      0.0011093467473983765,
      0.0008738096803426743,
      0.0005092183127999306,
      -0.028381341136991978,
      -0.024189427495002747,
      0.029601752758026123,
      -0.027864113450050354,
      -0.0275869220495224,
      -0.020192161202430725,
      -0.0283814687281847,
      -0.02174413949251175,
      0.008400239050388336,
      0.029517877846956253,
      0.0001983828842639923,
      0.003851749002933502,
      -0.016205452382564545,
      0.01634223945438862,
      -0.000897618941962719,
      -0.008503595367074013,
      0.0006809830665588379,
      0.02949993684887886,
      0.02994140051305294
    ],
    [
      0.0012288298457860947,
      0.0024600084871053696,
      -0.028397396206855774,
      -0.019818563014268875,
      0.029703606851398945,
      7.66068696975708e-05,
      0.028894705697894096,
      -0.02746756002306938,
      0.0014123553410172462,
      0.015530814649537206,
      0.02986730355769396,
      0.00034520775079727173,
      0.008671841584146023,
      -0.02419519331306219,
      -0.028220263309776783,
      0.00012485217303037643,
      -0.024887668900191784,
      -0.0041219498962163925,
      0.0012916885316371918,
      4.121381789445877e-05,
      -0.026159066706895828,
      -0.0286240354180336,
      0.0009362353011965752,
      0.028025684878230095,
      0.01358699263073504,
      0.00034123100340366364,
      0.02936586458235979,
      0.029990755021572113,
      0.0001673894003033638,
      0.001185266301035881,
      0.005546289496123791,
      -0.024875976145267487
    ],
    [
      0.001717403531074524,
      -0.016603194177150726,
      -0.004287295043468475,
      0.028468146920204163,
      -0.0013546273112297058,
      -0.025716885924339294,
      -0.012112803757190704,
      -0.0272985165938735,
      -0.027337491512298584,
      -0.00013566017150878906,
      7.191486656665802e-05,
      -0.029245994985103607,
      -0.0058468542993068695,
      0.022925540804862976,
      0.001814037561416626,
      -0.02942255139350891,
      0.0016816556453704834,
      -0.02923618257045746,
      -0.028025560081005096,
      0.0005293563008308411,
      -0.014336593449115753,
      -0.029073771089315414,
      0.0008541271090507507,
      -0.029796887189149857,
      -0.00047305598855018616,
      -0.01894538849592209,
      -0.015070520341396332,
      -0.03003284800797701,
      -0.021329492330551147,
      -0.027715235948562622,
      0.02417309582233429,
      -0.022013872861862183
    ],
    [
      -0.02850890625268221
    ]
  ],
  "num_updates": 2,
  "client_ids": [
    "client-1",
    "client-2"
  ],
  "mean_final_loss": 6.932305335998535,
  "aggregation_timestamp": 1784209704.4200647
}