{
  "version": "v39",
  "base_version": "v38",
  "round_id": 118,
  "aggregation": "fedavg",
  "averaged_weight_delta": [
    [
      -0.02872919663786888,
      -0.029938608407974243,
      -0.029972165822982788,
      -0.029703617095947266,
      -0.02986818552017212,
      -0.029734909534454346,
      -0.029976189136505127,
      -0.029725875705480576,
      -0.02765093743801117,
      -0.022862285375595093,
      -0.030001770704984665,
      -0.0300360769033432,
      -0.029774785041809082,
      -0.030016213655471802,
      -0.02870158851146698,
      -0.030035734176635742,
      -0.030036576092243195,
      -0.03001062572002411,
      -0.028938204050064087,
      -0.029858767986297607,
      -0.02970936894416809,
      0.029965758323669434,
      -0.029932618141174316,
      -0.02953752875328064,
      0.02849513292312622,
      -0.029031772166490555,
      -0.02962474152445793,
      -0.02991102635860443,
      -0.029994746670126915,
      -0.029122788459062576,
      0.029440313577651978,
      0.029318585991859436,
      0.029640257358551025,
      0.02902950346469879,
      0.02879488468170166,
      0.02940961718559265,
      0.02873300015926361,
      0.028243690729141235,
      0.02604880928993225,
      0.02885836362838745,
      -0.029201850295066833,
      -0.027826610952615738,
      -0.018886126577854156,
      -0.01763126254081726,
      -0.029158107936382294,
      -0.021902471780776978,
      -0.026853978633880615,
      -0.029685914516448975,
      -0.02553717792034149,
      -0.012756839394569397,
      0.02993004024028778,
      0.029445048421621323,
      0.029744654893875122,
      0.030002225190401077,
      0.029894858598709106,
      0.030033141374588013,
      0.02981969714164734,
      0.03001200407743454,
      0.03002879023551941,
      0.02953585982322693,
      0.0299854576587677,
      0.029664158821105957,
      0.027066349983215332,
      0.030004948377609253,
      0.023305296897888184,
      0.029871299862861633,
      0.029511243104934692,
      0.024699851870536804,
      0.01375192403793335,
      -0.028666913509368896,
      0.027862578630447388,
      0.027441678568720818,
      0.02630988508462906,
      0.028951674699783325,
      0.023028280586004257,
      0.02870449423789978,
      0.027672428637742996,
      0.028319688513875008,
      0.028680741786956787,
      0.028230994939804077,
      -0.0289171040058136,
      -0.026385441422462463,
      -0.01950080692768097,
      -0.02147454023361206,
      -0.028116315603256226,
      -0.028009772300720215,
      -0.01211458444595337,
      -0.021606221795082092,
      -0.028794698417186737,
      0.00361788272857666,
      -0.027760788798332214,
      -0.026773840188980103,
      -0.028060227632522583,
      -0.027157709002494812,
      -0.027324631810188293,
      -0.028463736176490784,
      -0.026793692260980606,
      -0.026410311460494995,
      -0.029313206672668457,
      -0.027572423219680786,
      -0.028974264860153198,
      0.01687050238251686,
      -0.028157562017440796,
      -0.02999556064605713,
      -0.00455784797668457,
      -0.029814571142196655,
      -0.029860615730285645,
      -0.029402218759059906,
      -0.02907329797744751,
      -0.027429118752479553,
      -0.028774790465831757,
      -0.028978079557418823,
      0.0020068660378456116,
      -0.02983391284942627,
      -0.02968316525220871,
      -0.028913304209709167,
      -0.02832046151161194,
      -0.029802903532981873,
      -0.029482312500476837,
      -0.030016250908374786,
      -0.022784113883972168,
      0.029606789350509644,
      0.02701866626739502,
      -0.027856290340423584,
      0.029627323150634766,
      0.015604492276906967,
      0.028176262974739075,
      0.021273046731948853,
      0.029997125267982483,
      -0.018776461482048035,
      0.029724236577749252,
      0.030038416385650635,
      0.030023440718650818,
      0.030044585466384888,
      0.029787763953208923,
      0.03004908561706543,
      0.030045390129089355,
      0.030016086995601654,
      0.029353126883506775,
      0.0012651532888412476,
      0.027081986889243126,
      0.02940922975540161,
      0.024550825357437134,
      0.025248758494853973,
      0.026396766304969788,
      0.027449486777186394,
      0.026359468698501587,
      0.019857283681631088,
      0.021391600370407104,
      -0.02419731765985489,
      0.029704689979553223,
      0.02997581660747528,
      0.029705673456192017,
      0.029203739017248154,
      0.029434233903884888,
      0.029900595545768738,
      0.02974855527281761,
      0.029956549406051636,
      0.029820196330547333,
      0.028033047914505005,
      0.009823523461818695,
      -0.028529778122901917,
      0.027842462062835693,
      0.02392578125,
      0.008080869913101196,
      0.02725151926279068,
      0.01858845353126526,
      0.0117555633187294,
      0.02660064399242401,
      0.02898120880126953,
      -0.029928743839263916,
      -0.029833093285560608,
      -0.029667437076568604,
      -0.029683027416467667,
      -0.029973983764648438,
      -0.030045628547668457,
      -0.028820544481277466,
      -0.029169127345085144,
      -0.029632732272148132,
      -0.02527138590812683,
      0.02977822721004486,
      0.02980262041091919,
      0.02981126308441162,
      0.02924305945634842,
      0.029553130269050598,
      0.029517196118831635,
      0.029541954398155212,
      0.02994309365749359,
      0.029393941164016724,
      -0.026103496551513672,
      -0.009805068373680115,
      -0.02541637420654297,
      -0.011921331286430359,
      -0.000858604907989502,
      -0.026039540767669678,
      -0.0017757713794708252,
      -0.017947867512702942,
      -0.005067184567451477,
      0.004570603370666504,
      0.006371306721121073,
      -0.029604390263557434,
      -0.028553426265716553,
      -0.029908299446105957,
      -0.030000433325767517,
      -0.030038058757781982,
      -0.029849469661712646,
      -0.02986636757850647,
      -0.030009135603904724,
      -0.030037984251976013,
      -0.02996644377708435,
      0.02878589928150177,
      0.018065154552459717,
      0.02894696593284607,
      0.027913928031921387,
      0.028056293725967407,
      0.02768661081790924,
      0.027460485696792603,
      0.01777689903974533,
      0.02844337746500969,
      0.02756015583872795,
      0.028812557458877563,
      0.02991984412074089,
      0.029909828677773476,
      0.030000165104866028,
      0.029886305332183838,
      0.02982306480407715,
      0.030008509755134583,
      0.029976585879921913,
      0.02947118878364563,
      -0.014312423765659332,
      0.0022957026958465576,
      -0.017766352742910385,
      -0.004969984292984009,
      0.02899312973022461,
      0.02989942580461502,
      -0.02750392071902752,
      0.014648288488388062,
      0.017526209354400635,
      0.013708427548408508,
      0.017416641116142273,
      0.029825717210769653,
      0.029531195759773254,
      0.029954232275485992,
      0.029856473207473755,
      0.03000369668006897,
      0.029776468873023987,
      0.029356829822063446,
      0.029870815575122833,
      0.029684752225875854,
      0.021867558360099792,
      -0.028028443455696106,
      -0.029054835438728333,
      -0.027213603258132935,
      -0.027773842215538025,
      -0.028767764568328857,
      -0.02811974287033081,
      -0.028373420238494873,
      -0.02782122790813446,
      -0.028433382511138916,
      0.02200838178396225,
      -0.029930144548416138,
      -0.030001729726791382,
      -0.029845714569091797,
      -0.030034581199288368,
      -0.02950572967529297,
      -0.029995381832122803,
      -0.029748111963272095,
      -0.02991202473640442,
      -0.029684409499168396,
      -0.029731810092926025,
      -0.027991116046905518,
      -0.014425206929445267,
      -0.028910361230373383,
      -0.02895808219909668,
      -0.029916241765022278,
      -0.029050052165985107,
      -0.029207736253738403,
      -0.029619798064231873,
      -0.02923920750617981,
      -0.023456335067749023,
      0.029637888073921204,
      0.02988317608833313,
      0.02990792691707611,
      0.030029430985450745,
      0.029963985085487366,
      0.030019819736480713,
      0.030040845274925232,
      0.030042603611946106,
      0.029936105012893677,
      0.02955295890569687,
      -0.030009418725967407,
      -0.029523074626922607,
      -0.0016477853059768677,
      -0.030036568641662598,
      -0.03003501333296299,
      -0.0300462543964386,
      -0.029920846223831177,
      -0.029584214091300964,
      -0.029895305633544922,
      -0.029564470052719116,
      0.030016466975212097,
      0.030027329921722412,
      0.029988020658493042,
      0.030031219124794006,
      0.030017800629138947,
      0.02998974919319153,
      0.030034758150577545,
      0.02999221161007881,
      0.0300491601228714,
      0.02971060201525688,
      -0.02982136234641075,
      -0.029405832290649414,
      -0.029692605137825012,
      -0.029833242297172546,
      -0.029360786080360413,
      -0.029754608869552612,
      -0.02982538938522339,
      -0.02944466471672058,
      -0.02967134863138199,
      -0.02909865975379944
    ],
    [
      -0.0292720478028059,
      0.029690206050872803,
      0.030001726001501083,
      -0.027547048404812813,
      -0.02291685715317726,
      0.029163625091314316,
      -0.006498458795249462,
      -0.029204081743955612,
      -0.02970442734658718,
      -0.028675025328993797,
      -0.0145571855828166,
      0.030036862939596176,
      0.029813632369041443,
      0.028908243402838707,
      -0.013307084329426289,
      -0.020310858264565468,
      0.030000515282154083,
      -0.001470562070608139,
      0.0026001324877142906,
      -0.020925594493746758,
      0.029336797073483467,
      -0.020488185808062553,
      0.029369279742240906,
      -0.01954810693860054,
      0.02891271561384201,
      -0.02764142118394375,
      0.02959955483675003,
      -0.007424885872751474,
      -0.021533586084842682,
      0.030037127435207367,
      0.030013229697942734,
      -0.029764436185359955
    ],
    [
      -0.02958141267299652,
      0.029985785484313965,
      -0.028700251132249832,
      0.028492599725723267,
      0.028414718806743622,
      0.029225457459688187,
      0.02927720546722412,
      -0.030034750699996948,
      0.02992430329322815,
      0.029869500547647476,
      0.01507173478603363,
      0.02917325496673584,
      0.02844947762787342,
      0.029721710830926895,
      0.029621124267578125,
      -0.029735103249549866,
      0.029080577194690704,
      -0.028257176280021667,
      -0.029474571347236633,
      0.029941871762275696,
      -0.029791727662086487,
      -0.029504042118787766,
      0.02951653301715851,
      -0.02997632324695587,
      0.029562324285507202,
      0.018553823232650757,
      0.03002171218395233,
      0.029818102717399597,
      0.029770001769065857,
      0.0,
      0.02896854281425476,
      0.029969289898872375,
      -0.027957141399383545,
      -0.028994083404541016,
      -0.02932719886302948,
      -0.02814088761806488,
      0.02979971468448639,
      0.029194772243499756,
      -0.015072736889123917,
      0.02870824933052063,
      0.0298679918050766,
      0.029959168285131454,
      0.028412923216819763,
      -0.029168296605348587,
      0.0046411603689193726,
      0.030034776777029037,
      -0.025871336460113525,
      -0.023263581097126007,
      -0.010585922747850418,
      -0.02942724898457527,
      -0.029035191982984543,
      0.029925424605607986,
      -0.02938305400311947,
      -0.028012454509735107,
      0.029095083475112915,
      -0.026851866394281387,
      -0.027284368872642517,
      0.005398169159889221,
      -0.029076188802719116,
      0.030011139810085297,
      -0.013644307851791382,
      -0.029017917811870575,
      0.03004775196313858,
      0.02994655817747116,
      -0.029503285884857178,
      -0.02970537543296814,
      -0.029967814683914185,
      -0.02926136553287506,
      0.030035674571990967,
      0.03001076728105545,
      -0.012122660875320435,
      -0.02533172070980072,
      0.029901042580604553,
      0.02995339035987854,
      -0.020784735679626465,
      -0.029837727546691895,
      -0.008739307522773743,
      0.029543884098529816,
      -0.02246255800127983,
      -0.014484196901321411,
      -0.023615762591362,
      -0.02993282675743103,
      -0.02504226565361023,
      0.02992209792137146,
      -0.029797948896884918,
      -0.02838592231273651,
      0.03004854917526245,
      -0.02870287001132965,
      0.029340624809265137,
      0.02994486689567566,
      -0.029938742518424988,
      0.0015089083462953568,
      0.02947114408016205,
      -0.02985110878944397,
      0.0299812201410532,
      0.03001231513917446,
      0.0022846832871437073,
      -0.021631421521306038,
      0.03001566044986248,
      0.029487699270248413,
      -0.022842571139335632,
      -0.02677484229207039,
      0.02798345685005188,
      0.029309093952178955,
      -0.027566343545913696,
      -0.02642720192670822,
      -0.022749997675418854,
      -0.026807352900505066,
      -0.022968187928199768,
      -0.020083747804164886,
      -0.020632237195968628,
      -0.02815289795398712,
      -0.02993469312787056,
      -0.024594049900770187,
      -0.028066612780094147,
      -0.025115661323070526,
      0.02980745956301689,
      0.029705792665481567,
      -0.02778753638267517,
      0.030013203620910645,
      -0.027251005172729492,
      -0.027493149042129517,
      -0.012841656804084778,
      0.0005741864442825317,
      -0.02862716279923916,
      0.022974073886871338,
      -0.027239173650741577,
      -0.02523883432149887,
      0.019029662013053894,
      -0.026970863342285156,
      -0.029945194721221924,
      -0.029715299606323242,
      0.0297236330807209,
      0.03004508838057518,
      -0.02934170514345169,
      -0.028680086135864258,
      0.029704278334975243,
      0.029937535524368286,
      0.028336331248283386,
      0.008159235119819641,
      -0.015756651759147644,
      0.03003832697868347,
      -0.0003376677632331848,
      0.03004172444343567,
      -0.02962850034236908,
      -0.024135708808898926,
      -0.02333982288837433,
      0.029978975653648376,
      -0.02979205548763275,
      -0.029577255249023438,
      0.02980291098356247,
      -0.029364973306655884,
      0.029895618557929993,
      0.02994702011346817,
      -0.026437878608703613,
      -0.029763400554656982,
      0.03001466393470764,
      -0.029989495873451233,
      0.028186023235321045,
      0.029425501823425293,
      0.029858335852622986,
      -0.028405912220478058,
      -0.029611632227897644,
      -0.028588756918907166,
      0.02976914867758751,
      0.030044108629226685,
      0.029605567455291748,
      -0.010958402417600155,
      0.02993331104516983,
      0.029957719147205353,
      -0.026675596833229065,
      -0.02942851185798645,
      0.028379790484905243,
      0.030027560889720917,
      0.002293139696121216,
      0.02871561050415039,
      -0.014813169836997986,
      0.026908397674560547,
      -0.010631933808326721,
      0.02999459207057953,
      -0.029305875301361084,
      -0.02887686714529991,
      0.029889613389968872,
      -0.025823935866355896,
      0.02774488925933838,
      0.02998790144920349,
      0.029981940984725952,
      0.029980957508087158,
      0.028251275420188904,
      -0.0290546715259552,
      0.029832899570465088,
      0.029856622219085693,
      -0.0293741375207901,
      -0.029555276036262512,
      -0.029681503772735596,
      -0.029083430767059326,
      0.02958989143371582,
      0.030010715126991272,
      -0.0037170080468058586,
      -0.027179434895515442,
      0.029345914721488953,
      0.029434893280267715,
      -0.029422923922538757,
      -0.02972373366355896,
      -0.02065497636795044,
      0.030046382918953896,
      -0.02515541762113571,
      -0.014188289642333984,
      -0.02532101981341839,
      -0.029911532998085022,
      -0.026850640773773193,
      0.029416710138320923,
      -0.02985386550426483,
      -0.02879270911216736,
      0.02987194061279297,
      -0.028974026441574097,
      0.02994897961616516,
      0.029310613870620728,
      -0.02992194890975952,
      0.010374575853347778,
      0.029967546463012695,
      -0.029590323567390442,
      0.029978765174746513,
      0.029235228896141052,
      -0.024664700031280518,
      -0.019100502133369446,
      -0.029177261516451836,
      -0.027394242584705353,
      0.030002400279045105,
      -0.02945937216281891,
      -0.015590332448482513,
      -0.027212660759687424,
      0.029276683926582336,
      0.02969495952129364,
      -0.027386248111724854,
      -0.02787446230649948,
      -0.027395978569984436,
      0.02887323498725891,
      0.005534932017326355,
      -0.029427658766508102,
      -0.025927752256393433,
      -0.02444949746131897,
      -0.028775639832019806,
      0.02947436273097992,
      -0.029613375663757324,
      -0.029081914573907852,
      0.02894897386431694,
      -0.029011398553848267,
      0.029426991939544678,
      -0.027505502104759216,
      -0.0011765919625759125,
      -0.02743622660636902,
      -0.026606932282447815,
      -0.028646796941757202,
      0.029500827193260193,
      -0.008229836821556091,
      -0.02407689392566681,
      -0.029513435438275337,
      -0.027434632182121277,
      -0.024297505617141724,
      -0.022042125463485718,
      -0.026006966829299927,
      -0.026603981852531433,
      -0.022368140518665314,
      -0.01791178435087204,
      -0.023334503173828125,
      -0.022910987958312035,
      -0.02611764706671238,
      -0.024393752217292786,
      -0.021879926323890686,
      -0.024947255849838257,
      -0.017483055591583252,
      -0.02324528992176056,
      -0.026673659682273865,
      -0.024729162454605103,
      0.029151596128940582,
      -0.023651963099837303,
      -0.022629916667938232,
      0.027747035026550293,
      -0.021601751446723938,
      0.028003405779600143,
      -0.020321618765592575,
      -0.027533531188964844,
      -0.02437777817249298,
      -0.017597464844584465,
      -0.02368822693824768,
      -0.017748035490512848,
      -0.015374183654785156,
      0.029353216290473938,
      0.029953807592391968,
      0.030023902654647827,
      0.029714956879615784,
      0.0023231282830238342,
      0.017824023962020874,
      0.02189081907272339,
      0.029485007748007774,
      -0.029806822538375854,
      -0.0300462543964386,
      0.030011504888534546,
      0.030034512281417847,
      0.02999398112297058,
      0.0005295276641845703,
      0.02896377444267273,
      0.028638269752264023,
      0.028863295912742615,
      0.029677003622055054,
      0.029431696981191635,
      -0.02844439446926117,
      0.030039265751838684,
      0.029803242534399033,
      -0.02919517084956169,
      0.02943781018257141,
      0.026690974831581116,
      -0.0018121898174285889,
      0.0300445556640625,
      0.029956549406051636,
      0.024177756160497665,
      0.02998998761177063,
      -0.028509370982646942,
      0.02814975380897522,
      0.02975603938102722,
      -0.02987450361251831,
      -0.029923439025878906,
      -0.029290705919265747,
      0.029926031827926636,
      0.030046820640563965,
      0.003072112798690796,
      -0.018440062180161476,
      0.02972756326198578,
      0.02984512969851494,
      0.028665974736213684,
      -0.02982233464717865,
      0.028439171612262726,
      0.029964908957481384,
      -0.017007581889629364,
      -0.01360049843788147,
      -0.018227778375148773,
      0.02884434163570404,
      -0.010458037257194519,
      0.029895871877670288,
      -0.029826894402503967,
      -0.0290851891040802,
      0.03004518151283264,
      -0.029238559305667877,
      0.029726684093475342,
      0.02977505326271057,
      -0.028967760503292084,
      0.02988588623702526,
      0.029817983508110046,
      -0.029920369386672974,
      0.030041024088859558,
      0.0298306941986084,
      -0.025220315903425217,
      0.02993173897266388,
      0.03004509210586548,
      0.029688268899917603,
      -0.02981981635093689,
      0.009552180767059326,
      0.02653401345014572,
      0.029625095427036285,
      -0.012993603944778442,
      -0.003268629312515259,
      0.029958903789520264,
      0.029926419258117676,
      0.029925823211669922,
      -0.029573559761047363,
      0.02934819459915161,
      0.029838990420103073,
      0.029947176575660706,
      -0.02904357761144638,
      0.029042214155197144,
      -0.02992691472172737,
      0.028720512986183167,
      0.029103949666023254,
      -0.029239460825920105,
      0.026720374822616577,
      -0.029926642775535583,
      0.02865988202393055,
      0.03004516288638115,
      0.02951204776763916,
      0.023210346698760986,
      0.030028238892555237,
      -0.02975407987833023,
      0.025451410561800003,
      0.0,
      -0.026113122701644897,
      -0.02187424711883068,
      -0.02539290487766266,
      0.0,
      0.0,
      -0.021875038743019104,
      0.0,
      -0.028438255190849304,
      0.0,
      0.0,
      -0.028196722269058228,
      0.0,
      -0.02186967432498932,
      -0.025375019758939743,
      -0.026375561952590942,
      -0.0277303084731102,
      0.0,
      0.0,
      -0.026078104972839355,
      0.0,
      0.0,
      0.0,
      0.0,
      -0.02247023582458496,
      0.0,
      0.0,
      -0.021869108080863953,
      0.0,
      -0.02719353511929512,
      -0.02187933959066868,
      -0.01590779423713684,
      0.028995096683502197,
      0.029972268268465996,
      0.030040651559829712,
      0.0296974778175354,
      -0.029909849166870117,
      -0.03004734218120575,
      0.028741255402565002,
      0.028002597391605377,
      -0.02905513346195221,
      -0.02988569065928459,
      0.029744848608970642,
      0.03000032901763916,
      -0.027417972683906555,
      -0.03000335395336151,
      0.023539260029792786,
      0.0258750319480896,
      0.0289505273103714,
      0.029972314834594727,
      0.028643012046813965,
      -0.0295850932598114,
      0.03002343326807022,
      0.02965867519378662,
      -0.030045032501220703,
      0.029769539833068848,
      -0.02996167540550232,
      -0.029595904052257538,
      -0.01830609142780304,
      0.02882545441389084,
      -0.03002670407295227,
      0.02998124063014984,
      -0.030033469200134277,
      -0.029770053923130035,
      0.029163837432861328,
      0.029972925782203674,
      0.02938401699066162,
      0.029762059450149536,
      -0.029390066862106323,
      -0.02996326982975006,
      -0.017392151057720184,
      0.027518779039382935,
      -0.029654234647750854,
      -0.029983460903167725,
      0.029969364404678345,
      0.029973089694976807,
      0.005595289170742035,
      -0.02940603345632553,
      0.026428744196891785,
      0.029193252325057983,
      0.020173266530036926,
      0.027345195412635803,
      0.028266340494155884,
      -0.02939377725124359,
      0.03004966676235199,
      0.029680252075195312,
      -0.02981691062450409,
      0.02964445948600769,
      -0.023286521434783936,
      -0.029987255111336708,
      0.027654364705085754,
      -0.024053335189819336,
      -0.024964094161987305,
      0.030035488307476044,
      -0.029811307787895203,
      -0.029911518096923828,
      -0.017471006140112877,
      -0.029577745124697685,
      -0.029175877571105957,
      -0.02877742052078247,
      0.029722370207309723,
      0.03003731369972229,
      -0.020352516323328018,
      -0.019868776202201843,
      0.0292510986328125,
      0.029518216848373413,
      0.026085808873176575,
      -0.029353022575378418,
      0.026293013244867325,
      0.03004714846611023,
      -0.025021888315677643,
      0.029416799545288086,
      -0.022804634645581245,
      -0.027870595455169678,
      -0.02108374983072281,
      0.0294359028339386,
      -0.028723131865262985,
      -0.027615949511528015,
      0.02992173284292221,
      -0.02618364244699478,
      0.029979363083839417,
      0.02941203862428665,
      -0.029721617698669434,
      0.0010571032762527466,
      0.02963961660861969,
      -0.029549777507781982,
      0.030018135905265808,
      0.029527142643928528,
      -0.011751458048820496,
      -0.016671031713485718,
      -0.028035186231136322,
      -0.025465641170740128,
      0.02990405261516571,
      0.030027106404304504,
      0.0016217231750488281,
      -0.023011885583400726,
      0.0298863984644413,
      0.0297585129737854,
      -0.026186883449554443,
      -0.029016917571425438,
      0.02886640653014183,
      0.029998749494552612,
      0.003035426139831543,
      -0.018603891134262085,
      -0.02546525001525879,
      0.00032842159271240234,
      -0.004663586616516113,
      0.02998301386833191,
      -0.029701173305511475,
      -0.028331542387604713,
      0.030043281614780426,
      -0.02913728356361389,
      0.029986657202243805,
      0.029591821134090424,
      0.028962895274162292,
      0.004101035185158253,
      0.029727190732955933,
      -0.028592698276042938,
      0.029995564371347427,
      0.029728740453720093,
      -0.01908797025680542,
      -0.029752325266599655,
      -0.029364198446273804,
      -0.029184415936470032,
      0.029770344495773315,
      0.03004443645477295,
      -0.015966705977916718,
      -0.027393095195293427,
      0.029688358306884766,
      0.029755383729934692,
      -0.02970173954963684,
      -0.03000400960445404,
      -0.008051029406487942,
      0.0300275981426239,
      -0.022787660360336304,
      -0.01437351107597351,
      -0.02681110054254532,
      -0.023748859763145447,
      -0.021428093314170837,
      0.029790833592414856,
      -0.029422055929899216,
      -0.028809964656829834,
      0.030008524656295776,
      -0.028415817767381668,
      0.029874294996261597,
      0.02968711405992508,
      -0.02599482424557209,
      -0.015566736459732056,
      0.029936015605926514,
      -0.02976614236831665,
      0.030032318085432053,
      0.02956262230873108,
      0.029017210006713867,
      0.023770146071910858,
      -0.028702810406684875,
      -0.017503567039966583,
      0.029889747500419617,
      0.0300055593252182,
      0.03000970184803009,
      0.029868490993976593,
      0.029957503080368042,
      0.029895156621932983,
      0.029921144247055054,
      0.0134962797164917,
      0.030039794743061066,
      0.030043214559555054,
      0.030018813908100128,
      0.029903613030910492,
      0.029804296791553497,
      0.028611745685338974,
      -0.006433509290218353,
      0.029960602521896362,
      -0.02819400280714035,
      -0.0025231242179870605,
      0.029994815587997437,
      0.028974831104278564,
      0.03004930540919304,
      0.02979893982410431,
      0.0269525945186615,
      0.029866114258766174,
      0.030046701431274414,
      -0.02704314887523651,
      0.029958605766296387,
      0.029925353825092316,
      -0.027617622166872025,
      0.029465317726135254,
      0.013044238090515137,
      0.028730139136314392,
      -0.02843223512172699,
      -0.029114359989762306,
      0.023878440260887146,
      -0.029224388301372528,
      -0.027928590774536133,
      -0.028272390365600586,
      -0.02840256690979004,
      -0.029021626338362694,
      -0.029028475284576416,
      -0.029125455766916275,
      -0.02578461915254593,
      -0.029496170580387115,
      -0.02844417095184326,
      -0.028360307216644287,
      -0.02897109091281891,
      -0.027523517608642578,
      -0.025704383850097656,
      0.0,
      -0.028921961784362793,
      0.028781011700630188,
      -0.029029130935668945,
      -0.028362005949020386,
      -0.026457540690898895,
      -0.026042789220809937,
      -0.029066085815429688,
      0.029055774211883545,
      -0.028972074389457703,
      -0.028184324502944946,
      0.026510924100875854,
      -0.01197565346956253,
      0.017346471548080444,
      -0.024044841527938843,
      0.02936939150094986,
      0.029447220265865326,
      0.02830001711845398,
      0.019790560007095337,
      0.029069319367408752,
      0.028263963758945465,
      -0.02919861115515232,
      -0.028745591640472412,
      0.025329511612653732,
      0.029642228037118912,
      0.02589055523276329,
      0.02707495167851448,
      0.0049682557582855225,
      0.02859899401664734,
      0.029108837246894836,
      0.029067326337099075,
      0.016572624444961548,
      0.019350565969944,
      0.028803646564483643,
      0.01987174153327942,
      0.028830185532569885,
      0.028996657580137253,
      0.015235655009746552,
      0.0275418758392334,
      0.028992831707000732,
      -0.0286862850189209,
      0.028504610061645508,
      0.028532356023788452,
      0.029288746416568756,
      0.03003741055727005,
      0.029770731925964355,
      0.029961302876472473,
      0.02519574575126171,
      0.029572829604148865,
      0.030047327280044556,
      0.029596693813800812,
      0.029690071940422058,
      0.022869542241096497,
      0.02997361123561859,
      0.0300202164798975,
      0.02982369065284729,
      0.023933734744787216,
      0.029977411031723022,
      0.029610037803649902,
      0.029296278953552246,
      0.029541224241256714,
      0.029902584850788116,
      0.029810883104801178,
      0.029761329293251038,
      0.03001740574836731,
      0.029993146657943726,
      0.029919087886810303,
      0.029602792114019394,
      0.029874105006456375,
      0.03004702925682068,
      0.029972098767757416,
      0.029526367783546448,
      0.030032232403755188,
      0.021711885929107666,
      0.028859630227088928,
      0.030034121125936508,
      -0.018778353929519653,
      0.030039161443710327,
      0.027902990579605103,
      -0.027879320085048676,
      0.029830418527126312,
      0.029907554388046265,
      0.029959790408611298,
      -0.02873334288597107,
      -0.0277586430311203,
      0.026174679398536682,
      0.029791176319122314,
      0.003827407956123352,
      -0.02777605876326561,
      -0.02457326650619507,
      0.029864661395549774,
      0.02755694091320038,
      0.030046802014112473,
      0.02991354465484619,
      -0.029116272926330566,
      0.030033722519874573,
      0.029880285263061523,
      -0.030042171478271484,
      0.03004354238510132,
      -0.02955288253724575,
      0.026738900691270828,
      0.0036708563566207886,
      0.028090238571166992,
      -0.02996859699487686,
      0.030044201761484146,
      -0.029850423336029053,
      -0.028400763869285583,
      -0.028752759099006653,
      -0.02934228628873825,
      -0.029102608561515808,
      -0.028887033462524414,
      -0.02436859905719757,
      -0.026028752326965332,
      -0.026938334107398987,
      -0.0284966379404068,
      -0.02819761633872986,
      -0.026243731379508972,
      -0.0283682718873024,
      -0.02936595305800438,
      -0.02847084403038025,
      -0.026604726910591125,
      -0.028860241174697876,
      -0.027802616357803345,
      -0.028499530628323555,
      -0.028930647298693657,
      -0.02865271270275116,
      -0.029123693704605103,
      -0.02913317084312439,
      -0.02830445021390915,
      -0.02888205647468567,
      -0.028307393193244934,
      -0.02911866456270218,
      -0.029209256172180176,
      -0.02943333238363266,
      -0.028877705335617065,
      -0.02859313040971756,
      -0.029264308512210846,
      -0.02542226016521454,
      -0.028481192886829376,
      0.029987957328557968,
      0.02987562119960785,
      0.02997964434325695,
      0.029370084404945374,
      -0.02970767766237259,
      -0.030030537396669388,
      0.02091427892446518,
      0.028505265712738037,
      -0.029546000063419342,
      -0.029691770672798157,
      0.029751218855381012,
      0.030015762895345688,
      0.014321625232696533,
      -0.030039936304092407,
      0.025724634528160095,
      0.020360436290502548,
      0.025432318449020386,
      0.029987920075654984,
      0.028050974011421204,
      -0.02957041561603546,
      0.029971376061439514,
      0.02929970622062683,
      -0.029985684901475906,
      0.02946963906288147,
      -0.029964663088321686,
      -0.02955406904220581,
      0.030046433210372925,
      0.027163103222846985,
      -0.02994932234287262,
      0.029854118824005127,
      -0.03003990650177002,
      -0.029491081833839417,
      0.02627617120742798,
      0.03002835623919964,
      0.028983548283576965,
      0.030024230480194092,
      0.006174333393573761,
      0.02748522162437439,
      0.02991829812526703,
      0.029983840882778168,
      0.027946174144744873,
      -0.021609961986541748,
      0.02997257560491562,
      0.030020952224731445,
      0.029846251010894775,
      0.020218580961227417,
      0.02998444065451622,
      0.029768746346235275,
      0.029569268226623535,
      0.026313669979572296,
      0.02900661528110504,
      0.029895305633544922,
      0.029075216501951218,
      0.030040975660085678,
      -0.02954918146133423,
      0.029949963092803955,
      0.029947251081466675,
      0.02920699119567871,
      0.028376054018735886,
      0.028655171394348145,
      0.028843432664871216,
      0.030018921941518784,
      -0.02200990915298462,
      0.029767237603664398,
      0.029336750507354736,
      0.029752656817436218,
      0.02921348810195923,
      0.02999359369277954,
      -0.028315827250480652,
      -0.029326386749744415,
      0.027533724904060364,
      0.03003212809562683,
      0.019793130457401276,
      -0.003734022378921509,
      0.03000737354159355,
      0.029239550232887268,
      0.03003600239753723,
      -0.027447722852230072,
      0.02985614538192749,
      0.02999728173017502,
      0.029737114906311035,
      0.029040634632110596,
      0.02998082898557186,
      -0.026820391416549683,
      0.029546884819865227,
      0.03003104031085968,
      -0.025936618447303772,
      0.030002832412719727,
      0.029814794659614563,
      0.02944883704185486,
      0.02906610071659088,
      0.029298096895217896,
      0.029918938875198364,
      0.029824644327163696,
      -0.0019466280937194824,
      0.02995908260345459,
      0.02939620614051819,
      -0.029581818729639053,
      -0.026515714824199677,
      -0.03004395216703415,
      0.0297367125749588,
      0.029269494116306305,
      0.028867661952972412,
      0.028945311903953552,
      0.029902756214141846,
      0.02971680462360382,
      0.029455527663230896,
      -0.028573349118232727,
      0.02913038432598114,
      0.029177017509937286,
      0.026965290307998657,
      0.030031900852918625,
      0.028063595294952393,
      0.029195278882980347,
      0.029131382703781128,
      0.029873579740524292,
      -0.026769816875457764,
      -0.004741046577692032,
      0.029318824410438538,
      -0.005963459610939026,
      0.029325783252716064,
      0.029950648546218872,
      0.029646657407283783,
      0.029845794662833214,
      0.029368668794631958,
      -0.029386501759290695,
      0.029301296919584274,
      0.02979440987110138,
      -0.029743194580078125,
      -0.029506761580705643,
      -0.029715925455093384,
      -0.028835207223892212,
      0.029627397656440735,
      0.028039798140525818,
      -0.029461756348609924,
      -0.028808824717998505,
      0.02532072365283966,
      0.02951774373650551,
      -0.029554620385169983,
      -0.02970602922141552,
      -0.02877214178442955,
      0.030037790536880493,
      -0.02780149132013321,
      -0.02879655361175537,
      -0.028795093297958374,
      -0.02975112944841385,
      -0.02908720076084137,
      -0.0145396888256073,
      -0.029701486229896545,
      -0.029358893632888794,
      0.030034631490707397,
      -0.029413744807243347,
      -0.02596449851989746,
      -0.030025199055671692,
      -0.02978968620300293,
      -0.02994304895401001,
      -0.024006366729736328,
      -0.02966877818107605,
      0.028652869164943695,
      0.029546041041612625,
      0.027051717042922974,
      -0.02908240258693695,
      -0.028586387634277344,
      -0.02784961462020874,
      -0.02874813973903656,
      -0.02219146490097046,
      -0.02414211630821228,
      -0.02564099431037903,
      0.025564119219779968,
      0.0104590505361557,
      -0.02755950391292572,
      -0.028438732028007507,
      -0.02777230739593506,
      -0.027821272611618042,
      -0.02903345413506031,
      -0.02673567831516266,
      -0.026453576982021332,
      0.029221519827842712,
      -0.021913988515734673,
      0.01892070472240448,
      -0.024521276354789734,
      -0.025885477662086487,
      0.02971382439136505,
      -0.028574388474225998,
      -0.02782999724149704,
      -0.02560170367360115,
      -0.02952837198972702,
      0.02905610203742981,
      -0.027306556701660156,
      -0.02825607918202877,
      0.029585890471935272,
      -0.026294738054275513,
      -0.02909068763256073,
      0.029950648546218872,
      0.029950127005577087,
      0.02945105731487274,
      -0.02964072674512863,
      -0.03003130853176117,
      -0.02996419370174408,
      0.012425824999809265,
      -0.02971772849559784,
      -0.029691100120544434,
      -0.029035285115242004,
      0.03004450350999832,
      -0.029960256069898605,
      -0.030047208070755005,
      0.010460016317665577,
      -0.029914408922195435,
      -0.02987462282180786,
      -0.02951451763510704,
      -0.029978543519973755,
      -0.02964465320110321,
      0.029321953654289246,
      0.022925762459635735,
      -0.029983773827552795,
      0.02768722176551819,
      -0.030033297836780548,
      -0.029665758833289146,
      -0.027464106678962708,
      -0.029731810092926025,
      -0.030019652098417282,
      0.02985631674528122,
      -0.030034765601158142,
      -0.02950066328048706,
      -0.029772408306598663,
      -0.029813334345817566,
      0.028184473514556885,
      0.026983290910720825,
      -0.029459908604621887,
      -0.029954254627227783,
      -0.02960672602057457,
      -0.029721498489379883,
      -0.028998814523220062,
      -0.028812676668167114,
      -0.026147909462451935,
      0.029312223196029663,
      -0.027064383029937744,
      -0.029614225029945374,
      -0.029412876814603806,
      -0.029839392751455307,
      -0.02341216802597046,
      -0.028913632035255432,
      -0.02914772927761078,
      -0.02967529371380806,
      0.029866814613342285,
      0.028925880789756775,
      -0.029636815190315247,
      -0.029724285006523132,
      -0.029970258474349976,
      -0.028810657560825348,
      -0.02751888334751129,
      -0.02589114010334015,
      -0.03003259003162384,
      0.019401565194129944,
      -0.029713138937950134,
      -0.02947394549846649
    ],
    [
      0.029653627425432205,
      -0.027096575126051903,
      -0.02454337850213051,
      -0.024928130209445953,
      0.026839256286621094,
      0.004896393045783043,
      -0.027177315205335617,
      -0.028296858072280884,
      -0.024140283465385437,
      0.029611047357320786,
      -0.0013097850605845451,
      0.029952265322208405,
      -0.025506827980279922,
      0.029415030032396317,
      0.02954060584306717,
      -0.01876535825431347,
      -0.0022797812707722187,
      -0.02461410127580166,
      0.029858488589525223,
      -0.02895481139421463,
      0.028147460892796516,
      0.030047770589590073,
      0.029731733724474907,
      -0.028817113488912582,
      0.028950097039341927,
      0.03000696934759617,
      0.029938293620944023,
      0.029628921300172806,
      -0.02933226339519024,
      -0.027675587683916092,
      -0.030001286417245865,
      -0.029899444431066513
    ],
    [
      0.029862504452466965,
      -0.02628593146800995,
      0.029172033071517944,
      0.02549716830253601,
      0.005609869956970215,
      0.0037994086742401123,
      -0.0081435926258564,
      -0.023180440068244934,
      -0.026233840733766556,
      -0.030006110668182373,
      0.02903228998184204,
      -0.029989734292030334,
      -0.025845855474472046,
      -0.02996024489402771,
      -0.03003506362438202,
      -0.009104728698730469,
      0.003547757863998413,
      -0.004577517509460449,
      0.03001311421394348,
      0.028157588094472885,
      0.027994081377983093,
      -0.029904067516326904,
      -0.02894766628742218,
      -0.027816470712423325,
      0.02456042170524597,
      -0.030044108629226685,
      -0.030043357983231544,
      0.030021509155631065,
      -0.029137812554836273,
      -0.026611682027578354,
      0.02928638458251953,
      0.028768539428710938
    ],
    [
      -0.029108520597219467
    ]
  ],
  "num_updates": 1,
  "client_ids": [
    "client-2"
  ],
  "mean_final_loss": 7.529969692230225,
  "aggregation_timestamp": 1784209283.8548536
}