{
  "version": "v84",
  "base_version": "v83",
  "round_id": 253,
  "aggregation": "fedavg",
  "averaged_weight_delta": [
    [
      2.60770320892334e-06,
      0.029586471617221832,
      0.00011189654469490051,
      -2.277269959449768e-05,
      9.211897850036621e-05,
      -0.00011625885963439941,
      0.00015800818800926208,
      5.331262946128845e-05,
      -0.000151023268699646,
      0.00035526975989341736,
      0.0006360188126564026,
      0.02900376170873642,
      0.029901348054409027,
      0.02880758047103882,
      0.029726475477218628,
      0.029917685315012932,
      0.0298803448677063,
      0.02983635663986206,
      0.02971697598695755,
      0.029767759144306183,
      0.02999843657016754,
      0.029532983899116516,
      0.02982650324702263,
      0.028824906796216965,
      0.02996397763490677,
      0.02997826412320137,
      0.030010610818862915,
      0.029919014312326908,
      0.029159240424633026,
      0.02958628535270691,
      0.02944109868258238,
      -0.0024185720831155777,
      -0.0002168305218219757,
      -0.0008245259523391724,
      -0.002650272101163864,
      -0.0004216432571411133,
      -0.000757100060582161,
      -0.0007227696478366852,
      -0.0005342438817024231,
      -0.001110851764678955,
      -0.00016745179891586304,
      3.542006015777588e-05,
      -0.011681169271469116,
      -0.00025371089577674866,
      -0.012222681194543839,
      -0.00015107542276382446,
      0.0002503693103790283,
      -0.00026351213455200195,
      -0.00018292665481567383,
      -0.0001228824257850647,
      0.024055469781160355,
      -0.009476739913225174,
      0.005759179592132568,
      -1.1105090379714966e-05,
      -0.00011994689702987671,
      0.001605704426765442,
      4.381127655506134e-05,
      0.0007620975375175476,
      -0.0015171319246292114,
      -0.0007159430533647537,
      0.001124585047364235,
      -0.028005294501781464,
      0.001806347630918026,
      -0.00036106258630752563,
      0.012332405894994736,
      0.00343327596783638,
      0.01389305293560028,
      0.015224635601043701,
      -0.0030332207679748535,
      0.0005666613578796387,
      -0.0005650166422128677,
      0.02923402190208435,
      -0.007102206349372864,
      -0.0003003254532814026,
      0.022006504237651825,
      -0.021875128149986267,
      -0.00010878406465053558,
      -0.0001867339015007019,
      0.0002526296302676201,
      -0.0008904160931706429,
      -0.028646063059568405,
      -0.014702225103974342,
      -0.010790850967168808,
      -0.026459097862243652,
      -0.029254840686917305,
      -0.027457088232040405,
      -0.02837308496236801,
      -0.022234467789530754,
      -0.027862966060638428,
      -0.025253288447856903,
      0.003563043661415577,
      -6.940960884094238e-05,
      0.009053252637386322,
      0.0041897594928741455,
      -0.0013334890827536583,
      0.00015906989574432373,
      0.0020875632762908936,
      0.02974214404821396,
      0.014182746410369873,
      0.014706499874591827,
      -0.02894603554159403,
      -0.0002781953662633896,
      -0.026153068989515305,
      0.017629623413085938,
      -0.0027665849775075912,
      -0.028585808351635933,
      -0.0008792467415332794,
      -0.0011774897575378418,
      -0.00013355910778045654,
      -0.00027233734726905823,
      0.0008000098168849945,
      0.0018979590386152267,
      0.0010795369744300842,
      -0.020911701023578644,
      0.00020608305931091309,
      -0.0015551447868347168,
      -0.027264732867479324,
      0.0014719441533088684,
      -0.02684834599494934,
      0.0002752356231212616,
      0.026641100645065308,
      -0.0011552069336175919,
      -0.0005749911069869995,
      -0.0007996931672096252,
      0.00988762080669403,
      0.025497574359178543,
      0.017195495776832104,
      0.012486748397350311,
      0.02725131157785654,
      -0.00228152796626091,
      -0.0005784258246421814,
      -0.013373641297221184,
      -0.005353379994630814,
      -0.013640627264976501,
      -0.0030765533447265625,
      -0.0011815913021564484,
      -0.0009494125843048096,
      -0.0021112365648150444,
      -0.02940073050558567,
      -0.004906561225652695,
      0.029491081833839417,
      0.029923290014266968,
      0.02955032791942358,
      0.016325347125530243,
      0.0002065598964691162,
      0.02982248831540346,
      0.02962411567568779,
      0.02942349575459957,
      0.026554644107818604,
      0.028360411524772644,
      0.02940674126148224,
      0.004042282700538635,
      0.016949202865362167,
      0.029751339927315712,
      0.029897473752498627,
      0.02981145679950714,
      0.029327061027288437,
      0.029654063284397125,
      0.024897083640098572,
      0.029070427641272545,
      -0.00637603085488081,
      0.007194755598902702,
      -0.0008041262626647949,
      0.02047294331714511,
      -0.028947845101356506,
      -0.028816699981689453,
      0.027453984133899212,
      0.014078397303819656,
      0.009616479277610779,
      -0.0072704702615737915,
      -0.00018361210823059082,
      0.0008699549362063408,
      -0.0060398876667022705,
      -0.0008475510403513908,
      -0.001448754221200943,
      -0.005744177848100662,
      -0.014488566666841507,
      -0.0009318357333540916,
      -0.003334254026412964,
      -0.0016429927200078964,
      0.025275289081037045,
      -0.0010903477668762207,
      0.0004528537392616272,
      0.013879377394914627,
      0.02937880903482437,
      0.028261108323931694,
      0.021434128284454346,
      0.02447006106376648,
      -5.2072107791900635e-05,
      0.027474477887153625,
      -0.02808350697159767,
      -0.027833789587020874,
      -0.0018193721771240234,
      -0.0075048767030239105,
      -0.011724069714546204,
      -0.010346829891204834,
      -0.007642287760972977,
      -0.009826389141380787,
      -0.010429302230477333,
      -0.012028943747282028,
      0.02876320108771324,
      0.026777856051921844,
      0.027401424944400787,
      2.250727266073227e-05,
      0.029099881649017334,
      0.029417574405670166,
      0.02520737797021866,
      0.02897204551845789,
      0.0003844108432531357,
      0.029315464198589325,
      -0.02909667417407036,
      -0.029644742608070374,
      -0.029421321116387844,
      -0.029681649059057236,
      -0.029365774244070053,
      -0.028357568196952343,
      -0.02971893921494484,
      -0.029767192900180817,
      -0.029610710218548775,
      -0.027226245030760765,
      7.454119622707367e-05,
      0.0006979145109653473,
      0.0003604888916015625,
      3.882870078086853e-05,
      0.015762612223625183,
      -5.349237471818924e-05,
      -0.00028370320796966553,
      7.287412881851196e-05,
      0.0001345798373222351,
      0.0011258386075496674,
      -0.00043798983097076416,
      -0.012613475322723389,
      -0.0007893294095993042,
      -0.009435266256332397,
      0.001187855377793312,
      -0.018183553591370583,
      -0.01138848066329956,
      -0.01135304570198059,
      -0.0016962457448244095,
      -0.00145798921585083,
      -0.029248490929603577,
      -0.007570125162601471,
      -0.025709137320518494,
      -0.02987583354115486,
      -0.029286064207553864,
      -0.029542995616793633,
      -0.029732994735240936,
      -0.02989128977060318,
      0.024517349898815155,
      -0.029605623334646225,
      0.0008421838283538818,
      0.0007222890853881836,
      0.00018856581300497055,
      0.028646759688854218,
      -0.0001739785075187683,
      0.00010421872138977051,
      0.0009333938360214233,
      0.0001413486897945404,
      0.001031145453453064,
      0.00022863969206809998,
      -0.029842793941497803,
      -0.027921229600906372,
      -0.02990267239511013,
      -0.02941427379846573,
      -0.02962167002260685,
      -0.02983449399471283,
      -0.029739126563072205,
      -0.029674459248781204,
      -0.0015065781772136688,
      -0.029282965697348118,
      -2.1733343601226807e-05,
      -0.01599351316690445,
      7.881596684455872e-05,
      0.018548227846622467,
      0.020123273134231567,
      0.014042288064956665,
      0.0003697797656059265,
      -0.0003504352644085884,
      -0.0005340874195098877,
      -0.0009702257812023163,
      -0.02324497140944004,
      -0.022612720727920532,
      -0.0010935701429843903,
      0.00033563002943992615,
      -0.028817939572036266,
      -0.024194970726966858,
      -0.011918321251869202,
      -0.01586034893989563,
      0.0002538412809371948,
      0.00018990039825439453,
      0.02485274150967598,
      -0.023945987224578857,
      0.025487687438726425,
      0.02435152232646942,
      0.0006554126739501953,
      0.01955808326601982,
      0.019355803728103638,
      0.01922466978430748,
      0.02504802495241165,
      0.022308317944407463,
      0.028922606259584427,
      0.0243968665599823,
      0.00015363097190856934,
      -0.000829547643661499,
      0.016587447375059128,
      0.01115477830171585,
      -0.0008998420089483261,
      0.01570769026875496,
      -0.020943664014339447,
      0.02786986529827118,
      -0.027880786918103695,
      -0.0283721461892128,
      0.01806369563564658,
      -0.0075105056166648865,
      -0.017064344137907028,
      -0.028007857501506805,
      0.02255914732813835,
      0.013995170593261719,
      -0.021697798743844032,
      -0.028457166627049446
    ],
    [
      0.008001957088708878,
      0.003313216380774975,
      0.016642712289467454,
      0.003115028142929077,
      0.0008445205166935921,
      0.025631023570895195,
      -0.020226369611918926,
      0.0203345762565732,
      -0.012077246559783816,
      0.0005520731210708618,
      -0.0003417953848838806,
      -0.02619146090000868,
      -0.018640772439539433,
      0.029849596321582794,
      0.0009106211364269257,
      -0.010029685916379094,
      0.007923181634396315,
      0.014075114857405424,
      0.0011941660195589066,
      0.0005007646977901459,
      0.010320428758859634,
      7.627531886100769e-07,
      -0.022190474905073643,
      -0.007827216060832143,
      0.029293257743120193,
      -0.014598850160837173,
      -3.925338387489319e-05,
      -0.02126623783260584,
      -0.0005779629573225975,
      0.005879155360162258,
      -0.013020912185311317,
      0.028450213372707367
    ],
    [
      -0.0004956722259521484,
      0.029687240719795227,
      0.025206580758094788,
      0.0006275447085499763,
      0.0014861375093460083,
      0.030025184154510498,
      -0.025693345814943314,
      -0.0011526457965373993,
      0.030029144138097763,
      0.028361881151795387,
      0.0010861754417419434,
      0.02796737104654312,
      0.029877061024308205,
      0.0017116144299507141,
      -0.02760437410324812,
      0.006527520716190338,
      0.014560367912054062,
      9.831972420215607e-05,
      0.028647035360336304,
      0.0019373223185539246,
      0.0018564984202384949,
      0.030046332627534866,
      0.029022805392742157,
      4.343688488006592e-05,
      0.01393718272447586,
      0.02982512302696705,
      0.003693915903568268,
      0.003153562545776367,
      0.000696488656103611,
      -0.00028047990053892136,
      -0.023688074201345444,
      0.0002419017255306244,
      -0.02786099910736084,
      -5.42178750038147e-05,
      -0.027270697057247162,
      -0.0002133697271347046,
      -0.02839476615190506,
      -0.00044152699410915375,
      -0.026428576558828354,
      -0.028091153129935265,
      0.027719072997570038,
      -0.004955261945724487,
      -0.0008292924612760544,
      -0.027353903278708458,
      -0.026457689702510834,
      -0.0013133417814970016,
      -0.028038911521434784,
      -0.024417150765657425,
      -0.001524604856967926,
      -0.02722005546092987,
      0.004634281620383263,
      -0.0010554194450378418,
      -0.027042627334594727,
      0.027807846665382385,
      -0.02769366279244423,
      -0.028073541820049286,
      0.00033370405435562134,
      0.02815881371498108,
      -0.0239553302526474,
      -0.0005735233426094055,
      -0.026659809052944183,
      9.866058826446533e-05,
      -0.02355586551129818,
      -0.02836878690868616,
      -0.022536014206707478,
      0.0006391927599906921,
      0.029579687863588333,
      -0.026055343449115753,
      -0.02601764351129532,
      0.00014843419194221497,
      0.028863340616226196,
      -0.0007205158472061157,
      -9.51811671257019e-06,
      0.02976110205054283,
      -0.029545538127422333,
      0.0024765506386756897,
      0.0022503184154629707,
      -0.02714872919023037,
      0.0008400743827223778,
      0.029436081647872925,
      0.0004826560616493225,
      -0.012423377484083176,
      0.0002393387258052826,
      -0.028995605185627937,
      4.2438507080078125e-05,
      4.673004150390625e-05,
      0.02967546135187149,
      0.02993198111653328,
      0.0006030574440956116,
      0.0006109941750764847,
      0.02630365826189518,
      -0.028933383524417877,
      0.029985537752509117,
      -0.0017006173729896545,
      0.028926469385623932,
      -0.027391198091208935,
      0.015021555125713348,
      0.00015716999769210815,
      -0.01484643667936325,
      0.00029443949460983276,
      0.0008116783574223518,
      0.0002531185746192932,
      0.0010890662670135498,
      0.0006030946969985962,
      -0.029478829354047775,
      -0.023929246701300144,
      9.956397116184235e-05,
      -0.001236550509929657,
      -0.01432253047823906,
      0.0016188472509384155,
      0.029965804889798164,
      0.0025871768593788147,
      0.0010746447369456291,
      0.0010960772633552551,
      -0.0018889084458351135,
      0.002469263970851898,
      0.001465851441025734,
      -0.02798592858016491,
      -6.705522537231445e-05,
      0.02786872535943985,
      -0.013645514845848083,
      -0.028162196278572083,
      0.02550492063164711,
      0.003648988902568817,
      0.02906166762113571,
      0.0004582218825817108,
      0.0009350720793008804,
      0.004044827073812485,
      -0.00027523189783096313,
      0.01717415452003479,
      0.0005829017609357834,
      0.0002151578664779663,
      0.0033480077981948853,
      0.02947678603231907,
      -0.028923742473125458,
      0.005739628337323666,
      0.02960561215877533,
      0.00029307790100574493,
      -0.0004379004240036011,
      -0.014876242727041245,
      0.02955402433872223,
      -0.0012469254434108734,
      -0.02908829227089882,
      -0.014854887500405312,
      0.02991769090294838,
      -0.00037971511483192444,
      0.029497571289539337,
      -0.0002141818404197693,
      -0.0012433584779500961,
      0.02920011430978775,
      0.0023493319749832153,
      -0.029407577589154243,
      0.0164123997092247,
      0.014706406742334366,
      -0.02671582344919443,
      0.000515475869178772,
      0.002092832699418068,
      3.231130540370941e-05,
      -0.027652591466903687,
      -0.0024845097213983536,
      0.007558988407254219,
      -0.009825106710195541,
      0.029143494553864002,
      -0.027491888031363487,
      0.0004900172352790833,
      -0.028048820793628693,
      0.005263328552246094,
      0.0016465485095977783,
      0.029946409165859222,
      0.02979593351483345,
      -0.02832159958779812,
      0.021188899874687195,
      -0.0017554126679897308,
      0.003125382587313652,
      0.0013773180544376373,
      0.0027817636728286743,
      0.0032609980553388596,
      0.0009083375334739685,
      -0.00023827236145734787,
      -0.011952735483646393,
      0.0016299039125442505,
      0.0005994047969579697,
      0.029582398012280464,
      0.029383890330791473,
      0.029321882873773575,
      0.001211751252412796,
      0.015359741635620594,
      -0.012568697333335876,
      0.029791582375764847,
      0.0009062886238098145,
      0.02825815975666046,
      0.0017205458134412766,
      0.029996421188116074,
      -0.029088333249092102,
      0.0004222774878144264,
      -0.0005891826003789902,
      -7.65286386013031e-05,
      -0.028429074212908745,
      0.026860620826482773,
      0.029964011162519455,
      -0.029490798711776733,
      0.0005576536059379578,
      0.00022431835532188416,
      -0.027098187245428562,
      -0.027739793062210083,
      0.01693607121706009,
      0.010830190032720566,
      0.00047623738646507263,
      -0.027719084173440933,
      0.013302702456712723,
      -0.029837708920240402,
      0.0003561675548553467,
      0.028486616909503937,
      -0.029455572366714478,
      0.0007666349411010742,
      0.0009937137365341187,
      -0.028183870017528534,
      -0.029526003636419773,
      0.006837271153926849,
      -8.155405521392822e-05,
      0.0029484042897820473,
      0.028645306825637817,
      0.0013379063457250595,
      0.002440204843878746,
      0.0290959645062685,
      0.02895665168762207,
      -0.02557297796010971,
      0.029889002442359924,
      0.03000698611140251,
      -0.00037611648440361023,
      0.0021212995052337646,
      0.00728394091129303,
      -0.0140315480530262,
      -0.0037618279457092285,
      0.029864884912967682,
      -0.0048192646354436874,
      0.00014757737517356873,
      0.0273736035451293,
      0.00234383437782526,
      0.0015542395412921906,
      0.028537116944789886,
      0.005845390260219574,
      0.029428450390696526,
      0.027218976989388466,
      0.029806703329086304,
      -0.00030111148953437805,
      -0.007353141903877258,
      -0.027893205173313618,
      0.029036156833171844,
      -0.00039270520210266113,
      0.003961540758609772,
      0.029605559073388577,
      -0.027519289404153824,
      0.01655919849872589,
      0.00227963924407959,
      0.027704661712050438,
      0.029543377459049225,
      -0.029272504150867462,
      8.696317672729492e-05,
      -0.00010378658771514893,
      -8.656084537506104e-05,
      -0.02876872941851616,
      0.030043023638427258,
      0.02977748215198517,
      -0.029917847365140915,
      -0.00018887221813201904,
      0.00011447444558143616,
      0.0009627602994441986,
      -0.029188111424446106,
      0.005703948438167572,
      0.029601093381643295,
      0.029856763780117035,
      0.00014748983085155487,
      0.011308252811431885,
      -0.004214823246002197,
      0.0002892427146434784,
      0.029385696165263653,
      -0.0297992005944252,
      0.001016097143292427,
      0.01782415062189102,
      -0.025279313325881958,
      -0.028763383626937866,
      0.02952716127038002,
      0.00014577340334653854,
      5.084555596113205e-05,
      0.0023619476705789566,
      0.029516722075641155,
      0.00014162063598632812,
      -0.0034577175974845886,
      0.03000451810657978,
      0.028069384396076202,
      0.0023213252425193787,
      0.0076257092878222466,
      0.02951611578464508,
      0.0008514225482940674,
      -0.016883905977010727,
      0.029743507504463196,
      0.012868537567555904,
      -9.32980328798294e-05,
      0.029338009655475616,
      0.02989419922232628,
      -0.0003769919276237488,
      0.0012011677026748657,
      0.023410163819789886,
      0.029795045033097267,
      0.021528500132262707,
      0.02915942668914795,
      9.163655340671539e-05,
      0.028933905065059662,
      0.029607316479086876,
      0.02988976612687111,
      0.002061169594526291,
      0.029667740687727928,
      0.02980683743953705,
      -0.0010204706341028214,
      0.00036638043820858,
      0.014818277209997177,
      -0.006077520549297333,
      0.0010634064674377441,
      0.0008017271757125854,
      0.029525555670261383,
      -0.008343800902366638,
      0.001018613576889038,
      6.190501153469086e-05,
      0.029212807305157185,
      -0.003907408565282822,
      0.02991352789103985,
      0.029444074258208275,
      0.0003969809040427208,
      0.001986781135201454,
      0.0018139556050300598,
      0.012473913840949535,
      2.2405758500099182e-05,
      0.0286859180778265,
      0.02981707453727722,
      0.029803402721881866,
      -0.00041331350803375244,
      0.02912784367799759,
      -0.0024482663720846176,
      0.02915089577436447,
      0.029800605960190296,
      -0.021940983831882477,
      0.029091443866491318,
      0.001233711838722229,
      0.016532734036445618,
      -0.02056900504976511,
      0.029983818531036377,
      0.028783373534679413,
      0.0016428157687187195,
      0.029888464137911797,
      0.02980620414018631,
      0.029429689049720764,
      0.03001277893781662,
      -0.023969708010554314,
      0.0007035732269287109,
      0.00010886043310165405,
      0.01171035971492529,
      -0.029802601784467697,
      0.029758833348751068,
      0.029100652784109116,
      -0.0008468721061944962,
      0.0006433539092540741,
      -0.00041794776916503906,
      -0.014618193730711937,
      -0.0015697330236434937,
      0.03000149317085743,
      0.004346577450633049,
      0.029897211119532585,
      -0.023204313591122627,
      0.029932290315628052,
      -0.02838548645377159,
      0.023762889206409454,
      0.029846906661987305,
      -0.029426228255033493,
      -6.601959466934204e-05,
      0.0009686648845672607,
      0.0014734063297510147,
      -0.029525771737098694,
      0.029780015349388123,
      0.017958492040634155,
      9.980052709579468e-05,
      0.02982199564576149,
      0.029374077916145325,
      0.02918754704296589,
      0.028062395751476288,
      0.00036894530057907104,
      -2.3618340492248535e-06,
      -0.001538686454296112,
      -8.009374141693115e-07,
      -0.023196041584014893,
      0.02965625375509262,
      0.029672861099243164,
      -0.029750831425189972,
      0.017594214528799057,
      -0.0001585930585861206,
      -0.021866638213396072,
      -0.028961706906557083,
      0.02766454592347145,
      0.029480760917067528,
      0.029910072684288025,
      -0.02174052968621254,
      0.010093726217746735,
      -0.013648837804794312,
      5.391612648963928e-05,
      0.02952168881893158,
      -0.0002949703484773636,
      0.02905476838350296,
      0.0005984827876091003,
      -0.0016020387411117554,
      -0.02984195202589035,
      0.02965719997882843,
      -0.000251132994890213,
      0.007757335901260376,
      0.028202315792441368,
      0.029603030532598495,
      0.029013484716415405,
      0.00015982240438461304,
      0.029555082321166992,
      0.029778674244880676,
      -0.029788188636302948,
      -0.0077387988567352295,
      0.0013114139437675476,
      0.0004545673727989197,
      0.00027655065059661865,
      0.029905572533607483,
      0.02997538633644581,
      -0.029720190912485123,
      0.02908259630203247,
      0.029254507273435593,
      0.0003980277106165886,
      0.0003061685711145401,
      0.005755815654993057,
      0.00029710307717323303,
      0.00024455785751342773,
      -0.0014313627034425735,
      -0.000483781099319458,
      2.8461217880249023e-05,
      0.028069108724594116,
      0.029379352927207947,
      0.029888326302170753,
      0.029522210359573364,
      0.02370408922433853,
      0.026643428951501846,
      0.002431631088256836,
      0.02970968186855316,
      -1.1447817087173462e-05,
      0.0009186826646327972,
      -0.00018547475337982178,
      -0.0265897111967206,
      -0.02678622305393219,
      0.002101365476846695,
      -0.0020561665296554565,
      -0.02810715138912201,
      0.003400113433599472,
      -0.02680080011487007,
      -0.026763971894979477,
      0.0016785338521003723,
      -0.027745401486754417,
      -0.02147195115685463,
      -0.021108143031597137,
      0.002415858209133148,
      -0.026483669877052307,
      -0.026749253273010254,
      -0.02820533886551857,
      -0.02236679196357727,
      -0.027037903666496277,
      -0.024421587586402893,
      -0.026433084160089493,
      -0.028506096452474594,
      -0.024391470476984978,
      -0.025898687541484833,
      0.0020430264994502068,
      -0.02903374284505844,
      0.004917306825518608,
      -0.02814560942351818,
      -0.02629128098487854,
      0.0013537891209125519,
      -0.028343219310045242,
      -0.02738156169652939,
      -0.028074728325009346,
      -0.0004904121160507202,
      0.02719602733850479,
      0.003721468150615692,
      0.001576986163854599,
      0.0009990651160478592,
      0.012354489415884018,
      -0.01590241864323616,
      -0.028488144278526306,
      0.004600957967340946,
      0.0020364634692668915,
      -6.277114152908325e-06,
      0.029612954705953598,
      0.003752380609512329,
      -0.02672441303730011,
      -0.02530532330274582,
      -0.012059385888278484,
      0.012739039957523346,
      9.305030107498169e-05,
      0.029891911894083023,
      -0.014619743451476097,
      -0.021144378930330276,
      0.015003517270088196,
      -0.006539512425661087,
      0.0014930684119462967,
      0.013803143054246902,
      0.02995967399328947,
      -0.025405455380678177,
      0.001362636685371399,
      0.0028673652559518814,
      -0.027973095886409283,
      -0.02546524628996849,
      -0.02782769501209259,
      -0.028646234422922134,
      0.022322267293930054,
      -0.0004393104463815689,
      0.0009065866470336914,
      0.0007493495941162109,
      0.008839111775159836,
      -0.027299270033836365,
      -0.027362875640392303,
      0.029936697334051132,
      0.0004251506179571152,
      0.0001055300235748291,
      -0.012366420589387417,
      0.02896842360496521,
      -0.01765495166182518,
      -0.028813250362873077,
      -0.027967996895313263,
      0.0016983747482299805,
      -0.029615878127515316,
      0.0011531636118888855,
      0.027687981724739075,
      -0.027634337544441223,
      0.028192920610308647,
      -0.019058138132095337,
      0.0003115646541118622,
      -0.0009566247463226318,
      0.028383533470332623,
      -0.0266486294567585,
      0.0019973069429397583,
      0.000838153064250946,
      -0.028507698327302933,
      -0.02142415288835764,
      0.00011746678501367569,
      -9.16849821805954e-05,
      -0.029099952429533005,
      -0.02964974194765091,
      0.02928575500845909,
      0.0005031600594520569,
      -0.028392162173986435,
      -0.016333598643541336,
      -0.00022128596901893616,
      -0.02662697620689869,
      -0.029315821826457977,
      0.01918690651655197,
      -0.02940306067466736,
      -0.029278524219989777,
      -0.0001133400946855545,
      5.62518835067749e-06,
      -0.027013955637812614,
      -0.02880905568599701,
      -0.017745597288012505,
      -0.025760598480701447,
      0.0002762721851468086,
      -0.02162878168746829,
      -0.027782010845839977,
      -0.02972850203514099,
      -0.029653232544660568,
      -0.029031850397586823,
      -0.028970792889595032,
      -0.020001505501568317,
      0.0006162747740745544,
      -0.029602622613310814,
      -0.00010574609041213989,
      -0.014501686673611403,
      0.00044077634811401367,
      0.029145043343305588,
      -0.026091381907463074,
      -0.0007806122303009033,
      0.0005324147641658783,
      0.004150222986936569,
      -0.029181674122810364,
      0.029850851744413376,
      0.029796957969665527,
      -0.024173774756491184,
      0.00012571737170219421,
      0.0011664442718029022,
      -0.0002919146791100502,
      -0.027465321123600006,
      0.01304781436920166,
      0.029377594590187073,
      0.005663938820362091,
      -0.027232632040977478,
      0.027540002018213272,
      -0.028310738503932953,
      0.003402348607778549,
      0.029301650822162628,
      -0.029799461364746094,
      0.0007352232933044434,
      0.0004257000982761383,
      -0.027726396918296814,
      -0.028516024351119995,
      0.0019290074706077576,
      0.0017087236046791077,
      2.2746622562408447e-05,
      0.028757914900779724,
      0.01753135770559311,
      0.010873131453990936,
      -0.01570761948823929,
      0.0010113436728715897,
      0.0017520077526569366,
      0.018077287822961807,
      -0.012577371671795845,
      0.02251303195953369,
      -0.009684151038527489,
      -0.01213030330836773,
      0.029053403064608574,
      0.0004323795437812805,
      4.8980116844177246e-05,
      0.014129206538200378,
      0.029602060094475746,
      -0.0009914860129356384,
      -0.013845086097717285,
      -0.02697606198489666,
      0.014820538461208344,
      -0.012497924268245697,
      0.02330201119184494,
      0.0211261585354805,
      -0.015243202447891235,
      -7.653981447219849e-05,
      -0.012593172490596771,
      0.00033082813024520874,
      -0.005468793213367462,
      0.0297919400036335,
      -0.003798067569732666,
      0.025852329097688198,
      -0.0135953389108181,
      0.0002248268574476242,
      -0.015196669846773148,
      -0.005968121811747551,
      -0.028703629970550537,
      9.48682427406311e-05,
      -0.02835206687450409,
      0.000880461186170578,
      0.0017564892768859863,
      0.0015857145190238953,
      -0.02760740928351879,
      -0.02901364490389824,
      0.001041419804096222,
      -0.029445700347423553,
      6.85565173625946e-05,
      -0.0004664324223995209,
      0.005919773131608963,
      -0.0001470707356929779,
      -0.028434820473194122,
      -0.029271990060806274,
      0.0016991868615150452,
      -0.001857692375779152,
      0.001149570569396019,
      -0.0001168958842754364,
      -0.029232583940029144,
      0.0005866736173629761,
      -0.025795944035053253,
      -0.028454206883907318,
      0.0008708853274583817,
      0.0018072780221700668,
      -0.028556324541568756,
      0.00010822713375091553,
      -0.01547718234360218,
      -0.0012135691940784454,
      -0.029026277363300323,
      -0.0009562857449054718,
      0.0167365875095129,
      0.0008422769606113434,
      0.029243607074022293,
      -0.028008315712213516,
      0.0018327943980693817,
      3.890320658683777e-05,
      0.02947290986776352,
      0.02829047664999962,
      -0.0010112524032592773,
      0.02998741716146469,
      -0.02969394251704216,
      -0.02100361417979002,
      0.0062408447265625,
      0.00012767314910888672,
      5.138292908668518e-05,
      0.0004414692521095276,
      0.00035206228494644165,
      -0.012771926820278168,
      -0.0002308078110218048,
      0.0008362084627151489,
      -0.017921479418873787,
      3.3155083656311035e-06,
      0.02909807115793228,
      0.02989981137216091,
      -0.025316670536994934,
      0.0005433652549982071,
      0.02267653215676546,
      -0.021427102386951447,
      0.029852833598852158,
      0.00016389600932598114,
      7.641315460205078e-05,
      0.01288311555981636,
      -0.029863253235816956,
      0.029599986970424652,
      -7.227063179016113e-07,
      0.000516451895236969,
      0.0004344191402196884,
      0.029995247721672058,
      -0.02892331499606371,
      -0.03002899419516325,
      0.029818914830684662,
      -0.00018487125635147095,
      -0.00011505186557769775,
      0.029479365795850754,
      0.029534809291362762,
      -0.017355188727378845,
      -0.0292361993342638,
      -0.02732090651988983,
      0.02990061230957508,
      -0.0015952596440911293,
      0.028914958238601685,
      -0.00019112229347229004,
      -0.000791545957326889,
      0.029886262491345406,
      0.00027268845587968826,
      -0.00019143521785736084,
      0.02973525319248438,
      0.02972409501671791,
      -0.029676799662411213,
      0.0003890618681907654,
      8.390098810195923e-05,
      -0.028197098523378372,
      -0.028710097074508667,
      -0.000979047268629074,
      0.011094331741333008,
      -0.008320112712681293,
      -0.019317503087222576,
      0.018145881593227386,
      0.018231116235256195,
      -0.01114780455827713,
      0.00299660861492157,
      0.009722568094730377,
      -0.02736630756407976,
      -0.01915787160396576,
      0.02054610289633274,
      -0.028048046864569187,
      -0.0037517957389354706,
      0.013619564473628998,
      0.00823885202407837,
      -0.0019180849194526672,
      -0.00910002738237381,
      0.011912895366549492,
      -0.010038353502750397,
      0.025301741436123848,
      0.010449178516864777,
      -0.010725818574428558,
      -0.020504485815763474,
      -0.01966153085231781,
      -0.02541479654610157,
      -0.008693255484104156,
      -0.020738543942570686,
      0.013027764856815338,
      -0.020262361504137516,
      0.01172754168510437,
      -0.019325774163007736,
      0.006899643689393997,
      -0.028086885809898376,
      -0.024478904902935028,
      -0.010108187794685364,
      -0.026857662945985794,
      -0.026580583304166794,
      -0.029050223529338837,
      0.0048645175993442535,
      0.029910197481513023,
      -0.0245392806828022,
      0.0029476750642061234,
      0.0014151902869343758,
      0.004480380564928055,
      -0.02792218327522278,
      0.013544872403144836,
      0.028142312541604042,
      -0.021956637501716614,
      -0.02738993428647518,
      -0.023598168045282364,
      -0.027971617877483368,
      0.00112859345972538,
      0.00024416297674179077,
      -0.02630099281668663,
      -0.021976254880428314,
      0.01479274034500122,
      0.0002945512533187866,
      -0.026639994233846664,
      -0.0003550611436367035,
      0.0008634375408291817,
      -2.0761042833328247e-05,
      0.01605231687426567,
      0.0020101144909858704,
      -0.023764610290527344,
      -0.028771739453077316,
      0.02791263349354267,
      -0.00023067928850650787,
      0.0054823607206344604,
      -0.01261842343956232,
      0.029470158740878105,
      -0.0018607378005981445,
      -0.028356894850730896,
      0.029903359711170197,
      -1.2740492820739746e-05,
      0.013545282185077667,
      0.005339287221431732,
      -0.00047773122787475586,
      -0.000667911022901535,
      -0.00040640681982040405,
      -0.0004973290488123894,
      0.02918780967593193,
      -0.02769280970096588,
      0.015112156048417091,
      0.005672961473464966,
      -0.029413852840662003,
      0.02996245864778757,
      0.00019046850502490997,
      -0.00018304213881492615,
      0.003732111304998398,
      0.029481835663318634,
      0.00034672394394874573,
      0.0026850178837776184,
      0.00012242048978805542,
      -0.029880541376769543,
      -0.001165999099612236,
      -0.0115839634090662,
      -0.0002689361572265625,
      0.02982340008020401,
      0.00028702616691589355,
      0.0005936231464147568,
      0.0008596703410148621,
      0.029733262956142426,
      -0.027686279267072678,
      -0.029405437409877777,
      0.02990756556391716,
      -4.359334707260132e-05,
      0.00016140751540660858,
      0.028763674199581146,
      0.029556497931480408,
      0.00021441839635372162,
      -0.02846314013004303,
      -0.025959765538573265,
      0.02999367192387581,
      -0.00010719429701566696,
      0.016152597963809967,
      0.0001359395682811737,
      -0.025541499257087708,
      0.02974102273583412,
      0.015103012323379517,
      0.00026172026991844177,
      0.02990669757127762,
      0.029930632561445236,
      -0.028732851147651672,
      0.0005005300045013428,
      0.0004797540605068207,
      0.00030369870364665985,
      -0.028792329132556915,
      0.00017697736620903015,
      -0.029207147657871246,
      -0.023815199732780457,
      -0.02108125388622284,
      0.00011739134788513184,
      0.0009592156857252121,
      0.004397392272949219,
      -0.026085317134857178,
      -0.027776751667261124,
      -0.0006188899278640747,
      -0.025021061301231384,
      0.0004924638196825981,
      -0.01731821894645691,
      0.008112110197544098,
      -0.015087902545928955,
      -0.028243377804756165,
      -0.02961833495646715,
      0.0147172212600708,
      -0.001751035451889038,
      0.0007166787981987,
      0.0012190435081720352,
      -0.0008388310670852661,
      0.02854058239609003,
      -0.02828959934413433,
      -0.02446756884455681,
      -0.025126606225967407,
      0.027996286749839783,
      -0.02661864459514618,
      0.004003383219242096,
      -0.02542673423886299,
      -0.02850285917520523,
      -0.029200993478298187,
      -0.0256664976477623,
      0.02967643178999424,
      0.00033209845423698425,
      -0.013477522879838943,
      0.029571637511253357,
      0.029585011303424835,
      7.053837180137634e-05,
      -0.0005641952157020569,
      0.025844265706837177,
      0.00012849271297454834,
      -0.029489544220268726,
      0.029980793595314026,
      0.00013758614659309387,
      0.0001755477860569954,
      0.028940530493855476,
      -0.00138851348310709,
      0.02407660335302353,
      0.0001477561891078949,
      0.02998865582048893,
      0.0007741302251815796,
      0.02992740273475647,
      0.029283419251441956,
      0.0001999400556087494,
      8.288770914077759e-06,
      -0.029154613614082336,
      0.00040143169462680817,
      0.00016919616609811783,
      0.029620595276355743,
      0.029256213456392288,
      -0.029637590050697327,
      0.028683502227067947,
      -0.0012689456343650818,
      0.029806479811668396,
      -0.0005262643098831177,
      0.0034322477877140045,
      0.02943996712565422,
      -0.029284514486789703,
      -0.02926821820437908,
      -0.00034143775701522827,
      0.00048329681158065796,
      -0.020368175581097603,
      -2.863258123397827e-05,
      0.02993447333574295,
      -0.02950738649815321,
      -0.02800871431827545,
      0.0018322635442018509,
      -0.015685327351093292,
      0.0008504092693328857,
      0.0006801560521125793,
      -0.029047291725873947,
      -0.029513277113437653,
      -0.0007910579442977905,
      -0.02952197566628456,
      0.00024900585412979126,
      8.25151801109314e-06,
      -0.01445210725069046,
      0.02964852750301361,
      -0.029340893030166626,
      0.0005505625158548355,
      -0.0003249123692512512,
      -0.028945058584213257,
      0.02983942162245512,
      -0.023091495037078857,
      0.0010499730706214905,
      -0.0164498183876276,
      0.02627059817314148,
      -0.026197247207164764,
      -0.02184396982192993,
      0.0031371936202049255,
      0.003287084400653839,
      -0.026182871311903,
      0.026630736887454987,
      0.026363435201346874,
      -0.025743748992681503,
      0.0016043931245803833,
      0.0031640157103538513,
      0.0021168142557144165,
      -0.02674058824777603,
      0.0029331110417842865,
      0.0266546793282032,
      0.025969795882701874,
      -0.011723404750227928,
      0.0033402210101485252,
      -0.014336077496409416,
      0.003321036696434021,
      0.02587848622351885,
      -0.02612346690148115,
      -0.0019614314660429955,
      0.003995474427938461,
      -0.008909732103347778,
      -0.024207521229982376,
      0.01804398000240326,
      0.0028756074607372284,
      -0.0027324222028255463,
      0.003092154860496521,
      0.02618015743792057,
      0.002621889114379883,
      0.0038443757221102715,
      0.013884186744689941,
      -0.019207186996936798,
      0.029299023561179638,
      0.02932743728160858,
      0.00027717649936676025,
      -0.027412742376327515,
      0.027936384081840515,
      -0.01147381216287613,
      -0.01615893840789795,
      0.02998644858598709,
      0.025109361857175827,
      -0.001956826075911522,
      0.030019713565707207,
      0.029553230851888657,
      0.0016187205910682678,
      0.022137703374028206,
      0.012804366648197174,
      -8.51750373840332e-05,
      0.027423784136772156,
      0.0037588700652122498,
      0.0002587307244539261,
      -0.02944648265838623,
      -0.027940519154071808,
      -0.012282565236091614,
      -0.0003540441393852234,
      -0.00021508336067199707,
      0.02389383688569069,
      -0.0003652535378932953,
      0.02878090925514698,
      -0.005121566355228424,
      0.004258271306753159
    ],
    [
      0.011850947514176369,
      -0.026873504742980003,
      0.0012801773846149445,
      0.0006113862618803978,
      0.012173097115010023,
      0.014132406562566757,
      0.0011897049844264984,
      0.017406199360266328,
      0.02863210439682007,
      0.029818180948495865,
      0.029692567884922028,
      0.0025476012378931046,
      0.02991565130650997,
      0.029373125173151493,
      -0.027267773635685444,
      -0.007302949670702219,
      -0.026307559572160244,
      -0.027811046689748764,
      0.002215149812400341,
      0.003421332687139511,
      0.00018661562353372574,
      0.02999646309763193,
      0.007272776681929827,
      -0.01992178801447153,
      -0.02300714235752821,
      0.0001339055597782135,
      0.0058501968160271645,
      -0.02864399366080761,
      0.0008019637316465378,
      -0.028524626046419144,
      0.00306693185120821,
      0.027627693489193916
    ],
    [
      -0.023183118551969528,
      0.0008430350571870804,
      0.005740657448768616,
      -0.02860051393508911,
      -0.027927210554480553,
      0.029905080795288086,
      0.013174626976251602,
      -0.02827860414981842,
      -0.0018434897065162659,
      -0.0001602526754140854,
      0.0002186596393585205,
      0.024482905864715576,
      -0.0018769800662994385,
      0.029901747591793537,
      -0.0002222694456577301,
      0.006853863596916199,
      -0.009035937488079071,
      0.027623549103736877,
      -0.006585970520973206,
      0.023565806448459625,
      -0.029343023896217346,
      0.016298696398735046,
      -0.020366333425045013,
      0.02955099754035473,
      -0.02730955183506012,
      0.028789229691028595,
      -0.01771855354309082,
      -0.00017729401588439941,
      -0.006259337067604065,
      -0.02801569551229477,
      -0.029237435199320316,
      -0.028277114033699036
    ],
    [
      0.009747293777763844
    ]
  ],
  "num_updates": 2,
  "client_ids": [
    "client-2",
    "client-1"
  ],
  "mean_final_loss": 7.578683853149414,
  "aggregation_timestamp": 1784209585.968865
}