{
  "version": "v29",
  "base_version": "v28",
  "round_id": 26,
  "aggregation": "fedavg",
  "averaged_weight_delta": [
    [
      0.0006236173212528229,
      0.0009344443678855896,
      -0.016875088214874268,
      0.0011483915150165558,
      0.0006342679262161255,
      0.004825524985790253,
      0.0017567211762070656,
      0.00029162317514419556,
      0.005247794091701508,
      0.0029292814433574677,
      -6.8694353103637695e-06,
      -0.00039980560541152954,
      -0.001117117702960968,
      -0.00020933151245117188,
      -0.00027136318385601044,
      -0.0008059628307819366,
      -1.2367963790893555e-06,
      0.0014754831790924072,
      7.012393325567245e-05,
      0.012992999516427517,
      -0.00012828782200813293,
      0.009783055633306503,
      -0.00035682693123817444,
      -0.0003018006682395935,
      0.00017036497592926025,
      -6.332993507385254e-08,
      5.741417407989502e-05,
      0.0012992322444915771,
      0.00013970490545034409,
      0.0019143782556056976,
      0.02988625317811966,
      0.004375826567411423,
      -0.01773127168416977,
      -0.013696327805519104,
      0.028993472456932068,
      -0.0033763349056243896,
      0.029103035107254982,
      -0.021285265684127808,
      0.02787669748067856,
      0.006923496723175049,
      0.000665023922920227,
      -0.022269876673817635,
      -0.012799468357115984,
      -0.012775227427482605,
      0.0009213685989379883,
      -0.0006205067038536072,
      -0.0011200681328773499,
      -0.0005240961909294128,
      0.023137238807976246,
      -0.01180444285273552,
      0.0003735944628715515,
      0.0009098183363676071,
      7.539987564086914e-05,
      0.027404818683862686,
      0.00011076778173446655,
      0.012952789664268494,
      0.012189358472824097,
      -0.0003439914435148239,
      0.01899755373597145,
      -0.016916610300540924,
      -0.0016038715839385986,
      -0.025256422348320484,
      -0.014743811450898647,
      -0.0015481151640415192,
      -0.0003129914402961731,
      -6.109103560447693e-05,
      -0.0010147392749786377,
      -0.02882477641105652,
      -0.019978325814008713,
      -0.0019468404352664948,
      -0.0163201242685318,
      -0.019229009747505188,
      -0.0038932599127292633,
      -0.027456864714622498,
      -0.021756332367658615,
      0.0007796287536621094,
      -0.003360193222761154,
      0.0006309673190116882,
      -0.02156662940979004,
      -0.02707543969154358,
      -0.013415766879916191,
      -0.013035930693149567,
      -0.0031607672572135925,
      -0.003297988325357437,
      -0.005706623196601868,
      -0.010048672556877136,
      -0.005812391638755798,
      -0.028765162453055382,
      -0.014511704444885254,
      -0.004721068777143955,
      0.02960449457168579,
      0.007297635078430176,
      0.029693324118852615,
      0.029450520873069763,
      0.02694106101989746,
      0.029170483350753784,
      0.023095212876796722,
      0.028036288917064667,
      0.027756407856941223,
      0.01829319354146719,
      0.0004003793001174927,
      -0.0005246177315711975,
      0.007444508373737335,
      0.0007918123155832291,
      0.00018136948347091675,
      -0.023706767708063126,
      0.00042088422924280167,
      0.0003796219825744629,
      0.0003446359187364578,
      -0.016399309039115906,
      -0.029301881790161133,
      -0.028091058135032654,
      -0.029489785432815552,
      -0.02940376102924347,
      -0.0282350592315197,
      -0.029989168047904968,
      -0.028995387256145477,
      -0.014181999489665031,
      -0.00403967872262001,
      -0.00024523399770259857,
      -0.02998897898942232,
      -0.02921726554632187,
      -0.029516391456127167,
      -0.029290691018104553,
      -0.029872357845306396,
      -0.029745962470769882,
      -0.029771819710731506,
      -0.029644619673490524,
      -0.029928434640169144,
      -0.029540635645389557,
      -0.029289675876498222,
      -0.029453758150339127,
      -0.0294690802693367,
      -0.028370875865221024,
      -0.028902241960167885,
      -0.02956952154636383,
      -0.013381078839302063,
      -0.029581934213638306,
      -0.0058868760243058205,
      -0.014639902859926224,
      -0.012739382684230804,
      -0.015109971165657043,
      -0.011703606694936752,
      -0.008130744099617004,
      -0.006611093878746033,
      -0.02986621856689453,
      -0.005463417619466782,
      -0.006230123341083527,
      -0.0031606387346982956,
      -0.0005170553922653198,
      0.01550670713186264,
      0.012227166444063187,
      0.026375163346529007,
      0.0008396804332733154,
      0.01356410700827837,
      0.022616326808929443,
      0.0019054561853408813,
      -0.012215454131364822,
      -9.227916598320007e-05,
      0.015357044525444508,
      0.004456266760826111,
      0.0022543519735336304,
      0.0011577717959880829,
      0.0012826547026634216,
      0.001665191724896431,
      0.0018876157701015472,
      0.016032151877880096,
      0.0290636345744133,
      0.015533871948719025,
      0.00276029109954834,
      -0.01202932745218277,
      0.0008444041013717651,
      0.00011001527309417725,
      0.00012465938925743103,
      0.003754749894142151,
      8.307024836540222e-05,
      0.0001927390694618225,
      0.0003940742462873459,
      0.016202107071876526,
      0.022174440324306488,
      0.029575970023870468,
      0.02946232073009014,
      0.029780313372612,
      0.029456011950969696,
      0.029358609579503536,
      0.02963424101471901,
      0.029655233025550842,
      0.029196836054325104,
      0.02950511872768402,
      0.027974157594144344,
      -0.0022247619926929474,
      -0.0017159394919872284,
      7.061660289764404e-05,
      -0.005627483129501343,
      -0.009258337784558535,
      -0.029870063066482544,
      -0.0015527736395597458,
      -0.0002762526273727417,
      0.01317036896944046,
      0.003056839108467102,
      0.0009334161877632141,
      0.00018718093633651733,
      0.027255422435700893,
      -4.6446919441223145e-05,
      6.114691495895386e-05,
      -0.0010903403162956238,
      1.3820827007293701e-06,
      0.002946726977825165,
      5.7891011238098145e-05,
      -0.0001869499683380127,
      -0.0012087523937225342,
      -0.013476431369781494,
      -0.0005684420466423035,
      4.842877388000488e-08,
      -0.0004951395094394684,
      -0.000255778431892395,
      -0.0003792420029640198,
      -0.0004945546388626099,
      2.498924732208252e-05,
      0.01219305768609047,
      0.028514117002487183,
      -0.029720142483711243,
      0.00047982484102249146,
      -0.02914375066757202,
      -3.364868462085724e-05,
      -0.02996547520160675,
      -0.028497017920017242,
      0.00012464821338653564,
      -0.0017431247979402542,
      -0.029076341539621353,
      -0.010020739398896694,
      -0.0007768608629703522,
      0.011618681252002716,
      -0.0046653784811496735,
      0.013233467936515808,
      0.0011894255876541138,
      -0.029009699821472168,
      0.0026446059346199036,
      0.015098769217729568,
      -0.026393264532089233,
      -0.028550252318382263,
      -0.02809901162981987,
      -0.0017792567377910018,
      -0.01668209582567215,
      -0.02772943675518036,
      0.006624113768339157,
      -0.021138258278369904,
      -0.028921805322170258,
      -0.02926710434257984,
      -0.02585560828447342,
      -0.011242449283599854,
      0.02703530713915825,
      0.007425220683217049,
      0.0034183263778686523,
      -0.008562147617340088,
      0.003901571035385132,
      -0.026390619575977325,
      0.003520369529724121,
      -0.009235799312591553,
      0.004408247768878937,
      0.029405470937490463,
      0.01601937785744667,
      0.029613498598337173,
      0.02075686678290367,
      0.029770538210868835,
      0.028665589168667793,
      0.029029294848442078,
      0.029191620647907257,
      0.029665598645806313,
      0.02930370718240738,
      0.0011642426252365112,
      0.0004828106611967087,
      0.0006783045828342438,
      0.0019929073750972748,
      0.0004861876368522644,
      0.005716286599636078,
      0.0014623850584030151,
      0.0020858310163021088,
      0.0006495267152786255,
      0.0009634643793106079,
      -0.029623299837112427,
      -0.02565808594226837,
      -0.0289112851023674,
      -0.027610424906015396,
      -0.024618729948997498,
      -0.02915550023317337,
      -0.025199227035045624,
      9.020790457725525e-06,
      -0.02652202546596527,
      -5.43743371963501e-05,
      -0.029991425573825836,
      -0.029018685221672058,
      -0.029693305492401123,
      -0.02997768297791481,
      -0.029954247176647186,
      -0.030002428218722343,
      -0.029441967606544495,
      -0.029871314764022827,
      -0.02989523857831955,
      -0.02893730252981186,
      -0.029680103063583374,
      -0.024033889174461365,
      -0.02966965176165104,
      -0.029889099299907684,
      -0.029831349849700928,
      -0.029071219265460968,
      -0.02841232158243656,
      -0.0285646915435791,
      -0.006834656000137329,
      -0.0002316683530807495,
      -0.006461072713136673,
      -0.004789320752024651,
      -0.0064122360199689865,
      -0.013849354349076748,
      -0.014094192534685135,
      -0.0031447336077690125,
      -0.0027691014111042023,
      -0.02848859131336212,
      -0.029727786779403687,
      -0.005860950797796249
    ],
    [
      6.330292671918869e-05,
      0.029951409436762333,
      -0.011762430891394615,
      0.004493830958381295,
      0.027140092104673386,
      -0.026904653757810593,
      0.0004637017846107483,
      0.009319867938756943,
      0.009856085292994976,
      -0.0283560985699296,
      -0.02874078042805195,
      0.0008671218529343605,
      0.0065546100959181786,
      -0.00013318751007318497,
      0.009324143640697002,
      0.0008567823097109795,
      0.01391949993558228,
      0.02962931990623474,
      -0.022829431109130383,
      0.001376928761601448,
      2.2098422050476074e-05,
      0.006313877180218697,
      0.0019535664469003677,
      0.0017985326703637838,
      0.0042862845584750175,
      0.019555742852389812,
      -0.02687565330415964,
      0.0004940424114465714,
      0.02804775070399046,
      0.029983917251229286,
      0.029727491550147533,
      0.00360257551074028
    ],
    [
      -0.025433003902435303,
      0.0019242363050580025,
      0.0035832934081554413,
      -0.0271470844745636,
      0.0039035603404045105,
      0.0027502980083227158,
      0.0023063495755195618,
      -0.02817249670624733,
      0.001506039872765541,
      0.003107331693172455,
      -0.02600988559424877,
      -0.027869485318660736,
      -0.024320540018379688,
      -0.02245112508535385,
      0.003086548298597336,
      0.0023682303726673126,
      -0.02680123783648014,
      -0.015320025384426117,
      -0.025934092700481415,
      0.0026678722351789474,
      -0.0276406891644001,
      0.0036840252578258514,
      -0.010145999491214752,
      0.002490852028131485,
      -0.025708287954330444,
      -0.020460322499275208,
      -0.022058214992284775,
      -0.023765675723552704,
      -0.021638624370098114,
      0.0017322711646556854,
      -0.015602797269821167,
      -0.015982046723365784,
      -0.0002931542694568634,
      0.029901515692472458,
      0.0006554154679179192,
      1.1466443538665771e-05,
      0.02999456226825714,
      -0.00016873329877853394,
      0.004869602620601654,
      -8.979439735412598e-05,
      -0.00023617781698703766,
      0.0008411332964897156,
      -0.026507245376706123,
      -0.02980591356754303,
      -0.029251758009195328,
      0.0005861259996891022,
      0.0005258023738861084,
      0.029681049287319183,
      -0.02743867039680481,
      0.028086304664611816,
      -0.01685653906315565,
      0.00053400918841362,
      -0.029987242072820663,
      0.0010433867573738098,
      0.00011443346738815308,
      0.029857343062758446,
      -0.02969558723270893,
      -0.02671581506729126,
      -0.0005376739427447319,
      -0.028600561432540417,
      -0.029208391904830933,
      0.00019259750843048096,
      -0.025645527988672256,
      6.330758333206177e-05,
      -0.0001177564263343811,
      0.028903678990900517,
      0.01722298003733158,
      -0.00014609098434448242,
      0.029837670736014843,
      0.008278227411210537,
      0.02857573889195919,
      0.0002845451235771179,
      0.010678742080926895,
      0.013099349103868008,
      -0.0014298409223556519,
      -0.029710151255130768,
      -0.02970828115940094,
      0.0031690746545791626,
      0.00014487281441688538,
      0.029478496871888638,
      -0.0008426867425441742,
      0.02834133431315422,
      0.0015506818890571594,
      0.010613090358674526,
      -0.012746714055538177,
      0.029329605400562286,
      0.028119731694459915,
      0.029524751007556915,
      0.0003724396228790283,
      0.027318142354488373,
      -0.022779852151870728,
      -0.006929308176040649,
      -0.028700722381472588,
      0.0001228880137205124,
      0.0009846091270446777,
      -0.012429550290107727,
      0.02999957650899887,
      -0.021518543362617493,
      0.001364380121231079,
      0.00010044686496257782,
      -0.028347305953502655,
      0.00369475781917572,
      -0.01622217893600464,
      0.02828214317560196,
      0.001375056803226471,
      0.0014244019985198975,
      0.029344186186790466,
      0.03000764548778534,
      0.001636214554309845,
      0.015105947852134705,
      0.0012197941541671753,
      -0.02848055213689804,
      0.012533310800790787,
      -0.028947800397872925,
      0.0009344089776277542,
      0.0018124580383300781,
      0.02990878000855446,
      0.002116059884428978,
      0.0021308064460754395,
      -0.028675243258476257,
      0.029987233690917492,
      0.0007326323539018631,
      0.00128168985247612,
      -0.009081409312784672,
      0.012753494083881378,
      0.0014458522200584412,
      0.002317368984222412,
      0.002054557204246521,
      0.0002315118908882141,
      0.030046090483665466,
      0.006112977862358093,
      0.00020734407007694244,
      0.029973965138196945,
      0.0005256980657577515,
      0.030011534690856934,
      0.0001476779580116272,
      6.068497896194458e-05,
      0.029430091381072998,
      0.001028822734951973,
      -0.029892466962337494,
      -0.027323469519615173,
      0.02875104732811451,
      0.00039341580122709274,
      0.03000098653137684,
      0.0012136995792388916,
      0.029422663152217865,
      -0.0040657371282577515,
      0.0006201490759849548,
      -0.029663680121302605,
      0.029965534806251526,
      0.029700803570449352,
      0.030001193284988403,
      -0.02651430293917656,
      0.029375072568655014,
      -0.011849784292280674,
      -0.013247514143586159,
      -0.02183545008301735,
      0.00015661120414733887,
      -0.012172505259513855,
      -0.00024996697902679443,
      -0.019698939751833677,
      -0.019416571594774723,
      -0.0036214925348758698,
      -0.020258720964193344,
      -0.0118398517370224,
      0.010100260376930237,
      -0.010052945464849472,
      -0.019032519310712814,
      -0.008698716759681702,
      -0.007893107831478119,
      -0.019896984100341797,
      0.01045817881822586,
      0.010316826403141022,
      -0.020514771342277527,
      0.016390301287174225,
      -0.008716658689081669,
      -0.020002372562885284,
      -0.020330913364887238,
      0.009708065539598465,
      0.01862169709056616,
      -0.019583985209465027,
      -0.01864367537200451,
      -0.02150268852710724,
      -0.009483219124376774,
      -0.020756548270583153,
      -0.016645774245262146,
      -0.0008718278259038925,
      -0.01919281855225563,
      -0.011875391006469727,
      0.0073143839836120605,
      0.009553065523505211,
      0.007353968918323517,
      0.0004946216940879822,
      0.0005277525633573532,
      0.0018132179975509644,
      0.0006437059491872787,
      0.0007199849933385849,
      -0.028991591185331345,
      -0.027627906762063503,
      0.0003394894301891327,
      -0.002065282315015793,
      0.009829447604715824,
      -0.028850901871919632,
      -0.029105816036462784,
      -0.02773781307041645,
      -0.0026470497250556946,
      -1.3165175914764404e-05,
      0.00514424592256546,
      -0.01608193665742874,
      -0.027822455391287804,
      -0.029176823794841766,
      -0.026106994599103928,
      -0.027643635869026184,
      0.0010044816881418228,
      -0.02791515178978443,
      -0.0009286645799875259,
      -0.01647833175957203,
      -0.028666146099567413,
      -0.027559256181120872,
      -0.028691325336694717,
      -0.02724488452076912,
      -0.0292686577886343,
      -0.028601248748600483,
      -0.029033536091446877,
      -0.029711458832025528,
      -0.0005377279594540596,
      0.01602139323949814,
      -0.029901426285505295,
      -0.0010533295571804047,
      0.02961157262325287,
      5.9545040130615234e-05,
      -0.02939550206065178,
      0.029985155910253525,
      0.012456286698579788,
      -0.02973216027021408,
      2.1597370505332947e-05,
      -1.7508864402770996e-05,
      -0.0002050073817372322,
      0.02973997686058283,
      -1.5459954738616943e-06,
      -0.01666071591898799,
      -9.656697511672974e-05,
      0.026545429602265358,
      0.029078077524900436,
      9.956583380699158e-05,
      0.00021230429410934448,
      0.0005184803158044815,
      5.3238123655319214e-05,
      0.029268018901348114,
      0.00039086490869522095,
      0.02940603345632553,
      -0.0023078732192516327,
      0.029481153935194016,
      0.029852922074496746,
      0.029887013137340546,
      0.029583334922790527,
      0.0005040038377046585,
      0.028993867337703705,
      0.0062223877757787704,
      0.0004050545394420624,
      0.029834361746907234,
      5.5324286222457886e-05,
      0.029523098841309547,
      0.028917815536260605,
      0.008130699396133423,
      0.006576403975486755,
      0.0011334419250488281,
      -0.029191475361585617,
      -0.028325684368610382,
      0.028986744582653046,
      0.0003479328006505966,
      0.02914993092417717,
      -0.01174423098564148,
      0.02956494688987732,
      -0.0008506849408149719,
      0.000368606299161911,
      -0.02318456768989563,
      0.02932949736714363,
      0.02978510409593582,
      0.013470672070980072,
      -0.018040984869003296,
      0.014903366565704346,
      -0.027511704713106155,
      -0.013384118676185608,
      -0.014464348554611206,
      -4.16487455368042e-05,
      -0.02793710306286812,
      -0.0003566816449165344,
      -3.5241246223449707e-06,
      0.029999881982803345,
      0.00529826432466507,
      0.0006396546959877014,
      0.029987631365656853,
      6.767362356185913e-05,
      0.029955463483929634,
      0.0013488978147506714,
      0.005005780607461929,
      0.002234317362308502,
      -0.025940723717212677,
      -0.02937665954232216,
      -0.027369260787963867,
      0.0019111335277557373,
      0.0003689378499984741,
      0.029915615916252136,
      -0.00012387335300445557,
      0.008087432011961937,
      -0.00012806057929992676,
      0.0010534413158893585,
      0.00022899359464645386,
      0.0005324818193912506,
      0.02911726012825966,
      0.029879877343773842,
      0.001148328185081482,
      0.011521369218826294,
      -0.024099458940327168,
      -0.024868257343769073,
      -0.028750572353601456,
      6.565451622009277e-05,
      -0.02574980817735195,
      -0.017913347110152245,
      0.029907282441854477,
      -0.02994103729724884,
      4.5999884605407715e-05,
      -9.394064545631409e-05,
      -0.029973410069942474,
      0.00011507421731948853,
      -6.587803363800049e-05,
      -0.0005014035850763321,
      -0.0009863227605819702,
      0.00015725195407867432,
      0.02965667098760605,
      0.029934316873550415,
      0.0015028677880764008,
      -0.012841428630053997,
      -1.6607344150543213e-05,
      -0.0018780790269374847,
      0.0012522414326667786,
      -0.029586344957351685,
      0.0017961636185646057,
      -7.771141827106476e-05,
      0.029933011159300804,
      5.404278635978699e-05,
      8.412450551986694e-05,
      -0.0005627423524856567,
      0.025946438312530518,
      0.00014996342360973358,
      0.0008943676948547363,
      0.003936953842639923,
      -0.0004962757229804993,
      6.891228258609772e-05,
      0.000298268161714077,
      3.587082028388977e-05,
      -3.4714117646217346e-05,
      0.02979736030101776,
      0.02949165180325508,
      -8.687376976013184e-06,
      0.030029773712158203,
      0.0006797388195991516,
      0.030035704374313354,
      -3.46451997756958e-06,
      0.000605948269367218,
      0.028769752010703087,
      0.00026209093630313873,
      -0.029989004135131836,
      -0.014544345438480377,
      0.005697749555110931,
      0.001134941354393959,
      0.02989676035940647,
      -0.00024505704641342163,
      0.030033614486455917,
      -0.002277389168739319,
      0.0006347820162773132,
      -0.009073358029127121,
      0.029945075511932373,
      0.029986128211021423,
      0.02994854748249054,
      -0.009687133133411407,
      0.02951957657933235,
      -0.0029495004564523697,
      0.001353934407234192,
      -0.029026471078395844,
      8.195638656616211e-07,
      -1.2796372175216675e-06,
      -0.00032259896397590637,
      0.0005164146423339844,
      1.570582389831543e-05,
      0.029964881017804146,
      0.00023430585861206055,
      -0.029882555827498436,
      0.02964066993445158,
      0.0011007897555828094,
      9.51625406742096e-05,
      0.0002884902060031891,
      -0.0231061652302742,
      0.017447576858103275,
      0.029989756643772125,
      0.0299169160425663,
      -0.02883218228816986,
      -0.0001878887414932251,
      -0.029277783818542957,
      0.024413838982582092,
      -5.837529897689819e-05,
      0.02998208999633789,
      -0.00012931227684020996,
      0.029924709349870682,
      0.02751950826495886,
      0.029694391414523125,
      -0.023657485842704773,
      0.029659584164619446,
      -0.023420237004756927,
      0.0277541596442461,
      0.02982700988650322,
      0.02963138371706009,
      0.029669560492038727,
      0.029988542199134827,
      0.0299512492492795,
      0.029773369431495667,
      8.240342140197754e-05,
      -0.00012132525444030762,
      0.004716731607913971,
      3.686174750328064e-05,
      -5.8181583881378174e-05,
      3.123283386230469e-05,
      6.674230098724365e-05,
      -0.0038144253194332123,
      0.00022189319133758545,
      0.02972361445426941,
      0.015818260610103607,
      -0.02892085537314415,
      -0.00010423734784126282,
      -0.02985056210309267,
      0.00037395115941762924,
      0.029931269586086273,
      9.671133011579514e-05,
      -0.028148911893367767,
      4.367530345916748e-05,
      0.02465630043298006,
      8.236616849899292e-05,
      -3.7200748920440674e-05,
      0.00018494948744773865,
      0.022403636947274208,
      0.000860460102558136,
      -0.027913659811019897,
      6.07222318649292e-05,
      0.00846768170595169,
      -0.02917526289820671,
      -0.029953274875879288,
      -0.02976391464471817,
      -0.02776377834379673,
      -0.02701757289469242,
      0.0014952793717384338,
      -0.029750876128673553,
      6.888620555400848e-05,
      0.029690511524677277,
      -0.0007040947675704956,
      -0.028842493891716003,
      0.029874294996261597,
      0.0005389750003814697,
      -0.02810932695865631,
      0.000414527952671051,
      0.0010283086448907852,
      -0.01809867238625884,
      0.029651068150997162,
      0.00033932924270629883,
      -0.0013184063136577606,
      -0.01896640658378601,
      0.00035942811518907547,
      0.0010937033221125603,
      -0.0017274990677833557,
      0.0008328258991241455,
      -0.029060405679047108,
      0.0009136795997619629,
      -0.0003334060311317444,
      -0.012458637356758118,
      -0.0001494530588388443,
      -0.028909865766763687,
      0.0010008569806814194,
      0.017175091430544853,
      0.0003989860415458679,
      0.0007294639945030212,
      0.029829127714037895,
      0.005786929279565811,
      -0.01958359871059656,
      0.02995957061648369,
      0.00019357353448867798,
      -0.029081076383590698,
      9.47117805480957e-05,
      0.002084508538246155,
      -0.029496990144252777,
      -0.016743071377277374,
      0.009083723649382591,
      -9.068846702575684e-05,
      -4.523620009422302e-05,
      0.02940758317708969,
      -0.02921031042933464,
      0.0003426503390073776,
      0.0008802702650427818,
      7.097795605659485e-05,
      -0.023047298192977905,
      -0.02907080203294754,
      0.0297284796833992,
      -0.01743854582309723,
      0.000682830810546875,
      0.00026347115635871887,
      0.029883617535233498,
      0.001162789762020111,
      0.0007451679557561874,
      0.001917453482747078,
      0.01601309422403574,
      -0.02988549694418907,
      0.0004992969334125519,
      -0.005420751869678497,
      0.0005921199917793274,
      0.0005816062912344933,
      0.000765383243560791,
      -4.446785897016525e-05,
      -0.020991981029510498,
      0.029304660856723785,
      4.611164331436157e-05,
      -0.0003688521683216095,
      0.0008363332599401474,
      -0.00016658753156661987,
      0.02400171384215355,
      0.029963663779199123,
      0.029307924211025238,
      -0.00018964707851409912,
      0.0009149312973022461,
      -0.001343567855656147,
      0.029965780675411224,
      0.0010201875120401382,
      0.029542693868279457,
      0.00016839243471622467,
      0.0299542099237442,
      -0.00940429326146841,
      0.029389560222625732,
      -0.0012895092368125916,
      0.029943125322461128,
      -0.022456685081124306,
      0.02963075041770935,
      0.029612037353217602,
      0.02996889129281044,
      0.029235873371362686,
      0.030004210770130157,
      0.029980512335896492,
      8.489564061164856e-05,
      0.029279951006174088,
      -0.012151583097875118,
      0.0002782568335533142,
      0.01754736714065075,
      -0.016831737011671066,
      0.02952418476343155,
      0.011499864980578423,
      -0.0002984367311000824,
      0.0004805848002433777,
      -0.025889411568641663,
      -0.028452426195144653,
      -0.028001081198453903,
      0.0031604841351509094,
      0.001310594379901886,
      0.0037101060152053833,
      -0.027092527598142624,
      0.0005652140825986862,
      -0.00020460784435272217,
      0.002482128329575062,
      -0.02914024516940117,
      0.0005912370979785919,
      -0.022838314063847065,
      0.029376260936260223,
      -0.02929021418094635,
      -0.014110460877418518,
      -0.028181791305541992,
      -0.02639012038707733,
      -0.026529889553785324,
      0.00020820647478103638,
      -0.028987586498260498,
      -0.02602359652519226,
      -0.029285456985235214,
      -0.029689814895391464,
      0.02936369925737381,
      -0.0297677144408226,
      0.0001482069492340088,
      0.029741253703832626,
      0.0006890669465065002,
      -0.029714878648519516,
      0.029953530989587307,
      0.02998293563723564,
      -0.029450416564941406,
      0.00013078004121780396,
      0.016119686886668205,
      -0.024447742849588394,
      0.029766859486699104,
      0.00029131583869457245,
      0.000415923073887825,
      0.0009766444563865662,
      0.022478818893432617,
      0.02973569557070732,
      3.454461693763733e-05,
      -0.0009637400507926941,
      0.0029043667018413544,
      0.030000798404216766,
      0.00011081621050834656,
      0.0008938275277614594,
      0.006144464015960693,
      0.002415422350168228,
      0.00611567497253418,
      0.01722531020641327,
      0.02876947447657585,
      0.008019454777240753,
      0.00315657164901495,
      -0.028594432398676872,
      0.00018025189638137817,
      4.425644874572754e-05,
      -0.02969127893447876,
      0.0002713967114686966,
      -0.015338674187660217,
      -0.023537129163742065,
      0.0004576146602630615,
      0.00037077441811561584,
      -0.0003787921741604805,
      0.029478849843144417,
      0.023795724846422672,
      -0.028744205832481384,
      0.00038252025842666626,
      -0.029552415013313293,
      0.02722998335957527,
      -0.029863793402910233,
      0.000931927002966404,
      9.179115295410156e-05,
      0.029962880536913872,
      -0.029096052050590515,
      -0.0001508370041847229,
      -0.0009737331420183182,
      0.020073807798326015,
      -0.028941228985786438,
      0.0005620634183287621,
      0.02609467227011919,
      -5.811825394630432e-05,
      0.00034787319600582123,
      7.590651512145996e-05,
      6.945431232452393e-05,
      -0.0023004980757832527,
      -0.02807021141052246,
      -0.02948635071516037,
      -0.00036697089672088623,
      0.0003254413604736328,
      -0.029471203684806824,
      0.0007413029670715332,
      -5.8867037296295166e-05,
      4.814937710762024e-05,
      0.00030592549592256546,
      -0.02841339912265539,
      -0.0296967551112175,
      -0.001410946249961853,
      0.02709224820137024,
      0.0005484800785779953,
      0.027149736881256104,
      0.0006352066993713379,
      -0.0061217425391077995,
      -0.0013731271028518677,
      0.0002340804785490036,
      -0.00041719432920217514,
      0.0011799801141023636,
      -0.012842233292758465,
      0.00023902207612991333,
      -0.0008668303489685059,
      0.027021579444408417,
      0.0005530975759029388,
      -0.029221288859844208,
      0.000269327312707901,
      -0.0013689063489437103,
      -0.029661070555448532,
      -0.02718467265367508,
      0.02975313365459442,
      0.0053936876356601715,
      0.0003338530659675598,
      0.02971763163805008,
      0.0010449737310409546,
      -0.028294771909713745,
      0.012521438300609589,
      0.029888909310102463,
      0.0001445189118385315,
      -0.0002277502790093422,
      0.02954847738146782,
      -0.0003291964530944824,
      -0.0008156634867191315,
      5.140528082847595e-05,
      -0.02933172881603241,
      0.0005180984735488892,
      0.016332775354385376,
      0.00010502338409423828,
      0.01517648994922638,
      0.0004208311438560486,
      0.02985503524541855,
      0.026412881910800934,
      0.0008261539041996002,
      0.0004656948149204254,
      0.02034715563058853,
      0.0037107914686203003,
      0.0008635669946670532,
      0.029131924733519554,
      -9.498000144958496e-05,
      -0.029632940888404846,
      -0.02956519741564989,
      -0.00301325973123312,
      0.029494239017367363,
      0.0005103088915348053,
      -0.02098795771598816,
      0.028269439935684204,
      0.0005245115607976913,
      -0.02868359535932541,
      0.0007350016385316849,
      0.0005186162889003754,
      -0.02885461039841175,
      -0.011113520711660385,
      0.028039817698299885,
      -0.011371392756700516,
      -9.735114872455597e-05,
      0.0025875940918922424,
      -0.028711702674627304,
      0.0009060204029083252,
      0.01567993313074112,
      0.00035575032234191895,
      -0.027844073250889778,
      -0.02857663668692112,
      -0.00020384415984153748,
      0.0009010247886180878,
      0.00034727901220321655,
      0.0010688342154026031,
      0.001988738775253296,
      0.0010023266077041626,
      -0.02810068428516388,
      -0.008482884615659714,
      -0.017143532633781433,
      -0.029527757316827774,
      -0.028717495501041412,
      -0.029620438814163208,
      -0.027939019724726677,
      -0.008654177188873291,
      0.0016138218343257904,
      -0.029039187356829643,
      0.002599284052848816,
      0.0012040361762046814,
      0.002727387472987175,
      -0.02725556492805481,
      0.0023887529969215393,
      0.0018307194113731384,
      -0.02810288965702057,
      -0.02790863811969757,
      -0.025402197614312172,
      -0.027606472373008728,
      0.015022903680801392,
      0.0011126575991511345,
      -0.025511793792247772,
      -0.015858228784054518,
      -0.026577718555927277,
      0.0016557350754737854,
      -0.026217781007289886,
      0.003915365785360336,
      -0.009374350309371948,
      0.025842905044555664,
      -0.02456412836909294,
      -0.024693168699741364,
      -0.024138249456882477,
      -0.025559507310390472,
      -0.025404542684555054,
      0.00244976207613945,
      -0.02143438160419464,
      -0.014689497649669647,
      0.00046347547322511673,
      0.00036837905645370483,
      -0.025625966489315033,
      0.00042735785245895386,
      0.029514871537685394,
      -0.021606944501399994,
      -0.017209187150001526,
      0.00023810844868421555,
      0.0004383828490972519,
      0.023907268419861794,
      0.0006161332130432129,
      -0.029312530532479286,
      -0.028702855110168457,
      0.0017249248921871185,
      -0.027958497405052185,
      0.0007411222904920578,
      -0.013535290956497192,
      0.0012220367789268494,
      -0.026592597365379333,
      0.0007262807339429855,
      -0.023939847946166992,
      -0.0007187388837337494,
      -0.011707288213074207,
      0.02842758223414421,
      -0.020715422928333282,
      0.0006998665630817413,
      -0.02702680230140686,
      -0.02199730835855007,
      -0.028970859944820404,
      -0.028909292072057724,
      -0.029268652200698853,
      -0.027787482365965843,
      0.03001594729721546,
      0.013068793341517448,
      -0.020992331206798553,
      0.030041423626244068,
      -3.208871930837631e-05,
      0.0007775276899337769,
      -0.0008017886430025101,
      0.030023890547454357,
      -0.029094064608216286,
      -0.018555399030447006,
      0.02991325594484806,
      0.0013733841478824615,
      0.0003983601927757263,
      0.029619131237268448,
      -0.025571726262569427,
      -9.85562801361084e-05,
      0.01045399159193039,
      0.0295017808675766,
      -0.001452157273888588,
      -0.0010001175105571747,
      0.0007457062602043152,
      -3.1828880310058594e-05,
      0.02691638469696045,
      5.539506673812866e-06,
      1.5877187252044678e-05,
      0.0033503100275993347,
      0.0006716959178447723,
      0.01788903772830963,
      0.005454003810882568,
      -0.02821938320994377,
      0.000589592382311821,
      -0.0007450152188539505,
      0.029481995850801468,
      0.0007832422852516174,
      -0.029703998938202858,
      0.029919127002358437,
      -0.0001643206924200058,
      2.8364360332489014e-05,
      -0.02342842146754265,
      0.02986043132841587,
      -0.029496463015675545,
      -0.029273985885083675,
      0.029836907982826233,
      -2.25752592086792e-06,
      0.00010048970580101013,
      0.029710229486227036,
      -0.02965448796749115,
      0.029718472622334957,
      0.0011396221816539764,
      -0.00012574158608913422,
      7.96094536781311e-05,
      -0.02953212708234787,
      0.00033120810985565186,
      0.00011594779789447784,
      0.009596796706318855,
      -0.027676258236169815,
      -7.79908150434494e-05,
      0.02990702912211418,
      0.0005372986197471619,
      0.0015942193567752838,
      0.0001539662480354309,
      -0.008984129875898361,
      -0.00010671466588973999,
      -0.0006494149565696716,
      0.00030153989791870117,
      -0.0003501027822494507,
      9.202025830745697e-05,
      9.002909064292908e-05,
      6.606802344322205e-06,
      0.0003176964819431305,
      -0.000376284122467041,
      0.0001565404236316681,
      0.0018499642610549927,
      -1.2256205081939697e-05,
      -0.00017718225717544556,
      0.009697645902633667,
      0.02976495400071144,
      -0.00042873620986938477,
      0.029804617166519165,
      -6.6438689827919e-05,
      0.02774619124829769,
      -0.0005233418196439743,
      0.005875028669834137,
      0.02955459989607334,
      0.014157645404338837,
      3.2767653465270996e-05,
      -0.00046911463141441345,
      0.00020172446966171265,
      0.0002744290977716446,
      -0.006990998983383179,
      0.02255052886903286,
      0.025214437395334244,
      0.009346671402454376,
      0.028954196721315384,
      0.029835999011993408,
      0.018013911321759224,
      -0.028970904648303986,
      0.0009481720626354218,
      0.0298897847533226,
      -0.02874390035867691,
      0.000831829383969307,
      0.029855649918317795,
      0.009815283119678497,
      0.00020328164100646973,
      0.0007007401436567307,
      0.02937202900648117,
      0.000620666891336441,
      0.011942625045776367,
      0.016195490956306458,
      0.0017146021127700806,
      0.029801562428474426,
      0.0014276877045631409,
      0.02726886048913002,
      0.0034389421343803406,
      0.029833387583494186,
      0.02993093989789486,
      -0.0015991926193237305,
      0.02983260713517666,
      0.010486737824976444,
      0.026894018054008484,
      0.02740546315908432,
      0.003009691834449768,
      0.02961108088493347,
      0.029889510944485664,
      0.029760651290416718,
      0.02956337109208107,
      0.03001074492931366,
      0.029868964105844498,
      0.00023633241653442383,
      -0.024235310032963753,
      -0.017579473555088043,
      0.000515080988407135,
      -0.029261767864227295,
      -0.023189134895801544,
      -0.027541845105588436,
      -0.02487776428461075,
      -0.027870796620845795,
      -0.026489734649658203,
      0.0002367999404668808,
      0.0002449639141559601,
      0.029429085552692413,
      -0.02766948752105236,
      -0.004964172840118408,
      -0.02556590735912323,
      -0.0015522167086601257,
      -0.02945861965417862,
      0.0037240833044052124,
      -0.024985618889331818,
      0.012167379260063171,
      -0.025090409442782402,
      -0.0011134259402751923,
      -0.02761179767549038,
      0.0019654463976621628,
      -0.029221653938293457,
      8.18595290184021e-05,
      -0.000906825065612793,
      -0.022333865985274315,
      -0.01747729629278183,
      0.029301239177584648,
      0.004918534308671951,
      -0.026251859962940216,
      -0.0001074736937880516,
      0.028988399542868137,
      -0.029742838814854622,
      7.763504981994629e-06,
      0.029594678431749344,
      0.00013245735317468643,
      -0.01799112558364868,
      0.02993306890130043,
      0.028688957914710045,
      0.00041635986417531967,
      5.4638832807540894e-05,
      0.005995810031890869,
      0.0019118338823318481,
      0.03003816492855549,
      -4.7087669372558594e-05,
      0.0016352087259292603,
      -0.00037269294261932373,
      0.029384177178144455,
      0.029907101765275,
      0.00012145191431045532,
      0.029245197772979736,
      0.029348455369472504,
      0.02811850607395172,
      0.0005363989621400833,
      -0.0002903211861848831,
      0.02928825467824936,
      0.006321169435977936,
      0.007159031927585602,
      0.02996896207332611,
      0.01547710970044136,
      0.029406163841485977,
      -0.0003323853015899658,
      0.029562823474407196,
      0.029922603629529476,
      -4.208087921142578e-05,
      0.030000679194927216,
      0.0003300569951534271,
      0.030025962740182877,
      0.025531090795993805,
      0.029583953320980072,
      0.02973089925944805,
      0.00015433970838785172,
      -0.029818564653396606,
      -0.029828086495399475,
      0.026743970811367035,
      0.0002073589712381363,
      0.02983399573713541,
      0.00010999757796525955,
      0.029510829597711563,
      0.011668280698359013,
      0.0011616386473178864,
      -0.0006708800792694092,
      0.029873629100620747,
      0.02976149320602417,
      0.014140989631414413,
      -7.699616253376007e-05,
      0.029142607003450394,
      0.0006601894274353981,
      -6.859004497528076e-05,
      -0.01750825345516205,
      0.00012218207120895386,
      8.148327469825745e-05,
      8.559972047805786e-05
    ],
    [
      -0.014761167578399181,
      -0.014220066834241152,
      0.028027424588799477,
      0.004796430468559265,
      0.029580920934677124,
      -0.01963057741522789,
      -0.028660252690315247,
      0.0005473494529724121,
      0.01198947336524725,
      -0.01162252458743751,
      0.000418197363615036,
      0.029901007190346718,
      0.029968650080263615,
      0.0002522040158510208,
      -0.025501335971057415,
      -0.01839722041040659,
      0.029563243500888348,
      -0.027655838057398796,
      0.029815507121384144,
      0.0004552006721496582,
      2.084299921989441e-06,
      0.004768156446516514,
      0.0007193721830844879,
      -0.0170400682836771,
      -0.014589030528441072,
      0.017763484735041857,
      0.0003216434270143509,
      7.087923586368561e-05,
      0.029891100712120533,
      -0.02132960921153426,
      0.02989942952990532,
      0.027352341450750828
    ],
    [
      -0.01379150990396738,
      -0.006363049149513245,
      2.207234501838684e-06,
      -0.02617540955543518,
      -0.012089841067790985,
      0.029439764097332954,
      0.00035588815808296204,
      -0.00928805023431778,
      -0.0005272636190056801,
      -0.008077844977378845,
      -0.029345788061618805,
      -0.0002038031816482544,
      -0.00010231882333755493,
      0.00041493773460388184,
      0.02392604947090149,
      -0.0029421374201774597,
      -0.0003954898566007614,
      0.002200290560722351,
      -0.028783008456230164,
      -0.029180483892560005,
      -0.01702284812927246,
      0.003380310721695423,
      0.0002538934350013733,
      -0.008154980838298798,
      0.007721517235040665,
      0.02814355492591858,
      0.0027722418308258057,
      -0.0003696829080581665,
      -0.029975995421409607,
      0.0010693036019802094,
      -0.029932133853435516,
      -0.012419208884239197
    ],
    [
      -0.013285939116030931
    ]
  ],
  "num_updates": 2,
  "client_ids": [
    "client-2",
    "client-1"
  ],
  "mean_final_loss": 7.8172712326049805,
  "aggregation_timestamp": 1784208583.2349405
}