{
  "version": "v7",
  "base_version": "v6",
  "round_id": 4,
  "aggregation": "fedavg",
  "averaged_weight_delta": [
    [
      -0.01400630921125412,
      -0.028818279504776,
      -0.02959078550338745,
      -0.028253480792045593,
      -0.023230981081724167,
      -0.0007556341588497162,
      -0.029148914851248264,
      -0.0009668432176113129,
      -0.0005165785551071167,
      1.5307217836380005e-05,
      -0.005481243133544922,
      -0.0018462445586919785,
      -0.000753059983253479,
      0.00039795786142349243,
      -0.002398937940597534,
      -0.004479662515223026,
      0.0021344274282455444,
      -0.00048357248306274414,
      -0.008540615439414978,
      -0.02803833782672882,
      -0.024257777258753777,
      0.0021980516612529755,
      -0.004578828811645508,
      -0.016747985035181046,
      -0.026182465255260468,
      -0.016817010939121246,
      -0.016557931900024414,
      -0.019526814110577106,
      0.0002778768539428711,
      -0.012778788805007935,
      0.0010138144716620445,
      0.016623053699731827,
      0.00030601024627685547,
      0.007065534591674805,
      0.015281125903129578,
      -0.0033158250153064728,
      0.0011145491153001785,
      0.0032691210508346558,
      -0.014657681807875633,
      -0.023735441267490387,
      -3.0443072319030762e-05,
      -0.02430540695786476,
      0.0017243586480617523,
      -0.02805424854159355,
      0.009003374725580215,
      -0.01680215448141098,
      -0.029284371063113213,
      -0.006460279226303101,
      -0.009142592549324036,
      -0.0221164021641016,
      -0.029583903029561043,
      -0.02982185035943985,
      -0.004288233816623688,
      -0.029708154499530792,
      -0.029578804969787598,
      -0.022229747846722603,
      -0.029757704585790634,
      -0.0298761036247015,
      -0.02695883810520172,
      -0.02924610674381256,
      0.028746984899044037,
      0.028689149767160416,
      0.0002708751708269119,
      0.0297689288854599,
      0.017451710999011993,
      0.02570416033267975,
      0.029665842652320862,
      0.029200918972492218,
      0.029476884752511978,
      0.029632002115249634,
      -0.029990870505571365,
      -0.00018884241580963135,
      -0.028281085193157196,
      -0.017434559762477875,
      -0.029246754944324493,
      -0.027248259633779526,
      -0.02829962968826294,
      -0.029790066182613373,
      -0.02963840402662754,
      0.00800744304433465,
      -0.02747189998626709,
      -0.028935877606272697,
      -0.014070302248001099,
      -0.021615907549858093,
      -0.028481466695666313,
      -0.024504035711288452,
      0.005175158381462097,
      -0.026789117604494095,
      -0.02729642391204834,
      -0.027979731559753418,
      0.0217374786734581,
      0.02689088135957718,
      0.02758493646979332,
      0.027091607451438904,
      0.019845908507704735,
      0.02830724511295557,
      0.024523384869098663,
      0.026281774044036865,
      0.019138798117637634,
      0.022931006737053394,
      -0.029705993831157684,
      -0.029954347759485245,
      -0.029935894533991814,
      -0.029860079288482666,
      -0.02989702671766281,
      -0.02860761061310768,
      -0.0014719441533088684,
      -0.02950490266084671,
      -0.0297696515917778,
      -0.029246754944324493,
      -0.028743170201778412,
      -0.029520273208618164,
      -0.028310492634773254,
      -0.02963028848171234,
      -0.02984429895877838,
      -0.02963758073747158,
      -0.029473386704921722,
      -0.027850069105625153,
      -0.02482288796454668,
      -0.02950407564640045,
      0.00336654856801033,
      -0.00038260966539382935,
      0.011631574481725693,
      0.003002595156431198,
      0.005049258470535278,
      0.0001109689474105835,
      4.4617801904678345e-05,
      6.921589374542236e-06,
      0.002603098750114441,
      0.0027426108717918396,
      0.007807426154613495,
      0.030000079423189163,
      0.021702319383621216,
      0.014097453095018864,
      0.0002595633268356323,
      0.003468644805252552,
      -0.025747242383658886,
      -0.000379711389541626,
      -0.02957262098789215,
      -0.005669635720551014,
      0.01413986086845398,
      0.00034413672983646393,
      -0.029452763497829437,
      -0.0002467520534992218,
      0.01171998679637909,
      -0.00035636499524116516,
      0.0003365054726600647,
      0.017098255455493927,
      0.00654476135969162,
      0.01625163108110428,
      0.029881734400987625,
      0.003685504198074341,
      0.028628399595618248,
      0.006573155522346497,
      0.029300853610038757,
      0.016395540442317724,
      0.001534927636384964,
      0.01775015890598297,
      0.015656329691410065,
      0.005769871175289154,
      -0.02966070920228958,
      -0.029960855841636658,
      -0.019325315952301025,
      -0.02802559919655323,
      -0.028815560042858124,
      -0.029069535434246063,
      -0.01726561039686203,
      -0.01030769944190979,
      -0.02788965217769146,
      -0.028542645275592804,
      0.0003518611192703247,
      -0.00042188167572021484,
      -0.0027767252177000046,
      -0.00017376989126205444,
      -7.101520895957947e-05,
      -0.0001308843493461609,
      -0.0004418492317199707,
      -0.0002902671694755554,
      -0.0005107671022415161,
      -0.0028310399502515793,
      0.0165926031768322,
      0.02927003614604473,
      0.029252108186483383,
      0.0285598523914814,
      0.010634593665599823,
      0.011725194752216339,
      0.02878192812204361,
      0.02946368232369423,
      0.01303861290216446,
      0.027677904814481735,
      -0.002142544835805893,
      -0.0011295918375253677,
      0.008760020136833191,
      -0.00029280222952365875,
      -0.002983182668685913,
      -0.0021789968013763428,
      -0.002341281622648239,
      -0.0028869975358247757,
      -0.0072014220058918,
      -0.003684103488922119,
      0.02995125949382782,
      0.001590445637702942,
      0.014443963766098022,
      0.029699143022298813,
      0.0020555928349494934,
      0.01564808562397957,
      0.02913118340075016,
      0.02306256163865328,
      0.026112530380487442,
      0.02999923750758171,
      0.00010774098336696625,
      0.015624046325683594,
      0.027863433584570885,
      0.016309179365634918,
      0.026433095335960388,
      0.001988893374800682,
      -0.0011851340532302856,
      0.0011790934950113297,
      0.000789642333984375,
      0.0005066916346549988,
      -0.029355745762586594,
      -0.02962453104555607,
      -0.0004675956442952156,
      -0.009472087025642395,
      0.00017073750495910645,
      -0.02827957272529602,
      -0.008372195065021515,
      -0.02973627857863903,
      -0.00696183368563652,
      -0.0013875216245651245,
      0.00014456361532211304,
      6.255507469177246e-05,
      0.028824642300605774,
      -0.00049600750207901,
      -0.00012658536434173584,
      -0.0003523528575897217,
      -0.00045268237590789795,
      -0.00037164241075515747,
      -0.0006331559270620346,
      -0.0005851686000823975,
      0.00011270400136709213,
      0.0004455074667930603,
      -0.002553759142756462,
      -0.0007058829069137573,
      0.0009939540177583694,
      0.0009433142840862274,
      -0.01505976915359497,
      0.0002876371145248413,
      -0.017641767859458923,
      -0.010853230953216553,
      4.869699478149414e-05,
      -0.0002370700240135193,
      0.009080834686756134,
      -1.5944242477416992e-06,
      -0.001193799078464508,
      -2.6755034923553467e-05,
      3.248080611228943e-05,
      -0.00031460076570510864,
      -0.01671615242958069,
      -0.0003376603126525879,
      -0.0007491493597626686,
      0.013149917125701904,
      0.0003254637122154236,
      -0.0276024229824543,
      -0.0009510386735200882,
      -0.007431200705468655,
      0.014522857964038849,
      -0.026866335421800613,
      -0.027676550671458244,
      0.018187355250120163,
      0.015373177826404572,
      -0.015092283487319946,
      0.018083203583955765,
      0.022720828652381897,
      0.00010780990123748779,
      -0.00344296358525753,
      -0.007213840261101723,
      0.022361882030963898,
      -0.00046471506357192993,
      0.024543628096580505,
      -0.02971068024635315,
      -0.029707059264183044,
      -0.029902588576078415,
      -0.030046984553337097,
      -0.029793323948979378,
      -0.02916652336716652,
      -0.030006855726242065,
      -0.0014791563153266907,
      -0.028069794178009033,
      -0.02986418455839157,
      -0.004533738829195499,
      -0.007760308682918549,
      -0.016560696996748447,
      -0.008852574974298477,
      -0.013494923710823059,
      -0.027625564485788345,
      0.025771602988243103,
      -0.009946634992957115,
      -0.0027349740266799927,
      0.0016493350267410278,
      -0.00723990797996521,
      0.01011369377374649,
      5.710124969482422e-05,
      -0.006112201139330864,
      0.02959434688091278,
      -0.006726116873323917,
      -0.01292964443564415,
      -0.0075002312660217285,
      -0.015137888491153717,
      -0.0002658739686012268,
      3.217160701751709e-05,
      7.236003875732422e-05,
      2.9534101486206055e-05,
      5.2362680435180664e-05,
      0.00013660266995429993,
      0.00024878233671188354,
      5.885958671569824e-05,
      0.00021890923380851746,
      0.0005880072712898254,
      2.5976449251174927e-05
    ],
    [
      -0.0004134979099035263,
      -0.028600923717021942,
      -0.020634474232792854,
      -0.023089414462447166,
      0.028996321372687817,
      0.02326225582510233,
      7.122475653886795e-05,
      0.006319849751889706,
      -0.028134169057011604,
      0.0030767610296607018,
      7.50664621591568e-05,
      0.0005003921687602997,
      0.029363797046244144,
      -4.015490412712097e-05,
      -0.00025830697268247604,
      0.029233459383249283,
      0.028738859109580517,
      -0.029710127040743828,
      0.001791427843272686,
      -0.022874935530126095,
      0.028725193813443184,
      0.00041594915091991425,
      0.004650158807635307,
      -0.028694170527160168,
      0.0006487267091870308,
      0.0024864617735147476,
      0.028873932547867298,
      -0.009766876930370927,
      0.029844854027032852,
      -0.010772298322990537,
      -0.006815498694777489,
      0.00715311523526907
    ],
    [
      0.0007113590836524963,
      0.028556350618600845,
      9.890738874673843e-05,
      0.00014215707778930664,
      0.029728444293141365,
      -0.0009001456201076508,
      0.014811284840106964,
      0.01897411234676838,
      0.00019419938325881958,
      0.029892973601818085,
      -0.0019004866480827332,
      0.02954113855957985,
      0.012277394300326705,
      0.0003435388207435608,
      0.029125429689884186,
      0.027524985373020172,
      6.90072774887085e-05,
      -0.02989652380347252,
      0.029926471412181854,
      0.001274392008781433,
      0.028595099225640297,
      0.029739264398813248,
      0.029559005983173847,
      -0.029835712164640427,
      0.0004084557294845581,
      0.0014326423406600952,
      0.017872631549835205,
      0.02839653193950653,
      -0.0002547353506088257,
      -0.029398098587989807,
      -0.0002990923821926117,
      0.02658228576183319,
      -0.0163852721452713,
      -0.015556590631604195,
      0.001803804188966751,
      0.00036075711250305176,
      -0.018998533487319946,
      0.00329551100730896,
      0.003395041450858116,
      -0.021700285375118256,
      0.0010607652366161346,
      -0.02741064503788948,
      0.013678744435310364,
      -0.027478165924549103,
      -0.024187794886529446,
      -0.0010129902511835098,
      0.0028250962495803833,
      -0.019147271290421486,
      0.001557106152176857,
      0.029475219547748566,
      -0.02462826669216156,
      -0.02321051061153412,
      -0.021079539321362972,
      -0.01867577340453863,
      -0.026416081935167313,
      -0.008151441812515259,
      0.0016151964664459229,
      -0.01966584473848343,
      0.0019057206809520721,
      0.028938427567481995,
      0.009680883027613163,
      0.006313756108283997,
      0.014795402064919472,
      -0.015710725914686918,
      0.00011958926916122437,
      -0.00028398633003234863,
      0.029382623732089996,
      0.029508356004953384,
      -1.0810792446136475e-05,
      -0.02889612689614296,
      -0.01268841652199626,
      -0.027944065630435944,
      0.029436849057674408,
      0.00028950534760951996,
      -0.0003938637673854828,
      -0.000508628785610199,
      0.008597984910011292,
      0.02993997558951378,
      -0.02943342085927725,
      -0.02431824803352356,
      -0.02890780009329319,
      -0.0003026071935892105,
      0.0008480548858642578,
      0.0015272218734025955,
      0.002166789025068283,
      0.024669711478054523,
      0.00023353472352027893,
      0.0006411299109458923,
      0.02942429482936859,
      0.0001642853021621704,
      -0.00021506473422050476,
      -0.02776379883289337,
      -0.004899531602859497,
      0.007576674222946167,
      -0.000237196683883667,
      0.02860989235341549,
      0.0015737935900688171,
      -0.0005236491560935974,
      0.00022894889116287231,
      0.0006928667426109314,
      0.0010592080652713776,
      -0.029375847429037094,
      -0.02415694296360016,
      0.029209766536951065,
      0.00021506287157535553,
      0.026207096874713898,
      -0.0034909993410110474,
      0.029626093804836273,
      0.0015117228031158447,
      0.0014659464359283447,
      -0.006303934380412102,
      0.001573260873556137,
      -0.00013228505849838257,
      -0.02844474371522665,
      -2.9359012842178345e-05,
      0.0007624514400959015,
      0.0003575272858142853,
      0.000515354797244072,
      0.0004889313131570816,
      0.0018067806959152222,
      0.0004803687334060669,
      0.003291826695203781,
      -0.014176994562149048,
      -0.02830875664949417,
      -0.026520508341491222,
      0.00018184632062911987,
      -0.02829250693321228,
      0.0005991682410240173,
      8.818879723548889e-05,
      -3.495439887046814e-05,
      0.00010727345943450928,
      0.0002772565931081772,
      -0.012665197253227234,
      -0.00026891008019447327,
      0.0006182193756103516,
      -0.029980409890413284,
      -0.00014674197882413864,
      0.0017536282539367676,
      1.0328367352485657e-06,
      -0.02993551641702652,
      0.02321626991033554,
      0.029918886721134186,
      7.29542225599289e-05,
      0.02934980019927025,
      -0.027862228453159332,
      0.00018420815467834473,
      0.003968662582337856,
      -5.288422107696533e-05,
      0.006633086130023003,
      0.02992808073759079,
      -0.025903187692165375,
      0.00047625601291656494,
      5.148351192474365e-06,
      -3.3525750041007996e-05,
      -0.0010200869292020798,
      0.00014146044850349426,
      3.1676143407821655e-05,
      0.0003733057528734207,
      0.0001681661233305931,
      0.010113239288330078,
      0.028137415647506714,
      0.03003615327179432,
      -0.02406606823205948,
      -0.027027055621147156,
      0.01781698316335678,
      0.02991710603237152,
      0.02973315864801407,
      0.030007630586624146,
      0.0043358877301216125,
      2.2940337657928467e-05,
      0.02830280363559723,
      0.0010720118880271912,
      -0.000761914998292923,
      -0.00010352581739425659,
      0.03000861592590809,
      0.029793228954076767,
      0.030020475387573242,
      0.0017070593312382698,
      0.00035499781370162964,
      0.0010079406201839447,
      0.0014402419328689575,
      -0.013859692960977554,
      0.01771850883960724,
      0.0005269758403301239,
      -0.02705201506614685,
      0.0028296485543251038,
      0.03003829438239336,
      0.02872641384601593,
      0.029694510623812675,
      0.004013668745756149,
      0.00670035183429718,
      -0.014153122901916504,
      -0.023126812651753426,
      -0.027086361311376095,
      0.013534879311919212,
      0.0025084158405661583,
      -0.029531266540288925,
      8.617900311946869e-05,
      0.0005741044878959656,
      0.00015484541654586792,
      -0.02919965423643589,
      -0.029359545558691025,
      0.027295276522636414,
      -0.011654406785964966,
      -0.025880562141537666,
      -0.016150571405887604,
      0.0004264414310455322,
      -0.028707570396363735,
      -0.01579328626394272,
      0.00021446682512760162,
      -0.02872314304113388,
      -0.020314610563218594,
      -0.029216211289167404,
      -0.028808417730033398,
      -0.02906890958547592,
      0.00045449938625097275,
      -0.0013408595696091652,
      -0.02944590151309967,
      -0.029088441282510757,
      0.0004997774958610535,
      0.0001829005777835846,
      0.0285495538264513,
      1.630932092666626e-05,
      -0.029671553522348404,
      -0.02902699075639248,
      -0.0006170235574245453,
      0.0008236989378929138,
      0.007369033992290497,
      -0.0017792955040931702,
      0.027251748368144035,
      -0.0004074499011039734,
      -0.028483334928750992,
      0.0025093182921409607,
      -0.029543280601501465,
      0.027975454926490784,
      -0.028176715597510338,
      -0.028324037790298462,
      -0.0005861595273017883,
      -4.867836833000183e-05,
      -0.0008165128529071808,
      7.259100675582886e-05,
      0.02349426969885826,
      -0.02071286551654339,
      -0.028070248663425446,
      -0.005955047905445099,
      -0.029241534881293774,
      -0.001402243971824646,
      -0.0016737636178731918,
      -0.00024900492280721664,
      -0.02901078574359417,
      0.00036915019154548645,
      0.00046502426266670227,
      0.025022132322192192,
      0.02479652687907219,
      -7.432699203491211e-05,
      -0.010213652160018682,
      -0.020366540178656578,
      -0.011562526226043701,
      -0.024669282138347626,
      -0.025954594835639,
      -0.016890324652194977,
      0.016466312110424042,
      0.008867483586072922,
      0.002249695360660553,
      -0.019138947129249573,
      0.0003089532256126404,
      0.016259681433439255,
      0.0013860473409295082,
      -0.0005568936467170715,
      -0.022511668503284454,
      0.02796761691570282,
      -0.025997934862971306,
      0.011161182075738907,
      0.0023173484951257706,
      0.0009235069155693054,
      -0.01872123032808304,
      -0.01224721223115921,
      0.001159941777586937,
      0.0013857334852218628,
      0.006625340320169926,
      -0.02431609481573105,
      -0.0194900780916214,
      0.0012246035039424896,
      0.01552502065896988,
      -0.014716461300849915,
      -0.02064322680234909,
      0.0287734754383564,
      -0.014683691784739494,
      -0.025503922253847122,
      0.0034536123275756836,
      -0.028320604003965855,
      -0.029002204537391663,
      0.0008463757112622261,
      0.011504597961902618,
      -1.3481825590133667e-05,
      0.001915857195854187,
      -0.02672870270907879,
      0.00030363351106643677,
      0.0032799504697322845,
      0.0007406771183013916,
      -0.028622210025787354,
      -0.02783246338367462,
      0.0009317696094512939,
      0.002973252907395363,
      0.02983270026743412,
      0.0010597780346870422,
      0.00043363869190216064,
      -0.019928891211748123,
      -0.01679035648703575,
      -0.02404809184372425,
      -0.012193076312541962,
      0.0005743466317653656,
      -0.02858089841902256,
      -0.023067081347107887,
      0.007818877696990967,
      -0.02167007327079773,
      0.02809038572013378,
      -0.021842294838279486,
      0.0027399063110351562,
      -0.02379072830080986,
      0.0002640038728713989,
      -0.027531620115041733,
      0.02968297153711319,
      0.02850828319787979,
      0.0006893761456012726,
      -0.023915652185678482,
      -0.00040448084473609924,
      -0.0006654625758528709,
      0.029803110286593437,
      0.0012598317116498947,
      -0.00023278314620256424,
      -3.95849347114563e-05,
      0.0013885498046875,
      0.011940613389015198,
      -0.029303298331797123,
      0.002159368246793747,
      -0.029895074665546417,
      -0.028712906874716282,
      0.0009737014770507812,
      0.001109423115849495,
      0.00029190443456172943,
      0.00025128014385700226,
      -0.000882364809513092,
      -0.00244290754199028,
      0.028718329966068268,
      0.0012666136026382446,
      -0.02907036803662777,
      -0.02931945025920868,
      -0.028667740523815155,
      -0.000596197322010994,
      -0.029599405825138092,
      0.0007635671645402908,
      -0.0007960256189107895,
      0.000671684741973877,
      -0.02728208526968956,
      -0.011169612407684326,
      -0.018542371690273285,
      0.009126584976911545,
      0.029286567121744156,
      0.02860783040523529,
      -0.021640274673700333,
      -2.0697712898254395e-05,
      0.008482091128826141,
      0.004345719702541828,
      -0.028444193303585052,
      -0.027498841285705566,
      0.029760444536805153,
      -0.02589322067797184,
      0.02997851837426424,
      0.0012162253260612488,
      -0.00020257383584976196,
      -0.027627053670585155,
      -0.014503046870231628,
      -0.0009029451757669449,
      0.006538413465023041,
      0.0006379680708050728,
      -0.027657266706228256,
      -0.02461574226617813,
      0.029859744012355804,
      0.0011625997722148895,
      0.029938694089651108,
      0.00037749484181404114,
      0.01402704045176506,
      -0.017761077731847763,
      -0.02047239989042282,
      -0.0290607288479805,
      2.2649765014648438e-05,
      0.027875456027686596,
      -0.02959045022726059,
      -0.0040172673761844635,
      -0.002856142818927765,
      -0.014881804585456848,
      0.00035334378480911255,
      -0.028070934116840363,
      0.019282544031739235,
      -0.029284939169883728,
      -0.023631013929843903,
      0.0001437664031982422,
      -0.029760025441646576,
      -0.029332056641578674,
      1.8032267689704895e-05,
      0.027698464691638947,
      0.0006564129143953323,
      -0.015767686069011688,
      -0.02785949781537056,
      -0.00016219168901443481,
      -0.026324592530727386,
      0.0011857971549034119,
      0.016375292092561722,
      -4.500150680541992e-06,
      -0.00014102086424827576,
      0.0015141703188419342,
      -0.003814435563981533,
      0.0010547451674938202,
      0.018053345382213593,
      -0.029865790158510208,
      2.991408109664917e-05,
      0.0052772387862205505,
      0.0001961439847946167,
      0.0020711179822683334,
      0.010481264442205429,
      0.0006432905793190002,
      0.002507876604795456,
      -0.01739681512117386,
      0.0014837607741355896,
      0.012930631637573242,
      0.0006513297557830811,
      0.029579805210232735,
      0.029748380184173584,
      0.02920818328857422,
      -0.005685577169060707,
      0.01598406583070755,
      -0.00822459813207388,
      0.0008028456941246986,
      0.029679282568395138,
      0.0285588800907135,
      0.0297325998544693,
      0.029608815908432007,
      0.01481301337480545,
      0.0014990009367465973,
      0.029907599091529846,
      0.029846441000699997,
      0.0020592808723449707,
      0.0007451288402080536,
      0.0005319640040397644,
      0.0015999563038349152,
      0.00093894824385643,
      0.02959093451499939,
      0.026177607476711273,
      0.0036155804991722107,
      0.026101574301719666,
      0.025805207900702953,
      0.004099991172552109,
      -0.022358492016792297,
      -0.02058456838130951,
      0.003950448706746101,
      0.026107631623744965,
      0.0038110697641968727,
      -0.0005979388952255249,
      0.0037715937942266464,
      0.008796419948339462,
      0.02610968891531229,
      -0.024459528736770153,
      0.0034184083342552185,
      -0.024997100234031677,
      -0.0030930303037166595,
      0.003495939075946808,
      0.0033585578203201294,
      0.003284364938735962,
      0.028339792974293232,
      0.003694022074341774,
      0.008342638611793518,
      0.02588580921292305,
      0.004532528109848499,
      -0.009199496358633041,
      -0.02626170963048935,
      -0.02331291139125824,
      0.008040912449359894,
      -0.0028457269072532654,
      0.026490308344364166,
      -0.02745383232831955,
      0.00988113135099411,
      -0.00035484693944454193,
      -1.2060627341270447e-05,
      0.029951490461826324,
      -0.0014274567365646362,
      -0.0017677918076515198,
      0.02758204936981201,
      -0.0002297237515449524,
      0.029855988919734955,
      -0.029069572687149048,
      0.02934783138334751,
      0.012678027153015137,
      2.082251012325287e-05,
      0.00020577013492584229,
      0.028111323714256287,
      0.0017069801688194275,
      -0.029238834977149963,
      0.029275033622980118,
      0.026042137295007706,
      0.02781346533447504,
      0.0031643249094486237,
      0.029417216777801514,
      -0.02764228731393814,
      -0.0003812648355960846,
      0.029927168041467667,
      0.013903237879276276,
      -0.005251064896583557,
      0.0006822198629379272,
      -0.02765299379825592,
      -0.027963802218437195,
      0.00036250799894332886,
      -0.01004057377576828,
      -0.02579599805176258,
      -0.000192299485206604,
      -0.0007524425163865089,
      -0.02834932506084442,
      0.001085229218006134,
      0.0022744685411453247,
      -0.014714948832988739,
      0.0003720000386238098,
      -0.028430253267288208,
      0.029100380837917328,
      -0.028499482199549675,
      -0.02673620730638504,
      -0.0012284070253372192,
      0.0012373151257634163,
      -0.027824610471725464,
      0.0010499805212020874,
      0.028290169313549995,
      -0.028097638860344887,
      -0.026559539139270782,
      -0.02758786827325821,
      -0.02888450026512146,
      -0.02703242003917694,
      0.028557471930980682,
      0.0003161691129207611,
      -0.02738294191658497,
      0.00026756152510643005,
      0.0038696154952049255,
      0.0011099129915237427,
      0.02922794222831726,
      0.028037460520863533,
      -0.0017291437834501266,
      0.014895893633365631,
      -0.026057884097099304,
      -0.0005859583616256714,
      0.029545970261096954,
      -0.0002173054963350296,
      -0.029522188007831573,
      -0.023866575211286545,
      -0.028747512958943844,
      0.02503238618373871,
      0.001460360363125801,
      -0.027819134294986725,
      0.0007684528827667236,
      0.02947203814983368,
      0.01749434694647789,
      -0.029076512902975082,
      0.01487717404961586,
      -0.0281071737408638,
      -0.026972152292728424,
      0.0005425084382295609,
      0.00737348385155201,
      -0.0013166628777980804,
      8.774921298027039e-06,
      -0.010621871799230576,
      0.001583389937877655,
      0.02946058288216591,
      0.0026087267324328423,
      -0.02364668995141983,
      -0.02678103744983673,
      -0.028864726424217224,
      0.0013427827507257462,
      -0.027401592582464218,
      -2.0228326320648193e-06,
      0.009846659377217293,
      0.029834842309355736,
      -0.0004552258178591728,
      -0.0001622866839170456,
      0.00025920569896698,
      0.022008433938026428,
      0.008940447121858597,
      -0.02035591844469309,
      0.00032815709710121155,
      -9.554438292980194e-05,
      0.028188465163111687,
      -0.005344953387975693,
      -0.0003756210207939148,
      1.0572373867034912e-05,
      -6.173551082611084e-05,
      0.0005871988832950592,
      0.029845111072063446,
      0.029902730137109756,
      -0.011630542576313019,
      0.0003401413559913635,
      0.000250181183218956,
      -0.011710766702890396,
      0.004763403907418251,
      0.029739031568169594,
      0.0008078590035438538,
      0.00027123093605041504,
      2.1111220121383667e-05,
      0.029691006988286972,
      0.028523460030555725,
      0.02844797819852829,
      0.02877429872751236,
      1.497659832239151e-05,
      0.021659418009221554,
      0.026984481140971184,
      -0.028749686665832996,
      -0.028588958084583282,
      0.005045905709266663,
      0.02929786778986454,
      0.027044065296649933,
      0.00029135122895240784,
      -9.624380618333817e-05,
      0.00013420358300209045,
      0.025524061173200607,
      0.028440983965992928,
      -0.005527373403310776,
      -0.022945750504732132,
      0.029793232679367065,
      0.017863385379314423,
      0.029578853398561478,
      0.0014902055263519287,
      0.008373620919883251,
      -0.00655842199921608,
      0.02905157022178173,
      0.00021271780133247375,
      0.016457833349704742,
      0.014532873407006264,
      0.012393162585794926,
      0.02709461748600006,
      0.029187260195612907,
      0.028249554336071014,
      0.008989829570055008,
      -0.01090722531080246,
      0.029233364388346672,
      1.2456439435482025e-05,
      0.011902052909135818,
      8.922815322875977e-05,
      0.0009834393858909607,
      0.0006689950823783875,
      -0.02735055610537529,
      0.0005717724561691284,
      0.014937663450837135,
      -0.02706546988338232,
      0.003861263394355774,
      -0.0282554030418396,
      0.02961847186088562,
      -0.02751043811440468,
      -0.019429132342338562,
      0.003136749379336834,
      0.0009801629930734634,
      0.0037691891193389893,
      0.000535823404788971,
      0.003436550498008728,
      -0.02633585035800934,
      -0.02619883045554161,
      -0.0265542883425951,
      -0.027947328984737396,
      -0.028552144765853882,
      0.029540663585066795,
      0.0018577463924884796,
      -0.02740030735731125,
      0.0008309008553624153,
      0.007164027541875839,
      0.002429649233818054,
      0.02982090413570404,
      0.02956254780292511,
      -0.029272284358739853,
      0.00020302459597587585,
      -0.01850857585668564,
      0.02995450235903263,
      0.006300320848822594,
      -0.027989720925688744,
      -0.00017502903938293457,
      0.00033645518124103546,
      -0.029898375272750854,
      0.0012479610741138458,
      0.00024052709341049194,
      -0.0001760171726346016,
      -0.0207844041287899,
      0.029467128217220306,
      0.02789229154586792,
      -0.02953306958079338,
      -0.021046146750450134,
      -0.02993561327457428,
      -0.0003603734076023102,
      0.0005270643159747124,
      0.029237622395157814,
      0.0011602677404880524,
      0.00504697859287262,
      -0.029442965984344482,
      2.51084566116333e-06,
      0.029961153864860535,
      0.02949400246143341,
      -0.02964017167687416,
      -0.029341932386159897,
      -0.029971896670758724,
      6.776303052902222e-05,
      -0.0038636373355984688,
      0.02982448786497116,
      0.029229842126369476,
      0.014149859547615051,
      0.027342721819877625,
      -0.0003181956708431244,
      0.029403798282146454,
      0.0014800112694501877,
      0.011148117482662201,
      0.01435176283121109,
      0.018251921981573105,
      0.0298275388777256,
      0.0013073049485683441,
      0.028870999813079834,
      0.02985159307718277,
      0.0010166540741920471,
      0.012593694031238556,
      0.02971704863011837,
      0.004952341318130493,
      0.0018774047493934631,
      0.02989356219768524,
      0.02960035763680935,
      0.029768601059913635,
      0.029930919408798218,
      0.016857799142599106,
      0.0041997674852609634,
      0.026655085384845734,
      0.029995998367667198,
      0.017310604453086853,
      0.003719635307788849,
      0.003100212663412094,
      0.003300122916698456,
      0.002991843968629837,
      0.0291890949010849,
      5.114823579788208e-05,
      -0.026836812496185303,
      5.9157609939575195e-06,
      0.003637859597802162,
      -0.02909698709845543,
      0.0013010427355766296,
      -0.02325199544429779,
      -0.030013568699359894,
      0.003366410732269287,
      -0.006574304774403572,
      -4.070252180099487e-05,
      -0.02750829979777336,
      -0.0013627782464027405,
      0.0017097275704145432,
      -0.028991641476750374,
      -0.027672111988067627,
      -0.026728169061243534,
      0.0011975467205047607,
      -0.027832455933094025,
      -0.0204321201890707,
      -0.010627742856740952,
      8.17030668258667e-05,
      -0.027699477970600128,
      0.0010304329916834831,
      0.02511345036327839,
      -0.009683310985565186,
      -0.026975184679031372,
      -0.01692879945039749,
      -0.028815992176532745,
      0.001559460535645485,
      0.0005339868366718292,
      0.0001434721052646637,
      0.027721894904971123,
      -0.02916223555803299,
      0.02940540760755539,
      0.03000374510884285,
      0.029811672866344452,
      -0.0007442645728588104,
      -0.02895382046699524,
      -0.016205156221985817,
      0.029731529764831066,
      0.028389870189130306,
      -6.135553121566772e-05,
      -0.0036373063921928406,
      0.02993338368833065,
      0.030031844973564148,
      -0.0006183013319969177,
      0.029868782497942448,
      -0.00021257251501083374,
      0.0001347120851278305,
      0.030016392469406128,
      -0.00019397027790546417,
      0.030009587295353413,
      0.03002162277698517,
      0.0001927437260746956,
      0.0003084540367126465,
      0.0293210968375206,
      0.00021879374980926514,
      0.00024339556694030762,
      8.842535316944122e-05,
      -0.0006289109587669373,
      -0.0009457245469093323,
      5.841255187988281e-06,
      0.029832370579242706,
      -0.011649340391159058,
      0.0011021196842193604,
      -0.027978863567113876,
      -0.028607681393623352,
      0.00033677369356155396,
      -0.01849113404750824,
      0.00013462454080581665,
      0.001055292785167694,
      -0.029039342887699604,
      0.0006709322333335876,
      -0.027175791561603546,
      0.0010557621717453003,
      -0.027635648846626282,
      -0.029883641749620438,
      2.3730099201202393e-05,
      0.0010585449635982513,
      0.028797300532460213,
      0.02987721748650074,
      -0.0016709156334400177,
      0.001265108585357666,
      -0.02927374094724655,
      -0.029106952250003815,
      0.0008033886551856995,
      -0.028293393552303314,
      -0.029047228395938873,
      0.00040416419506073,
      -0.020149333402514458,
      0.002942832186818123,
      0.001076635904610157,
      -0.028732754290103912,
      0.02822766825556755,
      9.256228804588318e-05,
      -0.004834539256989956,
      -0.029120758175849915,
      0.029752444475889206,
      0.0020535066723823547,
      -0.00044715777039527893,
      -0.029700495302677155,
      -0.027759145945310593,
      0.0001082494854927063,
      8.0915167927742e-05,
      0.00041727442294359207,
      -0.0019374657422304153,
      0.00013332068920135498,
      0.0025313720107078552,
      0.0016090720891952515,
      -0.02811458706855774,
      -0.028178725391626358,
      -0.02980312705039978,
      -0.02907320111989975,
      0.0009189844131469727,
      -0.005979791283607483,
      -0.01183834858238697,
      0.00023101270198822021,
      -0.02936745062470436,
      -0.016772884875535965,
      0.02969004213809967,
      -0.02760486491024494,
      -0.02928413823246956,
      -0.028308864682912827,
      -0.029706895351409912,
      -0.029709912836551666,
      -0.028231103904545307,
      -0.012072354555130005,
      -0.028462111949920654,
      -0.02869018167257309,
      1.8894672393798828e-05,
      -0.01965390145778656,
      -0.028654479421675205,
      -0.028364116325974464,
      -0.028521116822957993,
      0.0029872283339500427,
      -0.028079364448785782,
      0.029408659785985947,
      -0.02864958345890045,
      0.028961041942238808,
      -4.703551530838013e-05,
      -0.02811568882316351,
      4.1093677282333374e-05,
      -0.028569908812642097,
      0.0008167363703250885,
      -0.02824055217206478,
      0.0010781921446323395,
      -1.9330531358718872e-05,
      -0.026474781334400177,
      0.0009688138961791992,
      -0.027814790606498718,
      -0.02831917256116867,
      2.6479363441467285e-05,
      -0.012393206357955933,
      -0.028577111661434174,
      -0.027374427765607834,
      -0.027281899005174637,
      -0.028284423053264618,
      -0.027308210730552673,
      -0.027884408831596375,
      0.009673189371824265,
      0.030010465532541275,
      0.0011391453444957733,
      0.001786544919013977,
      0.01757930964231491,
      0.029974132776260376,
      0.029767047613859177,
      -0.01304740458726883,
      0.0013491231948137283,
      -0.00029332563281059265,
      0.029544726014137268,
      0.0007345601916313171,
      0.00036947429180145264,
      0.029592130333185196,
      0.02988385781645775,
      0.0006185509264469147,
      0.02998577430844307,
      0.02984576392918825,
      0.0001654215157032013,
      0.0008451417088508606,
      0.028776511549949646,
      -0.0001432802528142929,
      0.028798706829547882,
      0.029721640050411224,
      0.0025564096868038177,
      0.0019307620823383331,
      0.030018918216228485,
      0.029653362929821014,
      0.029970407485961914,
      0.0297752246260643,
      0.029696285724639893,
      -0.013414934277534485,
      -0.011820532381534576,
      0.029149020090699196,
      -0.013467729091644287,
      -0.02866233140230179,
      0.00035833194851875305,
      0.029999881982803345,
      0.02955126017332077,
      0.002091717906296253,
      -0.012653984129428864,
      -0.00011397525668144226,
      0.016840798780322075,
      0.0009711012244224548,
      0.00028673186898231506,
      -0.014512579888105392,
      0.03000076860189438,
      0.00022883713245391846,
      0.030031733214855194,
      0.007830195128917694,
      0.0003484440967440605,
      0.0009171757847070694,
      1.9252300262451172e-05,
      -7.219333201646805e-05,
      0.013462379574775696,
      0.0017336327582597733,
      -0.02435700036585331,
      0.0006835833191871643,
      0.02993627917021513,
      0.029932495206594467,
      0.03001183271408081,
      0.0005052834749221802,
      0.02957085147500038,
      -0.0009325165301561356,
      0.012567497789859772,
      0.0038894172757864,
      0.00015668384730815887,
      0.0015848129987716675,
      0.0006176196038722992,
      0.02992265671491623,
      0.0012321174144744873,
      -0.0011915117502212524,
      0.00016152113676071167,
      -0.029363058507442474,
      0.029898345470428467,
      -0.022298872470855713,
      7.86222517490387e-05,
      9.20705497264862e-06,
      0.00023311376571655273,
      0.0002883151173591614,
      8.96994024515152e-05,
      0.02898775041103363,
      -0.00015870295464992523,
      -0.023731321096420288,
      -2.8178095817565918e-05,
      2.383999526500702e-05,
      -0.01645510643720627,
      0.02956264466047287,
      0.0005525723099708557,
      -0.02977774664759636,
      0.00022467225790023804,
      0.029831968247890472,
      0.028070873580873013,
      0.029254477471113205,
      0.02967202663421631,
      -6.401725113391876e-05,
      -0.0016529764980077744,
      0.00938313826918602,
      -0.0005970411002635956,
      8.016079664230347e-05,
      0.028076577931642532,
      0.007990837097167969,
      -0.016272719018161297,
      0.029369179159402847,
      -0.015858422964811325,
      0.029675070196390152,
      -0.011741675436496735,
      0.029812462627887726,
      0.018239013850688934,
      -0.006915557198226452,
      0.014965273439884186,
      0.013317728415131569,
      -2.8796494007110596e-06,
      -0.0173657089471817,
      0.02911083586513996,
      0.025047149509191513,
      0.0007047802209854126,
      0.0005448507145047188,
      0.0299984123557806,
      -0.029750406742095947,
      -0.00019424781203269958,
      0.006175443530082703,
      0.013918943703174591,
      0.015379741787910461,
      0.021040912717580795,
      -0.00044632330536842346,
      -0.022049251943826675,
      -0.012766174972057343
    ],
    [
      0.029640763998031616,
      -0.01681514922529459,
      0.015525756869465113,
      0.0006701163947582245,
      8.858088403940201e-05,
      0.029948415234684944,
      -0.025232408195734024,
      -0.027764449827373028,
      -0.014087357791140676,
      -0.027553328312933445,
      0.0006483206525444984,
      0.0036679012700915337,
      -0.02857023011893034,
      0.008178594522178173,
      0.009612073190510273,
      0.012415646575391293,
      -0.02426864020526409,
      -0.025317838415503502,
      0.010426570661365986,
      0.028356149792671204,
      -0.016799685545265675,
      -0.018863802775740623,
      0.02929232269525528,
      -1.1786818504333496e-05,
      0.03000570274889469,
      0.00016919709742069244,
      -0.02798481471836567,
      -0.02785432804375887,
      0.030035139061510563,
      0.011834788834676147,
      0.0009493688121438026,
      -0.00019853468984365463
    ],
    [
      -3.38992103934288e-05,
      0.011781536042690277,
      0.003306761384010315,
      0.028267979621887207,
      0.0011813938617706299,
      -0.017416328191757202,
      -0.02785562537610531,
      -0.002479109913110733,
      -0.0006608692929148674,
      0.020429864525794983,
      0.0014003664255142212,
      -0.002388007938861847,
      -0.0001515224575996399,
      0.008661298081278801,
      0.0021294020116329193,
      2.8386712074279785e-06,
      -0.0076015405356884,
      -0.02670036256313324,
      0.00039320439100265503,
      -0.017467543482780457,
      -0.004640400409698486,
      -0.02559344470500946,
      -0.00076260045170784,
      0.00022960826754570007,
      0.028260812163352966,
      0.0001668483018875122,
      -0.029140781611204147,
      0.0036476626992225647,
      0.015420544892549515,
      -0.029885277152061462,
      -2.2767111659049988e-05,
      0.029724031686782837
    ],
    [
      0.016332777915522456
    ]
  ],
  "num_updates": 2,
  "client_ids": [
    "client-1",
    "client-2"
  ],
  "mean_final_loss": 7.092228412628174,
  "aggregation_timestamp": 1784208464.3433075
}