{
  "version": "v98",
  "base_version": "v97",
  "round_id": 277,
  "aggregation": "fedavg",
  "averaged_weight_delta": [
    [
      -0.02731144428253174,
      -0.028989680111408234,
      -0.02892787754535675,
      -0.028544865548610687,
      -0.015990331768989563,
      -0.0018145069479942322,
      -0.029500678181648254,
      -0.016696891747415066,
      -0.02921220287680626,
      -0.02935783565044403,
      -0.020807623863220215,
      -0.029637725092470646,
      -0.025133858434855938,
      -0.02911018393933773,
      -0.029713992029428482,
      -0.02288067899644375,
      -0.029825594276189804,
      -0.029878994449973106,
      -0.029338642954826355,
      -0.02887556701898575,
      -0.02947944402694702,
      -0.0008820444345474243,
      -3.4458935260772705e-05,
      -0.029978983104228973,
      -0.0009514689445495605,
      -0.025134466588497162,
      -0.00011070072650909424,
      -0.0045891255140304565,
      -0.0020338185131549835,
      -0.001382783055305481,
      0.028545506298542023,
      0.012150168418884277,
      0.0267791748046875,
      0.020531363785266876,
      0.026637252420186996,
      0.0006436929106712341,
      0.014591027051210403,
      0.02912153024226427,
      -2.5741755962371826e-06,
      0.009881660342216492,
      0.002961592748761177,
      0.003670484758913517,
      0.001191452145576477,
      0.006065487861633301,
      -0.00028090178966522217,
      0.005766883492469788,
      0.0012682229280471802,
      0.001590915024280548,
      0.002022121101617813,
      -0.004763053730130196,
      -0.00032008811831474304,
      5.848333239555359e-05,
      0.0003627333790063858,
      -9.731948375701904e-05,
      3.8951635360717773e-05,
      -0.029257390648126602,
      -2.33575701713562e-06,
      -0.0008825007826089859,
      2.5413930416107178e-05,
      -0.029571041464805603,
      0.0028128698468208313,
      0.029648832976818085,
      0.013151638209819794,
      0.029002989642322063,
      0.02838311716914177,
      7.871165871620178e-05,
      0.02989298105239868,
      0.0009721685200929642,
      0.02134852111339569,
      0.0015259385108947754,
      0.029841449111700058,
      0.029920324683189392,
      0.029851213097572327,
      0.029900304973125458,
      0.02982115000486374,
      -0.01816948503255844,
      0.02998080477118492,
      0.028969569131731987,
      0.030024193227291107,
      0.00041470862925052643,
      0.016398325562477112,
      0.00025354232639074326,
      0.018428243696689606,
      0.022027388215065002,
      0.02060703933238983,
      -0.028232591226696968,
      0.0010780170559883118,
      0.0006908010691404343,
      0.02760954760015011,
      0.009900284931063652,
      -0.02985156700015068,
      -0.02972167544066906,
      -0.029442274942994118,
      -0.030011184513568878,
      -0.029753023758530617,
      -0.013688411563634872,
      -0.02999258041381836,
      -0.029066741466522217,
      -0.02999415248632431,
      -0.0298798568546772,
      -0.028981445357203484,
      -0.028847862035036087,
      -0.021792620420455933,
      7.152557373046875e-06,
      -0.001509007066488266,
      -0.02008517924696207,
      -0.02972634881734848,
      -0.009766995906829834,
      -0.025555729866027832,
      -0.02943143993616104,
      -0.00037127360701560974,
      0.0014377012848854065,
      -0.0045593902468681335,
      0.004311412572860718,
      -0.002089783549308777,
      -0.005640778690576553,
      0.024299992248415947,
      -0.0009162761270999908,
      -2.771243453025818e-05,
      4.0821731090545654e-05,
      -0.02919914945960045,
      -0.0292070209980011,
      -0.023756669834256172,
      -0.0288388729095459,
      -0.0024906545877456665,
      -0.0003607720136642456,
      -0.028745055198669434,
      -0.0021666474640369415,
      -0.029033705592155457,
      -0.004794305190443993,
      -0.02986111491918564,
      -0.0003170892596244812,
      -0.03001263737678528,
      -0.029915563762187958,
      -0.029849860817193985,
      0.01584385335445404,
      -0.029493995010852814,
      -0.025145549327135086,
      -0.02942335233092308,
      -0.028203807771205902,
      -0.029162585735321045,
      -0.02952583134174347,
      -0.004564245231449604,
      -0.028147593140602112,
      -0.002826020121574402,
      0.029012620449066162,
      -0.029854245483875275,
      -0.016521932557225227,
      -0.029598388820886612,
      -0.028624266386032104,
      -1.74790620803833e-05,
      -0.0022889915853738785,
      -3.152526915073395e-05,
      0.0012304559350013733,
      0.0002951100468635559,
      0.029189253225922585,
      0.0004909709095954895,
      -0.0015744715929031372,
      0.0005701631307601929,
      0.00023492425680160522,
      -0.007736623287200928,
      -0.029690399765968323,
      -0.0042618438601493835,
      -0.030003271996974945,
      -0.02985479310154915,
      -0.02436280995607376,
      -0.026326633989810944,
      -0.029778271913528442,
      -0.029669463634490967,
      -0.029109768569469452,
      0.02683798223733902,
      -0.011524297297000885,
      0.02812739461660385,
      0.0037402361631393433,
      0.022714443504810333,
      -0.00016772747039794922,
      0.0003399476408958435,
      0.01918505970388651,
      0.01096639409661293,
      0.018680382519960403,
      -0.0020537376403808594,
      -0.02168288081884384,
      -0.029314901679754257,
      -0.027711842209100723,
      0.0016004368662834167,
      -0.029545731842517853,
      -1.6100704669952393e-05,
      -0.022409924771636724,
      -0.026760220527648926,
      -0.027811423875391483,
      0.027939453721046448,
      -0.020161958411335945,
      -0.01364257000386715,
      -0.01226964220404625,
      -0.023520521819591522,
      -0.008473485708236694,
      -0.021589912474155426,
      -0.014302549883723259,
      -0.02034820429980755,
      -0.026899520307779312,
      0.0005714651197195053,
      0.02826014533638954,
      0.02917921543121338,
      0.00011017173528671265,
      0.02959509566426277,
      0.029899612069129944,
      -0.0024836473166942596,
      0.029871253296732903,
      0.029449649155139923,
      0.02943257987499237,
      -0.029609888792037964,
      -0.0296678077429533,
      -0.029809282161295414,
      -0.02921936847269535,
      -0.029319874942302704,
      -0.0008082352578639984,
      -0.02912990003824234,
      -0.029871340841054916,
      -0.0297242421656847,
      -0.02982385829091072,
      -0.02519915997982025,
      -0.025826342403888702,
      0.00011771917343139648,
      -0.019011087715625763,
      -0.029605824500322342,
      -0.028663087636232376,
      6.813835352659225e-05,
      -0.023036055266857147,
      -0.018927067518234253,
      -0.028976837173104286,
      0.028955992311239243,
      0.02837738860398531,
      0.024365253746509552,
      0.029061250388622284,
      0.028109785169363022,
      0.009261101484298706,
      -0.0006074681878089905,
      0.02774159424006939,
      0.013728626072406769,
      0.01313210278749466,
      0.0006329566240310669,
      -0.00015283562242984772,
      -3.7126243114471436e-05,
      0.0047484636306762695,
      0.00029769912362098694,
      0.029411272145807743,
      0.0002640336751937866,
      0.004938166588544846,
      0.0028926068916916847,
      0.028906263411045074,
      -0.015025943517684937,
      -0.024869628250598907,
      -0.028054874390363693,
      -0.026779796928167343,
      0.002604462206363678,
      0.012643471360206604,
      -0.021587755531072617,
      -0.018804828636348248,
      -0.026918359100818634,
      -0.028178352862596512,
      0.027254261076450348,
      0.0027421601116657257,
      0.02733429428189993,
      0.011453572660684586,
      0.026405178010463715,
      -0.028802543878555298,
      0.02514614537358284,
      0.012565426528453827,
      0.010934203863143921,
      0.006460808217525482,
      0.026972636580467224,
      0.01303131878376007,
      0.0004599541425704956,
      0.029576733708381653,
      0.027335599064826965,
      0.00021798908710479736,
      0.028483830392360687,
      0.02921002358198166,
      0.028732748702168465,
      0.02867654711008072,
      -0.027611094526946545,
      -0.020684830844402313,
      0.023026205599308014,
      -0.02941564843058586,
      -0.027330664917826653,
      0.029322778806090355,
      -0.02676049992442131,
      0.0005422011017799377,
      -0.012094666250050068,
      0.027435628697276115,
      -0.02951737493276596,
      -0.024811387062072754,
      -0.02849617414176464,
      -0.028624877333641052,
      -0.027951665222644806,
      -0.00029377639293670654,
      -0.027342453598976135,
      -0.027824731543660164,
      -0.028354918584227562,
      -0.02937076985836029,
      0.028287820518016815,
      0.028186604380607605,
      0.02431541308760643,
      0.029801592230796814,
      0.027277007699012756,
      0.0062697939574718475,
      0.02936985157430172,
      0.02873677760362625,
      0.028211399912834167,
      0.027976438403129578,
      -0.02811078168451786,
      -0.030022770166397095,
      -0.030011974275112152,
      -0.030019201338291168,
      -0.03004150651395321,
      -0.02994437888264656,
      -0.029860258102416992,
      -0.029962070286273956,
      -0.0300418883562088,
      -0.030024265870451927
    ],
    [
      0.004311690106987953,
      0.016765663167461753,
      -0.0005022678524255753,
      0.02896016836166382,
      0.002064663916826248,
      0.02184684108942747,
      0.02789261471480131,
      0.030015593394637108,
      0.01697057276032865,
      0.028033754788339138,
      0.02972545102238655,
      -0.028170617297291756,
      -0.027972557581961155,
      0.00034831464290618896,
      -0.01880392711609602,
      0.029282637871801853,
      0.016387358773499727,
      0.016723379027098417,
      -0.029126154258847237,
      -0.016751610208302736,
      0.017249740660190582,
      0.00040830112993717194,
      -0.02762542013078928,
      8.006393909454346e-05,
      -0.02759044338017702,
      -0.02483960147947073,
      0.003959820605814457,
      0.0039298152551054955,
      -0.027841610834002495,
      0.003799896687269211,
      0.029648302122950554,
      0.030019620433449745
    ],
    [
      0.015958011150360107,
      -0.02883055806159973,
      -0.0001995731145143509,
      0.029637697152793407,
      -0.029116220772266388,
      -0.02980724722146988,
      -0.02989264577627182,
      3.244727849960327e-05,
      -0.02954120561480522,
      0.012092231307178736,
      -0.029396310448646545,
      0.0005498118698596954,
      -0.02955596148967743,
      0.029415979981422424,
      0.0002187797799706459,
      0.030017569661140442,
      -1.389533281326294e-06,
      0.029608958400785923,
      0.0105965007096529,
      0.01544284075498581,
      1.7799437046051025e-05,
      -0.028039313852787018,
      -0.029168713837862015,
      0.029379598796367645,
      -0.025279995054006577,
      6.387196481227875e-05,
      0.028755471110343933,
      0.029039323329925537,
      8.218362927436829e-05,
      -0.029329046607017517,
      -3.5762786865234375e-05,
      6.497092545032501e-05,
      -0.02820209413766861,
      0.0030755624175071716,
      -0.017449491657316685,
      -0.009852771647274494,
      0.028988823294639587,
      0.005335702560842037,
      0.029111195355653763,
      0.03003348410129547,
      0.0011821724474430084,
      -0.023790554143488407,
      0.00013513118028640747,
      0.004099528305232525,
      0.0020436495542526245,
      -0.0002350788563489914,
      0.0018770098686218262,
      6.245821714401245e-05,
      -0.02920360118150711,
      0.029490899294614792,
      0.028809967450797558,
      0.010469809174537659,
      0.030048156157135963,
      0.029879087582230568,
      0.0020234696567058563,
      -0.013638460077345371,
      0.002144739031791687,
      0.029937349259853363,
      -0.02695365995168686,
      -0.023779936134815216,
      0.02985426038503647,
      0.00018630176782608032,
      -0.02025570161640644,
      -0.001226566731929779,
      0.02993815578520298,
      -0.0006793737411499023,
      -0.011358747258782387,
      0.02889096736907959,
      4.33875247836113e-05,
      7.91158527135849e-05,
      -6.204470992088318e-05,
      -0.000391591340303421,
      -0.02945798821747303,
      0.02920687571167946,
      -0.014513155445456505,
      0.0031345896422863007,
      -0.0013803541660308838,
      0.00796807836741209,
      -0.02712959051132202,
      0.029268808662891388,
      0.024976316839456558,
      0.003341791220009327,
      0.005352441221475601,
      0.004591101780533791,
      -0.00017170235514640808,
      0.0003631468862295151,
      0.0005845017731189728,
      -0.00012251734733581543,
      0.0006776191294193268,
      0.0002212170511484146,
      0.0003093108534812927,
      0.028849724680185318,
      7.065478712320328e-05,
      0.0004356410354375839,
      0.02696891874074936,
      0.016524188220500946,
      -0.01675933226943016,
      0.004240591078996658,
      0.005204327404499054,
      0.00020247511565685272,
      0.001111246645450592,
      0.002511344850063324,
      -0.00807175599038601,
      0.004130972549319267,
      0.029957186430692673,
      0.0014417991042137146,
      0.029710307717323303,
      0.02967711165547371,
      0.029665151610970497,
      -0.020635278895497322,
      0.0033924803137779236,
      -0.02263203263282776,
      0.0011583268642425537,
      -0.025164000689983368,
      0.017058979719877243,
      0.012870827224105597,
      -0.0011450201272964478,
      0.007722139358520508,
      -0.015826068818569183,
      0.000525742769241333,
      0.029884234070777893,
      0.0005653426051139832,
      0.006720848381519318,
      0.0013360418379306793,
      0.002259346656501293,
      0.015088476240634918,
      0.0022716782987117767,
      0.001672852784395218,
      -0.005965441465377808,
      -0.0008172504603862762,
      -0.027437403798103333,
      0.0011495724320411682,
      0.0031391913071274757,
      -0.018246660009026527,
      0.029636727645993233,
      0.02958083339035511,
      0.0009369254112243652,
      -0.029501955956220627,
      0.0007905662059783936,
      0.0005356613546609879,
      0.00023712962865829468,
      0.00023976340889930725,
      -0.029524900019168854,
      -0.0008892454206943512,
      -0.028771616518497467,
      0.002082839608192444,
      0.005392320454120636,
      0.00019683130085468292,
      0.029998326674103737,
      0.0005841739475727081,
      0.029344990849494934,
      -0.028818005695939064,
      -0.022133424878120422,
      0.029792647808790207,
      0.0006596148014068604,
      0.0005060331895947456,
      0.02951812744140625,
      0.028542570769786835,
      0.000653289258480072,
      -0.02878843992948532,
      0.02763925865292549,
      0.010169744491577148,
      0.017306063324213028,
      0.017460865899920464,
      0.000597883015871048,
      0.0005250750109553337,
      9.245984256267548e-05,
      0.000168580561876297,
      -0.029388749971985817,
      0.028572238981723785,
      -0.026452122256159782,
      0.0005104020237922668,
      -0.02975565940141678,
      0.02899075299501419,
      -0.0003496706485748291,
      0.029237650334835052,
      -0.00046731531620025635,
      0.028625115752220154,
      0.029603883624076843,
      0.028626225888729095,
      0.00061052106320858,
      0.005558595061302185,
      -0.025650344789028168,
      0.02970092184841633,
      0.009787499904632568,
      0.00026026368141174316,
      0.029657617211341858,
      0.028819821774959564,
      0.00024272873997688293,
      -0.0006562108173966408,
      0.0004028482362627983,
      -0.000683024525642395,
      0.009366963058710098,
      0.002892579883337021,
      0.02984832040965557,
      -0.00019120797514915466,
      -0.02955584228038788,
      -8.538179099559784e-05,
      -0.029995493590831757,
      -0.030001329258084297,
      6.505008786916733e-05,
      0.008605294860899448,
      0.0001788819208741188,
      -0.00013472139835357666,
      0.00029771775007247925,
      5.0883740186691284e-05,
      0.02849539741873741,
      4.753470420837402e-06,
      0.030002981424331665,
      -0.0005154013633728027,
      -0.010685954242944717,
      -0.02630382776260376,
      -0.029965241439640522,
      -0.02925233542919159,
      -0.025118350982666016,
      0.029811754822731018,
      0.007482536137104034,
      -0.029756199568510056,
      4.8255547881126404e-05,
      0.0012345612049102783,
      -0.029676266945898533,
      -0.027578234672546387,
      0.02959159016609192,
      0.03002946823835373,
      0.0003018304705619812,
      -0.020199760794639587,
      0.009358687326312065,
      -7.212162017822266e-06,
      -0.01745818555355072,
      -0.020374837331473827,
      -0.029094035737216473,
      -0.029862623661756516,
      -0.015306934714317322,
      0.0002623945474624634,
      -0.028400413691997528,
      -0.019743219017982483,
      -0.029222551733255386,
      0.0007760953158140182,
      -0.0013394653797149658,
      -0.0001633167266845703,
      0.000273972749710083,
      0.00017034634947776794,
      0.00011507049202919006,
      0.000432746484875679,
      -0.029873091727495193,
      -0.029009923338890076,
      -0.028274454176425934,
      0.029396500438451767,
      -0.026937322691082954,
      -0.029578063637018204,
      0.00028248131275177,
      -0.00012374483048915863,
      -0.02927333116531372,
      -0.029384132474660873,
      0.0006294231861829758,
      0.00035484135150909424,
      -0.020959950983524323,
      0.011980175971984863,
      0.02768865041434765,
      0.007884178310632706,
      0.028774667531251907,
      0.028024744242429733,
      0.028967449441552162,
      0.029497768729925156,
      0.014454567804932594,
      0.008724450133740902,
      0.02916499227285385,
      0.00893652904778719,
      0.028215140104293823,
      -0.025654055178165436,
      0.028934024274349213,
      0.02875184267759323,
      0.0008213073015213013,
      0.004040129482746124,
      -0.01996195688843727,
      -0.01660364866256714,
      0.009804703295230865,
      0.028488599695265293,
      0.01679302006959915,
      0.013770025223493576,
      0.029411187395453453,
      0.01286233402788639,
      -0.009053554385900497,
      -0.013269340619444847,
      0.006864003837108612,
      0.028494752943515778,
      0.008023358881473541,
      0.02770092524588108,
      0.027564428746700287,
      -0.005558304488658905,
      0.000394381582736969,
      0.029541827738285065,
      0.029014095664024353,
      0.0016745924949645996,
      0.029600437730550766,
      -0.0005803033709526062,
      -0.029438000172376633,
      0.029676344245672226,
      -0.029577039182186127,
      0.020821746438741684,
      -0.029489444568753242,
      0.02968575805425644,
      0.00012252852320671082,
      0.02937903255224228,
      0.00014852359890937805,
      0.029604682698845863,
      0.030030034482479095,
      0.029252097010612488,
      -0.0004823654890060425,
      0.005215989425778389,
      -0.02767421305179596,
      0.029475057497620583,
      0.00047340989112854004,
      -0.00024643726646900177,
      0.02982182614505291,
      0.03001614660024643,
      -0.00017328746616840363,
      -0.01417221873998642,
      0.005981354042887688,
      0.00029000174254179,
      0.00025099143385887146,
      0.028616592288017273,
      0.007213341072201729,
      -0.0038174614310264587,
      -0.02939228154718876,
      0.028916358947753906,
      -0.02970521803945303,
      -0.028946969658136368,
      -6.940029561519623e-05,
      0.029300538823008537,
      0.00021585822105407715,
      0.0027243634685873985,
      0.0011608842760324478,
      -0.022451985627412796,
      0.029276423156261444,
      -0.02244333177804947,
      0.028885114938020706,
      -0.00043080002069473267,
      -0.005420595407485962,
      -0.02305886149406433,
      -0.02895486354827881,
      0.0009750910103321075,
      0.002206818200647831,
      0.029006987810134888,
      0.0043823085725307465,
      -0.02711683139204979,
      -0.0006652222946286201,
      0.027519742026925087,
      -0.0006691887974739075,
      -0.02225419692695141,
      0.019043833017349243,
      0.028108583763241768,
      0.015509914606809616,
      0.0149239432066679,
      0.014228830114006996,
      0.01709497720003128,
      0.016869928454980254,
      -0.018020540475845337,
      0.016792375594377518,
      0.015708502382040024,
      -0.01715143769979477,
      0.01716787088662386,
      0.018700014799833298,
      0.01486557349562645,
      -0.004837803542613983,
      0.017187215387821198,
      -0.008971702307462692,
      0.016596436966210604,
      0.016922643408179283,
      0.017093181610107422,
      0.016422564163804054,
      0.015498481690883636,
      0.012592671439051628,
      0.021802857518196106,
      0.01723208650946617,
      -0.011295989155769348,
      0.017159536480903625,
      0.012801684439182281,
      0.01709010754711926,
      0.016653671860694885,
      0.013853095471858978,
      0.017132313922047615,
      0.012085303664207458,
      0.01309499517083168,
      -0.02925308421254158,
      0.0005188155919313431,
      -0.028470497578382492,
      -0.029339492321014404,
      -0.011990339495241642,
      0.0005297772586345673,
      2.4121254682540894e-06,
      4.215724766254425e-05,
      0.029252685606479645,
      -0.02928733080625534,
      0.0031778663396835327,
      0.0007334500551223755,
      0.0005590096116065979,
      -0.029715634882450104,
      2.012588083744049e-05,
      -0.02992384508252144,
      -0.029838502407073975,
      -0.025490010157227516,
      0.000744599848985672,
      -0.029245847836136818,
      0.0001293271780014038,
      -0.0002020522952079773,
      0.0002890918403863907,
      -0.0023448262363672256,
      -0.00030083954334259033,
      8.966401219367981e-05,
      -0.02856168895959854,
      -0.028946472331881523,
      8.989125490188599e-05,
      -0.00011909287422895432,
      -0.029447168111801147,
      -0.02911752462387085,
      0.0287168025970459,
      -0.01077646017074585,
      -0.0004364997148513794,
      0.029527492821216583,
      -0.0001489594578742981,
      -0.008483289740979671,
      -4.451721906661987e-05,
      9.29608941078186e-05,
      -0.02989157848060131,
      0.02891715057194233,
      -0.029747389256954193,
      -0.0006244080141186714,
      -0.02966276742517948,
      0.029890607111155987,
      -0.0006796196103096008,
      0.030012852512300014,
      -6.086006760597229e-05,
      0.02897784858942032,
      0.015147438272833824,
      0.028456326574087143,
      8.877739310264587e-05,
      0.0008269036188721657,
      -0.00028821825981140137,
      -0.00022457167506217957,
      -0.0244332542642951,
      0.00021687522530555725,
      0.029263995587825775,
      0.029303506016731262,
      0.00035203248262405396,
      -0.00045379623770713806,
      0.02975773811340332,
      -2.0634382963180542e-05,
      0.0018340349197387695,
      -0.019023753702640533,
      3.554299473762512e-05,
      -0.028815820813179016,
      -0.027238555252552032,
      -0.00042224861681461334,
      -0.027113595046103,
      -0.029242980293929577,
      -1.3656914234161377e-05,
      0.0041017085313797,
      4.7031790018081665e-05,
      6.785988807678223e-05,
      0.0003655776381492615,
      -0.02924296259880066,
      0.002472648397088051,
      -0.0122857466340065,
      0.029870696365833282,
      -0.02914475556463003,
      -0.025447554886341095,
      -0.02871589083224535,
      -0.027877341955900192,
      -0.02842748537659645,
      -0.02357567846775055,
      0.029001298360526562,
      0.0006513074040412903,
      -0.029320256784558296,
      -0.0016745775938034058,
      -0.005707181990146637,
      -0.02922097221016884,
      -0.024648364633321762,
      9.622052311897278e-05,
      0.0069281915202736855,
      -0.0014365622773766518,
      0.006503785960376263,
      -0.027804117649793625,
      -0.02580209355801344,
      -0.011222459375858307,
      0.002614133059978485,
      0.0008652955293655396,
      0.0008356906473636627,
      0.0018847212195396423,
      -0.028763752430677414,
      0.00983581691980362,
      0.007596620358526707,
      0.029892858117818832,
      -0.02749798446893692,
      0.00013065245002508163,
      -0.029666155576705933,
      0.00027372315526008606,
      -0.026277415454387665,
      0.0012816563248634338,
      -0.012923404574394226,
      0.0010603079572319984,
      0.000861835666000843,
      0.029617294669151306,
      -0.0240010479465127,
      0.02110803034156561,
      0.0004083998501300812,
      -0.028069913387298584,
      -0.0257536843419075,
      0.0009569302201271057,
      0.0009269490838050842,
      -0.026192599907517433,
      0.0005312711000442505,
      0.017126981168985367,
      0.0005699768662452698,
      -0.0006577745079994202,
      -0.0006585940718650818,
      -6.0521066188812256e-05,
      -0.020320884883403778,
      0.00028241146355867386,
      -6.856396794319153e-06,
      -0.029284488409757614,
      0.0025703217834234238,
      -0.029726097360253334,
      -0.02336859703063965,
      -0.02928399108350277,
      0.03000013530254364,
      -0.0005687661468982697,
      0.02999267727136612,
      0.0007774122059345245,
      0.021159112453460693,
      0.0007071793079376221,
      -0.0004022214561700821,
      7.432512938976288e-05,
      0.0003120284527540207,
      -0.026961572468280792,
      0.00170116126537323,
      -0.024500340223312378,
      0.00017928611487150192,
      0.029463887214660645,
      0.029451538808643818,
      0.00022745877504348755,
      -0.027607073076069355,
      0.009098900482058525,
      0.0001756679266691208,
      0.028124213218688965,
      -0.003148544579744339,
      -0.02940811775624752,
      0.026368536055088043,
      -0.0002164393663406372,
      -0.029174141585826874,
      -0.00031129270792007446,
      -0.0006929785013198853,
      -0.029358137398958206,
      0.029765479266643524,
      -0.015206949785351753,
      3.11732292175293e-05,
      -0.026702940464019775,
      0.029012249782681465,
      -0.02307603880763054,
      0.028709612786769867,
      0.000521484762430191,
      0.015263140201568604,
      -0.0016120001673698425,
      0.0022360719740390778,
      -0.000680781900882721,
      0.00021053850650787354,
      0.0017065424472093582,
      0.021397940814495087,
      0.0008642785251140594,
      -0.0004215836524963379,
      0.0077722929418087006,
      0.016477352939546108,
      -3.225356340408325e-05,
      -0.0006085019558668137,
      0.02948741428554058,
      0.0006340388208627701,
      0.027928965166211128,
      0.0015062401071190834,
      0.029161617159843445,
      -0.022566430270671844,
      -0.012046564370393753,
      -0.00038384273648262024,
      -0.017255932092666626,
      -0.028600117191672325,
      -0.0002867951989173889,
      0.02884000353515148,
      -0.0010323002934455872,
      -0.026360109448432922,
      -1.204758882522583e-05,
      0.0012223869562149048,
      0.029286567121744156,
      0.004113186150789261,
      0.029753632843494415,
      -0.02607537806034088,
      -0.020158279687166214,
      -0.008519255556166172,
      -0.02919904887676239,
      -0.025220435112714767,
      -0.0159464068710804,
      0.029080331325531006,
      0.016333691775798798,
      -0.027594320476055145,
      0.02941383793950081,
      0.005575193092226982,
      -0.027724890038371086,
      -0.011326815001666546,
      0.01182880625128746,
      0.029741942882537842,
      0.029866278171539307,
      0.012592807412147522,
      0.028177738189697266,
      0.030008386820554733,
      0.02986905351281166,
      0.0010514520108699799,
      0.02986481413245201,
      0.00019156187772750854,
      -0.02970227599143982,
      0.030003778636455536,
      0.0005753748118877411,
      0.02936798334121704,
      -0.00021345913410186768,
      0.029940206557512283,
      -1.8052756786346436e-05,
      0.029723310843110085,
      0.028862055391073227,
      0.029972813092172146,
      0.029947295784950256,
      0.029952935874462128,
      0.00021857768297195435,
      0.0015290752053260803,
      0.001119181513786316,
      0.029795736074447632,
      0.02978983335196972,
      0.00032465066760778427,
      0.02961736172437668,
      0.029803983867168427,
      0.00044564157724380493,
      0.00629086047410965,
      0.02993730455636978,
      0.004256345331668854,
      -0.02719734702259302,
      0.004490111023187637,
      0.00022945553064346313,
      -0.0002749711275100708,
      0.00045979395508766174,
      0.003890879452228546,
      0.0004105865955352783,
      8.77082347869873e-05,
      0.029909132048487663,
      0.0002455189824104309,
      0.0299919992685318,
      -0.00024436134845018387,
      0.03003886342048645,
      -0.029522478580474854,
      0.015520062297582626,
      -0.029749233275651932,
      2.4627894163131714e-05,
      -0.028543658554553986,
      -0.021680425852537155,
      -0.004623278975486755,
      0.0001373589038848877,
      0.0010484382510185242,
      0.011747775599360466,
      -0.005795679986476898,
      0.029433729127049446,
      0.00018135830760002136,
      -0.02966151386499405,
      -0.02937832474708557,
      0.00026206672191619873,
      0.029601797461509705,
      0.025139073841273785,
      0.00011230260133743286,
      -0.010415136814117432,
      -0.029012460261583328,
      -0.0285012349486351,
      0.0028922781348228455,
      0.0010606329888105392,
      -0.026443079113960266,
      0.0024377889931201935,
      0.0009232163429260254,
      -0.02743365801870823,
      0.0008535310626029968,
      -0.027880912646651268,
      -0.0010126382112503052,
      -0.026304122060537338,
      0.0007699346169829369,
      -0.025367993861436844,
      0.027139997109770775,
      -0.02738678827881813,
      0.0037537813186645508,
      -0.000951722264289856,
      -0.00019301846623420715,
      0.0002537304535508156,
      0.003115205094218254,
      -0.00482197105884552,
      -0.026002995669841766,
      -0.024174820631742477,
      0.0011654794216156006,
      -0.015491634607315063,
      -0.00012752600014209747,
      -5.9363432228565216e-05,
      -0.02590976282954216,
      -0.02488686889410019,
      -0.028119035065174103,
      -0.02523934841156006,
      0.017225012183189392,
      0.029524637386202812,
      -0.02534562349319458,
      0.001940213143825531,
      0.010592170059680939,
      0.00039889104664325714,
      0.0008689165115356445,
      0.029986940324306488,
      0.003718821331858635,
      0.02973267436027527,
      0.001580050215125084,
      0.029988400638103485,
      -0.02948060631752014,
      0.030003055930137634,
      -0.029153209179639816,
      4.424154758453369e-05,
      5.08427619934082e-05,
      0.0011371597647666931,
      0.0006617046892642975,
      0.0004475712776184082,
      0.0020520826801657677,
      0.0013880059123039246,
      -0.024922829121351242,
      0.02959294617176056,
      0.0004751719534397125,
      -0.024794669821858406,
      -0.02862870693206787,
      0.0010680947452783585,
      0.003339853137731552,
      0.00017878133803606033,
      0.029538795351982117,
      -0.024379540234804153,
      -0.003309383988380432,
      -0.025029481388628483,
      -0.025047543458640575,
      -0.025002680718898773,
      -0.02572601567953825,
      -0.02367928996682167,
      -0.0038091540336608887,
      0.020017705857753754,
      -0.024445779621601105,
      -0.02354183793067932,
      -0.0035754702985286713,
      -0.0030324310064315796,
      -0.0253301914781332,
      -0.0058340877294540405,
      -0.02556443214416504,
      -0.024480219930410385,
      -0.025136269629001617,
      -0.02358897030353546,
      -0.023839103057980537,
      -0.004032047465443611,
      -0.00250370055437088,
      -0.0029168128967285156,
      -0.025732476264238358,
      -0.004434362053871155,
      -0.0036544054746627808,
      -0.02529938519001007,
      -0.025205492973327637,
      -0.003445148468017578,
      -0.0036633238196372986,
      -0.02518089860677719,
      -0.020381655544042587,
      -0.013396862894296646,
      0.029274165630340576,
      0.0006737615913152695,
      -0.026713527739048004,
      0.008697351440787315,
      0.029776016250252724,
      0.029302701354026794,
      0.0009052827954292297,
      0.03001514356583357,
      -0.0013904832303524017,
      0.029912278056144714,
      -0.01077684760093689,
      0.029940485954284668,
      -0.029710430651903152,
      0.0001413002610206604,
      -0.02811603993177414,
      0.00020203180611133575,
      -0.027148671448230743,
      -0.02155829779803753,
      -0.027753237634897232,
      5.459785461425781e-05,
      0.011719711124897003,
      0.006867211312055588,
      0.0005283448845148087,
      0.0009235143661499023,
      2.5235116481781006e-05,
      0.0002278648316860199,
      -0.02527354657649994,
      6.776303052902222e-05,
      0.02949175238609314,
      0.0018050335347652435,
      0.00041649118065834045,
      0.000862419605255127,
      -0.012378368526697159,
      0.02995684091001749,
      0.00014826655387878418,
      0.00160888209939003,
      0.0052388980984687805,
      0.003035571426153183,
      -0.029817551374435425,
      4.291906952857971e-05,
      0.002175368368625641,
      0.00932883471250534,
      -0.029389284551143646,
      0.00028201937675476074,
      0.0004576258361339569,
      0.02993183583021164,
      5.110353231430054e-05,
      0.0300220288336277,
      0.001132243312895298,
      0.0017666742205619812,
      -3.7342309951782227e-05,
      -0.029495643451809883,
      -0.02619660086929798,
      -0.02506796270608902,
      0.02981674298644066,
      0.004033863544464111,
      -0.029235947877168655,
      0.0004799412563443184,
      0.0005057565867900848,
      -0.029574859887361526,
      -0.023489193059504032,
      0.00010565295815467834,
      0.030026722699403763,
      -0.02871841937303543,
      -0.0007564276456832886,
      0.0003234446048736572,
      -0.02882245182991028,
      -0.01667300472036004,
      -0.001218387857079506,
      -0.024137775413691998,
      -0.00013424456119537354,
      0.02988511323928833,
      -0.0007825978100299835,
      0.02343064919114113,
      -0.017736900597810745,
      0.028173808939754963,
      -0.029586970806121826,
      8.514150977134705e-05,
      -0.02990385890007019,
      0.00022792816162109375,
      -0.029103059321641922,
      -0.023361540399491787,
      -0.029277732595801353,
      -0.0008839461952447891,
      -0.029032617807388306,
      -0.019524704664945602,
      0.00033229775726795197,
      -0.00011248979717493057,
      -0.0007006824016571045,
      -0.0002812054008245468,
      -0.029229087755084038,
      -0.00046724453568458557,
      0.0005077123641967773,
      -0.0002355240285396576,
      0.00019571185111999512,
      0.029543474316596985,
      -0.025318007916212082,
      -0.020897185429930687,
      0.02982311137020588,
      0.007049500942230225,
      -0.01585359126329422,
      0.0061982180923223495,
      0.0031755417585372925,
      -0.02833833545446396,
      0.026707593351602554,
      -0.028104178607463837,
      0.003783591091632843,
      -0.028361715376377106,
      0.003380725160241127,
      -0.023623199202120304,
      0.029501229524612427,
      -1.7970800399780273e-05,
      0.0030993763357400894,
      0.028896747156977654,
      0.02866872400045395,
      0.0023582959547638893,
      0.0016300380229949951,
      0.002165853977203369,
      0.0002982458099722862,
      -0.025882460176944733,
      0.002198757603764534,
      3.758259117603302e-05,
      0.01710374653339386,
      0.002144026570022106,
      0.002909775823354721,
      -0.008223500102758408,
      -0.02532798796892166,
      0.016992821358144283,
      0.0014207400381565094,
      0.02450041100382805,
      0.016179174184799194,
      0.029300836846232414,
      0.02915974333882332,
      0.028423838317394257,
      -0.0004961341619491577,
      -0.007189823314547539,
      0.016265425831079483,
      -0.012513592839241028,
      -0.0004663318395614624,
      -0.004804487340152264,
      0.02971956692636013,
      0.014092110097408295,
      0.029786041006445885,
      0.028581924736499786,
      0.027074258774518967,
      0.02972782403230667,
      0.028654471039772034,
      -2.1303072571754456e-05,
      0.0011149756610393524,
      -0.0010482221841812134,
      0.029670866206288338,
      0.008236601948738098,
      2.3446977138519287e-05,
      0.030007317662239075,
      0.029001738876104355,
      0.0005056560039520264,
      0.0013899197801947594,
      0.02876954898238182,
      0.026942305266857147,
      -0.029010936617851257,
      0.00042276736348867416,
      0.0009700208902359009,
      -0.02721702679991722,
      -0.01671770215034485,
      0.0002006441354751587,
      -0.0006323978304862976,
      2.8578564524650574e-05,
      0.029990963637828827,
      -0.029329990036785603,
      0.00025387853384017944,
      -0.016252556815743446,
      0.00023360177874565125,
      -0.02851589396595955,
      0.0005891881883144379,
      -0.029290814884006977,
      -0.028821952641010284,
      -0.02457548677921295,
      -0.021609514951705933,
      -0.015088845044374466,
      5.201995372772217e-05,
      -0.00011600181460380554,
      0.02764405682682991,
      -0.02219923585653305,
      -0.0013740472495555878,
      2.538040280342102e-05,
      -0.028081081807613373,
      -0.024644553661346436,
      -2.5976449251174927e-05,
      0.00129023939371109,
      -0.023673633113503456,
      0.001284521073102951,
      7.416773587465286e-05,
      -0.02780047617852688,
      -6.085634231567383e-05,
      0.029336437582969666,
      0.0003192797303199768,
      -0.02947840467095375,
      0.0007226765155792236,
      0.0007543265819549561,
      -0.029736965894699097,
      -6.42240047454834e-06,
      -0.02883201278746128,
      0.0030904486775398254,
      -0.029368452727794647,
      0.029757723212242126,
      -0.00042631104588508606,
      0.0300177913159132,
      0.00017524510622024536,
      0.02964176796376705,
      0.016373246908187866,
      0.02919316105544567,
      0.0015945397317409515,
      -0.017705321311950684,
      -0.000684250146150589,
      -0.00013083592057228088,
      -0.019739188253879547,
      0.0006065499037504196,
      0.02912625391036272,
      0.029456342570483685,
      0.0007507521659135818,
      0.0013105794787406921,
      0.02947582770138979,
      -3.37846577167511e-05,
      0.029656335711479187,
      0.00717751681804657,
      0.027079835534095764,
      0.028920158743858337,
      0.02875656634569168,
      -0.00019318796694278717,
      0.029236778616905212,
      -0.0007775947451591492,
      -0.019677646458148956,
      0.029342003166675568,
      -0.0004089847207069397,
      0.001328893005847931,
      -0.0017806366086006165,
      0.02960396558046341,
      0.02671945095062256,
      0.029360804706811905,
      0.029373224824666977,
      0.02931995689868927,
      0.02957623451948166,
      0.029224595986306667,
      -0.00036921724677085876,
      0.0021276473999023438,
      0.0007363185286521912,
      0.028685107827186584,
      0.029481605626642704,
      -0.00017716921865940094,
      0.02953469753265381,
      0.02958610560745001,
      -7.314980030059814e-05,
      0.006515566259622574,
      0.029413804411888123,
      0.029883526265621185
    ],
    [
      -0.027629327028989792,
      0.003128955140709877,
      0.0004365434870123863,
      0.004431627690792084,
      -0.02519307378679514,
      0.028992876410484314,
      0.011521970853209496,
      -0.015538516454398632,
      0.027378447353839874,
      0.029227953404188156,
      0.028755596838891506,
      0.017151857260614634,
      0.00010925345122814178,
      0.000998825766146183,
      -0.013833133736625314,
      0.0004560593515634537,
      -0.02050901995971799,
      -0.0008397409692406654,
      -0.0001972392201423645,
      0.029925094917416573,
      0.028770086355507374,
      -0.0279375072568655,
      0.005837175063788891,
      -0.02191232331097126,
      0.0013377116993069649,
      0.0017139259725809097,
      -2.4417415261268616e-05,
      0.003033488057553768,
      0.029081680811941624,
      -0.021895488258451223,
      -0.023822697810828686,
      0.02942743245512247
    ],
    [
      -0.00028913840651512146,
      0.006251499056816101,
      0.029390606097877026,
      -0.024840157479047775,
      -0.02466294914484024,
      -0.00040222983807325363,
      -0.0023185014724731445,
      -0.000533275306224823,
      0.0008151233196258545,
      -0.00017533637583255768,
      -0.016910597681999207,
      -0.00013747066259384155,
      0.0036122575402259827,
      0.016994163393974304,
      0.016831189393997192,
      0.014994550496339798,
      0.025130316615104675,
      0.029476609081029892,
      0.008890718221664429,
      0.0008128378540277481,
      0.0013990290462970734,
      -0.0011890195310115814,
      0.01454395055770874,
      0.006313921883702278,
      -0.027752548456192017,
      -0.0009216666221618652,
      -0.0289975143969059,
      0.026532739400863647,
      0.001146271824836731,
      0.01262965053319931,
      0.009695552289485931,
      -8.044764399528503e-06
    ],
    [
      0.029203688725829124
    ]
  ],
  "num_updates": 2,
  "client_ids": [
    "client-2",
    "client-1"
  ],
  "mean_final_loss": 7.895379304885864,
  "aggregation_timestamp": 1784209687.268427
}