{
  "version": "v18",
  "base_version": "v17",
  "round_id": 15,
  "aggregation": "fedavg",
  "averaged_weight_delta": [
    [
      -0.017737656831741333,
      -0.01752987504005432,
      -0.030030369758605957,
      -0.016035661101341248,
      -0.007905647158622742,
      -0.028405148535966873,
      -0.015133220702409744,
      -0.029747135937213898,
      -0.017085403203964233,
      -0.008872617036104202,
      0.00013050436973571777,
      0.00028233975172042847,
      0.0012619951739907265,
      0.001560199074447155,
      0.02915184199810028,
      0.005658075213432312,
      0.00017181970179080963,
      0.0012413430958986282,
      0.00027206074446439743,
      0.0004998147487640381,
      -0.0018170848488807678,
      0.00038489699363708496,
      -0.007243163883686066,
      -0.016105186194181442,
      -0.014744192361831665,
      0.0002912096679210663,
      -0.0004436597228050232,
      -0.027400590479373932,
      0.015901831444352865,
      -0.020264793187379837,
      -0.009087890386581421,
      -0.028186924755573273,
      -0.014516465365886688,
      -0.011206485331058502,
      -0.016506101936101913,
      -0.02882838249206543,
      -0.028424661606550217,
      -0.029720216989517212,
      -0.02993173897266388,
      -0.029533708468079567,
      0.007297880947589874,
      0.010671712458133698,
      0.026260122656822205,
      0.0018432587385177612,
      0.02769821137189865,
      0.02224372699856758,
      -0.004306545481085777,
      -0.0008195191621780396,
      -0.022960055619478226,
      -0.007830187678337097,
      0.029045607894659042,
      0.02919336035847664,
      0.029790615662932396,
      0.02943876851350069,
      0.029542256146669388,
      0.029378488659858704,
      0.029575161635875702,
      0.029953956604003906,
      0.02961847372353077,
      0.029369410127401352,
      3.705732524394989e-05,
      0.0004150867462158203,
      0.0026654936373233795,
      8.274707943201065e-05,
      0.0008209217339754105,
      0.00024988315999507904,
      0.000278666615486145,
      0.002209719270467758,
      0.0049778008833527565,
      0.0013309791684150696,
      -0.00533701479434967,
      -0.02975425496697426,
      -0.0016439761966466904,
      0.011064833030104637,
      -0.02871142327785492,
      -0.028698459267616272,
      -0.02925536036491394,
      -0.006265699863433838,
      -0.003130197525024414,
      -0.016075044870376587,
      0.029931344091892242,
      0.02940613590180874,
      0.029362834990024567,
      0.029721394181251526,
      0.02983907423913479,
      0.02792426384985447,
      0.029955645091831684,
      0.029877420514822006,
      0.02996884658932686,
      0.02985193207859993,
      0.02955186367034912,
      0.02972228452563286,
      0.029589733108878136,
      0.02960233762860298,
      0.028903613798320293,
      0.02948138117790222,
      0.02977672778069973,
      0.029004722833633423,
      0.02900455892086029,
      0.029667824506759644,
      -0.02974926121532917,
      -0.02958531677722931,
      -0.030011743307113647,
      -0.029215537011623383,
      -0.02945343405008316,
      -0.02948877215385437,
      -0.029812268912792206,
      -0.02991967648267746,
      -0.029292196035385132,
      -0.029936255887150764,
      -0.0010667890310287476,
      -0.00014645792543888092,
      -0.0011440515518188477,
      -0.0001742839813232422,
      -0.0005319137126207352,
      -0.00046692974865436554,
      -1.2580305337905884e-05,
      -0.0017408430576324463,
      -0.0005348697304725647,
      -0.00037161633372306824,
      0.0006090961396694183,
      0.0002489965409040451,
      2.5753863155841827e-05,
      0.0003169272094964981,
      -0.004074759781360626,
      0.0003497079014778137,
      -2.5525689125061035e-05,
      0.0010324791073799133,
      0.0006364732980728149,
      -3.470852971076965e-05,
      8.32676887512207e-05,
      9.891390800476074e-05,
      0.028042510151863098,
      -6.52652233839035e-05,
      2.2531487047672272e-05,
      -0.0009257644414901733,
      2.308189868927002e-05,
      0.0017630457878112793,
      0.00035843439400196075,
      8.620321750640869e-05,
      -0.028572503477334976,
      -0.02757832780480385,
      -0.025062477216124535,
      -0.029913917183876038,
      -0.024223659187555313,
      -0.029073268175125122,
      -0.029304593801498413,
      -0.026722043752670288,
      -0.027687878347933292,
      -0.029184886254370213,
      -0.029029997065663338,
      -0.029400527477264404,
      -0.02917557582259178,
      -0.02896624058485031,
      -0.029453374445438385,
      -0.029414519667625427,
      -0.029019787907600403,
      -0.029791638255119324,
      -0.02980317547917366,
      -0.029587360098958015,
      -0.0009880512952804565,
      -0.0013205818831920624,
      -0.0032996609807014465,
      -0.0019963085651397705,
      0.020533747971057892,
      -0.004085913300514221,
      -0.006535690277814865,
      -0.0023657679557800293,
      -0.0002322876825928688,
      -0.00045308470726013184,
      0.028385959565639496,
      0.0289592482149601,
      0.02867238223552704,
      0.02889084257185459,
      0.028373517096042633,
      0.02827148512005806,
      0.02624945342540741,
      0.0018158331513404846,
      0.028442498296499252,
      0.026181798428297043,
      -0.02703365683555603,
      -0.021290987730026245,
      -0.029625192284584045,
      -0.017270242795348167,
      -0.026893287897109985,
      -0.016239292919635773,
      -0.01876681298017502,
      -0.029154576361179352,
      -0.016911624930799007,
      0.005662813782691956,
      -0.0002836063504219055,
      0.00018690526485443115,
      0.00016102660447359085,
      0.0003550611436367035,
      5.939789116382599e-05,
      -0.0024127615615725517,
      1.619383692741394e-05,
      0.00014397501945495605,
      -0.00030137598514556885,
      4.6885572373867035e-05,
      -0.022063586860895157,
      -0.02571193128824234,
      -0.028569653630256653,
      -0.02825472317636013,
      -0.029412124305963516,
      -0.029479503631591797,
      -0.026432394981384277,
      -0.029405348002910614,
      -0.02905505895614624,
      0.00011410750448703766,
      -0.0006644390523433685,
      -0.0005184020847082138,
      -0.0007759556174278259,
      -0.0005824156105518341,
      2.090446650981903e-05,
      -0.0005760788917541504,
      -0.0010938271880149841,
      -0.00044396519660949707,
      0.013191226869821548,
      4.055723547935486e-05,
      0.00011702626943588257,
      0.0006522797048091888,
      0.00014553964138031006,
      -0.011964589357376099,
      0.005566654726862907,
      0.00016545504331588745,
      -0.0005343332886695862,
      0.00021572038531303406,
      0.0003148764371871948,
      -0.0011216923594474792,
      0.00064083281904459,
      0.0009091012179851532,
      0.0009758621454238892,
      0.0005745366215705872,
      0.00045429542660713196,
      0.0006835088133811951,
      0.0004925960674881935,
      0.00014530867338180542,
      0.0016384869813919067,
      0.0006966143846511841,
      -0.0001063719391822815,
      -0.0003260355442762375,
      -0.00017617084085941315,
      -0.02637286949902773,
      -0.012513960711658001,
      -0.0012940280139446259,
      -2.212822437286377e-06,
      0.0006456188857555389,
      -0.020486708730459213,
      0.00016850978136062622,
      -0.02855340950191021,
      -0.02954315021634102,
      -0.029766805469989777,
      -0.029383886605501175,
      -0.029090285301208496,
      -0.0036959126591682434,
      -0.029164619743824005,
      -0.029760658740997314,
      -0.01177961751818657,
      -0.02959844097495079,
      0.004465892910957336,
      0.0014931485056877136,
      0.00013257190585136414,
      0.0006837733089923859,
      -0.0006453394889831543,
      0.0017182119190692902,
      0.0014133192598819733,
      0.0028643161058425903,
      0.016971774399280548,
      -0.00026801973581314087,
      0.028819384053349495,
      0.029407024383544922,
      0.029462173581123352,
      0.029345514252781868,
      0.028621632605791092,
      0.0009945854544639587,
      0.029575873166322708,
      0.029832545667886734,
      0.0012134015560150146,
      0.014099165797233582,
      -0.029837870970368385,
      -0.028912050649523735,
      -0.03000737354159355,
      -0.028627492487430573,
      -0.028412497602403164,
      -0.001105375587940216,
      -0.0010968372225761414,
      -0.0002535134553909302,
      -0.00018067285418510437,
      -0.017461512237787247,
      -0.02342311665415764,
      -0.026847051456570625,
      -0.02890719473361969,
      -0.029298854991793633,
      -0.027566932141780853,
      -0.022962383925914764,
      -0.028917254880070686,
      -0.029493391513824463,
      -0.028516163118183613,
      -0.020593218505382538,
      -0.02983790449798107,
      -0.00867743231356144,
      -0.0006338749080896378,
      0.014492888934910297,
      -0.002237193286418915,
      0.010964155197143555,
      0.01526486687362194,
      -0.0067511871457099915,
      0.009030044078826904,
      0.01738898456096649,
      1.5419907867908478e-05,
      -0.00011692196130752563,
      -0.0006321966648101807,
      6.589293479919434e-05,
      0.000278485007584095,
      -0.00010278075933456421,
      2.84537672996521e-05,
      0.0002426672726869583,
      0.0004477091133594513,
      1.5079975128173828e-05
    ],
    [
      0.0005351724103093147,
      -0.026552855968475342,
      0.0005493685603141785,
      0.011243124958127737,
      -0.02649647183716297,
      0.0027174949645996094,
      -0.028957590460777283,
      0.012222889112308621,
      0.0009318450465798378,
      -1.1202879250049591e-05,
      0.01630607177503407,
      0.028664609417319298,
      -0.028538968414068222,
      0.02867700345814228,
      9.540840983390808e-05,
      -0.00045120809227228165,
      -0.02259739115834236,
      0.00020335428416728973,
      0.011644338723272085,
      0.002774905413389206,
      0.002668902277946472,
      0.00024563074111938477,
      0.0014403602108359337,
      0.0002869684249162674,
      0.028780191205441952,
      0.01783392601646483,
      0.0009333938360214233,
      0.02874971553683281,
      0.029919661581516266,
      -0.016360094537958503,
      4.684552550315857e-07,
      0.029568824917078018
    ],
    [
      0.0007033487781882286,
      0.0005464032292366028,
      0.00017200037837028503,
      -0.029621034860610962,
      0.00021053478121757507,
      0.0008598491549491882,
      0.029851159080863,
      -0.027773935347795486,
      0.030032731592655182,
      0.0006310809403657913,
      0.0011949092149734497,
      0.00032779574394226074,
      0.0004417598247528076,
      0.02984868921339512,
      -4.298985004425049e-05,
      0.029683241620659828,
      0.0011694841086864471,
      -0.010391106829047203,
      0.02991198841482401,
      0.0012414827942848206,
      0.0013433191925287247,
      -0.02414474356919527,
      0.01732327789068222,
      0.029874488711357117,
      0.029509570449590683,
      -0.02930556982755661,
      0.00030632317066192627,
      0.030037622898817062,
      0.00036404654383659363,
      0.029916580766439438,
      -0.025557741522789,
      0.00034680217504501343,
      0.002145342528820038,
      0.00048764050006866455,
      0.0007527247071266174,
      0.02950743492692709,
      0.002903394401073456,
      0.0044167861342430115,
      -0.029088199138641357,
      0.029633570462465286,
      -0.0279126837849617,
      -0.00028653815388679504,
      0.002305690199136734,
      -7.734168320894241e-05,
      0.00033127516508102417,
      -0.02908417209982872,
      0.0007944256067276001,
      -0.012005478143692017,
      -0.0002624737098813057,
      -0.0021243738010525703,
      -0.0288803493604064,
      0.0031304098665714264,
      0.0005107298493385315,
      0.02983328327536583,
      -0.0009786449372768402,
      -0.029320652596652508,
      -0.02604455128312111,
      0.028890669345855713,
      0.00025624316185712814,
      -0.029415778815746307,
      0.006278343498706818,
      -0.029587216675281525,
      0.005484431982040405,
      0.0004605688154697418,
      0.027064558118581772,
      0.0008557960391044617,
      0.02961291093379259,
      -0.029789546504616737,
      -0.024250876158475876,
      -5.854759365320206e-05,
      0.029634810984134674,
      -0.02188875526189804,
      0.02919425070285797,
      -0.0003521628677845001,
      -0.0010902881622314453,
      -0.0003137793391942978,
      0.00014227628707885742,
      0.0292217880487442,
      0.0011996496468782425,
      0.02969423308968544,
      0.0006278939545154572,
      -0.014395828358829021,
      0.02969791553914547,
      0.029142551124095917,
      0.029095757752656937,
      0.0008875634521245956,
      0.028990361839532852,
      0.029535725712776184,
      0.00014844536781311035,
      -0.029895106330513954,
      0.0002561435103416443,
      0.029296427965164185,
      -0.018670614808797836,
      0.02971791010349989,
      -0.0006215088069438934,
      0.00039377063512802124,
      0.0017335191369056702,
      0.0007863454520702362,
      0.0011421963572502136,
      0.029792577028274536,
      0.0003412887454032898,
      -0.01889493688941002,
      -0.028666427358984947,
      0.028825856745243073,
      -0.029878176748752594,
      -0.0007718615233898163,
      -0.01236974447965622,
      -0.00010165199637413025,
      -0.000436452217400074,
      -0.02930835634469986,
      0.001338450238108635,
      -0.024329179897904396,
      -0.0006809830665588379,
      0.014984652400016785,
      -0.02891211211681366,
      0.0033688098192214966,
      0.0010808706283569336,
      0.029350996017456055,
      -0.0170087069272995,
      -0.028381917625665665,
      -0.028624363243579865,
      0.015815334394574165,
      -0.00034324079751968384,
      -0.0292420145124197,
      0.0025682803243398666,
      -0.02866618987172842,
      0.029344847425818443,
      0.0004935041069984436,
      0.003180614672601223,
      0.00022190436720848083,
      0.00036273151636123657,
      0.01743454299867153,
      0.029487863183021545,
      -0.0029774513095617294,
      0.006689231842756271,
      0.029445312917232513,
      -7.973611354827881e-05,
      -0.0004801228642463684,
      0.0027984976768493652,
      -0.00046594440937042236,
      0.010077185928821564,
      -0.016065998934209347,
      0.00135783851146698,
      -0.025669111870229244,
      6.985291838645935e-05,
      0.029912039637565613,
      6.22868537902832e-06,
      0.00952564924955368,
      0.0004193652421236038,
      0.013618373312056065,
      0.0011502057313919067,
      -0.0270810192450881,
      -0.0003697201609611511,
      0.02892144024372101,
      0.003182387910783291,
      -0.0299680233001709,
      0.029349368065595627,
      -0.029808662831783295,
      0.016915337182581425,
      0.0006188265979290009,
      -0.025155140087008476,
      -0.028431452810764313,
      -0.027587153017520905,
      -0.027034088969230652,
      -0.026587190106511116,
      -0.006604399532079697,
      0.0001472020521759987,
      0.0019166171550750732,
      0.0005860859528183937,
      0.028789596632122993,
      -0.02348983660340309,
      0.003962922841310501,
      0.02964768558740616,
      0.0009139552712440491,
      -0.02856636792421341,
      -0.026608740910887718,
      0.0011887941509485245,
      0.0038906410336494446,
      0.0021660923957824707,
      -0.026250243186950684,
      -0.012907158583402634,
      -0.02854296565055847,
      0.0001086890697479248,
      0.0005755200982093811,
      0.001403462141752243,
      -0.024819551967084408,
      0.002717345952987671,
      0.0005994215607643127,
      -0.02175106480717659,
      0.0008255988359451294,
      -0.028571270406246185,
      -0.02695217728614807,
      -0.027463525533676147,
      -0.028014549985527992,
      -0.027977759018540382,
      -0.027601849287748337,
      -0.028354797512292862,
      -0.02120643388479948,
      -0.0010605230927467346,
      0.0027794986963272095,
      0.0005500465631484985,
      0.02908044308423996,
      -0.011472589336335659,
      0.00042097270488739014,
      0.01962191890925169,
      -0.026169944554567337,
      -0.028466664254665375,
      -1.5925616025924683e-05,
      0.00023682042956352234,
      -0.023560989648103714,
      0.0006380602717399597,
      -0.027557373046875,
      -0.018671810626983643,
      -0.027970492839813232,
      -0.02844306081533432,
      4.163384437561035e-05,
      0.0005916375666856766,
      -0.02654566615819931,
      0.006141200661659241,
      0.0002914741635322571,
      -0.027760766446590424,
      0.00010896474123001099,
      -0.027233866974711418,
      -0.019505172967910767,
      0.029686286114156246,
      -0.00020237267017364502,
      0.008870026096701622,
      0.029941322281956673,
      0.012813866138458252,
      0.00128973089158535,
      0.0016564428806304932,
      0.01165442168712616,
      -0.00023410934954881668,
      -0.00024661049246788025,
      -0.011327557265758514,
      -5.704723298549652e-05,
      0.0012219175696372986,
      -0.02790497988462448,
      0.010696008801460266,
      -0.00028461404144763947,
      0.00033084675669670105,
      0.02824866771697998,
      -0.02910042554140091,
      0.004493139684200287,
      -0.02913011983036995,
      0.02991948276758194,
      -0.026549141854047775,
      -0.0287339948117733,
      -0.028995240107178688,
      0.029454857110977173,
      0.000494830310344696,
      -0.02937125787138939,
      0.02961779199540615,
      -0.02856278046965599,
      0.023447532206773758,
      -0.027996567077934742,
      0.0010781623423099518,
      0.0004378054291009903,
      0.0005185678601264954,
      0.00020575523376464844,
      1.9556842744350433e-05,
      -0.004832904785871506,
      -0.02865336835384369,
      0.015098780393600464,
      -0.029752217233181,
      -0.029420994222164154,
      0.00022322684526443481,
      -0.0290184635668993,
      -0.02828454226255417,
      -0.028374893590807915,
      0.00027205049991607666,
      -0.027547597885131836,
      -0.028832729905843735,
      0.02189856767654419,
      -0.027051507495343685,
      9.639561176300049e-05,
      -0.02393178641796112,
      4.382431507110596e-05,
      -0.004150748252868652,
      -0.02959270030260086,
      -0.029096508398652077,
      -0.00020737014710903168,
      -0.02808038890361786,
      -0.029701434075832367,
      0.0011289510875940323,
      -0.028523772954940796,
      -0.0004138648509979248,
      3.405660390853882e-05,
      -0.025214001536369324,
      -0.02928505465388298,
      -0.02939222939312458,
      0.0006262138485908508,
      -0.011750413104891777,
      0.0016957111656665802,
      -0.029906731098890305,
      0.0015192404389381409,
      -0.0007706582546234131,
      0.02872384525835514,
      -0.017806610092520714,
      0.02988811582326889,
      0.0005699507892131805,
      -0.029703423380851746,
      -0.029135316610336304,
      -0.029134728014469147,
      0.029689948074519634,
      0.00035186484456062317,
      0.011261221021413803,
      -0.02946440503001213,
      -0.029295598156750202,
      -0.0008636713027954102,
      -0.027724191546440125,
      -0.01923031359910965,
      0.028647925704717636,
      0.0008159950375556946,
      -1.9740313291549683e-05,
      -0.0015415996313095093,
      -0.024014554917812347,
      0.0001448318362236023,
      -4.817545413970947e-05,
      -0.029586120508611202,
      -0.02482801489531994,
      -0.003153882920742035,
      -0.003895360976457596,
      -0.025593988597393036,
      -0.024849530309438705,
      -0.013612795621156693,
      0.0046089692041277885,
      -0.024211667478084564,
      0.005747795104980469,
      0.004096509888768196,
      -0.016037486493587494,
      0.004518046975135803,
      0.004275988787412643,
      0.025942496955394745,
      -0.004191773943603039,
      -0.0030200183391571045,
      0.004317969083786011,
      0.0038903802633285522,
      0.027247779071331024,
      -0.02307761460542679,
      -0.0032072030007839203,
      -0.025957182049751282,
      0.009403195232152939,
      0.02552776038646698,
      0.00486273318529129,
      -0.02501756139099598,
      0.003857165575027466,
      0.024532504379749298,
      -0.02572557982057333,
      0.02601243183016777,
      -0.025823917239904404,
      -0.0040401192381978035,
      0.02992667257785797,
      -0.00023016147315502167,
      -2.031773328781128e-05,
      0.029922012239694595,
      0.0012340843677520752,
      0.029645821079611778,
      -0.027796097099781036,
      0.029420800507068634,
      -0.0002679377794265747,
      0.0007114708423614502,
      0.014661610126495361,
      0.001819550059735775,
      7.289275527000427e-05,
      -0.027329258620738983,
      0.00028518587350845337,
      0.0002040080726146698,
      0.0005678460001945496,
      0.02753017470240593,
      -0.02969340141862631,
      0.0012599863111972809,
      0.0004694676026701927,
      0.0270951259881258,
      -0.0005239434540271759,
      -0.01996152102947235,
      -0.020463895052671432,
      0.006441492587327957,
      0.004926772788167,
      -0.029460355639457703,
      0.03002677671611309,
      -0.028544291853904724,
      0.002990058623254299,
      0.00016177445650100708,
      -0.020915735512971878,
      -0.029489662498235703,
      -0.02889176458120346,
      0.00011101178824901581,
      -0.027833450585603714,
      0.029506824910640717,
      -0.0003503262996673584,
      0.028841745108366013,
      0.002363380044698715,
      0.029619984328746796,
      0.0015910454094409943,
      0.029907062649726868,
      0.029380224645137787,
      0.00018367916345596313,
      -0.02839481085538864,
      -0.02206815779209137,
      0.029674135148525238,
      0.028934787958860397,
      -0.00048001669347286224,
      -0.02044960856437683,
      -0.025301024317741394,
      -0.00019610673189163208,
      -0.012284651398658752,
      0.0003437623381614685,
      -0.0011231228709220886,
      -0.013224291615188122,
      0.02969275787472725,
      0.00022781267762184143,
      -0.006186205893754959,
      0.0006219968199729919,
      0.012582400813698769,
      -0.013113599270582199,
      -0.028192877769470215,
      0.00045247189700603485,
      -5.172938108444214e-05,
      -0.02977772057056427,
      0.0002351999282836914,
      -0.02195502072572708,
      -0.0002742316573858261,
      -0.02942226082086563,
      0.02996712177991867,
      0.004742257297039032,
      -0.029836270958185196,
      0.00011108815670013428,
      -0.0034764856100082397,
      0.00021705031394958496,
      0.00014366209506988525,
      0.0282626710832119,
      -0.00026419200003147125,
      -0.0011664479970932007,
      0.029645778238773346,
      -0.01843792200088501,
      -5.817413330078125e-05,
      -0.029382437467575073,
      0.0020267292857170105,
      0.029722847044467926,
      0.02924344316124916,
      -0.014494374394416809,
      0.0009166672825813293,
      0.03002236783504486,
      -0.002788405865430832,
      0.02957370411604643,
      -0.02496209181845188,
      3.4846365451812744e-05,
      0.015261637046933174,
      -0.02916405349969864,
      0.00012506544589996338,
      -0.0009835362434387207,
      -0.0011029057204723358,
      0.029348209500312805,
      0.029594264924526215,
      0.023663777858018875,
      0.02929520048201084,
      0.0288882777094841,
      0.02805522456765175,
      0.028172098100185394,
      0.0283677875995636,
      0.029597802087664604,
      -0.011174209881573915,
      0.028894342482089996,
      0.028771258890628815,
      0.028803344815969467,
      0.028194446116685867,
      0.0270741805434227,
      -5.653500556945801e-05,
      -0.00037237629294395447,
      0.018215897027403116,
      0.02899610623717308,
      0.028283175081014633,
      -0.00036140531301498413,
      0.029349759221076965,
      0.02925761230289936,
      0.02799268811941147,
      0.00836208090186119,
      0.021842602640390396,
      0.02517120447009802,
      -0.028844770975410938,
      -0.029010795056819916,
      -0.029612037353217602,
      0.00023506209254264832,
      -0.029476400464773178,
      -0.0016484782099723816,
      -0.00016363337635993958,
      0.028468795120716095,
      0.00017643719911575317,
      5.2541494369506836e-05,
      -0.029582437127828598,
      0.0015163421630859375,
      0.028953246772289276,
      1.8104910850524902e-06,
      -0.029525000602006912,
      0.0001592598855495453,
      -1.3853423297405243e-05,
      -0.0004293043166399002,
      0.00030564703047275543,
      -0.02871735394001007,
      -0.029123149812221527,
      -0.0037395860999822617,
      -0.0003856746479868889,
      0.0003050193190574646,
      0.0003843046724796295,
      -0.024089492857456207,
      0.0009115710854530334,
      7.452070713043213e-05,
      -0.02972777932882309,
      0.0001872749999165535,
      -0.02677772007882595,
      -0.02985239401459694,
      -0.000991828739643097,
      0.0008805021643638611,
      0.005100324749946594,
      -0.0035880915820598602,
      -0.0018042344599962234,
      0.00012899935245513916,
      0.016520226374268532,
      -0.0005507245659828186,
      0.029246240854263306,
      -0.00020172446966171265,
      0.0009437613189220428,
      -0.0005021616816520691,
      -2.16066837310791e-06,
      0.028895843774080276,
      0.0011836634948849678,
      0.0008832961320877075,
      0.0005472330376505852,
      -0.02795366570353508,
      0.029884055256843567,
      0.003422122448682785,
      0.029993262141942978,
      -0.01470528170466423,
      0.029655463993549347,
      0.029679937288165092,
      0.02797641884535551,
      -0.028772640973329544,
      0.0005934126675128937,
      0.02894384041428566,
      -0.013446860015392303,
      0.02980167604982853,
      -2.2951513528823853e-05,
      0.029898472130298615,
      -0.028961723670363426,
      0.0012728050351142883,
      -0.025441478937864304,
      -0.028871752321720123,
      0.0008675362914800644,
      -0.028131533414125443,
      -0.0005416348576545715,
      -0.02832108736038208,
      -0.0109933502972126,
      -0.00039906613528728485,
      -0.02930779568850994,
      -0.0001274067908525467,
      -0.0007662326097488403,
      0.028943272307515144,
      -0.028772128745913506,
      -0.029319580644369125,
      -0.00042355433106422424,
      -7.027015089988708e-05,
      0.028563164174556732,
      -0.02864355593919754,
      0.00033079832792282104,
      -0.02815753873437643,
      0.02211051434278488,
      0.00465765967965126,
      0.02955740876495838,
      -0.0008681267499923706,
      -2.352893352508545e-05,
      0.029239386320114136,
      -0.029164515435695648,
      0.028745248913764954,
      -0.02628958225250244,
      0.0006136391311883926,
      -0.019698821008205414,
      -0.028900262899696827,
      -0.028981387615203857,
      0.0006059370934963226,
      -3.382191061973572e-05,
      0.028125939890742302,
      -0.009387150406837463,
      0.0010722540318965912,
      0.029695548117160797,
      0.02841635886579752,
      -0.013356417417526245,
      0.029571324586868286,
      0.00046546943485736847,
      -0.011809214949607849,
      -0.028878971934318542,
      -0.00031016767024993896,
      0.029757998883724213,
      0.006751813925802708,
      0.029676519334316254,
      -0.005922555923461914,
      -0.029194656759500504,
      0.0001808740198612213,
      0.0027309306897222996,
      -0.00027141347527503967,
      0.010908113792538643,
      0.001052115112543106,
      0.028981663286685944,
      -0.012175898998975754,
      -0.021713851019740105,
      -2.1107494831085205e-05,
      0.0006321016699075699,
      -0.024636924266815186,
      -0.01158229261636734,
      -0.014593187719583511,
      -0.0014086272567510605,
      0.00025816261768341064,
      -0.0002689361572265625,
      -0.0057894401252269745,
      0.028903964906930923,
      -0.0006660856306552887,
      0.018186021596193314,
      0.015003949403762817,
      -0.011695440858602524,
      0.028076790273189545,
      0.02916974201798439,
      0.014679476618766785,
      -0.00027836114168167114,
      -0.0009219590574502945,
      0.028994426131248474,
      0.0016750842332839966,
      0.0287429578602314,
      -2.291053533554077e-05,
      -0.007655449211597443,
      -0.00025615841150283813,
      0.002200668677687645,
      0.01501571387052536,
      0.014896972104907036,
      -0.01155783236026764,
      0.017599880695343018,
      0.018187638372182846,
      -0.014830097556114197,
      0.02977418340742588,
      -0.00013616867363452911,
      3.4401193261146545e-05,
      0.010226214304566383,
      -0.029516441747546196,
      0.029108550399541855,
      0.0003178827464580536,
      0.00015282444655895233,
      0.02987811714410782,
      0.02840714156627655,
      0.0023987069725990295,
      0.029729371890425682,
      0.029966410249471664,
      0.00523357093334198,
      0.030009064823389053,
      0.0298735573887825,
      -0.00028651580214500427,
      -5.066767334938049e-05,
      0.02991722896695137,
      0.02993471920490265,
      0.0007810350507497787,
      0.029999754391610622,
      0.029397407546639442,
      -9.559094905853271e-06,
      0.029700525104999542,
      0.029865700751543045,
      8.385628461837769e-05,
      0.029971588402986526,
      -0.000658571720123291,
      0.030019905418157578,
      0.02927429974079132,
      0.004770781844854355,
      0.002244856208562851,
      0.0008989032357931137,
      -0.029316214844584465,
      -0.02327656000852585,
      -0.028878144919872284,
      -0.0002837926149368286,
      0.0011938586831092834,
      -0.027770021930336952,
      0.008311547338962555,
      -0.0262102372944355,
      0.00043144822120666504,
      8.217617869377136e-05,
      0.008579988032579422,
      -0.012090466916561127,
      0.029767774045467377,
      0.0003514885902404785,
      0.006050683557987213,
      -0.028563370928168297,
      -0.022533482871949673,
      0.00952843390405178,
      0.002863578498363495,
      0.029434405267238617,
      -0.0287477970123291,
      -0.029436271637678146,
      0.0003218650817871094,
      -0.028935455717146397,
      -0.0005908682942390442,
      0.016866594552993774,
      0.0018133148550987244,
      0.004759049043059349,
      -0.017248470336198807,
      -0.00020205043256282806,
      0.00018884241580963135,
      0.0009462535381317139,
      -0.028554968535900116,
      0.00016382336616516113,
      0.0002164989709854126,
      0.00047057680785655975,
      0.00017083436250686646,
      0.0005832817405462265,
      -0.0007758550345897675,
      -0.02865380048751831,
      -0.0017010942101478577,
      -0.028737064450979233,
      -0.02947454247623682,
      -0.00017729401588439941,
      -0.02958347275853157,
      -0.02852991223335266,
      -0.028947530314326286,
      0.000500902533531189,
      -0.00017216801643371582,
      -0.029006455093622208,
      -0.028438063338398933,
      -0.02916706819087267,
      0.000670604407787323,
      0.02748257666826248,
      0.0006192997097969055,
      -0.027916690334677696,
      -0.029226118698716164,
      -0.02965417131781578,
      0.000271504744887352,
      -0.029173661023378372,
      -0.028960291296243668,
      -6.586313247680664e-05,
      -0.027925575152039528,
      0.0001623835414648056,
      0.0018927305936813354,
      -0.019966496154665947,
      -0.029383685439825058,
      -0.029184017330408096,
      0.0004094112664461136,
      -0.029031358659267426,
      0.027561631053686142,
      0.019183091819286346,
      0.001536872237920761,
      0.028650671243667603,
      0.02990974858403206,
      0.005781365558505058,
      0.030043065547943115,
      0.02955164760351181,
      4.342198371887207e-05,
      -0.028550639748573303,
      0.006522480398416519,
      0.029564522206783295,
      0.01594221219420433,
      0.0027565695345401764,
      -0.017428047955036163,
      0.00013347715139389038,
      -0.0006774626672267914,
      0.0004896894097328186,
      0.0003438889980316162,
      0.0006135478615760803,
      0.000426730141043663,
      0.029829123988747597,
      0.00023139454424381256,
      -0.028899346478283405,
      0.0003813132643699646,
      2.203509211540222e-05,
      -0.022783353924751282,
      -0.028469414450228214,
      0.0008780732750892639,
      0.0010009780526161194,
      -0.028460554778575897,
      -0.02361602522432804,
      0.0017328914254903793,
      0.010552912950515747,
      -0.02718186564743519,
      0.00452900305390358,
      0.00025088340044021606,
      0.004077177494764328,
      0.00029661133885383606,
      -0.003853829577565193,
      0.029759690165519714,
      0.0007617846131324768,
      0.001788020133972168,
      0.001813860610127449,
      -0.011857226490974426,
      0.010656028985977173,
      -0.027240116149187088,
      0.0020069796591997147,
      -0.028160151094198227,
      0.003448246046900749,
      0.02982858568429947,
      0.027222730219364166,
      -0.02789474092423916,
      0.004916086792945862,
      0.017429161816835403,
      -0.02836206555366516,
      0.029955007135868073,
      -0.02624533697962761,
      0.0016615018248558044,
      -0.0010025165975093842,
      0.029023610055446625,
      0.02995138894766569,
      -0.0011789854615926743,
      0.029737563803792,
      -0.028545759618282318,
      -0.0015894584357738495,
      -0.0296337828040123,
      -8.216500282287598e-05,
      -0.029316194355487823,
      -0.01491333032026887,
      -0.029651664197444916,
      -0.02943391725420952,
      0.0005165264010429382,
      0.029835205525159836,
      0.0024634255096316338,
      -0.029037566855549812,
      -0.02917182445526123,
      0.0007889531552791595,
      0.002717304974794388,
      0.027461924590170383,
      0.0021652625873684883,
      0.027591221034526825,
      0.000113707035779953,
      0.00014655664563179016,
      -0.0007614791393280029,
      -0.0287192240357399,
      1.5430152416229248e-05,
      0.02846027072519064,
      0.0002475045621395111,
      -0.018542945384979248,
      0.014654412865638733,
      0.004381880164146423,
      0.029024802148342133,
      0.0073115527629852295,
      0.0009475946426391602,
      0.0005279984325170517,
      -0.025635622441768646,
      -0.02021561935544014,
      0.0005491971969604492,
      -0.027546998113393784,
      -0.026461351662874222,
      0.006864495575428009,
      -0.027791079133749008,
      -0.025307711213827133,
      -0.01848386973142624,
      0.009061131626367569,
      -0.025631897151470184,
      -0.026945635676383972,
      0.0037802932783961296,
      -0.029179483652114868,
      0.007626362144947052,
      0.02873692661523819,
      0.0015978366136550903,
      -0.010807633399963379,
      -0.0002917274832725525,
      -0.014891691505908966,
      0.002342849038541317,
      -0.02751898020505905,
      -0.014885090291500092,
      0.011453460901975632,
      -0.0006064325571060181,
      0.0011856090277433395,
      0.028815004974603653,
      0.004031423479318619,
      0.029987065121531487,
      0.0033406950533390045,
      0.002885192632675171,
      0.0008772602304816246,
      0.00404642429202795,
      0.003911340609192848,
      0.0033636922016739845,
      -0.007424153387546539,
      0.004238322377204895,
      0.0028798840939998627,
      -0.025266120210289955,
      0.005012206733226776,
      0.0060225119814276695,
      0.003941059112548828,
      0.0026028864085674286,
      -0.00365280918776989,
      0.005337245762348175,
      0.01766989193856716,
      0.00445021316409111,
      0.0073173195123672485,
      0.0026183584704995155,
      0.014910116791725159,
      0.028476388193666935,
      -0.00033173710107803345,
      0.003270193934440613,
      0.004308357834815979,
      0.0035589756444096565,
      0.01116518396884203,
      -0.014807917177677155,
      0.0030336007475852966,
      0.02999062091112137,
      0.029751991853117943,
      0.028773151338100433,
      0.02994786575436592,
      -0.0013059154152870178,
      0.029225405305624008,
      -0.02896038256585598,
      0.0004741251468658447,
      -0.00048788078129291534,
      -0.024075627326965332,
      -0.029342450201511383,
      0.0296722911298275,
      -0.029785651713609695,
      -0.027301272377371788,
      0.0008132532238960266,
      0.029249862767755985,
      0.003662385046482086,
      -0.02421352919191122,
      -0.026569709181785583,
      0.0010040737688541412,
      0.0049144551157951355,
      0.0002637803554534912,
      -0.0010819211602210999,
      0.0008912049233913422,
      1.9785016775131226e-05,
      0.0006368644535541534,
      0.013104194775223732,
      -0.0293460451066494,
      0.00036972761154174805,
      0.02830538898706436,
      0.0003874748945236206,
      0.00018303282558918,
      0.003229128196835518,
      0.011343605816364288,
      -4.1575171053409576e-05,
      0.0006927959620952606,
      0.02999158203601837,
      0.0018363147974014282,
      0.028840623795986176,
      -0.026487989351153374,
      0.029435425996780396,
      -0.02499234676361084,
      -9.91038978099823e-05,
      0.02788984589278698,
      1.3984739780426025e-05,
      7.61914998292923e-05,
      -0.026983462274074554,
      0.0012433826923370361,
      0.0020673274993896484,
      -3.996118903160095e-05,
      0.0294194296002388,
      -0.02858276665210724,
      0.002082318067550659,
      6.791949272155762e-05,
      0.029833193868398666,
      -0.0011079907417297363,
      -0.029081419110298157,
      -0.029102301225066185,
      0.014613602310419083,
      9.395554661750793e-05,
      -0.029366061091423035,
      0.0064659323543310165,
      -0.029594420455396175,
      0.02982785739004612,
      0.0002521909773349762,
      0.0017949678003787994,
      -0.00023483484983444214,
      -2.4683773517608643e-05,
      0.029881756752729416,
      0.01445932500064373,
      -8.402392268180847e-06,
      -0.02601172775030136,
      0.02876366674900055,
      -0.006661629304289818,
      4.166364669799805e-05,
      -0.0004852563142776489,
      7.108598947525024e-05,
      0.0007857531309127808,
      -0.028145775198936462,
      0.00015407055616378784,
      -0.029139218851923943,
      0.00014112889766693115,
      0.02656661719083786,
      -0.026907607913017273,
      0.00032261665910482407,
      -0.018483661115169525,
      0.029521428048610687,
      -0.004457831382751465,
      -0.029552605003118515,
      -0.01604951173067093,
      0.02925225906074047,
      0.0004313811659812927,
      -0.02993019111454487,
      0.007715731859207153,
      -0.029672887176275253,
      0.02973584644496441,
      0.0002348572015762329,
      5.2776187658309937e-05,
      0.029781654477119446,
      0.030013330280780792,
      -3.503076732158661e-05,
      0.02945178747177124,
      0.02917294017970562,
      0.0007733777165412903,
      -0.00019926950335502625,
      -0.0017948709428310394,
      -0.02967392560094595,
      0.026176370680332184,
      -0.03003947250545025,
      -0.02965296059846878,
      0.0007171519100666046,
      0.02995774894952774,
      0.029519639909267426,
      -0.029728803783655167,
      0.00022577494382858276,
      -0.00021909922361373901,
      0.02986003365367651,
      0.03002653270959854,
      0.00041970983147621155,
      0.029217921197414398,
      0.0292950589209795,
      -0.028262905776500702,
      0.022743165493011475,
      -0.029123369604349136,
      1.8164515495300293e-05,
      0.000518549233675003,
      -3.246590495109558e-06,
      0.00025762617588043213,
      0.02999858558177948
    ],
    [
      -0.005054975626990199,
      0.0030102338641881943,
      0.0006395746022462845,
      -0.0069908208679407835,
      0.02843182161450386,
      -0.011544607812538743,
      -0.015243749134242535,
      0.0002738051116466522,
      -0.004999498836696148,
      0.0008366620168089867,
      -0.0220045680180192,
      0.029945519752800465,
      0.0012678783386945724,
      -0.028376047499477863,
      0.028673002496361732,
      -0.0015802839770913124,
      0.0006102100014686584,
      -0.028494426980614662,
      0.007111466024070978,
      -0.0003482140600681305,
      0.02985977940261364,
      0.0034315092489123344,
      -0.0032491441816091537,
      0.006068722810596228,
      -0.02437962032854557,
      -0.026101093739271164,
      0.0032059000805020332,
      0.005039243958890438,
      0.0007192632183432579,
      0.0295164305716753,
      0.00039184093475341797,
      0.00045785028487443924
    ],
    [
      0.00576435774564743,
      -0.0011853687465190887,
      0.003428792580962181,
      0.008935433812439442,
      -0.015413105487823486,
      0.013283826410770416,
      0.012308113276958466,
      -1.7389655113220215e-05,
      0.012553009204566479,
      -0.006342887878417969,
      -0.026402385905385017,
      -0.03001055121421814,
      0.029160860925912857,
      0.00022537633776664734,
      0.0003201263025403023,
      0.016455478966236115,
      0.002673182636499405,
      -0.01708041038364172,
      -0.02626831829547882,
      -0.028432749211788177,
      -0.0008264891803264618,
      -0.004366092383861542,
      -0.027440086007118225,
      0.028470300137996674,
      -0.019519522786140442,
      -0.0037309639155864716,
      -0.025410562753677368,
      -0.020880687050521374,
      0.029322177171707153,
      -0.029491610825061798,
      6.0617923736572266e-05,
      -0.0005442723631858826
    ],
    [
      -0.0003373418003320694
    ]
  ],
  "num_updates": 2,
  "client_ids": [
    "client-1",
    "client-2"
  ],
  "mean_final_loss": 8.770946025848389,
  "aggregation_timestamp": 1784208522.3845394
}