{
  "version": "v24",
  "base_version": "v23",
  "round_id": 21,
  "aggregation": "fedavg",
  "averaged_weight_delta": [
    [
      0.023702159523963928,
      0.02795625478029251,
      0.013365419581532478,
      0.016174115240573883,
      -0.0010063275694847107,
      0.02325776033103466,
      0.012186996638774872,
      0.01552977692335844,
      0.010549165308475494,
      0.014288671314716339,
      0.028938736766576767,
      0.029235728085041046,
      0.029703840613365173,
      -0.0003002583980560303,
      0.02867404744029045,
      0.006098483689129353,
      0.024496708065271378,
      0.02729034796357155,
      0.029648691415786743,
      -0.026109468191862106,
      -0.029271218925714493,
      -0.0016353577375411987,
      -0.028758009895682335,
      -0.02888195589184761,
      -0.02966363914310932,
      -0.02961670234799385,
      -0.028387002646923065,
      -0.02941122092306614,
      -0.029468655586242676,
      -0.024135597050189972,
      0.0033313632011413574,
      0.0017689839005470276,
      0.0011093094944953918,
      0.0074748024344444275,
      0.006147652864456177,
      0.0062415143474936485,
      0.029599498957395554,
      0.0018146038055419922,
      0.005873560905456543,
      0.0005850866436958313,
      -0.00011030584573745728,
      -0.00031149107962846756,
      -0.0003740377724170685,
      -0.0002707540988922119,
      -0.02634284645318985,
      -0.0002970956265926361,
      -0.0001296699047088623,
      -0.00027222931385040283,
      -0.00025726109743118286,
      -0.0005536898970603943,
      -0.005637712776660919,
      -0.001312796026468277,
      0.014976892620325089,
      -0.0004930496215820312,
      -0.0008868668228387833,
      -0.001333477906882763,
      -0.0015351474285125732,
      -0.014248698949813843,
      -0.02954224031418562,
      8.906424045562744e-05,
      -0.016793832182884216,
      -0.0005182474851608276,
      -0.0001895800232887268,
      0.00015710294246673584,
      -0.02999846637248993,
      6.869062781333923e-05,
      0.00017887353897094727,
      -0.029787316918373108,
      -0.00031851232051849365,
      -5.879998207092285e-05,
      0.029695965349674225,
      0.029643036425113678,
      0.029737330973148346,
      0.0295009333640337,
      0.02902635931968689,
      0.029637224972248077,
      0.02292075753211975,
      0.029355661943554878,
      0.02986270561814308,
      0.029857970774173737,
      0.023983225226402283,
      0.021618809551000595,
      0.025837823748588562,
      0.019714180380105972,
      -0.0058127716183662415,
      0.025365140289068222,
      0.01910754293203354,
      0.022458266466856003,
      0.014032862149178982,
      0.01564042642712593,
      0.007023271173238754,
      0.014964187517762184,
      0.0144171342253685,
      0.0025260820984840393,
      0.029093772172927856,
      0.01248184498399496,
      0.028787761926651,
      0.006283685564994812,
      0.00026369839906692505,
      0.004510663449764252,
      0.00016649998724460602,
      -0.029968880116939545,
      0.006130430847406387,
      -0.009231537580490112,
      9.415298700332642e-05,
      -0.02439415454864502,
      -0.0008515547960996628,
      -0.003453753888607025,
      -0.0026965290307998657,
      -0.0012261904776096344,
      -9.83215868473053e-05,
      0.0059743523597717285,
      -0.011786919087171555,
      0.028396235778927803,
      0.004596129059791565,
      0.0295841246843338,
      0.029676519334316254,
      0.0009518880397081375,
      0.02899859845638275,
      -0.000516125001013279,
      0.02971164882183075,
      0.02828983962535858,
      0.02944476157426834,
      0.028467003256082535,
      0.02936704456806183,
      0.029192306101322174,
      0.029886536300182343,
      0.02940819412469864,
      0.02899777889251709,
      0.027697984129190445,
      0.029486265033483505,
      0.029642896726727486,
      0.02954005729407072,
      0.02982645481824875,
      6.857514381408691e-05,
      0.029038570821285248,
      0.023592345416545868,
      0.02940564975142479,
      0.029464762657880783,
      0.029218189418315887,
      0.026155099272727966,
      0.025154130533337593,
      0.025963298976421356,
      0.0206015189178288,
      0.026341302320361137,
      0.029449298977851868,
      -0.007128346711397171,
      0.028330586850643158,
      0.026592060923576355,
      -0.011477122083306313,
      -0.02917499840259552,
      -0.007904455065727234,
      -0.027916460298001766,
      -0.0293734148144722,
      0.015110023319721222,
      -0.027936359867453575,
      -0.0029384009540081024,
      -0.02877546101808548,
      -0.01530524343252182,
      -0.01127292588353157,
      -0.0013644173741340637,
      -0.02964600920677185,
      -0.02981154341250658,
      -0.028987713158130646,
      4.06801700592041e-06,
      -0.01598156988620758,
      0.008714541792869568,
      -0.029200159013271332,
      -0.030003033578395844,
      -0.02709830179810524,
      -1.5500932931900024e-05,
      -1.0829418897628784e-05,
      0.00012439489364624023,
      -3.207474946975708e-06,
      4.217401146888733e-05,
      -0.00016804784536361694,
      -0.00011096522212028503,
      -5.303509533405304e-05,
      1.4550983905792236e-05,
      -0.0033596958965063095,
      -0.00017844606190919876,
      -0.001706734299659729,
      0.0008197091519832611,
      -0.0008189082145690918,
      2.216547727584839e-05,
      -0.0003556087613105774,
      -4.692375659942627e-05,
      0.0009362064301967621,
      -0.0008075740188360214,
      0.0014918018132448196,
      0.001092221587896347,
      0.00033281370997428894,
      0.0006408318877220154,
      0.004609055817127228,
      -0.028369363397359848,
      0.0001359879970550537,
      0.012320920825004578,
      0.0008914470672607422,
      0.02589423954486847,
      0.00028259679675102234,
      -0.02825981006026268,
      -0.028973715379834175,
      -0.02676069363951683,
      -0.029141053557395935,
      0.00012861192226409912,
      -0.028940804302692413,
      -0.01901472546160221,
      -0.012015566229820251,
      -0.02777988463640213,
      -0.01411483995616436,
      -0.00019290298223495483,
      -0.0009863805025815964,
      -0.0001413663849234581,
      8.349493145942688e-05,
      -0.004948288202285767,
      -0.0010014548897743225,
      0.004684537649154663,
      -0.00018420815467834473,
      -0.0012956485152244568,
      -0.00025816261768341064,
      0.01312325894832611,
      0.0013008639216423035,
      0.001398763619363308,
      0.0014164634048938751,
      0.025307802483439445,
      0.016471557319164276,
      0.016091853380203247,
      0.028735876083374023,
      0.016304656863212585,
      0.011496800929307938,
      0.02743479609489441,
      0.026675481349229813,
      0.02842600643634796,
      0.025829240679740906,
      0.015829849988222122,
      0.019180748611688614,
      0.029975607991218567,
      0.02735448256134987,
      0.027497626841068268,
      0.02744310162961483,
      0.0006110966205596924,
      0.0002884715795516968,
      9.344052523374557e-05,
      9.781308472156525e-05,
      -0.0009904392063617706,
      0.00039312243461608887,
      -0.0001481473445892334,
      0.000543767586350441,
      0.00015644729137420654,
      -0.007339656352996826,
      -0.0007515624165534973,
      -0.00039396900683641434,
      -0.0004507303237915039,
      0.00021130219101905823,
      0.02700885757803917,
      -0.0016189590096473694,
      -0.00016819685697555542,
      -0.01542743667960167,
      -0.0005293563008308411,
      -0.0006338804960250854,
      0.03002825379371643,
      0.029090628027915955,
      0.017555884085595608,
      0.02892576903104782,
      0.02995806746184826,
      0.029703378677368164,
      0.016758844256401062,
      0.029821384698152542,
      0.02946624718606472,
      0.029270999133586884,
      -0.029898982495069504,
      -0.029799476265907288,
      -0.029900535941123962,
      -0.02992713823914528,
      -0.029909491539001465,
      -0.02997637167572975,
      0.015096843242645264,
      -0.029688216745853424,
      -0.009950809180736542,
      -0.029942646622657776,
      -0.0011097118258476257,
      -0.00049595907330513,
      -1.7356127500534058e-05,
      -0.0007646959275007248,
      1.880154013633728e-05,
      -0.004003733396530151,
      -1.1645257472991943e-05,
      -0.003844611346721649,
      -0.011399234179407358,
      -0.011854484677314758,
      0.0030405819416046143,
      0.011023089289665222,
      0.029324711300432682,
      0.0011957213282585144,
      0.029784053564071655,
      0.005545430816709995,
      0.029427978210151196,
      0.0018779681995511055,
      0.02967144176363945,
      0.00018636882305145264,
      -0.029369888827204704,
      0.018701113760471344,
      -0.004419855773448944,
      -0.02845776081085205,
      -0.005661346018314362,
      -0.0007754769176244736,
      0.018689662218093872,
      -0.017780981957912445,
      -0.004358306527137756,
      -0.0003994405269622803,
      0.0001362226903438568,
      1.8961727619171143e-05,
      0.01296805590391159,
      0.0003338754177093506,
      0.0006930679082870483,
      2.417154610157013e-05,
      0.027725517749786377,
      0.00019180402159690857,
      -8.717179298400879e-06,
      -9.604915976524353e-05
    ],
    [
      -0.012983078369870782,
      0.028739958070218563,
      0.005896689370274544,
      -0.02172866091132164,
      0.0005687503144145012,
      0.02986386325210333,
      -0.029790347442030907,
      0.0007316190749406815,
      -0.005589730106294155,
      0.0007474794983863831,
      0.00028597377240657806,
      -0.019830225966870785,
      0.002417413517832756,
      0.0002784598618745804,
      -0.027277405373752117,
      0.016255697701126337,
      0.021988749504089355,
      0.0024712421000003815,
      -0.02744361851364374,
      -0.0017815884202718735,
      -0.02818111050873995,
      0.003605601377785206,
      -0.01187338843010366,
      0.0005003754049539566,
      0.029963132925331593,
      0.00018517114222049713,
      0.01310708886012435,
      0.0300368070602417,
      0.010241178330034018,
      0.007843837141990662,
      0.00034848134964704514,
      0.006997363641858101
    ],
    [
      -0.010808311402797699,
      0.00039845146238803864,
      0.029888254590332508,
      0.029543546959757805,
      0.001455165445804596,
      0.029818132519721985,
      0.028967052698135376,
      0.022591914981603622,
      0.0156187042593956,
      0.029638154432177544,
      0.029951056465506554,
      0.028106428682804108,
      0.020810061134397984,
      -0.0022331373766064644,
      0.02972574159502983,
      0.026679400354623795,
      0.01336959283798933,
      0.02979850023984909,
      0.0007494613528251648,
      0.02957877144217491,
      0.027815409004688263,
      0.030044831335544586,
      0.0247931107878685,
      0.029496073722839355,
      0.030029296875,
      0.005387067794799805,
      5.029141902923584e-07,
      0.00037857983261346817,
      0.0003455355763435364,
      0.001209750771522522,
      -0.0002993345260620117,
      0.02999541535973549,
      0.016972891986370087,
      0.029877424240112305,
      -8.916109800338745e-05,
      0.009549260139465332,
      -0.02499748021364212,
      -0.014267589896917343,
      0.0001880452036857605,
      0.015101595781743526,
      -0.029176484793424606,
      0.0006891414523124695,
      -0.00038327649235725403,
      0.0035787485539913177,
      0.013195864856243134,
      0.00174017995595932,
      -0.026100046932697296,
      -0.029018602333962917,
      -0.026935148052871227,
      0.0005034692585468292,
      -0.017750581726431847,
      0.0005114618688821793,
      0.013680517673492432,
      9.103305637836456e-05,
      -0.029118704609572887,
      -0.019480491057038307,
      0.00015889853239059448,
      0.0005347803235054016,
      0.029552720487117767,
      -0.029461771249771118,
      -0.02962236851453781,
      0.029768627136945724,
      -0.028461623936891556,
      7.697194814682007e-05,
      0.0024469373747706413,
      0.029977962374687195,
      0.029433447867631912,
      0.02902892976999283,
      0.0006754808127880096,
      0.005955014377832413,
      0.0005872985348105431,
      0.0008857883512973785,
      -0.0007119867950677872,
      0.012034423649311066,
      -0.02142701204866171,
      0.029749181121587753,
      0.001047082245349884,
      0.0005697049200534821,
      -0.022944480180740356,
      -0.028591584414243698,
      0.00014700740575790405,
      0.029851652681827545,
      0.0011354759335517883,
      0.02988518215715885,
      0.029940810054540634,
      0.029513224959373474,
      -0.02685696631669998,
      -0.013211756944656372,
      0.01048412173986435,
      0.025925181806087494,
      0.02998179942369461,
      -0.021221019327640533,
      0.000174633227288723,
      0.029787905514240265,
      -0.00038428232073783875,
      0.009906256571412086,
      -0.017947904765605927,
      0.0007853321731090546,
      0.003911212086677551,
      8.58306884765625e-05,
      -0.028424203395843506,
      0.01801106333732605,
      0.0014866925776004791,
      0.023205209523439407,
      -0.0073555707931518555,
      0.0028411410748958588,
      0.029932083562016487,
      0.029708407819271088,
      -0.024947986006736755,
      -0.028689207509160042,
      0.0005119293928146362,
      0.01956348679959774,
      -0.02393326908349991,
      0.007846146821975708,
      -0.02897588349878788,
      0.014317147433757782,
      0.0012262547388672829,
      0.004873834550380707,
      -5.7220458984375e-05,
      0.02676720917224884,
      0.0020950045436620712,
      -0.012991141527891159,
      0.0009408444166183472,
      -0.0009075552225112915,
      -0.027986563742160797,
      0.0002871379256248474,
      3.1618401408195496e-05,
      0.0008236542344093323,
      0.029969911091029644,
      0.02940518409013748,
      0.008431419730186462,
      0.0034525077790021896,
      0.0004713498055934906,
      0.0005206633359193802,
      0.001764737069606781,
      0.029034040868282318,
      0.0019256845116615295,
      0.0005442723631858826,
      0.0019304603338241577,
      0.029034048318862915,
      0.029772933572530746,
      0.029722293838858604,
      0.0006775744259357452,
      0.001069018617272377,
      0.02863254025578499,
      0.021421562880277634,
      0.029724597930908203,
      0.01558683067560196,
      0.0002569630742073059,
      -8.041411638259888e-05,
      0.000777294859290123,
      0.012220597127452493,
      -0.0293288454413414,
      0.002754583954811096,
      0.02997453510761261,
      0.0005702488124370575,
      0.006073463708162308,
      0.028608208522200584,
      0.010328996926546097,
      0.001825142651796341,
      -0.02581621613353491,
      0.0005474314093589783,
      0.023703306913375854,
      0.02971338853240013,
      -0.00023056939244270325,
      0.0023965761065483093,
      0.03001406043767929,
      0.010461818426847458,
      -8.061528205871582e-06,
      0.029590144753456116,
      0.02966032363474369,
      0.02930331975221634,
      0.007828340865671635,
      -0.024276353418827057,
      9.981915354728699e-05,
      0.0002462714910507202,
      -0.023237690329551697,
      0.013701878488063812,
      2.1822750568389893e-05,
      0.029730062931776047,
      0.0010159686207771301,
      0.029984623193740845,
      0.00010950490832328796,
      -0.00012838467955589294,
      0.030038487166166306,
      0.0006883591413497925,
      5.4836273193359375e-06,
      6.867945194244385e-05,
      -0.00014139339327812195,
      -8.342787623405457e-06,
      -0.00013080239295959473,
      0.03003656677901745,
      0.0019085165113210678,
      0.028893709182739258,
      -4.303734749555588e-05,
      0.003014836460351944,
      -0.024919265881180763,
      -0.020103611052036285,
      2.3186206817626953e-05,
      0.00737631693482399,
      -0.02897913008928299,
      0.0006915591657161713,
      0.00042025279253721237,
      0.0001591518521308899,
      0.0029242634773254395,
      -0.01135278306901455,
      -0.023197099566459656,
      -0.028962469659745693,
      -0.02944508194923401,
      0.02982115000486374,
      -0.026790615171194077,
      -0.019885561428964138,
      0.001978900283575058,
      0.0007846355438232422,
      -0.02798263356089592,
      -0.02619963139295578,
      0.003166690468788147,
      -0.025815308094024658,
      0.0010532839223742485,
      -0.027584657073020935,
      -0.02683228626847267,
      0.0017592571675777435,
      -0.029405909590423107,
      8.301436901092529e-05,
      -0.007136229425668716,
      -0.029966231435537338,
      0.028466368094086647,
      -0.006707817316055298,
      0.0014520511031150818,
      0.029285799711942673,
      -8.11312347650528e-05,
      0.00413522869348526,
      0.02954181097447872,
      -0.00019142962992191315,
      0.029788866639137268,
      0.022241663187742233,
      -0.00028222426772117615,
      -0.00019339099526405334,
      0.029701419174671173,
      0.029882822185754776,
      0.0005526039749383926,
      0.00027691200375556946,
      0.028033025562763214,
      -0.0001322934404015541,
      -0.029294912703335285,
      -0.00018600746989250183,
      0.029792826622724533,
      0.028759434819221497,
      -5.9001147747039795e-05,
      0.0008737742900848389,
      -0.029991183429956436,
      0.029993895441293716,
      0.029787354171276093,
      -0.03003877028822899,
      0.029498424381017685,
      -5.2347779273986816e-05,
      2.8870999813079834e-05,
      7.564201951026917e-05,
      -0.029447972774505615,
      -0.012128617614507675,
      0.0026170536875724792,
      -0.004485338926315308,
      -0.02812141925096512,
      -0.0017282739281654358,
      0.0009620031341910362,
      -0.028075631707906723,
      -0.029724642634391785,
      -0.01970408856868744,
      0.006985470652580261,
      0.028865923173725605,
      -0.0002713743597269058,
      -0.015684856101870537,
      0.029221095144748688,
      -0.029214289039373398,
      -0.0296441912651062,
      -0.0234859436750412,
      -0.00019100867211818695,
      -0.029461190104484558,
      -0.011721491813659668,
      -0.024437852203845978,
      -0.029663696885108948,
      -0.025356777012348175,
      9.042024612426758e-05,
      -0.012177245691418648,
      0.00010113324970006943,
      0.00015201978385448456,
      0.000905301421880722,
      -0.02767163421958685,
      -0.012124940752983093,
      -0.0003684386610984802,
      -0.001177736558020115,
      -1.8205493688583374e-05,
      -0.027764849364757538,
      0.0003133658319711685,
      0.02977285534143448,
      -0.019511293154209852,
      -0.0015532858669757843,
      0.0256502702832222,
      0.001273609697818756,
      -0.02359507419168949,
      -0.028743980452418327,
      -0.02909039705991745,
      -0.0005480758845806122,
      -0.0004015713930130005,
      -0.029849253594875336,
      0.009728789329528809,
      0.0008304379880428314,
      -0.0015674903988838196,
      0.0010276436805725098,
      0.029344767332077026,
      -0.00042048096656799316,
      -0.005563788115978241,
      0.0299668125808239,
      -0.0009390823543071747,
      0.00011719390749931335,
      -0.0015143901109695435,
      -0.021727295592427254,
      0.00016349926590919495,
      -0.002869635820388794,
      0.029368989169597626,
      -0.02698381245136261,
      0.004921320825815201,
      -0.02862868458032608,
      0.011631261557340622,
      -0.028508950024843216,
      -0.02842715010046959,
      -0.026997476816177368,
      -0.019663430750370026,
      -0.025948340073227882,
      -0.017766617238521576,
      -0.014654107391834259,
      -0.026463720947504044,
      0.002756156027317047,
      0.0030870921909809113,
      -0.02822396159172058,
      -0.02919834852218628,
      -0.027952339500188828,
      -0.02833126299083233,
      -0.028592318296432495,
      -0.02781273704022169,
      -0.0022442638874053955,
      -0.026033110916614532,
      -0.02847232297062874,
      -0.029012607410550117,
      -0.00027000904083251953,
      -0.028201725333929062,
      3.238581120967865e-05,
      -0.029368281364440918,
      -0.014869719743728638,
      0.0287824384868145,
      -0.028002094477415085,
      0.0006161946803331375,
      0.01568524492904544,
      0.003333497792482376,
      0.013975486159324646,
      0.029981613159179688,
      -0.0012670233845710754,
      0.002148699015378952,
      0.030019263736903667,
      -0.010746372863650322,
      -0.029483364894986153,
      0.02991172857582569,
      0.01640082523226738,
      0.001827409490942955,
      -0.026347673498094082,
      -0.002042807638645172,
      -0.02874978445470333,
      3.5762786865234375e-07,
      -0.025856763124465942,
      0.014798603951931,
      -0.018730511888861656,
      0.029771432280540466,
      0.029846960678696632,
      0.030009922571480274,
      0.00025724805891513824,
      -0.020654719322919846,
      0.029980041086673737,
      0.007237136363983154,
      0.0008334610611200333,
      -0.0004871487617492676,
      0.0004531964659690857,
      0.01501038670539856,
      -0.014817699790000916,
      0.030042623169720173,
      -0.025944240391254425,
      0.0005276817828416824,
      0.022601498290896416,
      0.00115128792822361,
      -0.014332176418974996,
      0.001384904608130455,
      0.02970552071928978,
      -0.02183665707707405,
      0.00013456866145133972,
      0.0297715961933136,
      0.00325639545917511,
      0.001851966604590416,
      -0.02872726321220398,
      -0.029049085453152657,
      0.0005585215985774994,
      -0.0002300916239619255,
      -0.002423994243144989,
      0.028709031641483307,
      -0.0006277039647102356,
      0.029790829867124557,
      6.467103958129883e-06,
      0.029293037950992584,
      3.9052218198776245e-05,
      0.0013269316405057907,
      0.02952900528907776,
      -0.0013501830399036407,
      0.000537138432264328,
      -0.0003204718232154846,
      -0.0002104584127664566,
      0.0005507022142410278,
      2.7641654014587402e-05,
      0.02984578162431717,
      0.030025700107216835,
      0.023988088592886925,
      0.0003182021901011467,
      0.02281821519136429,
      0.02919101156294346,
      5.89173287153244e-05,
      -1.2680888175964355e-05,
      0.02893340215086937,
      0.0019417256116867065,
      0.00041774287819862366,
      -0.00015192478895187378,
      0.02759362757205963,
      0.029806330800056458,
      0.029896503314375877,
      0.0003296397626399994,
      0.00016435235738754272,
      0.03000908624380827,
      0.0006664842367172241,
      0.02979613095521927,
      -5.6862831115722656e-05,
      0.021962933242321014,
      -0.00038860738277435303,
      0.00025951117277145386,
      0.004755929112434387,
      -0.02937944605946541,
      0.001169818453490734,
      0.030040331184864044,
      7.503107190132141e-05,
      -2.24970281124115e-05,
      0.0022062361240386963,
      0.0027718767523765564,
      -0.0008812062442302704,
      -0.023236900568008423,
      -0.022456208243966103,
      0.0009247884154319763,
      0.027445368468761444,
      0.00033688172698020935,
      0.001885823905467987,
      0.0017436491325497627,
      -0.007956253364682198,
      0.0015427563339471817,
      0.029733378440141678,
      0.009598858654499054,
      0.0023359358310699463,
      0.0013806819915771484,
      -0.02634233608841896,
      0.0009339302778244019,
      0.0018896609544754028,
      0.0007663555443286896,
      0.0030108001083135605,
      0.0013209283351898193,
      0.001192726194858551,
      -0.005200306419283152,
      0.003422139212489128,
      0.0010779015719890594,
      0.0030909106135368347,
      0.011489331722259521,
      0.0006979182362556458,
      -0.025866245850920677,
      0.0011781156063079834,
      0.0036009103059768677,
      0.0003440976142883301,
      0.0009027719497680664,
      0.0037977024912834167,
      -0.02592867985367775,
      -2.61794775724411e-05,
      -0.0003317948430776596,
      0.0016418956220149994,
      -0.029293149709701538,
      0.0016144290566444397,
      0.029813751578330994,
      0.000912792980670929,
      -0.0013032853603363037,
      0.0278940349817276,
      0.02973822131752968,
      0.020406082272529602,
      -0.028782039880752563,
      -0.029502086341381073,
      -1.0907649993896484e-05,
      -0.00010581314563751221,
      -0.0022712312638759613,
      -0.0003505311906337738,
      -0.026452265679836273,
      0.029527448117733,
      1.3452023267745972e-05,
      0.0300134951248765,
      -0.00012771785259246826,
      0.0005905777215957642,
      0.029859907925128937,
      0.0008290857076644897,
      1.576170325279236e-05,
      -6.134063005447388e-05,
      -0.0012400373816490173,
      -0.00010094605386257172,
      -0.0012532249093055725,
      0.02977927401661873,
      0.02939225360751152,
      0.029666676186025143,
      -0.014442859217524529,
      0.029557716101408005,
      -0.029628969728946686,
      -0.017348766326904297,
      0.0006860755383968353,
      0.028002038598060608,
      -0.02633914351463318,
      0.0009946972131729126,
      0.0007017664611339569,
      0.016162417829036713,
      0.004705599509179592,
      -0.015134088695049286,
      -0.026097540743649006,
      -0.028929851949214935,
      -0.012449700385332108,
      -0.0001973174512386322,
      -0.025530174374580383,
      0.0019364356994628906,
      -0.0010600537061691284,
      0.00026582181453704834,
      -0.02865701913833618,
      -0.016029950231313705,
      0.0003859326243400574,
      -0.02812593150883913,
      0.02993183210492134,
      -0.02947600930929184,
      -0.020364034920930862,
      0.02990296110510826,
      -0.027911167591810226,
      0.0006296783685684204,
      -0.02868513111025095,
      -1.7195940017700195e-05,
      -6.851553916931152e-05,
      0.02178081125020981,
      0.0002010725438594818,
      0.000238761305809021,
      0.02987808734178543,
      -0.023136600852012634,
      -0.00041753798723220825,
      0.02951052039861679,
      0.0299582090228796,
      0.023839443922042847,
      -0.029216043651103973,
      -0.00796425249427557,
      8.539948612451553e-05,
      -9.143166244029999e-05,
      -0.0016197264194488525,
      0.014226846396923065,
      0.00036213546991348267,
      0.029341209679841995,
      0.029804639518260956,
      0.030011385679244995,
      -6.192922592163086e-05,
      -0.00039592012763023376,
      0.029969919472932816,
      -0.00048048142343759537,
      1.6987323760986328e-06,
      -5.077198147773743e-05,
      0.00021748989820480347,
      -7.143616676330566e-05,
      -0.0005133673548698425,
      0.02984248474240303,
      0.02625640667974949,
      0.00013728439807891846,
      -0.027990641072392464,
      1.6242265701293945e-06,
      8.532591164112091e-05,
      -0.015424542129039764,
      -0.029634381644427776,
      0.0006671026349067688,
      0.0014759199693799019,
      -0.029436573386192322,
      1.3743527233600616e-05,
      -0.0001441165804862976,
      0.03000926598906517,
      0.029993383213877678,
      0.00024062581360340118,
      -0.00020835921168327332,
      0.02988342195749283,
      -0.004346609115600586,
      0.028187930583953857,
      -0.024350494146347046,
      0.0002451092004776001,
      -0.02997574955224991,
      0.00021659955382347107,
      0.0076684653759002686,
      -0.029964455403387547,
      -0.01863296888768673,
      3.9711594581604004e-05,
      -7.763504981994629e-05,
      0.00030593574047088623,
      1.8067657947540283e-06,
      0.0161588191986084,
      -0.029732901602983475,
      0.006964131258428097,
      0.0296720452606678,
      0.023524930700659752,
      0.029322482645511627,
      -0.0011727623641490936,
      -0.029269281774759293,
      0.00854644924402237,
      0.010864350944757462,
      -0.025172184221446514,
      0.009844973683357239,
      -0.000863613560795784,
      0.028612565249204636,
      0.0014184564352035522,
      2.752244472503662e-05,
      -0.022121857851743698,
      -0.030000753700733185,
      -0.0012664273381233215,
      0.0012706462293863297,
      -0.00014476943761110306,
      0.002673005685210228,
      0.029182959347963333,
      0.028853533789515495,
      -0.029270876199007034,
      -0.013584118336439133,
      0.010495483875274658,
      -0.013757827691733837,
      0.012137282639741898,
      -0.019078798592090607,
      -0.020892512053251266,
      0.02950739674270153,
      -0.020304713398218155,
      0.01228620857000351,
      0.029462739825248718,
      -0.0003550872206687927,
      9.908527135848999e-05,
      -0.0002747848629951477,
      -0.00017239153385162354,
      -0.00038020312786102295,
      -0.029826685786247253,
      -0.015343837440013885,
      0.0003342181444168091,
      -0.029364529997110367,
      -0.029895485378801823,
      -0.012383237481117249,
      0.02875940315425396,
      0.029676657170057297,
      1.7590820789337158e-05,
      4.606693983078003e-05,
      0.029088493436574936,
      -0.02831296995282173,
      -0.00016939640045166016,
      0.013974510133266449,
      -0.000523122027516365,
      -0.030031428672373295,
      0.00022650882601737976,
      0.005456828512251377,
      -0.02994423359632492,
      0.00042957812547683716,
      4.194676876068115e-06,
      0.00011462345719337463,
      -7.000192999839783e-05,
      -5.8502890169620514e-05,
      0.0007139816880226135,
      -0.02998883556574583,
      4.6984292566776276e-05,
      0.0007727891206741333,
      -0.024664491415023804,
      -0.013481643050909042,
      -0.00021658465266227722,
      -0.02198590151965618,
      -0.02925562858581543,
      -0.0015736594796180725,
      0.0013548023998737335,
      -0.02750757709145546,
      -0.028878331184387207,
      -0.02475351095199585,
      0.0010739639401435852,
      0.02898956835269928,
      0.0004924014210700989,
      -0.018449272960424423,
      0.01610623300075531,
      -0.02859477698802948,
      -0.028161042369902134,
      -0.022892184555530548,
      -0.0006055012345314026,
      -0.029661454260349274,
      0.0005380231887102127,
      -0.026547152549028397,
      -0.029415562748908997,
      -0.020203420892357826,
      0.00017426162958145142,
      -0.014515108428895473,
      -0.015826553106307983,
      0.0008340738713741302,
      0.0013036727905273438,
      -0.028547324240207672,
      -0.003414057195186615,
      -0.022724014706909657,
      0.02248551696538925,
      0.005143485963344574,
      0.02330372855067253,
      0.02314324676990509,
      0.0069298334419727325,
      0.008362701162695885,
      0.022008026018738747,
      0.006267255172133446,
      0.0066551025956869125,
      0.004816141910851002,
      -0.004044514149427414,
      -0.006067182868719101,
      0.023302622139453888,
      0.02168443240225315,
      0.021014481782913208,
      0.007913049310445786,
      0.023864299058914185,
      0.0074037835001945496,
      -0.021166115999221802,
      0.0063118115067481995,
      0.02217309456318617,
      0.02306489646434784,
      0.006977904587984085,
      0.0031016748398542404,
      -0.023676560260355473,
      0.02233094535768032,
      0.023672143928706646,
      -0.023189514875411987,
      0.022021278738975525,
      0.007150769233703613,
      -0.029445383697748184,
      -0.029343709349632263,
      0.002259880304336548,
      -0.028787603601813316,
      0.014376241713762283,
      0.006604492664337158,
      0.00035077333450317383,
      -0.028819330036640167,
      0.029866591095924377,
      0.0003679618239402771,
      0.0005829744040966034,
      -0.02782783005386591,
      -0.021146919578313828,
      3.528594970703125e-05,
      0.02929193712770939,
      0.01364906132221222,
      0.005405459553003311,
      -0.014884494245052338,
      0.017412479035556316,
      -0.0012774951756000519,
      -0.021917149424552917,
      9.31769609451294e-05,
      0.029971934854984283,
      -5.6140124797821045e-06,
      0.0002872273325920105,
      0.02672649174928665,
      -0.029303371906280518,
      0.012589588761329651,
      0.015868003480136395,
      -0.029618896543979645,
      0.02898414619266987,
      -0.001133263111114502,
      0.029784701764583588,
      8.394196629524231e-05,
      -0.029397066682577133,
      0.0001254752278327942,
      0.029715947806835175,
      -0.002155635505914688,
      -0.029494370333850384,
      0.026784084737300873,
      0.028661414980888367,
      -0.0010834895074367523,
      -0.02985117956995964,
      -1.839175820350647e-05,
      0.02968619018793106,
      0.02976372465491295,
      6.079673767089844e-06,
      -0.00037648342549800873,
      0.030037944205105305,
      -5.8595091104507446e-05,
      0.013379782438278198,
      0.028316731564700603,
      8.991919457912445e-05,
      -0.029672373086214066,
      0.00018363073468208313,
      -0.0233668964356184,
      -0.029962378554046154,
      4.5591965317726135e-05,
      0.000827152281999588,
      0.014328792691230774,
      0.02658025175333023,
      0.0001292787492275238,
      0.01665649190545082,
      -0.02998131886124611,
      -0.02447744831442833,
      -0.025421567261219025,
      0.02935078553855419,
      -0.028770407661795616,
      0.029346086084842682,
      0.0010384060442447662,
      0.001247866079211235,
      -0.024439487606287003,
      0.029702521860599518,
      0.0007511470466852188,
      0.002197759225964546,
      -0.001436237245798111,
      -0.00013173650950193405,
      -0.0002622874453663826,
      0.008580850437283516,
      0.02988302707672119,
      -0.004499904811382294,
      -0.0008028373122215271,
      0.02865012176334858,
      -0.013018149882555008,
      -0.02768716588616371,
      0.0014905892312526703,
      0.02994968555867672,
      0.0008016079664230347,
      0.0009186789393424988,
      0.011678740382194519,
      -0.025284554809331894,
      0.029616499319672585,
      0.017579220235347748,
      -0.029381917789578438,
      0.029596827924251556,
      0.0005271406844258308,
      0.016850490123033524,
      0.029475674033164978,
      -0.028813828714191914,
      0.010938363149762154,
      -0.029766663908958435,
      -0.0009766044095158577,
      0.00022562965750694275,
      0.028065904043614864,
      -0.028785656206309795,
      0.0006440859287977219,
      -0.029152682051062584,
      0.004702621139585972,
      0.0013693124055862427,
      0.0005980376154184341,
      -0.027477888390421867,
      -0.029579706490039825,
      -0.012792550027370453,
      -0.0002130642533302307,
      -0.02879587560892105,
      0.00023752078413963318,
      0.0291815884411335,
      4.781782627105713e-05,
      -0.028323080390691757,
      -0.0229225791990757,
      0.00011360272765159607,
      -0.0285789892077446,
      0.02994314581155777,
      -0.029846059158444405,
      -0.02932184562087059,
      0.03003343567252159,
      -0.029108352959156036,
      0.00022399425506591797,
      -0.020277012139558792,
      0.000264778733253479,
      2.8267502784729004e-05,
      -0.00010728277266025543,
      0.0011141672730445862,
      0.007017575204372406,
      0.015604563057422638,
      -0.016638442873954773,
      -0.028894729912281036,
      0.022367723286151886,
      0.029874728992581367,
      0.0019464492797851562,
      -0.015200063586235046,
      -0.027185766026377678,
      0.000203767791390419,
      6.778538227081299e-05,
      -0.029369717463850975,
      0.013977736234664917,
      -0.02724314294755459,
      0.00022798310965299606,
      0.001940988004207611,
      0.02883227914571762,
      -1.993030309677124e-06,
      -0.024273723363876343,
      0.029988499358296394,
      -0.02778712287545204,
      -0.014129459857940674,
      -0.000133514404296875,
      -0.028461262583732605,
      0.00010381080210208893,
      -0.01015661284327507,
      0.00029993802309036255,
      0.028575405478477478,
      0.0290231816470623,
      0.029729701578617096,
      0.029237009584903717,
      0.015664467588067055,
      -0.0011285282671451569,
      -0.0012160129845142365,
      0.028874410316348076,
      -0.0014358032494783401,
      0.0003832858055830002,
      -0.000420495867729187,
      0.02894466370344162,
      0.028929825872182846,
      0.02814905345439911,
      -0.02306237816810608,
      -0.026267632842063904,
      0.001056961715221405,
      0.028303359635174274,
      0.013063773512840271,
      0.028949353843927383,
      0.029550686478614807,
      0.02734912373125553,
      -0.025604499503970146,
      -0.0035814233124256134,
      -0.0007001850754022598,
      -0.014495395123958588,
      0.0282597616314888,
      -0.0001338273286819458,
      -0.004846882075071335,
      0.029413804411888123,
      0.0002443641424179077,
      -0.0008487924933433533,
      -0.008522912859916687,
      -0.012680746614933014,
      0.016344057396054268,
      0.016879748553037643,
      0.012847378849983215,
      0.027595125138759613,
      0.017215758562088013,
      0.012802261859178543,
      0.012633756268769503,
      0.01697590947151184,
      0.01696104183793068,
      0.01587914675474167,
      0.011636264622211456,
      -0.016975104808807373,
      0.012745098676532507,
      0.012478385120630264,
      0.012680195271968842,
      0.017381079494953156,
      0.01863206923007965,
      0.01728111132979393,
      -0.009728554636240005,
      0.01724817231297493,
      0.012848969548940659,
      0.02824513427913189,
      0.017219343222677708,
      0.016633927822113037,
      -0.012771686539053917,
      0.012595631182193756,
      0.012938626110553741,
      -0.012831009924411774,
      0.012351792305707932,
      0.017242364585399628,
      0.0005280040204524994,
      -0.027627920731902122,
      0.02966504544019699,
      0.001123674213886261,
      0.029641859233379364,
      0.030001595616340637,
      0.0005248039960861206,
      -0.02509753778576851,
      0.011475086212158203,
      -4.978477954864502e-05,
      0.028130626305937767,
      0.003135005012154579,
      0.0021401941776275635,
      3.6259181797504425e-05,
      0.0296794380992651,
      0.029843052849173546,
      0.007869310677051544,
      -0.00013498589396476746,
      0.028744082897901535,
      -0.012140667997300625,
      -0.0100783109664917,
      0.0007113218307495117,
      0.02989865094423294,
      0.02955135703086853,
      0.0010989522561430931,
      0.0012784302234649658,
      -0.025635048747062683,
      0.030034109950065613,
      0.02997174859046936,
      -0.026980269700288773,
      0.029865674674510956,
      0.0001678466796875,
      -0.00014001503586769104,
      -0.029400646686553955,
      0.0005789697170257568,
      -0.029555141925811768,
      0.008554939180612564,
      0.02970803529024124,
      0.028422899544239044,
      -0.0006398577243089676,
      0.029530461877584457,
      0.0005295909941196442,
      0.02817685157060623,
      -0.029881145805120468,
      0.000346573069691658,
      -0.0001591034233570099,
      0.02987705171108246,
      0.029993489384651184,
      0.0007305759936571121,
      -0.00453098863363266,
      0.000895945355296135,
      0.0016498221084475517,
      -0.028255745768547058,
      0.00021841377019882202,
      0.029793571680784225,
      -0.00047613680362701416,
      -7.1749091148376465e-06,
      0.02976933866739273,
      0.0002603679895401001,
      0.02984759956598282,
      0.028396502137184143,
      -0.02972073294222355,
      0.0008563697338104248,
      0.001481674611568451
    ],
    [
      0.029340917244553566,
      0.002378544770181179,
      0.0019428730010986328,
      0.0003329673781991005,
      0.02957865409553051,
      0.029739821329712868,
      -0.025605064816772938,
      -0.00019833724945783615,
      0.0012351162731647491,
      -0.02892607543617487,
      -0.027245888486504555,
      -0.006944301538169384,
      -0.028407899662852287,
      0.02974827028810978,
      0.0017502307891845703,
      -0.02845922950655222,
      -0.016978705301880836,
      -0.0008524321019649506,
      0.0298848208039999,
      0.0005419068038463593,
      0.029237966053187847,
      -0.014032237930223346,
      0.021356995683163404,
      -0.01919443253427744,
      0.029880987480282784,
      -0.005743534071370959,
      -0.018897054251283407,
      -0.017767004668712616,
      0.028691841289401054,
      0.020620576106011868,
      0.02839536964893341,
      0.00038943346589803696
    ],
    [
      -0.017004158347845078,
      0.002924717962741852,
      0.010018058121204376,
      0.029038473963737488,
      -0.0006516501307487488,
      0.00015531480312347412,
      -0.021541643887758255,
      -7.718801498413086e-06,
      0.028865724802017212,
      0.0004780106246471405,
      -0.0272299125790596,
      -0.02405754290521145,
      -0.018600634299218655,
      -0.0018913596868515015,
      -0.027481205761432648,
      0.01057073101401329,
      0.0031047631055116653,
      -0.029667377471923828,
      -2.2705644369125366e-05,
      0.0006130505353212357,
      -0.019080668687820435,
      0.0023041516542434692,
      -0.0005285609513521194,
      0.02353891357779503,
      0.022008046507835388,
      -0.02996477484703064,
      -0.0013637468218803406,
      0.02252337336540222,
      0.028068303130567074,
      -0.00018370896577835083,
      -0.0290936678647995,
      -0.0011935830116271973
    ],
    [
      -0.023255093954503536
    ]
  ],
  "num_updates": 2,
  "client_ids": [
    "client-2",
    "client-1"
  ],
  "mean_final_loss": 8.361125707626343,
  "aggregation_timestamp": 1784208555.3505857
}