{
  "version": "v85",
  "base_version": "v84",
  "round_id": 254,
  "aggregation": "fedavg",
  "averaged_weight_delta": [
    [
      0.0001311320811510086,
      0.0002351701259613037,
      0.024531498551368713,
      0.001615181565284729,
      0.0005500949919223785,
      -0.006275344640016556,
      0.00046348199248313904,
      -6.465613842010498e-05,
      -0.00019550323486328125,
      -0.022287068888545036,
      -0.0004017595201730728,
      0.02409246936440468,
      -0.017535870894789696,
      -0.014888569712638855,
      -0.001061961054801941,
      0.017076372634619474,
      0.024690138176083565,
      0.013078957796096802,
      0.015475526452064514,
      0.013937180861830711,
      -0.020432934165000916,
      -0.029896065592765808,
      -0.027455857023596764,
      -0.028013482689857483,
      -0.024733934551477432,
      -0.007451348006725311,
      -0.013766340911388397,
      -0.028009258210659027,
      -0.025139138102531433,
      -0.029068920761346817,
      0.0006049275398254395,
      0.013961553573608398,
      0.01233990490436554,
      0.0003109648823738098,
      0.00010543689131736755,
      -3.025773912668228e-05,
      0.00020299851894378662,
      -0.0007702242583036423,
      -0.0006450749933719635,
      0.0065529197454452515,
      0.00032239779829978943,
      0.0002558194100856781,
      0.0011241845786571503,
      0.00042372941970825195,
      -0.00010202080011367798,
      -0.029724545776844025,
      0.0005359053611755371,
      0.0002570897340774536,
      -7.255002856254578e-05,
      -0.0005365721881389618,
      -0.0020684152841567993,
      -0.001425042748451233,
      -0.002087010070681572,
      -0.002420380711555481,
      0.0016390476375818253,
      -0.0033562034368515015,
      -0.002060876227915287,
      -0.0030278917402029037,
      -0.005409065634012222,
      9.092316031455994e-05,
      -0.028589798137545586,
      -0.015603229403495789,
      -0.009219426661729813,
      -0.0032187700271606445,
      -0.028700947761535645,
      -0.010791212320327759,
      -0.014659319072961807,
      -0.011924490332603455,
      -0.01162237673997879,
      -0.01545739732682705,
      -0.00030544213950634,
      -0.027476556599140167,
      -0.02858004719018936,
      -0.012227147817611694,
      -0.0005005300045013428,
      0.007624724879860878,
      -0.01380777359008789,
      -0.029036959633231163,
      -0.026897157542407513,
      -0.028528310358524323,
      -0.0279051773250103,
      -0.028608575463294983,
      -0.017257653176784515,
      -0.026234611868858337,
      -0.02867306023836136,
      -0.024824924767017365,
      -0.02810283750295639,
      -0.026207134127616882,
      -0.02595018595457077,
      -0.0008754134178161621,
      0.004682824015617371,
      0.009683400392532349,
      -0.028576433658599854,
      7.253140211105347e-06,
      -0.022138096392154694,
      -0.028077229857444763,
      -0.021560173481702805,
      -0.02848256379365921,
      -0.010849252343177795,
      -0.026375478133559227,
      0.029530423693358898,
      0.029902726411819458,
      0.029507989063858986,
      0.0235084630548954,
      0.025630734860897064,
      0.02849736250936985,
      0.029711905866861343,
      0.01291249692440033,
      0.02962677925825119,
      0.030015740543603897,
      0.028865892440080643,
      0.02927304059267044,
      0.029345352202653885,
      0.029833683744072914,
      0.02924736589193344,
      0.012892775237560272,
      0.02965073473751545,
      0.028913646936416626,
      0.0288226380944252,
      0.02816125750541687,
      0.028139352798461914,
      0.025523796677589417,
      0.02836134284734726,
      0.025170061737298965,
      0.01455804705619812,
      0.021997183561325073,
      0.026518620550632477,
      0.02307141199707985,
      0.02449904941022396,
      0.02902037650346756,
      -0.029897786676883698,
      -0.00215265154838562,
      -0.0012262798845767975,
      -0.0007019201293587685,
      -0.0009989887475967407,
      -0.0025488734245300293,
      -0.000949375331401825,
      -0.0018878132104873657,
      -0.0022722631692886353,
      -0.001113060861825943,
      -0.00023995153605937958,
      0.018848753534257412,
      0.0018988996744155884,
      -0.00036209821701049805,
      -0.00025556981563568115,
      0.00021700561046600342,
      -0.0014590173959732056,
      -0.0010110251605510712,
      -0.0001112036406993866,
      -0.0001658424735069275,
      0.029264532029628754,
      0.012106701731681824,
      0.02738064154982567,
      8.134264498949051e-05,
      -0.0002735406160354614,
      0.0007577203214168549,
      0.0030566174536943436,
      -9.416509419679642e-05,
      0.0007719974964857101,
      -0.00020037218928337097,
      0.028118048794567585,
      0.029516812413930893,
      0.0295870304107666,
      0.02801626268774271,
      0.028965014033019543,
      0.0009945333003997803,
      0.028896218165755272,
      0.02985106036067009,
      0.0293026864528656,
      0.02814476564526558,
      -0.011987395584583282,
      -0.02939985878765583,
      -0.029770120047032833,
      -0.0013380162417888641,
      -0.012353334575891495,
      -0.015985824167728424,
      -0.01171850599348545,
      -0.013228880241513252,
      -0.0060179997235536575,
      -0.017517576459795237,
      -0.005218803882598877,
      -0.011114325374364853,
      0.01896534115076065,
      -0.026183955371379852,
      -0.029502853751182556,
      -0.026140108704566956,
      -0.004742294549942017,
      0.01901794970035553,
      -0.0045410580933094025,
      -0.02722550928592682,
      -0.008698821067810059,
      0.0033809542655944824,
      -0.002740629017353058,
      -0.0026449039578437805,
      -0.02864011377096176,
      -0.009755216538906097,
      -0.0025886371731758118,
      -0.0054328832775354385,
      -0.007632562890648842,
      2.985820174217224e-06,
      4.7169625759124756e-05,
      -0.013146169483661652,
      -0.013896152377128601,
      -0.027708853594958782,
      -0.00010183081030845642,
      0.0010619163513183594,
      -0.014718953520059586,
      -0.00012830644845962524,
      -0.01844470202922821,
      0.00028003938496112823,
      0.002279900014400482,
      -0.02637340873479843,
      -0.019014373421669006,
      -0.02631201408803463,
      -0.02835145592689514,
      -0.013603689149022102,
      0.0014796331524848938,
      -0.02476784586906433,
      -0.026363886892795563,
      -0.02516809105873108,
      0.02900698408484459,
      0.029698241502046585,
      0.003149833530187607,
      0.02676645666360855,
      0.0036346539855003357,
      -0.029947400093078613,
      0.02980673313140869,
      0.015860848128795624,
      0.02889225445687771,
      0.02948605641722679,
      -0.029301434755325317,
      -0.02945919707417488,
      -0.02955538872629404,
      -0.029285214841365814,
      -0.029427495785057545,
      -0.015159646049141884,
      -0.029606807976961136,
      -0.02942097093909979,
      -0.02941553294658661,
      -0.02308700606226921,
      -0.00029741041362285614,
      -8.589774370193481e-05,
      -0.0009440639987587929,
      -0.000285223126411438,
      0.0006099194288253784,
      -0.00021168217062950134,
      -0.0006606951355934143,
      0.01129237562417984,
      -0.0004638880491256714,
      0.0005135387182235718,
      -0.029970236122608185,
      -0.027753014117479324,
      -0.029898901470005512,
      -0.028920628130435944,
      -0.017661720514297485,
      -0.029011055827140808,
      -0.02989816665649414,
      -0.02992599830031395,
      -0.028502538800239563,
      -0.02796298637986183,
      0.015556041151285172,
      0.008878126740455627,
      0.02589096873998642,
      0.029799234122037888,
      0.02094782143831253,
      0.000720486044883728,
      0.01514715701341629,
      0.020881149917840958,
      0.02821363788098097,
      0.0014608502388000488,
      0.0007253065705299377,
      -0.0005302876234054565,
      0.02651914581656456,
      0.0019083172082901,
      0.00017418712377548218,
      0.0007990971207618713,
      0.00040297675877809525,
      0.00026060640811920166,
      0.00018392875790596008,
      -0.00017048418521881104,
      -0.002244376577436924,
      -0.00261891633272171,
      -0.004830621182918549,
      -0.012441188097000122,
      -0.001456424593925476,
      -0.0018255338072776794,
      -0.002400502562522888,
      -0.0007683653384447098,
      -0.001207025721669197,
      -0.00032324716448783875,
      0.00023393332958221436,
      0.00022358819842338562,
      0.00021298229694366455,
      0.0002853572368621826,
      -2.7582980692386627e-05,
      -0.0017594918608665466,
      8.117780089378357e-05,
      -0.00023065879940986633,
      -0.0001787617802619934,
      0.00013295840471982956,
      -0.029276945628225803,
      -0.027195998467504978,
      -0.028702694922685623,
      0.00027514249086380005,
      -0.029782069846987724,
      -0.027614902704954147,
      -0.0297091081738472,
      -0.006584543734788895,
      -0.029359474778175354,
      -0.00245598703622818,
      0.0006379038095474243,
      -1.5467405319213867e-05,
      4.229508340358734e-05,
      0.00031319260597229004,
      0.0006554834544658661,
      0.0004906430840492249,
      0.0004369206726551056,
      0.0017410442233085632,
      0.0006863921880722046,
      0.0005238670855760574
    ],
    [
      0.029545560479164124,
      -0.012915567960590124,
      0.02966522052884102,
      -0.0005577076226472855,
      0.011572105111554265,
      -0.012126893270760775,
      0.017254216596484184,
      0.0003350060433149338,
      0.0012935977429151535,
      -0.029288213700056076,
      0.02893204614520073,
      0.0009690448641777039,
      -0.015566477552056313,
      0.0013450495898723602,
      -0.021334759425371885,
      0.011820753803476691,
      0.027897024527192116,
      8.42660665512085e-06,
      0.0170353592839092,
      0.001121295616030693,
      -0.02963806502521038,
      -0.02722665946930647,
      0.029579004272818565,
      0.0013693422079086304,
      0.0010145073756575584,
      -0.0011371951550245285,
      0.00048573873937129974,
      0.027653939090669155,
      -0.010864377254620194,
      0.029395004734396935,
      0.009341632947325706,
      0.015453265514224768
    ],
    [
      -0.011010304093360901,
      0.0015283823013305664,
      -0.026898207142949104,
      -0.02717510797083378,
      0.0012925248593091965,
      0.029015861451625824,
      0.0006747841835021973,
      2.6728957891464233e-05,
      0.004230111837387085,
      0.002653328701853752,
      0.028873994946479797,
      0.0005718767642974854,
      0.004753859713673592,
      0.003170972689986229,
      0.01749323308467865,
      0.016712132841348648,
      0.02985396236181259,
      -0.020043276250362396,
      0.0006425529718399048,
      0.0015089493244886398,
      0.02995581179857254,
      0.029772229492664337,
      0.016824780497699976,
      0.007974011823534966,
      0.0012062564492225647,
      0.00150984525680542,
      0.003529675304889679,
      0.029641449451446533,
      -0.02143451478332281,
      0.0023855939507484436,
      0.011124131735414267,
      0.029713314026594162,
      0.029680855572223663,
      0.0002382434904575348,
      -0.000247858464717865,
      0.029644198715686798,
      0.0015500914305448532,
      0.029429245740175247,
      0.0010470841079950333,
      0.02962789684534073,
      0.02906747628003359,
      0.02985546737909317,
      0.029539592564105988,
      0.029970936477184296,
      0.003707475960254669,
      0.001518595963716507,
      0.028980117291212082,
      0.030006378889083862,
      0.02849385980516672,
      0.013936011120676994,
      -0.00035881437361240387,
      0.029742732644081116,
      0.02990347519516945,
      0.02982683666050434,
      0.028890207409858704,
      0.029733359813690186,
      9.923521429300308e-05,
      -0.0004275515675544739,
      0.029916971921920776,
      0.029952138662338257,
      0.02663005143404007,
      0.02981211431324482,
      0.028682129457592964,
      0.0007362551987171173,
      0.029850155115127563,
      -0.001297593116760254,
      -0.026295967400074005,
      0.01718209683895111,
      -0.0004770131781697273,
      0.029362663626670837,
      0.0001408485695719719,
      0.02986641228199005,
      0.029978061094880104,
      0.02935347706079483,
      0.027561262249946594,
      0.029802557080984116,
      0.008639022707939148,
      8.169561624526978e-06,
      0.029432576149702072,
      0.029865935444831848,
      -0.0002128705382347107,
      0.02941826358437538,
      -0.003097444772720337,
      0.02982843667268753,
      0.029885563999414444,
      0.029925729148089886,
      9.007472544908524e-05,
      0.029755236580967903,
      -8.638575673103333e-05,
      -0.0007175281643867493,
      0.0013850033283233643,
      0.03001381829380989,
      0.029695706441998482,
      0.02980685420334339,
      0.029729526489973068,
      -7.25332647562027e-05,
      0.029559291899204254,
      0.0065672025084495544,
      0.029854916036128998,
      0.02958076447248459,
      -0.00010035932064056396,
      -0.02704165130853653,
      0.029669657349586487,
      0.0004601031541824341,
      0.017080143094062805,
      -0.018829017877578735,
      -0.027558699250221252,
      -0.00016459356993436813,
      0.029936160892248154,
      0.029603982344269753,
      0.0008817091584205627,
      0.00032322853803634644,
      -0.029631011188030243,
      0.01656261831521988,
      0.0006968136876821518,
      0.025422897189855576,
      -0.00016604363918304443,
      0.0003989115357398987,
      -0.02954554185271263,
      0.00036716461181640625,
      0.03003157675266266,
      3.3371150493621826e-05,
      0.00030329637229442596,
      -0.0003525540232658386,
      0.029493950307369232,
      -0.0005779918283224106,
      -0.017557675018906593,
      -0.028543606400489807,
      -0.028699493035674095,
      -0.02692369371652603,
      -0.00023107975721359253,
      -0.029750164598226547,
      0.0004353150725364685,
      0.0058211758732795715,
      -0.02780507132411003,
      -0.029269807040691376,
      -0.029088333249092102,
      0.01196024939417839,
      0.011492453515529633,
      -0.000154934823513031,
      -0.017151713371276855,
      -0.02959275245666504,
      0.0284198010340333,
      0.017113178968429565,
      0.029598543420433998,
      -0.016513649374246597,
      -0.0005045458674430847,
      -0.012874208390712738,
      -7.845461368560791e-05,
      0.0007259920239448547,
      0.001074591651558876,
      0.02880990505218506,
      -0.02806609310209751,
      -1.728348433971405e-05,
      -7.909536361694336e-05,
      0.02916375920176506,
      -0.02986937016248703,
      -8.468329906463623e-05,
      -0.027839243412017822,
      0.028149545192718506,
      -0.029610678553581238,
      0.0012438222765922546,
      0.00015514343976974487,
      -0.001166507601737976,
      4.729442298412323e-05,
      -0.02796359732747078,
      0.00024244189262390137,
      -0.015760019421577454,
      -0.015573536977171898,
      -0.022927531972527504,
      0.005010366439819336,
      -0.029581948183476925,
      0.00016460195183753967,
      0.00016559939831495285,
      -0.0274388724938035,
      -0.0013980716466903687,
      -0.007750816643238068,
      -0.012640498578548431,
      0.025915395468473434,
      0.0002612695097923279,
      -0.02855563722550869,
      -0.02936936728656292,
      -0.022937297821044922,
      -0.029232069849967957,
      0.00027008354663848877,
      -5.566701292991638e-05,
      0.00020841974765062332,
      -0.02934759296476841,
      7.238984107971191e-05,
      -0.029790662229061127,
      -0.012165568768978119,
      -0.027379192411899567,
      0.02933628112077713,
      -0.026624023914337158,
      1.6588717699050903e-05,
      0.028668995946645737,
      0.029018636792898178,
      0.016668975353240967,
      0.026568718254566193,
      0.02891439199447632,
      0.0269799642264843,
      0.017980709671974182,
      5.634501576423645e-06,
      0.028160113841295242,
      0.029812075197696686,
      0.02811877429485321,
      0.02855309285223484,
      0.029928244650363922,
      0.013842923566699028,
      0.028484147042036057,
      -0.004844069480895996,
      0.02944652270525694,
      0.02791182603687048,
      0.029426533728837967,
      0.02834375575184822,
      0.02948928251862526,
      0.00011383090168237686,
      0.02862550877034664,
      0.0003899410367012024,
      0.029594115912914276,
      0.027476812712848186,
      0.0077423639595508575,
      0.028170369565486908,
      4.6584755182266235e-05,
      0.013335321098566055,
      5.551055073738098e-05,
      -0.0031272191554307938,
      0.0024043992161750793,
      -0.011404141783714294,
      0.02955816499888897,
      0.00030014291405677795,
      0.02966897189617157,
      0.02998891845345497,
      0.029140857979655266,
      0.014841631054878235,
      0.02989136427640915,
      0.0029515251517295837,
      0.0010314062237739563,
      0.029481736943125725,
      0.029484540224075317,
      0.00023612380027770996,
      0.02993032056838274,
      -0.0035934876650571823,
      -0.00017409585416316986,
      0.029887691140174866,
      0.02995125949382782,
      0.0007197931408882141,
      0.0297936350107193,
      0.00032576266676187515,
      -0.02539626881480217,
      0.003349650651216507,
      0.029772412963211536,
      0.0025326795876026154,
      0.028974629938602448,
      0.02884933352470398,
      -0.00028315745294094086,
      0.02934211492538452,
      -0.004601458087563515,
      -0.030038466677069664,
      0.029816926456987858,
      0.029636042192578316,
      0.029606008902192116,
      0.029858632013201714,
      0.029683507978916168,
      0.029796233400702477,
      0.030039310455322266,
      0.018406711518764496,
      0.029936306178569794,
      0.03000875562429428,
      0.029986144974827766,
      0.022531013935804367,
      0.029823072254657745,
      1.9419938325881958e-05,
      0.02980881929397583,
      -0.029999539256095886,
      0.024137798696756363,
      0.029867693781852722,
      0.029810208827257156,
      4.7730281949043274e-05,
      0.029741480946540833,
      -0.00010892562568187714,
      -0.012277912348508835,
      0.018937602639198303,
      0.029965229332447052,
      0.028343122452497482,
      0.028624825179576874,
      0.027693994343280792,
      -0.0002209097146987915,
      0.0017661191523075104,
      0.029426708817481995,
      0.030021745711565018,
      0.0014977231621742249,
      0.02988342195749283,
      -0.018330305814743042,
      0.002273058518767357,
      -0.012172101065516472,
      0.0005510374903678894,
      0.029483890160918236,
      0.029556654393672943,
      -0.000248592346906662,
      0.0014674514532089233,
      0.0009006336331367493,
      0.0009012520313262939,
      0.007067646831274033,
      0.00707298144698143,
      0.002094373106956482,
      0.029504407197237015,
      0.0026490092277526855,
      -0.027248933911323547,
      0.0001936107873916626,
      0.029456153512001038,
      -0.02844911441206932,
      0.0027094706892967224,
      0.005502156913280487,
      0.029971837997436523,
      -0.02886359766125679,
      0.0015347301959991455,
      0.017605792731046677,
      0.017387401312589645,
      0.028853673487901688,
      0.01396411843597889,
      0.0035414695739746094,
      0.0008393339812755585,
      0.0030787698924541473,
      0.016598522663116455,
      0.0050512924790382385,
      0.0008365251123905182,
      0.0009761378169059753,
      0.0008952952921390533,
      0.0005712006241083145,
      0.003930233418941498,
      -0.0018451809883117676,
      0.0031656455248594284,
      0.0018871575593948364,
      0.0006545037031173706,
      0.0009942613542079926,
      0.024009489454329014,
      0.0013808151707053185,
      0.029708020389080048,
      -0.007961906492710114,
      -0.026091212406754494,
      -0.006002351641654968,
      0.001641770824790001,
      0.0011334717273712158,
      0.002047620713710785,
      0.012204089667648077,
      0.01000644639134407,
      -0.004625510424375534,
      0.0009008124470710754,
      0.0010145176202058792,
      0.009035805240273476,
      0.028985554352402687,
      0.014611579477787018,
      -1.2524425983428955e-05,
      7.841736078262329e-06,
      0.015014104545116425,
      0.014963984489440918,
      -0.014157306402921677,
      -0.0006225258111953735,
      -0.02489035204052925,
      -0.004262737929821014,
      -0.02821890451014042,
      -0.014780383557081223,
      -0.01480863243341446,
      0.014908320270478725,
      0.014839453622698784,
      -0.0293148010969162,
      -0.014956369996070862,
      -0.014850020408630371,
      -0.019650794565677643,
      -1.5152618288993835e-05,
      0.014469683170318604,
      -0.014702994376420975,
      -0.014591984450817108,
      -0.02980424277484417,
      -0.029393628239631653,
      0.015015218406915665,
      -0.0012554004788398743,
      0.01445336639881134,
      -0.014849990606307983,
      -0.001055687665939331,
      -0.02580096572637558,
      -0.02282656729221344,
      -0.029005426913499832,
      -0.027930036187171936,
      -0.027987442910671234,
      -0.02884916588664055,
      -0.027881046757102013,
      0.0010032206773757935,
      0.0007708016782999039,
      -0.029375075362622738,
      -0.0010751709342002869,
      -0.01301557570695877,
      0.0002582371234893799,
      0.007603008300065994,
      0.00020828470587730408,
      -0.02788217831403017,
      -0.028993166983127594,
      0.006798259913921356,
      0.0139169842004776,
      0.029689906165003777,
      -0.029332543723285198,
      -0.02648993581533432,
      -0.028808819130063057,
      -0.00019359774887561798,
      0.010176852345466614,
      0.029398414306342602,
      0.00013620778918266296,
      -0.02861279807984829,
      -3.23466956615448e-05,
      0.0008335243910551071,
      0.0007023308426141739,
      -0.0294683575630188,
      -0.0007992833852767944,
      -0.008351113647222519,
      0.028806645423173904,
      0.0002736523747444153,
      -0.028123144060373306,
      -0.027391836047172546,
      -0.02397933043539524,
      0.0015413165092468262,
      0.0009566666558384895,
      -0.028383027762174606,
      -0.00024398043751716614,
      -0.004544742405414581,
      0.0015651769936084747,
      0.0052530765533447266,
      0.00046925805509090424,
      -0.02187008038163185,
      -0.027518825605511665,
      0.002249777317047119,
      -0.01577264815568924,
      0.02988431788980961,
      -0.0006074011325836182,
      -0.026621676981449127,
      -0.029140137135982513,
      0.0004080459475517273,
      0.0005377233028411865,
      0.02975201979279518,
      -0.00011364370584487915,
      -0.029403572902083397,
      -0.02853594534099102,
      0.02358674816787243,
      0.0003371499478816986,
      -0.02883194386959076,
      0.00023679714649915695,
      -0.010949305258691311,
      0.029720162972807884,
      -5.45792281627655e-05,
      -0.02708055078983307,
      -0.02726766001433134,
      -0.026834695599973202,
      0.003176376223564148,
      0.0025290250778198242,
      -0.0067707449197769165,
      0.0024417340755462646,
      0.0005840640515089035,
      -6.849691271781921e-05,
      0.003006887622177601,
      0.002881202846765518,
      0.0029887259006500244,
      0.002518691122531891,
      0.0024130865931510925,
      0.0029641129076480865,
      0.02721458673477173,
      0.002524062991142273,
      -0.02583669126033783,
      -0.02507224678993225,
      0.0029081813991069794,
      0.0026792334392666817,
      0.029452845454216003,
      0.003119603730738163,
      -0.026791665703058243,
      0.0013202279806137085,
      -0.010819464921951294,
      0.0029363036155700684,
      -0.003643365576863289,
      0.002889394760131836,
      0.0021973252296447754,
      0.014624373987317085,
      -0.001063748262822628,
      -0.0018952973186969757,
      0.0002602245658636093,
      0.02979373186826706,
      -0.011960521340370178,
      0.029594898223876953,
      0.017637506127357483,
      0.028776250779628754,
      0.014943898015189916,
      0.0290193110704422,
      0.0009638331830501556,
      0.029917364940047264,
      0.006880050525069237,
      0.02654249221086502,
      0.028608612716197968,
      0.029892269521951675,
      3.7103891372680664e-06,
      0.02977297268807888,
      -0.027477402240037918,
      0.02810635417699814,
      0.029919864609837532,
      0.029941292479634285,
      -0.00041641853749752045,
      0.02759404480457306,
      0.00039058178663253784,
      0.00940191000699997,
      -0.028864966705441475,
      0.029936395585536957,
      0.01579967513680458,
      0.029546390287578106,
      0.011629210785031319,
      -0.00022931396961212158,
      -0.0025918446481227875,
      -0.013853836804628372,
      -0.021115098148584366,
      0.0013147443532943726,
      -0.0007122009992599487,
      -0.003088148310780525,
      0.003095678985118866,
      0.004075821489095688,
      0.0029074251651763916,
      0.00043547526001930237,
      -0.013118240982294083,
      0.0032158903777599335,
      0.0010554715991020203,
      0.004082128405570984,
      -0.00852273404598236,
      0.002210192382335663,
      -0.02580675482749939,
      0.0011890456080436707,
      0.020351193845272064,
      0.0023827310651540756,
      0.0032355468720197678,
      0.0029067955911159515,
      -0.026222454383969307,
      0.0038996078073978424,
      0.0037195738404989243,
      -0.02415437251329422,
      -0.01457224041223526,
      0.001841127872467041,
      0.0024497434496879578,
      0.0031714141368865967,
      0.0029149213805794716,
      -0.026388093829154968,
      -0.02353779226541519,
      0.029916249215602875,
      0.011998549103736877,
      0.029704086482524872,
      -0.0014275703579187393,
      0.0008826963603496552,
      0.007582878693938255,
      -0.025542475283145905,
      -0.016965351067483425,
      0.0013568997383117676,
      -0.00017518922686576843,
      -0.025686852633953094,
      0.011672481894493103,
      0.0035491129383444786,
      -0.021444573998451233,
      -0.026500675827264786,
      0.0002504996955394745,
      -0.009703405201435089,
      0.027392059564590454,
      -0.0031553953886032104,
      -0.017641626298427582,
      -0.02569456398487091,
      -0.00196751207113266,
      -0.004069864749908447,
      0.0045966655015945435,
      0.012394577264785767,
      -0.020447202026844025,
      -0.02491769101470709,
      -0.021755928173661232,
      -0.018139375373721123,
      -0.0024895817041397095,
      -0.013326160609722137,
      -0.0019642114639282227,
      -0.0060356613248586655,
      -0.025104006752371788,
      -1.1431053280830383e-05,
      -0.026344038546085358,
      0.029063332825899124,
      -2.458319067955017e-05,
      0.029441729187965393,
      0.018879741430282593,
      0.028883248567581177,
      0.017318962141871452,
      0.029907183721661568,
      0.0001655668020248413,
      3.4008175134658813e-05,
      0.029319277964532375,
      0.013465633615851402,
      0.00036247260868549347,
      0.012101493775844574,
      -0.005131438374519348,
      -0.00023405253887176514,
      0.029756367206573486,
      0.029526103287935257,
      0.0010268650949001312,
      0.029419569298624992,
      -8.853338658809662e-05,
      -0.004756908863782883,
      -0.016287507489323616,
      0.029797103255987167,
      0.0001588687300682068,
      0.02989775687456131,
      0.015375401824712753,
      -0.00013549812138080597,
      -0.025507047772407532,
      -0.01196262240409851,
      0.0016377251595258713,
      -0.020600493997335434,
      0.0020094960927963257,
      0.01004210114479065,
      -0.02674083039164543,
      -0.028597407042980194,
      -0.027964198030531406,
      0.013504894450306892,
      0.027526896446943283,
      -0.027263037860393524,
      -0.0268317312002182,
      -0.02769894152879715,
      0.014031447470188141,
      -0.02745416760444641,
      0.001834571361541748,
      -0.026574358344078064,
      0.001980520784854889,
      -0.024535341188311577,
      -0.0020729824900627136,
      -0.0012661851942539215,
      0.0019617658108472824,
      -0.00157078355550766,
      -0.02469445765018463,
      0.0016243383288383484,
      0.027501285076141357,
      -0.0011874791234731674,
      -0.027872778475284576,
      -0.027774088084697723,
      0.0009796172380447388,
      0.026043133810162544,
      -0.007146373391151428,
      -0.00039675552397966385,
      -0.013686947524547577,
      -0.028074637055397034,
      0.0031298063695430756,
      0.018123634159564972,
      -0.0016511157155036926,
      0.017909936606884003,
      0.02922393847256899,
      0.028776273131370544,
      0.02900567837059498,
      0.008303850889205933,
      -0.010495830327272415,
      -0.020277053117752075,
      0.02897617220878601,
      0.02806207537651062,
      0.02974361926317215,
      0.0022474750876426697,
      -0.00023472681641578674,
      -0.01040872186422348,
      0.008260071277618408,
      0.02976236864924431,
      0.029441997408866882,
      0.028917253017425537,
      -0.01158248633146286,
      0.0005436614155769348,
      -8.267443627119064e-05,
      0.029690653085708618,
      -0.013357661664485931,
      0.027738431468605995,
      0.02627815306186676,
      0.029433786869049072,
      0.029455378651618958,
      -0.0005709603428840637,
      -0.0024870801717042923,
      0.02941940538585186,
      -8.22022557258606e-05,
      0.02865724265575409,
      0.02784382924437523,
      0.02925698459148407,
      0.02776121348142624,
      0.029430873692035675,
      0.027555912733078003,
      0.029833429493010044,
      0.02973349764943123,
      0.029966145753860474,
      0.029212813824415207,
      0.02974504604935646,
      -3.405660390853882e-05,
      0.0289628803730011,
      -0.001506265252828598,
      0.026264892891049385,
      0.029823333024978638,
      0.02977365255355835,
      7.72383064031601e-05,
      0.029751189053058624,
      -0.0001528821885585785,
      -0.026749275624752045,
      -0.0027109794318675995,
      0.029983509331941605,
      0.0012972652912139893,
      0.02999192476272583,
      0.027681171894073486,
      -0.00042137131094932556,
      0.005456519313156605,
      0.009635070338845253,
      0.0005110129714012146,
      0.029997549951076508,
      -0.0003719702363014221,
      0.0006521791219711304,
      0.029635682702064514,
      0.0024612173438072205,
      0.014954647049307823,
      -0.0007466748356819153,
      -0.019007539376616478,
      0.0004349127411842346,
      0.01682952046394348,
      0.029748622328042984,
      -0.027053847908973694,
      0.006354996934533119,
      -0.02968377061188221,
      0.0037497393786907196,
      0.00027623865753412247,
      0.029274459928274155,
      0.0007781609892845154,
      0.0005789026618003845,
      -0.021498702466487885,
      0.0007024239748716354,
      0.02989475429058075,
      -0.015900570899248123,
      -0.0004364103078842163,
      -0.019032958894968033,
      0.02889752760529518,
      0.0005272477865219116,
      -0.005378255620598793,
      -0.028287487104535103,
      0.0009083449840545654,
      0.012055888772010803,
      0.001485312357544899,
      0.001030193641781807,
      0.0030177365988492966,
      -0.027214713394641876,
      0.0010757166892290115,
      -0.027267388999462128,
      -0.01613736432045698,
      -0.016412928700447083,
      -0.001165708526968956,
      -0.028028267435729504,
      0.0015452876687049866,
      0.0009489031508564949,
      -0.028022957034409046,
      -0.024133950471878052,
      0.0005529504269361496,
      -0.013075858354568481,
      0.010527128353714943,
      0.0017271116375923157,
      -0.028094232082366943,
      -0.02783217281103134,
      -0.012055588886141777,
      -0.02854045480489731,
      0.001368597149848938,
      0.00073995441198349,
      0.011098630726337433,
      -0.02917608618736267,
      0.00048810243606567383,
      -0.027821123600006104,
      -0.018936144188046455,
      0.0016624145209789276,
      -0.012267395853996277,
      -0.009774616919457912,
      -0.028638334944844246,
      0.014779014512896538,
      -0.028056345880031586,
      0.0002537965774536133,
      -0.005686543881893158,
      0.016765344887971878,
      0.027253445237874985,
      0.0005602138116955757,
      -0.00013963133096694946,
      0.025845929980278015,
      0.002783333882689476,
      -0.0010423138737678528,
      0.0008865073323249817,
      0.0003264155238866806,
      -0.014708483591675758,
      0.027628302574157715,
      -0.028639711439609528,
      -0.029462515376508236,
      0.026846960186958313,
      0.000975441187620163,
      -0.022455898113548756,
      -0.0011433213949203491,
      -0.028604857623577118,
      0.0009219050407409668,
      6.005913019180298e-05,
      0.001093100756406784,
      -0.0012914389371871948,
      0.027074439451098442,
      6.703473627567291e-05,
      7.871724665164948e-05,
      0.0041976198554039,
      0.029513418674468994,
      0.02872578427195549,
      0.00785645842552185,
      0.02902979403734207,
      0.0013302154839038849,
      0.029474567621946335,
      0.0016695968806743622,
      0.005107991397380829,
      0.0021778643131256104,
      0.0015654079616069794,
      0.0014527607709169388,
      0.029721738770604134,
      0.02995632216334343,
      0.0008632205426692963,
      0.0018618255853652954,
      -0.028629634529352188,
      0.004970865324139595,
      0.028212642297148705,
      0.028913536109030247,
      0.0014587920159101486,
      0.0012468229979276657,
      -0.028301533311605453,
      0.0021052733063697815,
      0.029882799834012985,
      0.027025166898965836,
      0.00610004086047411,
      0.00064815953373909,
      0.006141155958175659,
      0.0025635845959186554,
      0.007334902882575989,
      -0.028353586792945862,
      0.0014592818915843964,
      0.028939698822796345,
      0.02973686158657074,
      -0.020445723086595535,
      -0.012714941054582596,
      -0.018103528767824173,
      -0.019291408360004425,
      -0.025355461984872818,
      0.0028480812907218933,
      0.001299952156841755,
      -0.0005235746502876282,
      -0.026892369613051414,
      -0.015586048364639282,
      -0.026471272110939026,
      -0.00010723620653152466,
      -0.01278441771864891,
      -0.0007682368159294128,
      -0.004765954799950123,
      0.029601221904158592,
      -0.002643495798110962,
      -0.027064882218837738,
      -0.025892598554491997,
      -0.00024057179689407349,
      0.00042842328548431396,
      0.002689272165298462,
      0.006309548392891884,
      0.0036009233444929123,
      -0.011702784337103367,
      -0.017260998487472534,
      -0.023433713242411613,
      0.004298131912946701,
      0.0010372251272201538,
      -0.02403448149561882,
      0.011040914803743362,
      0.0011850148439407349,
      -0.028280943632125854,
      0.00293688103556633,
      -0.025389722548425198,
      -0.00037307851016521454,
      -0.027795135974884033,
      -0.02791725844144821,
      -0.013933643698692322,
      -0.011296994984149933,
      -0.028955206274986267,
      -0.0275176540017128,
      -0.0006015859544277191,
      -0.027125313878059387,
      -0.02926434949040413,
      0.015115626156330109,
      -0.027756817638874054,
      0.01734820008277893,
      -0.027447164058685303,
      -0.027499351650476456,
      -0.02844531089067459,
      0.0010116249322891235,
      -0.028953720815479755,
      0.00041487812995910645,
      -0.02825845777988434,
      0.006429612636566162,
      -0.028796933591365814,
      -0.01669965125620365,
      -0.029225830920040607,
      -0.01233663409948349,
      0.0004039183259010315,
      -0.00010447949171066284,
      0.00775262713432312,
      0.0003549307584762573,
      -0.00027500465512275696,
      0.02997710555791855,
      0.001324634999036789,
      0.02677028626203537,
      -0.02679387852549553,
      3.472715616226196e-05,
      -0.0011822693049907684,
      -0.026586271822452545,
      -0.00016917288303375244,
      0.001141279935836792,
      -0.000684092752635479,
      0.002581387758255005,
      0.0004591643810272217,
      0.0003472231328487396,
      0.00025449134409427643,
      0.029422488063573837,
      0.029226068407297134,
      -0.029648855328559875,
      -0.016413828590884805,
      2.7544796466827393e-05,
      -0.01868962775915861,
      0.029992416501045227,
      0.029469449073076248,
      0.029887527227401733,
      0.000250399112701416,
      0.002173587679862976,
      -0.011819660663604736,
      -0.021753259003162384,
      0.029694546945393085,
      0.017266446258872747,
      -0.0022599296644330025,
      -0.004187241196632385,
      -0.008037082850933075,
      -0.0058780089020729065,
      0.02172502875328064,
      -0.005291368812322617,
      0.029310952872037888,
      0.021792985498905182,
      0.028053611516952515,
      0.015025101602077484,
      0.029493166133761406,
      -0.011807240545749664,
      -0.007546424865722656,
      0.022654919885098934,
      0.01466449722647667,
      0.029545975849032402,
      0.019525259733200073,
      6.690807640552521e-05,
      0.0008736718446016312,
      0.0219699889421463,
      0.021859094500541687,
      0.029807455837726593,
      0.01784176006913185,
      -0.018124708905816078,
      -0.0002763671800494194,
      -0.0064165666699409485,
      0.018212015740573406,
      0.010230571031570435,
      0.028222311288118362,
      -0.006558004766702652,
      0.011482656002044678,
      0.00015706568956375122,
      0.0009736940264701843,
      0.00041256844997406006,
      0.00014601647853851318,
      0.029712188057601452,
      -0.028108667582273483,
      1.2800097465515137e-05,
      -0.028637513518333435,
      -0.012463156133890152,
      -0.0009064078330993652,
      -0.026206251233816147,
      -0.02965010143816471,
      0.0005719438195228577,
      0.00016507133841514587,
      -0.028982918709516525,
      -0.02951357513666153,
      2.5091692805290222e-05,
      -0.0010112524032592773,
      0.000771399587392807,
      9.906385093927383e-05,
      -0.02965526655316353,
      -0.029514573514461517,
      -0.00024463236331939697,
      -0.02978411689400673,
      0.0004013441503047943,
      -4.406645894050598e-05,
      0.029925979673862457,
      -0.029724247753620148,
      -0.00016848742961883545,
      -0.029989637434482574,
      -0.02046525478363037,
      0.0017447508871555328,
      -0.0254286527633667,
      -0.01770247519016266,
      -4.3177977204322815e-05,
      -0.027328649535775185,
      0.0014192797243595123,
      0.005711846984922886,
      -0.026852065697312355,
      0.001652456820011139,
      -0.014871986582875252,
      -0.01208261027932167,
      0.016789065673947334,
      0.001489417627453804,
      -0.02014797180891037,
      -0.027222130447626114,
      0.008740969002246857,
      -8.733570575714111e-05,
      0.0297379307448864,
      -0.027123935520648956,
      -0.011928508058190346,
      -0.018101997673511505,
      0.0029736384749412537,
      0.0029893629252910614,
      0.029879815876483917,
      0.01714305579662323,
      -0.026775220409035683,
      -1.5273690223693848e-06,
      4.781410098075867e-05,
      0.015347100794315338,
      -0.0280720517039299,
      0.001268213614821434,
      -0.02225145697593689,
      0.026512302458286285
    ],
    [
      0.0073656952008605,
      0.02987504657357931,
      0.029866160824894905,
      0.010831094579771161,
      -0.0015480667352676392,
      -0.014410998905077577,
      0.02916177362203598,
      0.029734022915363312,
      0.029920974746346474,
      0.013090517604723573,
      0.0033905236050486565,
      -0.024345437064766884,
      -0.026015939190983772,
      0.0010897303000092506,
      0.002317342907190323,
      0.028549647890031338,
      0.0017407061532139778,
      -0.01840546913444996,
      0.02311889361590147,
      -0.0154773467220366,
      0.028732839971780777,
      0.029367363080382347,
      0.009941769763827324,
      -0.02078620996326208,
      0.0006372313946485519,
      0.003930824808776379,
      -0.00012130942195653915,
      -0.02546838391572237,
      0.027849772945046425,
      0.028469189070165157,
      -0.0002683158963918686,
      -0.013139751506969333
    ],
    [
      0.027113422751426697,
      -4.548206925392151e-05,
      -6.781518459320068e-05,
      -0.0030495496466755867,
      -5.383603274822235e-05,
      -0.0015713423490524292,
      4.0493905544281006e-05,
      5.158036947250366e-05,
      0.0001403018832206726,
      -0.016810975968837738,
      -0.02668577805161476,
      0.02790820598602295,
      -0.026480719447135925,
      0.0006006062030792236,
      0.0006317310035228729,
      -4.324689507484436e-05,
      -0.002118803560733795,
      0.007037416100502014,
      -0.028382085263729095,
      -0.022657301276922226,
      0.02850840985774994,
      8.985400199890137e-06,
      0.0037017017602920532,
      -0.011386334896087646,
      0.029984479770064354,
      -0.007438678294420242,
      0.026712752878665924,
      0.006542280316352844,
      -0.02037227898836136,
      0.0016425065696239471,
      -0.02873997762799263,
      -0.01207367330789566
    ],
    [
      -0.004883415997028351
    ]
  ],
  "num_updates": 2,
  "client_ids": [
    "client-2",
    "client-1"
  ],
  "mean_final_loss": 7.2968666553497314,
  "aggregation_timestamp": 1784209592.8049235
}