{
  "version": "v67",
  "base_version": "v66",
  "round_id": 185,
  "aggregation": "fedavg",
  "averaged_weight_delta": [
    [
      0.0005480274558067322,
      0.0001347661018371582,
      0.0003306195139884949,
      0.000253552570939064,
      0.025584878399968147,
      0.000799223780632019,
      0.019904919900000095,
      0.02409151941537857,
      0.0004888102412223816,
      0.0006580911576747894,
      -3.860890865325928e-05,
      0.000415705144405365,
      -0.013989940285682678,
      -0.01580059714615345,
      -0.028517330065369606,
      -0.029238032177090645,
      -0.0018513370305299759,
      -0.027682892978191376,
      0.005565471947193146,
      -0.02891112118959427,
      -0.029492780566215515,
      -0.029253272339701653,
      -0.02924395352602005,
      -0.02918384224176407,
      -0.0037107914686203003,
      -0.028882771730422974,
      -0.029517509043216705,
      -0.029054544866085052,
      -0.029283659532666206,
      -0.029742591083049774,
      -0.0001275092363357544,
      -0.028208032250404358,
      -0.029726743698120117,
      -0.0004921220242977142,
      -0.016124747693538666,
      -0.000159338116645813,
      -4.426389932632446e-05,
      -0.029668642207980156,
      -0.023661822080612183,
      -0.00039141997694969177,
      0.029936708509922028,
      0.005607740953564644,
      0.014854922890663147,
      0.0037072375416755676,
      -0.00026179850101470947,
      0.01584365963935852,
      0.002030797302722931,
      0.001521177589893341,
      0.0011945422738790512,
      0.029675224795937538,
      -0.01778291165828705,
      0.011785902082920074,
      0.02937234938144684,
      0.013265110552310944,
      -0.019558891654014587,
      -0.020462431013584137,
      0.017007999122142792,
      0.000881679356098175,
      0.011375710368156433,
      -0.0006900085136294365,
      -0.0017327405512332916,
      -0.023416951298713684,
      0.004936506971716881,
      -0.016894899308681488,
      -0.00018646568059921265,
      0.019669309258461,
      -0.01882120966911316,
      -0.014444336295127869,
      -0.01202431321144104,
      0.00010329950600862503,
      -0.004477009177207947,
      -0.029899781569838524,
      -0.029408320784568787,
      -0.029748529195785522,
      -0.029242539778351784,
      -0.0002617090940475464,
      -0.029979504644870758,
      -0.02147398144006729,
      -0.029908590018749237,
      -0.0297292061150074,
      -0.004642032086849213,
      -0.00014528632164001465,
      0.02896733582019806,
      0.02325030043721199,
      0.00026614777743816376,
      -0.0010579675436019897,
      -0.029255756177008152,
      -0.001788657158613205,
      -0.028580695390701294,
      0.025346577167510986,
      -0.028901249170303345,
      -0.02915791142731905,
      -0.02909233793616295,
      -0.028423801064491272,
      -0.029015451669692993,
      -0.023706508800387383,
      -0.029642604291439056,
      -0.00218026340007782,
      -0.0287078395485878,
      -0.028784550726413727,
      0.016142990440130234,
      -0.00029232725501060486,
      0.0007215477526187897,
      0.00010798871517181396,
      2.913177013397217e-06,
      -0.011200813576579094,
      -1.8946826457977295e-05,
      -0.00493480172008276,
      6.012618541717529e-06,
      -0.00031356513500213623,
      -0.02726246789097786,
      -8.58306884765625e-05,
      0.02977266162633896,
      0.004597339779138565,
      0.0021014418452978134,
      -0.020771145820617676,
      -0.0002693086862564087,
      -0.02440883219242096,
      -0.016968831419944763,
      -0.01965225487947464,
      -0.014253810048103333,
      -0.0015892423689365387,
      -0.023804064840078354,
      9.070523083209991e-05,
      7.947906851768494e-05,
      -0.029484570026397705,
      -0.027436346746981144,
      -1.4964491128921509e-05,
      -3.1754374504089355e-05,
      -0.0007951091974973679,
      0.01470974087715149,
      -0.022285297513008118,
      -0.028533171862363815,
      -0.02800890803337097,
      0.024461377412080765,
      0.029928959906101227,
      -0.010975506156682968,
      0.0030289292335510254,
      0.017703304067254066,
      0.007015842013061047,
      -0.0296845193952322,
      -0.02948455512523651,
      -0.027531301602721214,
      -0.029587969183921814,
      -0.023553586564958096,
      0.016690388321876526,
      -0.029795974493026733,
      -0.00678880512714386,
      -0.028789445757865906,
      -0.029124543070793152,
      0.017915725708007812,
      -0.01832006126642227,
      0.007813207805156708,
      -0.015054002404212952,
      0.0030475035309791565,
      -0.0029015690088272095,
      -0.0217219740152359,
      0.029908178374171257,
      -0.021219156682491302,
      0.004835503175854683,
      -0.024647172540426254,
      -0.028452862054109573,
      1.4871358871459961e-05,
      -0.02940049860626459,
      -0.028610970824956894,
      -0.028050106018781662,
      -0.029456011950969696,
      -0.0003224983811378479,
      -0.029247485101222992,
      -0.01627904176712036,
      0.02944003138691187,
      0.0175991952419281,
      0.017026960849761963,
      0.017207667231559753,
      0.02868069987744093,
      0.02945733070373535,
      0.029367737472057343,
      0.0290999636054039,
      0.029267214238643646,
      0.02821981906890869,
      6.826594471931458e-05,
      -0.00014738738536834717,
      0.007429249584674835,
      -0.00027144886553287506,
      0.014535866677761078,
      0.0002200426533818245,
      0.00040239840745925903,
      0.00012783333659172058,
      -0.0001800060272216797,
      -7.610395550727844e-05,
      0.028721831738948822,
      0.028874244540929794,
      0.028634320944547653,
      0.028965799137949944,
      0.011828579008579254,
      0.029410744085907936,
      0.029691070318222046,
      0.028876276686787605,
      0.029227541759610176,
      0.02896196022629738,
      -0.0017516463994979858,
      -0.01763357548043132,
      -0.0006186645478010178,
      -0.00015210174024105072,
      -0.004981659352779388,
      9.939447045326233e-05,
      -0.012155279517173767,
      -0.028113536536693573,
      -2.2709369659423828e-05,
      -0.02303483337163925,
      4.510954022407532e-05,
      6.51925802230835e-06,
      0.00015195831656455994,
      -1.602061092853546e-05,
      0.00015744566917419434,
      0.0004869624972343445,
      3.6135315895080566e-07,
      3.9093196392059326e-05,
      -8.003506809473038e-05,
      -1.049041748046875e-05,
      0.017970621585845947,
      -0.00014599785208702087,
      -0.027950897812843323,
      -6.665289402008057e-05,
      -0.004592277109622955,
      -0.0005495809018611908,
      0.0013593658804893494,
      0.00013662874698638916,
      0.0005467869341373444,
      0.00014916062355041504,
      -0.029562026262283325,
      -0.029588705860078335,
      -0.02998262271285057,
      -0.02990308403968811,
      -0.0034511499106884003,
      -0.001836143434047699,
      -0.02873416244983673,
      -0.02972446382045746,
      -0.004419475793838501,
      -0.02992675080895424,
      0.0030647404491901398,
      0.005675889551639557,
      0.00041096750646829605,
      0.002981409430503845,
      0.01719515398144722,
      0.0019328780472278595,
      0.01431310921907425,
      0.0011171400547027588,
      0.008195523172616959,
      0.004492759704589844,
      -0.00020873360335826874,
      -0.026913460344076157,
      -0.02899910882115364,
      -0.01318366453051567,
      -0.0013983137905597687,
      -0.0034440383315086365,
      0.0015756413340568542,
      -0.0017139613628387451,
      -0.00742696225643158,
      0.0011451691389083862,
      9.852461516857147e-05,
      6.966292858123779e-05,
      -0.0002580881118774414,
      2.6211142539978027e-05,
      -0.0003912001848220825,
      8.458271622657776e-05,
      0.00638476200401783,
      -8.05594027042389e-06,
      0.001120327040553093,
      1.6048550605773926e-05,
      0.00014632195234298706,
      -0.019331634044647217,
      -0.001298513263463974,
      -0.023298054933547974,
      -0.0009505376219749451,
      0.002701401710510254,
      -0.009928062558174133,
      -0.028821498155593872,
      -0.02759716473519802,
      0.00032014399766921997,
      -0.0282132625579834,
      0.014756493153981864,
      -0.029804375022649765,
      -0.028926651924848557,
      -0.0029796212911605835,
      -0.02475614845752716,
      0.0014819502830505371,
      -0.0008296221494674683,
      0.0004460923373699188,
      -0.006057302467525005,
      0.015338554978370667,
      0.029940813779830933,
      0.021131375804543495,
      0.028387639671564102,
      0.029132045805454254,
      -0.0005406588315963745,
      0.029523462057113647,
      0.0294712595641613,
      0.02947230637073517,
      0.02789328619837761,
      -0.015724264085292816,
      6.237626075744629e-05,
      0.0002794712781906128,
      0.02637542597949505,
      -0.004056498408317566,
      -0.027376532554626465,
      0.0017993375658988953,
      -0.0006787888705730438,
      0.015427477657794952,
      -0.026390105485916138,
      -0.0008423514664173126,
      2.0802021026611328e-05,
      -0.0013474896550178528,
      1.9496306777000427e-05,
      -0.026020143181085587,
      -9.906291961669922e-05,
      6.136484444141388e-05,
      -2.1345913410186768e-06,
      -0.0012252070009708405,
      -0.0013246536254882812
    ],
    [
      0.028419241309165955,
      0.001252615824341774,
      0.0011194385588169098,
      0.029763508588075638,
      -0.024987689219415188,
      -0.0073759404476732016,
      0.013869853457435966,
      0.009960663504898548,
      0.02605580724775791,
      -0.02757947612553835,
      -0.0013137031346559525,
      -0.025110230781137943,
      0.013593009440228343,
      -0.029154992662370205,
      0.0008083684369921684,
      -0.026929744519293308,
      -0.028964268043637276,
      0.027781780809164047,
      -0.0009435378015041351,
      -0.0288881603628397,
      0.013881880324333906,
      0.02853131853044033,
      0.028126481920480728,
      0.0011058785021305084,
      0.0023513101041316986,
      0.0002873716875910759,
      0.029802750796079636,
      0.0006144512444734573,
      0.0056343842297792435,
      -9.05301421880722e-05,
      0.0009737098589539528,
      0.029756025411188602
    ],
    [
      0.0013835188001394272,
      0.0031433086842298508,
      -0.025936737656593323,
      -0.02786226198077202,
      0.0019905120134353638,
      0.00247965008020401,
      -0.027990663424134254,
      -0.028433673083782196,
      -3.495439887046814e-05,
      0.003481753170490265,
      0.029584169387817383,
      0.0021871328353881836,
      -0.026506811380386353,
      0.0042894333600997925,
      9.828247129917145e-05,
      0.0027679651975631714,
      -0.011022515594959259,
      0.0029338952153921127,
      -0.02443140372633934,
      0.0010504946112632751,
      -0.012209910899400711,
      -0.028696770779788494,
      -0.028287146240472794,
      -0.02670949697494507,
      0.0019574034959077835,
      -0.02486468479037285,
      -0.024412019178271294,
      0.0015696883201599121,
      -0.02827509120106697,
      0.02894098311662674,
      -0.027263587340712547,
      -0.01670265384018421,
      -0.012807071208953857,
      0.003359897993505001,
      -0.026406198740005493,
      -0.026341941207647324,
      0.0036145877093076706,
      0.0038346685469150543,
      -0.026040375232696533,
      0.025437287986278534,
      -0.004995439201593399,
      0.0030198246240615845,
      0.02529946342110634,
      0.003695480525493622,
      -0.027304403483867645,
      0.0034219492226839066,
      -0.0039726365357637405,
      0.004968630149960518,
      0.0036152852699160576,
      0.003238316625356674,
      -0.0002640495076775551,
      -0.004376545548439026,
      0.003970153629779816,
      -0.026053670793771744,
      -0.026136226952075958,
      -0.02674170769751072,
      0.003886450082063675,
      -0.02594882622361183,
      -0.011468041688203812,
      0.0038281306624412537,
      -0.004928291775286198,
      0.02299699280411005,
      -0.02592780813574791,
      -0.01956479251384735,
      -0.02971871942281723,
      -0.028975745663046837,
      0.0047126710414886475,
      0.00012119859457015991,
      -0.02816376369446516,
      -0.02849021553993225,
      0.0003853272646665573,
      -0.026721909642219543,
      0.029670674353837967,
      -0.028776459395885468,
      4.816800355911255e-05,
      -0.027605846524238586,
      -0.02852006908506155,
      -0.028096134774386883,
      -0.022565731778740883,
      -0.028555567376315594,
      -0.029022831469774246,
      -0.02922230213880539,
      -0.01327235996723175,
      -2.8146430850028992e-05,
      -0.029351741075515747,
      -0.02939543779939413,
      0.00016524642705917358,
      0.000494898296892643,
      -0.02791978232562542,
      0.02875007688999176,
      -0.0295167937874794,
      -0.029008799232542515,
      0.002057197503745556,
      0.00019003823399543762,
      -0.029511112719774246,
      -0.0283152274787426,
      0.002240050584077835,
      0.005200313404202461,
      0.000688411295413971,
      0.00387699156999588,
      -0.02600851282477379,
      -0.02641742303967476,
      0.0013491511344909668,
      -0.013283845037221909,
      0.029962442815303802,
      -0.01566692441701889,
      0.0003611855208873749,
      -0.026250319555401802,
      0.0016915090382099152,
      -0.025904472917318344,
      0.008998654782772064,
      -0.025125309824943542,
      -0.026009775698184967,
      -0.027985453605651855,
      0.002672158181667328,
      0.01422908529639244,
      -0.01025603711605072,
      0.001751696690917015,
      0.0037928111851215363,
      0.0034977085888385773,
      -0.02610350400209427,
      0.013141468167304993,
      0.003703370690345764,
      0.00035019218921661377,
      0.003373861312866211,
      0.028929978609085083,
      0.0027362555265426636,
      -0.017659254372119904,
      -0.02943524718284607,
      -0.02925087045878172,
      -0.02962549775838852,
      -0.029254715889692307,
      -0.001667773351073265,
      -0.007976308465003967,
      -0.0006644204258918762,
      -0.028894811868667603,
      -0.02932216227054596,
      -0.029278559610247612,
      -0.02927711419761181,
      -0.002383992075920105,
      -0.02927526831626892,
      -0.0026977472007274628,
      -0.02968333661556244,
      -0.0003978163003921509,
      -0.029419980943202972,
      -0.0027060285210609436,
      -0.029313944280147552,
      -0.0290991123765707,
      -0.0023946240544319153,
      -0.014677822589874268,
      -0.029107823967933655,
      -0.0147501640021801,
      -0.028690718114376068,
      -0.028935201466083527,
      -0.027857422828674316,
      -0.007816098630428314,
      -0.02913597133010626,
      -0.02922772616147995,
      -0.0021036118268966675,
      -0.0011948272585868835,
      0.0036142710596323013,
      0.02972627431154251,
      0.029796306043863297,
      0.02933153510093689,
      0.000514250248670578,
      0.00026886165142059326,
      0.029600856825709343,
      -0.0013003116473555565,
      -4.986673593521118e-05,
      0.0005208700895309448,
      -0.013304155319929123,
      0.00024698860943317413,
      0.029754603281617165,
      0.00018809735774993896,
      0.02615242265164852,
      0.00034489110112190247,
      0.0009216386824846268,
      0.0005346406251192093,
      0.025002889335155487,
      0.019287428818643093,
      0.0016519352793693542,
      0.029995735734701157,
      0.029542777687311172,
      0.029648080468177795,
      -0.0003461018204689026,
      0.02709292620420456,
      0.029809268191456795,
      0.0004285983741283417,
      0.02669114898890257,
      -0.01190178096294403,
      0.029950391501188278,
      0.0021376358345150948,
      0.02982914447784424,
      0.029392510652542114,
      -0.00018384680151939392,
      8.677691221237183e-05,
      0.03004501946270466,
      0.029893040657043457,
      8.842907845973969e-05,
      0.0006113350391387939,
      -0.029966991394758224,
      0.029940657317638397,
      8.888542652130127e-06,
      0.029719632118940353,
      6.258487701416016e-07,
      0.029826952144503593,
      -0.007496309466660023,
      0.02987171709537506,
      0.029888618737459183,
      0.030027538537979126,
      -0.00020332634449005127,
      -0.029293760657310486,
      0.029904842376708984,
      1.1943280696868896e-05,
      -0.013959746807813644,
      -0.026390861719846725,
      0.029664725065231323,
      -0.029685165733098984,
      0.0021969303488731384,
      0.02980339713394642,
      -0.010867778211832047,
      -0.0011013522744178772,
      0.00028139539062976837,
      0.006902158260345459,
      -0.0007423609495162964,
      0.0045059192925691605,
      0.0005501657724380493,
      3.159046173095703e-06,
      -0.001278577372431755,
      -0.0008340226486325264,
      -0.0004988089203834534,
      0.009017981588840485,
      0.007080346345901489,
      -0.006732303649187088,
      0.028689974918961525,
      -0.006550367921590805,
      -0.0007910951972007751,
      0.00016647577285766602,
      0.005926777608692646,
      0.0002895873039960861,
      0.00024269521236419678,
      -0.0009559374302625656,
      0.0005486980080604553,
      0.028867339715361595,
      -3.717467188835144e-05,
      -0.015993881970643997,
      -0.006650332361459732,
      0.0008274354040622711,
      -0.0010365992784500122,
      0.0055379681289196014,
      -0.01502535492181778,
      -0.00019767135381698608,
      0.000822361558675766,
      0.028526075184345245,
      2.790987491607666e-05,
      -0.0010948758572340012,
      0.0003388747572898865,
      0.002184459939599037,
      0.02874758280813694,
      0.0015246309340000153,
      -0.026812899857759476,
      -0.014401011168956757,
      4.686415195465088e-06,
      -0.0004250369966030121,
      0.029899373650550842,
      -0.029625099152326584,
      -0.00027792900800704956,
      -0.02713802643120289,
      8.876994252204895e-05,
      -0.01943075843155384,
      0.029233526438474655,
      -0.029467863962054253,
      -0.02867388352751732,
      -0.029906556010246277,
      0.005424655973911285,
      0.029521374963223934,
      -7.871538400650024e-06,
      4.827976226806641e-06,
      0.029655195772647858,
      0.02830536663532257,
      -0.012649588286876678,
      0.02990397159010172,
      0.02983524650335312,
      -0.01765548437833786,
      0.029618050903081894,
      0.022798857651650906,
      -2.687796950340271e-05,
      0.007760107517242432,
      0.001891985535621643,
      0.027007602155208588,
      0.000572708435356617,
      0.0019883736968040466,
      0.003775162622332573,
      0.017501717433333397,
      0.0010214932262897491,
      -0.012665931135416031,
      -0.029235605150461197,
      0.029344099573791027,
      -0.027626991271972656,
      0.02961988002061844,
      0.0005940794944763184,
      0.029272325336933136,
      -0.008129164576530457,
      0.02880743518471718,
      0.029845962300896645,
      0.0005586259067058563,
      -0.0017853975296020508,
      -0.026237472891807556,
      0.0018618237227201462,
      0.029899289831519127,
      0.0016462616622447968,
      0.0007900036871433258,
      0.028859034180641174,
      -0.02898065559566021,
      0.029818852432072163,
      0.028718559071421623,
      -0.027966290712356567,
      -0.029647361487150192,
      0.0016539031639695168,
      0.015443012118339539,
      0.00024307332932949066,
      -0.029248373582959175,
      0.0006574671715497971,
      0.0004602726548910141,
      -0.02902737259864807,
      -0.029321681708097458,
      0.00035544484853744507,
      -0.02896542102098465,
      0.029906459152698517,
      -0.028749331831932068,
      -0.012015022337436676,
      -0.02908487617969513,
      0.000361856073141098,
      -0.029053397476673126,
      0.0006034933030605316,
      -0.029034294188022614,
      -0.02951231598854065,
      -0.029265988618135452,
      -0.0009573996067047119,
      7.576495409011841e-05,
      -0.0007696561515331268,
      0.00020590424537658691,
      0.00024463236331939697,
      0.0009211916476488113,
      -0.029410241171717644,
      0.0002220161259174347,
      0.0002606809139251709,
      -0.029267802834510803,
      0.0003741476684808731,
      -0.029372289776802063,
      0.00032229162752628326,
      0.00044357776641845703,
      0.02891935408115387,
      0.029654499143362045,
      0.030013198032975197,
      0.029759645462036133,
      0.02105095610022545,
      0.01657719910144806,
      0.029845036566257477,
      0.025105182081460953,
      0.00023686513304710388,
      0.029114343225955963,
      0.012022987008094788,
      0.000842314213514328,
      0.02991723921149969,
      -2.2659078240394592e-05,
      0.02701977640390396,
      -0.00022004544734954834,
      0.0008995756506919861,
      0.026462428271770477,
      0.02857978269457817,
      0.020842809230089188,
      0.02989637479186058,
      0.02971454430371523,
      0.029974499717354774,
      0.02978699281811714,
      0.001058276742696762,
      0.006308918818831444,
      0.0166766494512558,
      -0.0004160497337579727,
      0.029303462244570255,
      9.116530418395996e-05,
      0.029908854514360428,
      0.029985055327415466,
      0.015020668506622314,
      -0.015003293752670288,
      0.01499771885573864,
      0.004071839153766632,
      0.0008563091978430748,
      -0.026739444583654404,
      0.013775862753391266,
      -0.025153785943984985,
      0.0018089348450303078,
      -0.028648756444454193,
      -0.010266132652759552,
      0.0030182935297489166,
      0.015019319951534271,
      -0.015024326741695404,
      -0.020813774317502975,
      -0.0280140433460474,
      -0.027229830622673035,
      -0.014998003840446472,
      0.0025089681148529053,
      -0.003676561638712883,
      0.0013363342732191086,
      0.008852824568748474,
      0.0027790702879428864,
      0.002435520524159074,
      -0.0271002147346735,
      0.004026031121611595,
      0.00398368202149868,
      -0.025085395202040672,
      0.003819979727268219,
      -0.015009485185146332,
      0.015017777681350708,
      0.0014396235346794128,
      0.02988150343298912,
      1.771003007888794e-05,
      0.029718047007918358,
      0.029796160757541656,
      0.00039993226528167725,
      6.213225424289703e-05,
      0.029916031286120415,
      -0.021567627787590027,
      1.6711652278900146e-05,
      0.0018458813428878784,
      -0.018298707902431488,
      0.0009688809514045715,
      0.029800958931446075,
      -0.0004146769642829895,
      -8.954014629125595e-05,
      -0.0003183335065841675,
      0.0019707437604665756,
      0.0009553655982017517,
      0.023873798549175262,
      0.00017180107533931732,
      0.01779896952211857,
      0.029552601277828217,
      0.0049031637609004974,
      0.02322593331336975,
      -6.906501948833466e-05,
      0.029469963163137436,
      0.02987823262810707,
      -0.003180813044309616,
      3.7550926208496094e-06,
      -0.0006032362580299377,
      0.02988307923078537,
      0.02907624840736389,
      -0.017858128994703293,
      -0.0014957264065742493,
      -0.029846936464309692,
      -0.010343246161937714,
      0.02785942703485489,
      0.02084086835384369,
      6.978772580623627e-05,
      -1.7813406884670258e-05,
      -0.029651425778865814,
      0.01822882890701294,
      2.0528212189674377e-05,
      0.023768995888531208,
      -0.026929784566164017,
      0.0014203861355781555,
      -0.02969309687614441,
      0.0010770848020911217,
      0.025972440838813782,
      0.004863131791353226,
      -0.011261232197284698,
      -0.02702462673187256,
      0.01745428517460823,
      4.3526291847229004e-05,
      -0.027739375829696655,
      -0.027699608355760574,
      0.0006139194592833519,
      -0.029749724082648754,
      -0.02931772544980049,
      0.0006851926445960999,
      -0.02919638901948929,
      -0.0014128293842077255,
      0.0001865951344370842,
      -0.028885457664728165,
      0.03001446556299925,
      0.02309144288301468,
      0.02995468210428953,
      0.0291086807847023,
      0.029098626226186752,
      0.022075297310948372,
      0.02996901422739029,
      4.7363340854644775e-05,
      3.4227967262268066e-05,
      0.029826005920767784,
      -2.9034912586212158e-05,
      0.028217270970344543,
      0.017592646181583405,
      -0.00010371208190917969,
      0.004818927496671677,
      -0.024376271292567253,
      0.02241094782948494,
      0.008074112236499786,
      0.009816579520702362,
      0.0009271688759326935,
      0.029981005936861038,
      0.03001108393073082,
      0.017035312950611115,
      0.014080561697483063,
      0.02516821026802063,
      0.00010535866022109985,
      0.029989471659064293,
      -0.0007311105728149414,
      0.001620301976799965,
      9.213387966156006e-05,
      0.030005790293216705,
      0.029643788933753967,
      -0.0003513842821121216,
      -0.021913286298513412,
      0.002397298812866211,
      0.0007641240954399109,
      -0.028555814176797867,
      -0.027265973389148712,
      0.00034303031861782074,
      -0.0003721565008163452,
      0.029914051294326782,
      -0.028873689472675323,
      0.0011118873953819275,
      -0.02832822874188423,
      0.0044831447303295135,
      -0.027556799352169037,
      0.028666533529758453,
      -0.026490896940231323,
      -0.028062112629413605,
      -0.02906242571771145,
      0.009583529084920883,
      0.029664233326911926,
      -0.02870524674654007,
      0.0003603752702474594,
      0.007397450506687164,
      0.002544112503528595,
      -0.024622566998004913,
      0.02934580296278,
      0.004020988941192627,
      -0.02107270434498787,
      0.029749296605587006,
      3.2164156436920166e-05,
      0.0002229548990726471,
      0.002783428877592087,
      0.02994867041707039,
      0.029074545949697495,
      0.029496021568775177,
      0.029790177941322327,
      -9.390711784362793e-05,
      0.00013697519898414612,
      0.029896467924118042,
      5.7442113757133484e-05,
      -4.45069745182991e-05,
      0.0003227442502975464,
      -0.022499095648527145,
      -0.00029402971267700195,
      0.02988581359386444,
      -0.0006378814578056335,
      0.001147538423538208,
      -0.0002867579460144043,
      0.029446173459291458,
      0.0005646347999572754,
      0.021534860134124756,
      -0.00018315017223358154,
      0.029666089452803135,
      0.02996218018233776,
      0.02992376685142517,
      0.029446395114064217,
      0.012017946690320969,
      0.0002405792474746704,
      0.02970953844487667,
      -0.0007319208234548569,
      5.829334259033203e-05,
      -0.013675248250365257,
      0.029930979013442993,
      0.02988453209400177,
      -0.015032224357128143,
      0.029979826882481575,
      8.659437298774719e-05,
      0.0031598061323165894,
      -0.02850773185491562,
      -0.02581475768238306,
      0.0016956813633441925,
      0.007698895409703255,
      0.030003619380295277,
      -0.01906922459602356,
      0.0011199042201042175,
      -0.02674029767513275,
      0.025769290514290333,
      -0.022586539387702942,
      0.01151306927204132,
      -0.021529778838157654,
      -0.008361884392797947,
      -0.02823506109416485,
      0.015584925189614296,
      0.029497668147087097,
      -0.025394611060619354,
      0.004370048642158508,
      0.0036018341779708862,
      0.002802295610308647,
      -0.02547566592693329,
      0.028912516310811043,
      0.007900744676589966,
      -6.700307130813599e-05,
      0.029450565576553345,
      0.008267156779766083,
      0.0016210973262786865,
      -0.010429959744215012,
      0.00016827508807182312,
      -0.009918891824781895,
      -0.025912441313266754,
      -0.011525779962539673,
      -0.011114820837974548,
      0.0017029047012329102,
      -0.029055388644337654,
      0.027495059184730053,
      -6.370246410369873e-06,
      0.0049730390310287476,
      0.0003508869558572769,
      -0.02116278186440468,
      -0.0006465278565883636,
      0.002528693526983261,
      0.015034068375825882,
      0.009770378470420837,
      0.0010070949792861938,
      -0.013477087020874023,
      -7.271021604537964e-05,
      0.002495061606168747,
      -0.006642431020736694,
      0.0004056021571159363,
      -0.02751709520816803,
      -0.02608589641749859,
      0.0024313218891620636,
      2.2642314434051514e-05,
      -0.0006941854953765869,
      0.029052548110485077,
      0.0002869218587875366,
      0.012305667623877525,
      0.000562228262424469,
      -0.02616707980632782,
      0.0006414502859115601,
      0.002885952591896057,
      -0.025358468294143677,
      -0.025335291400551796,
      0.0024738386273384094,
      0.003916233777999878,
      -0.027874931693077087,
      0.02966471202671528,
      0.0002863965928554535,
      0.00243174284696579,
      0.028823330998420715,
      0.002256203442811966,
      0.002103421837091446,
      0.003165408968925476,
      -0.0011165663599967957,
      0.006120853126049042,
      0.004197817295789719,
      0.0019483007490634918,
      -0.0012574400752782822,
      0.01004357635974884,
      0.0020901188254356384,
      -0.013078458607196808,
      -0.022983048111200333,
      -0.02659834921360016,
      0.0025688670575618744,
      -0.024930953979492188,
      -0.02201022207736969,
      -0.00015642307698726654,
      -0.00096873939037323,
      0.029618263244628906,
      -0.013219119748100638,
      -0.025909423828125,
      0.027793459594249725,
      0.0013157054781913757,
      0.0013594916090369225,
      -0.0010682418942451477,
      0.02970404550433159,
      0.029772283509373665,
      0.0008263792842626572,
      -0.00012835022062063217,
      -0.029860638082027435,
      -0.00017183832824230194,
      -0.019801951944828033,
      0.027888933196663857,
      -0.0010849051177501678,
      0.029301490634679794,
      0.009321488440036774,
      0.012492131441831589,
      0.028848901391029358,
      0.02994001843035221,
      -0.024911999702453613,
      -0.026244647800922394,
      0.023932537995278835,
      0.025875452905893326,
      -0.007290847599506378,
      0.011656191200017929,
      0.029496323317289352,
      0.0001866500824689865,
      0.00016494188457727432,
      0.028292596340179443,
      -0.019960761070251465,
      -0.00010249018669128418,
      0.02943260222673416,
      0.0004759877920150757,
      0.02959023416042328,
      0.01575459912419319,
      0.028389912098646164,
      0.029820172116160393,
      8.440017700195312e-05,
      -0.01602703332901001,
      0.02987317554652691,
      -0.028013569302856922,
      0.0008686482906341553,
      0.0013698488473892212,
      -0.02953702211380005,
      -0.0007971823215484619,
      0.029941700398921967,
      -0.0012193955481052399,
      -0.02742711827158928,
      -0.001086995005607605,
      0.026135988533496857,
      -0.0002818126231431961,
      0.004796851426362991,
      0.00031925737857818604,
      0.0012831967324018478,
      0.029826536774635315,
      0.008709678426384926,
      0.029149070382118225,
      -0.004165336489677429,
      0.026952743530273438,
      0.029699821025133133,
      -0.014373287558555603,
      0.0002409704029560089,
      -0.028075270354747772,
      0.015428517013788223,
      0.029769301414489746,
      0.029824934899806976,
      0.029730767011642456,
      0.02974153682589531,
      0.0007706210017204285,
      3.1266361474990845e-05,
      -0.0006688311696052551,
      0.029917970299720764,
      -0.029928168281912804,
      0.0001539662480354309,
      0.0272558331489563,
      -0.029816245660185814,
      -0.0003556385636329651,
      0.029985353350639343,
      -0.0001188516616821289,
      0.0002086162567138672,
      -0.0004174979403614998,
      0.016223542392253876,
      -6.32256269454956e-05,
      -0.00037331506609916687,
      -3.6582350730895996e-06,
      0.02937031164765358,
      0.029527248814702034,
      0.005826205015182495,
      0.009651280008256435,
      0.0013986611738801003,
      0.012624435126781464,
      0.029651783406734467,
      -0.025775015354156494,
      1.6940757632255554e-05,
      -0.00047081708908081055,
      0.029343808069825172,
      0.029736770316958427,
      0.00026853010058403015,
      -0.0008744746446609497,
      0.029241494834423065,
      -0.00021628569811582565,
      0.029689917340874672,
      0.029468528926372528,
      1.9177794456481934e-05,
      -0.004622623324394226,
      -0.029903315007686615,
      0.029353465884923935,
      6.912276148796082e-05,
      0.029443547129631042,
      -0.00021614320576190948,
      0.029207874089479446,
      -0.014987416565418243,
      0.02906561642885208,
      0.01598680578172207,
      0.029934793710708618,
      0.0013017691671848297,
      -0.02716100960969925,
      0.029907558113336563,
      0.012577258050441742,
      -0.00018481537699699402,
      -0.0010297540575265884,
      0.028774060308933258,
      -0.01623617112636566,
      0.0005516381934285164,
      0.028816860169172287,
      -0.015881504863500595,
      -0.025697864592075348,
      -3.734603524208069e-05,
      0.02963867224752903,
      -0.0161712858825922,
      -0.014470684225670993,
      -0.02754451334476471,
      -0.02677828073501587,
      -0.0009625405073165894,
      0.0007382482290267944,
      -0.029046304523944855,
      0.0013240613043308258,
      0.0007138475775718689,
      0.0006533190608024597,
      0.007487893104553223,
      0.0007487554103136063,
      -0.027125898748636246,
      0.0009453929960727692,
      -0.007371328771114349,
      0.0007821023464202881,
      0.00036965031176805496,
      -0.00045917555689811707,
      -0.018569231033325195,
      0.002239855006337166,
      -0.013222446897998452,
      -0.01823596586473286,
      -0.02714746817946434,
      -0.021449467167258263,
      0.0002556219696998596,
      -0.026830118149518967,
      -0.01664290949702263,
      0.00018501654267311096,
      -0.025986934080719948,
      0.004042807966470718,
      -0.019529905170202255,
      -0.022354356944561005,
      0.029491662979125977,
      0.02956939861178398,
      0.02796141803264618,
      0.029868749901652336,
      -0.00029227137565612793,
      -8.50483775138855e-05,
      0.029853131622076035,
      -0.011713884770870209,
      8.053891360759735e-05,
      -4.828348755836487e-05,
      -0.02971174567937851,
      -6.569921970367432e-05,
      0.02927779033780098,
      -0.00021816417574882507,
      0.02904815971851349,
      -0.005567729473114014,
      -0.018560584634542465,
      -7.185991853475571e-05,
      0.029713470488786697,
      0.0025394558906555176,
      0.028967161662876606,
      0.029438603669404984,
      0.000477546826004982,
      0.01654057204723358,
      0.015347323380410671,
      0.0022684335708618164,
      0.007496431469917297,
      -0.0007631704211235046,
      0.013709470629692078,
      -0.00038407184183597565,
      0.029967784881591797,
      0.02362428978085518,
      -0.02476811408996582,
      0.0036531835794448853,
      -0.028533823788166046,
      -0.028523143380880356,
      0.0006996467709541321,
      0.00121365487575531,
      -0.029032833874225616,
      0.028544515371322632,
      0.00022993981838226318,
      0.0007840394973754883,
      0.030014395713806152,
      0.0011055618524551392,
      -0.028918970376253128,
      0.0024835988879203796,
      0.013948660343885422,
      0.0025306716561317444,
      0.0009813681244850159,
      0.0004314705729484558,
      -0.010381676256656647,
      0.002490842714905739,
      0.000601157546043396,
      -0.02937217429280281,
      -0.02785194106400013,
      -0.026354428380727768,
      0.0028965845704078674,
      0.0018196552991867065,
      0.00043816864490509033,
      0.028674859553575516,
      -4.995614290237427e-05,
      0.029966216534376144,
      -0.026093579828739166,
      0.000836394727230072,
      0.029944313690066338,
      0.029019393026828766,
      0.029418393969535828,
      0.02990349382162094,
      0.029106657952070236,
      0.0010266723111271858,
      0.029659636318683624,
      -0.01690310169942677,
      1.3671815395355225e-06,
      0.022702671587467194,
      -0.029752545058727264,
      0.0014188047498464584,
      0.029759660363197327,
      0.0005040466785430908,
      0.0011681616306304932,
      -0.00039665400981903076,
      0.029711922630667686,
      0.00020916759967803955,
      0.025296077132225037,
      -9.547919034957886e-06,
      0.0299462229013443,
      0.029965944588184357,
      0.02951432392001152,
      0.028638191521167755,
      0.02862383797764778,
      -0.00018881075084209442,
      0.0296628400683403,
      -0.00011421740055084229,
      5.9670768678188324e-05,
      -0.0002368474379181862,
      0.029966089874505997,
      0.010432861745357513,
      6.943009793758392e-05,
      0.0010739713907241821,
      0.0006468258798122406,
      0.0007042009383440018,
      -0.0010468363761901855,
      -0.0290890634059906,
      0.0002893209457397461,
      0.028226330876350403,
      0.029986068606376648,
      0.00046660006046295166,
      0.02836019918322563,
      -0.0005210712552070618,
      0.000551324337720871,
      -0.009443890303373337,
      0.01632789522409439,
      -0.015946490690112114,
      -0.004306264221668243,
      -0.02586090750992298,
      0.005620550364255905,
      0.029862869530916214,
      -0.0006530042737722397,
      0.0001053735613822937,
      0.0019431468099355698,
      0.0015302440151572227,
      0.0002834126353263855,
      0.02932661771774292,
      0.001187056303024292,
      -0.02345990762114525,
      0.02913285791873932,
      0.029949359595775604,
      0.00028111040592193604,
      0.0003090500831604004,
      0.029738865792751312,
      -0.0003054961562156677,
      0.027206748723983765,
      0.028732902370393276,
      -9.219907224178314e-05,
      -0.027452781796455383,
      -2.3677945137023926e-05,
      -0.011828288435935974,
      -0.00020328164100646973,
      -0.0006789974868297577,
      -0.02986309677362442,
      -3.262236714363098e-05,
      4.587322473526001e-05,
      -0.00025815702974796295,
      -0.029915954917669296,
      -0.0003174673765897751,
      -0.013789013028144836,
      0.0001353193074464798,
      -0.0036532171070575714,
      -0.029760271310806274,
      0.0003540143370628357,
      -5.128979682922363e-05,
      0.029747874476015568,
      -0.005403384566307068,
      -0.02920958399772644,
      -0.0004697628319263458,
      0.022071201354265213,
      -0.0007978640496730804,
      -0.0014351140707731247,
      -0.02983126789331436,
      0.02933338563889265,
      0.0001804828643798828,
      -0.02755644917488098,
      -0.015674814581871033,
      -0.020971283316612244,
      0.00015092454850673676,
      -0.027213620021939278,
      -0.026405541226267815,
      -0.0013238666579127312,
      0.001149006187915802,
      0.0280420184135437,
      0.0007674992084503174,
      0.0014593442901968956,
      -0.026613183319568634,
      -0.0016981111839413643,
      0.00937647931277752,
      0.027759983204305172,
      -0.0254850834608078,
      -0.027492977678775787,
      -0.027432508766651154,
      0.002686471678316593,
      0.0011360598728060722,
      -0.0270891971886158,
      -0.02850901521742344,
      -0.0014705322682857513,
      0.0001677386462688446,
      -0.025968676432967186,
      0.002200089395046234,
      0.006173370406031609,
      -0.01210763305425644,
      0.013430863618850708,
      0.027593769133090973,
      -0.026722025126218796,
      -0.001118294894695282
    ],
    [
      0.003221902996301651,
      0.0036329254508018494,
      -0.028224436566233635,
      -0.022555013187229633,
      -0.029698750004172325,
      0.0005195727571845055,
      0.029924611561000347,
      0.0007086070254445076,
      -0.0005754875019192696,
      0.009289620444178581,
      -0.028913145884871483,
      0.029716908931732178,
      -0.02402961067855358,
      0.0063700126484036446,
      7.142405956983566e-05,
      0.029682941734790802,
      -0.01261399406939745,
      0.02910583559423685,
      -0.0139908567070961,
      0.006159897893667221,
      0.0023328103125095367,
      0.027680492028594017,
      -0.01931533357128501,
      0.022292520850896835,
      0.02884508389979601,
      -0.012470846297219396,
      0.024529684334993362,
      0.011396843241527677,
      0.029517780989408493,
      0.002684345468878746,
      -0.0017482293769717216,
      -0.018392815720289946
    ],
    [
      0.024210041388869286,
      0.026953760534524918,
      0.02832203358411789,
      -0.00374767929315567,
      -0.028739141300320625,
      0.029074925929307938,
      0.029940247535705566,
      0.026890026405453682,
      -0.029104522429406643,
      0.01110270619392395,
      6.052479147911072e-05,
      -8.248165249824524e-05,
      -0.025463949888944626,
      0.01656205579638481,
      -0.013310376554727554,
      -0.00084686279296875,
      -0.004837125539779663,
      3.826618194580078e-05,
      0.015770375728607178,
      0.012675207108259201,
      0.026231661438941956,
      0.016853805631399155,
      -0.0038113947957754135,
      -0.00015481561422348022,
      0.028565771877765656,
      0.028834253549575806,
      -0.0009951228275895119,
      0.01818673312664032,
      0.0002940334379673004,
      -0.002071589231491089,
      0.014754801988601685,
      0.016561915166676044
    ],
    [
      0.028642863035202026
    ]
  ],
  "num_updates": 2,
  "client_ids": [
    "client-2",
    "client-1"
  ],
  "mean_final_loss": 6.616726398468018,
  "aggregation_timestamp": 1784209210.7817729
}