{
  "version": "v88",
  "base_version": "v87",
  "round_id": 257,
  "aggregation": "fedavg",
  "averaged_weight_delta": [
    [
      0.0004215911030769348,
      -0.017339952290058136,
      -0.018936671316623688,
      0.0008350759744644165,
      0.0005333609879016876,
      0.00013936124742031097,
      0.0006513297557830811,
      -0.023456301540136337,
      0.00022271275520324707,
      0.0007173717021942139,
      -0.00030887871980667114,
      7.986463606357574e-05,
      -0.00028103217482566833,
      -0.00045761838555336,
      0.00016348063945770264,
      0.001838788390159607,
      -0.00011283159255981445,
      1.4333054423332214e-05,
      -4.803761839866638e-06,
      0.00025925785303115845,
      -0.02867552638053894,
      -0.029541708528995514,
      -0.028918283060193062,
      -0.028803471475839615,
      -7.567740976810455e-05,
      -0.0003832792863249779,
      -0.01669463701546192,
      -0.014698728919029236,
      -0.026561781764030457,
      -0.02524140104651451,
      0.012508098036050797,
      0.029313815757632256,
      0.029016412794589996,
      3.8817524909973145e-05,
      0.004469146952033043,
      0.028392702341079712,
      0.024452079087495804,
      0.02893124520778656,
      0.029486052691936493,
      0.02868928760290146,
      0.02936197817325592,
      0.026916131377220154,
      0.029845546931028366,
      0.02826300449669361,
      0.029078025370836258,
      0.014480208978056908,
      0.011334253940731287,
      0.02968689426779747,
      0.029855947941541672,
      0.02821927424520254,
      -0.00023864582180976868,
      -0.01392141729593277,
      -0.01999661698937416,
      -0.029352402314543724,
      -0.02861768752336502,
      -0.009963566437363625,
      -0.018480509519577026,
      -0.026253830641508102,
      0.006588667631149292,
      -0.02146659791469574,
      -0.028971657156944275,
      -0.011848263442516327,
      -0.01565643399953842,
      -0.02393927238881588,
      -0.024365171790122986,
      -0.0017754621803760529,
      0.013743165880441666,
      -0.021092496812343597,
      -0.028077756986021996,
      -0.0011481568217277527,
      -0.02921837940812111,
      -0.02904263138771057,
      -0.02940157800912857,
      -0.029098067432641983,
      -0.029283151030540466,
      -0.02760329842567444,
      -0.028613239526748657,
      -0.02855442464351654,
      -0.027654772624373436,
      -0.02866765297949314,
      -0.017386406660079956,
      -0.0002984479069709778,
      -0.0052061788737773895,
      -0.029596906155347824,
      -0.028056614100933075,
      -0.019811972975730896,
      -0.00019363686442375183,
      -0.028563352301716805,
      -0.0001104697585105896,
      -0.020703814923763275,
      3.9126724004745483e-05,
      -0.029563828371465206,
      -0.028307026252150536,
      -0.025872199796140194,
      -0.024711593985557556,
      0.023606786504387856,
      0.000660628080368042,
      -0.02922690659761429,
      -0.02949487417936325,
      -0.02934895735234022,
      0.029599279165267944,
      0.0007246676832437515,
      0.0007543861865997314,
      -2.125650644302368e-05,
      -0.00013391301035881042,
      0.00017564930021762848,
      0.0001040920615196228,
      0.0005998788401484489,
      1.3742595911026001e-05,
      0.0001339949667453766,
      -0.00012812763452529907,
      0.00032810866832733154,
      0.0004807189106941223,
      0.014555051922798157,
      -0.00021861493587493896,
      0.0008212700486183167,
      0.00026828423142433167,
      0.00036987941712141037,
      0.00038258545100688934,
      -0.0001586228609085083,
      -0.0006475877016782761,
      -0.01733267493546009,
      0.01501108705997467,
      -0.0168367400765419,
      -0.0004280470311641693,
      -0.011130125261843204,
      3.4943222999572754e-05,
      -0.023607049137353897,
      -0.012912005186080933,
      -0.0002143755555152893,
      0.0007337629795074463,
      0.000839676707983017,
      0.029617607593536377,
      0.008497297763824463,
      -0.023063495755195618,
      -0.0279659703373909,
      0.0026542097330093384,
      0.0004697311669588089,
      0.0018989965319633484,
      -0.002428308129310608,
      -0.00023105740547180176,
      0.02889883518218994,
      -0.00011771265417337418,
      -0.016987118870019913,
      0.0004123002290725708,
      0.012915936298668385,
      0.017919141799211502,
      -7.665157318115234e-05,
      0.0003833398222923279,
      0.0272260420024395,
      -0.013861177954822779,
      -0.027322612702846527,
      -0.025332827121019363,
      -0.028976991772651672,
      -0.025057625025510788,
      -0.025964276865124702,
      -0.025997785851359367,
      -0.02961886301636696,
      -0.02585010975599289,
      -0.021456271409988403,
      -0.029556037858128548,
      -0.02953735738992691,
      -0.023926742374897003,
      -0.02865736186504364,
      -0.0006968379020690918,
      -0.029107697308063507,
      -0.028810255229473114,
      -0.02895299345254898,
      -0.02916809916496277,
      -0.029617253690958023,
      -0.030010685324668884,
      -0.02887808531522751,
      -0.01202046126127243,
      -0.029673399403691292,
      -0.028016296215355396,
      -0.02911398559808731,
      -0.02901560440659523,
      -0.029920093715190887,
      -0.029439859092235565,
      -0.028135589323937893,
      -0.00010022521018981934,
      0.015368416905403137,
      0.0001768479123711586,
      0.00012069381773471832,
      0.012949712574481964,
      0.001404397189617157,
      0.006171751767396927,
      0.0018400251865386963,
      0.0018202178180217743,
      0.004342526197433472,
      -0.02505439892411232,
      -0.0005638450384140015,
      -0.016920015215873718,
      -0.029382038861513138,
      -0.026335583999753,
      -0.02154409885406494,
      0.002076461911201477,
      -0.010041344910860062,
      -0.011412778869271278,
      -0.0008864551782608032,
      0.017442762851715088,
      0.0038290172815322876,
      0.029387950897216797,
      0.01156742125749588,
      0.0006681010127067566,
      0.029519738629460335,
      0.029250092804431915,
      0.029193110764026642,
      0.02801569551229477,
      0.003595113754272461,
      -0.0003096163272857666,
      0.000509362667798996,
      0.009469028562307358,
      -0.025299888104200363,
      -0.02803265955299139,
      0.0006283968687057495,
      0.00019291043281555176,
      -0.029288314282894135,
      0.0005104988813400269,
      0.000760003924369812,
      -0.029303178191184998,
      -0.029090698808431625,
      -0.02951403148472309,
      0.01085422933101654,
      -0.017323799431324005,
      -0.024521857500076294,
      -0.02734684944152832,
      -0.029401760548353195,
      -0.028981700539588928,
      -0.029006529599428177,
      -0.029298849403858185,
      -0.029607114382088184,
      -0.016051456332206726,
      -0.02990500908344984,
      -0.00039221346378326416,
      0.008553728461265564,
      -0.028343357145786285,
      -0.02950829640030861,
      -0.029812638647854328,
      -0.02982172742486,
      0.0003910660743713379,
      -0.012726172804832458,
      -0.015038058161735535,
      0.010475252754986286,
      0.0004061684012413025,
      -0.019008448347449303,
      -0.022807873785495758,
      -0.012676382437348366,
      -0.017032722011208534,
      -0.017145991325378418,
      -0.014147384092211723,
      -0.02573011815547943,
      -0.00108274444937706,
      -0.014418214559555054,
      -0.016218602657318115,
      -0.008220870047807693,
      -0.014833560213446617,
      -0.02310977503657341,
      0.004865206778049469,
      -0.026762299239635468,
      -0.01946154236793518,
      -0.029897969216108322,
      -0.017154380679130554,
      -0.02981192246079445,
      -0.0007114633917808533,
      -0.029635600745677948,
      -0.02948947064578533,
      -0.029763245955109596,
      -0.029905572533607483,
      -0.02902619168162346,
      -0.029178626835346222,
      -0.029604265466332436,
      -0.029413899406790733,
      -0.001782914623618126,
      -0.029747435823082924,
      -0.02889868337661028,
      -0.02908417582511902,
      -0.029191020876169205,
      -0.029127024114131927,
      -0.029517225921154022,
      0.00010433513671159744,
      3.599002957344055e-05,
      0.0002389661967754364,
      0.0004916414618492126,
      0.0004545673727989197,
      -0.00011551380157470703,
      -0.00021920353174209595,
      -1.0453164577484131e-05,
      -0.0010093078017234802,
      0.00026442669332027435,
      -0.02801308035850525,
      -0.009029090404510498,
      -0.028680548071861267,
      -0.0279109925031662,
      -0.02856476604938507,
      -0.029357079416513443,
      -0.029429889284074306,
      -0.029313070699572563,
      -0.028155609965324402,
      -0.013404570519924164,
      -0.00011502206325531006,
      -0.015646984800696373,
      -0.026713624596595764,
      -0.013486690819263458,
      -0.013986364006996155,
      0.0059280432760715485,
      0.01646643877029419,
      3.818422555923462e-05,
      0.015270039439201355,
      -0.014271114021539688,
      -0.02929098904132843,
      -0.028795458376407623,
      -0.016864173114299774,
      -0.029084164649248123,
      -0.028962887823581696,
      -0.027746863663196564,
      -0.027852535247802734,
      -0.02911633625626564,
      -0.02815514151006937,
      -0.02913603186607361
    ],
    [
      0.0003499668091535568,
      0.029035158455371857,
      0.029360098764300346,
      0.0274334829300642,
      -0.00042978301644325256,
      -0.017909539863467216,
      -0.00907125510275364,
      -0.027254275977611542,
      0.029225432313978672,
      -0.025433183647692204,
      -0.000908728688955307,
      0.0018198434263467789,
      0.0005336552858352661,
      0.0004021022468805313,
      0.02687936369329691,
      -0.019806495867669582,
      0.01390387793071568,
      0.00119844451546669,
      0.0005200980231165886,
      3.50121408700943e-05,
      0.0008159708231687546,
      0.0012911073863506317,
      -0.028274567797780037,
      0.03000645712018013,
      -0.016088103409856558,
      -0.01892424328252673,
      0.02979030553251505,
      -0.027429329231381416,
      0.02988680824637413,
      0.00017173588275909424,
      0.017750044586136937,
      -0.0004258072003722191
    ],
    [
      -0.023104943335056305,
      0.0003491416573524475,
      0.0026590805500745773,
      0.00019912421703338623,
      -0.020895138382911682,
      -0.010815391317009926,
      -0.02639559470117092,
      -0.0012003667652606964,
      0.030004363507032394,
      2.034008502960205e-06,
      0.029945675283670425,
      0.0018933899700641632,
      -0.026287242770195007,
      -0.028930649161338806,
      0.0006317868828773499,
      -0.02406354248523712,
      0.02935725450515747,
      0.029971081763505936,
      0.0002453327178955078,
      -0.020988348871469498,
      8.889660239219666e-05,
      -0.028264924883842468,
      0.0002795755863189697,
      0.029999583959579468,
      -0.025292140431702137,
      0.00047338753938674927,
      0.030047068372368813,
      -0.028518758714199066,
      0.00018468499183654785,
      0.000597044825553894,
      7.366389036178589e-05,
      -0.012204809114336967,
      -0.0007594004273414612,
      -0.0004484131932258606,
      -0.011696111410856247,
      0.00038741156458854675,
      -2.318248152732849e-05,
      -0.017778170760720968,
      -0.02747953124344349,
      -0.0007530301809310913,
      0.029836073517799377,
      -0.000577971339225769,
      0.00016267597675323486,
      0.001657232642173767,
      -0.0283946692943573,
      -0.028735346160829067,
      0.00035788118839263916,
      -0.01735854148864746,
      0.02963877096772194,
      0.017822527326643467,
      -0.0017203222960233688,
      -0.018171269446611404,
      0.0009211879223585129,
      -0.02898254059255123,
      0.000843467190861702,
      0.015794369392096996,
      -0.023968281224370003,
      0.0005950629711151123,
      0.029473237693309784,
      -0.026159219443798065,
      0.00030431151390075684,
      -0.026211820542812347,
      0.000619400292634964,
      0.00042815133929252625,
      -0.026647694408893585,
      -0.027041681110858917,
      -0.0019265301525592804,
      -0.02893013507127762,
      -0.028959505259990692,
      0.0009480640292167664,
      -0.02873533684760332,
      -0.027987122535705566,
      0.01873212307691574,
      -0.027788258157670498,
      -0.00023215822875499725,
      -0.025917693972587585,
      0.0003781914710998535,
      -0.027717437595129013,
      -0.02548544853925705,
      -0.025776352733373642,
      0.00015913695096969604,
      0.0003075823187828064,
      -0.028428569436073303,
      -0.027336355298757553,
      -0.028187915682792664,
      -0.022531814873218536,
      -0.02777498960494995,
      0.000891110859811306,
      -0.02902432158589363,
      -0.02817804366350174,
      6.571225821971893e-05,
      -0.02726544439792633,
      -0.004773527383804321,
      0.0002797618508338928,
      -0.003438759595155716,
      -0.028197303414344788,
      0.029433414340019226,
      0.028187494724988937,
      0.024766316637396812,
      0.005440486595034599,
      0.029898136854171753,
      5.964934825897217e-05,
      0.029729321599006653,
      0.029001198709011078,
      -9.231269359588623e-05,
      0.029466141015291214,
      -0.00022825226187705994,
      0.02739143557846546,
      0.029120072722434998,
      0.030013740062713623,
      0.014683064073324203,
      0.00026973336935043335,
      -0.008538153022527695,
      -0.0002009272575378418,
      0.02907736599445343,
      0.029936067759990692,
      0.029054060578346252,
      0.02989178989082575,
      0.02617986500263214,
      -0.02955661714076996,
      0.029915645718574524,
      5.066394805908203e-05,
      -0.0018371809273958206,
      0.029864182695746422,
      -3.636255860328674e-05,
      1.7896294593811035e-05,
      0.014552976936101913,
      0.02062978222966194,
      -0.0003852229565382004,
      5.811266601085663e-05,
      -0.004337042570114136,
      9.509176015853882e-05,
      0.00017932988703250885,
      -0.0006486214697360992,
      0.0006601735949516296,
      0.00016245432198047638,
      -0.029787681996822357,
      0.00023217499256134033,
      -0.0002598315477371216,
      -0.0008061304688453674,
      -3.38628888130188e-05,
      0.00010626763105392456,
      0.00019715074449777603,
      -8.65887850522995e-05,
      -0.029879271984100342,
      -0.029700294137001038,
      0.0005859658122062683,
      7.794424891471863e-05,
      0.00043696723878383636,
      0.0004005357623100281,
      0.00017039477825164795,
      -0.029401416890323162,
      -0.0006733126938343048,
      3.6654993891716003e-05,
      -0.029694944620132446,
      0.00024088099598884583,
      0.029591228812932968,
      -0.003168053925037384,
      0.0001549646258354187,
      0.0015914207324385643,
      0.0005433987826108932,
      0.030047252774238586,
      0.015778012573719025,
      0.029935814440250397,
      0.029583081603050232,
      0.006147697567939758,
      0.00032005272805690765,
      0.017973802983760834,
      0.0005297809839248657,
      0.029717206954956055,
      0.03002188354730606,
      0.02958676964044571,
      0.0003242865204811096,
      0.00017654523253440857,
      0.02997322380542755,
      0.0008392520248889923,
      -0.0005772337317466736,
      -0.012005090713500977,
      0.030026286840438843,
      0.0049683041870594025,
      0.029918208718299866,
      5.6974589824676514e-05,
      0.02950899675488472,
      0.01066678762435913,
      0.00047474727034568787,
      0.02977471798658371,
      -8.497573435306549e-05,
      0.0011088410392403603,
      0.030021443963050842,
      0.0008206218481063843,
      0.02986922860145569,
      0.010665170848369598,
      -0.027065247297286987,
      -0.02606268972158432,
      -0.018243761733174324,
      -0.02693457528948784,
      -0.02707746997475624,
      0.008178848773241043,
      -0.025408275425434113,
      -0.02822064608335495,
      0.02913600206375122,
      -0.028594963252544403,
      -0.007239466533064842,
      -0.027289878576993942,
      0.0007263049483299255,
      0.0003505926579236984,
      -0.025661639869213104,
      -0.0019151270389556885,
      0.0009912662208080292,
      0.00031964294612407684,
      -0.027463573962450027,
      -0.02750482875853777,
      -0.02827274799346924,
      0.0036410875618457794,
      -0.02661765366792679,
      0.0018771961331367493,
      0.0020741187036037445,
      -0.026450037956237793,
      0.000835830345749855,
      -0.011609641835093498,
      -0.02846380602568388,
      0.01073978841304779,
      -0.02669779770076275,
      -0.028289347887039185,
      0.0003679804503917694,
      -0.02979850023984909,
      -0.0206736633554101,
      -0.028246327303349972,
      -0.027906976640224457,
      -0.018819326534867287,
      0.0004012845456600189,
      -0.027563855051994324,
      0.005836160853505135,
      -0.006204158067703247,
      -0.026031634770333767,
      -0.025897961109876633,
      0.00038590095937252045,
      0.0001856684684753418,
      -0.028780657798051834,
      -0.0011329874396324158,
      0.0008033718913793564,
      0.0033041397109627724,
      -0.02944658324122429,
      -0.00022467970848083496,
      -0.02829429041594267,
      0.0004294067621231079,
      -0.029020309448242188,
      0.0003309324383735657,
      0.00016010552644729614,
      -0.029705166816711426,
      0.0010235235095024109,
      -0.028405465185642242,
      -0.02944750152528286,
      0.004280317574739456,
      -0.02496466040611267,
      -0.0275404192507267,
      0.02689317613840103,
      -0.0009222924709320068,
      0.029415234923362732,
      -0.0005339682102203369,
      0.02774762734770775,
      0.029825923964381218,
      0.01531142182648182,
      0.02754656970500946,
      0.004346773028373718,
      -0.0015710219740867615,
      0.02982211858034134,
      0.029255684465169907,
      0.02927787136286497,
      0.0034015998244285583,
      3.629177808761597e-05,
      0.029715606942772865,
      0.028716841712594032,
      0.029770344495773315,
      0.012446914799511433,
      0.0019913800060749054,
      0.029119983315467834,
      0.015635933727025986,
      -0.029144322499632835,
      2.613849937915802e-05,
      0.02877470850944519,
      -0.02842055168002844,
      0.001096777617931366,
      0.0012725349515676498,
      -0.027432535775005817,
      0.029929757118225098,
      -0.007709350436925888,
      0.0011444687843322754,
      9.301677346229553e-05,
      2.2739171981811523e-05,
      -0.029092110693454742,
      -0.029110148549079895,
      -0.0202744510024786,
      -0.0027466900646686554,
      0.0003255009651184082,
      -0.023495100438594818,
      0.003541942685842514,
      0.0003645867109298706,
      -0.02923725266009569,
      -0.01258387416601181,
      -2.5132670998573303e-05,
      0.0001814570277929306,
      -0.028670890256762505,
      -0.0005157440900802612,
      0.0002149045467376709,
      0.028717555105686188,
      -0.014132730662822723,
      -0.0007555373013019562,
      -0.022589638829231262,
      0.0010978840291500092,
      0.0006886757910251617,
      -0.02634958177804947,
      0.000547848641872406,
      -0.027618981897830963,
      0.01606299914419651,
      -7.337145507335663e-05,
      -0.029590874910354614,
      0.0007662437856197357,
      -0.016453854739665985,
      -0.012881815433502197,
      -0.026704706251621246,
      0.0017639994621276855,
      0.01062408834695816,
      0.0013080909848213196,
      -0.007902504876255989,
      -0.021655160933732986,
      -0.025037920102477074,
      0.0017117708921432495,
      0.009682849049568176,
      -0.026718690991401672,
      0.029967384412884712,
      0.005692660808563232,
      -0.026662636548280716,
      -0.027567889541387558,
      0.001888476312160492,
      -0.010993793606758118,
      0.029659461230039597,
      0.0015432201325893402,
      0.0019477680325508118,
      -0.02399013750255108,
      0.001195475459098816,
      -0.02576868236064911,
      0.0018195956945419312,
      0.02982936054468155,
      -0.026826579123735428,
      0.0021422915160655975,
      0.029640577733516693,
      -0.026518283411860466,
      0.00273924320936203,
      -0.0005751512944698334,
      0.0018203780055046082,
      0.0012892605736851692,
      -0.029068991541862488,
      -0.012628331780433655,
      -0.023458704352378845,
      -0.000811159610748291,
      -0.029496151953935623,
      -0.029201037250459194,
      -0.027676597237586975,
      -0.022596240043640137,
      -0.010578583925962448,
      -0.028233254328370094,
      -0.02560842875391245,
      -0.00013168063014745712,
      -0.02917991392314434,
      -0.02925272285938263,
      0.0012918859720230103,
      -0.02832004427909851,
      0.029489584267139435,
      0.0009909085929393768,
      -0.0015423167496919632,
      -0.02829771488904953,
      -0.02852655202150345,
      -0.028908316045999527,
      -0.013433258980512619,
      0.029753781855106354,
      -0.026937958784401417,
      0.0005638748407363892,
      0.030014224350452423,
      -0.02840280905365944,
      0.00015711132436990738,
      -0.029210885055363178,
      -0.0001727268099784851,
      -0.0008432343602180481,
      -0.028123091906309128,
      -0.01965837925672531,
      -0.013818372040987015,
      0.005296253599226475,
      -0.026545478031039238,
      -0.013026518747210503,
      -0.026464372873306274,
      0.0005876366049051285,
      -0.0007391087710857391,
      -0.02660354133695364,
      -0.02756880223751068,
      -0.028347160667181015,
      -0.028444916009902954,
      -0.02863284945487976,
      0.0004964098334312439,
      -0.026133522391319275,
      0.029692083597183228,
      0.0002377331256866455,
      0.000768173485994339,
      -0.027232125401496887,
      -0.027240384370088577,
      -0.025777000933885574,
      -0.02060809824615717,
      0.02841128781437874,
      -0.026415567845106125,
      0.002057252451777458,
      0.02851860225200653,
      -0.02810446359217167,
      0.001255132257938385,
      -0.027467715553939342,
      0.0012032054364681244,
      0.0006812363862991333,
      -0.028888385742902756,
      -0.024525508284568787,
      -0.023864105343818665,
      0.0002486035227775574,
      -0.02944350242614746,
      -0.027266046032309532,
      -0.028686396777629852,
      -0.023229658603668213,
      -0.012269414961338043,
      -0.027940358966588974,
      -0.01480189524590969,
      -0.0029307156801223755,
      -0.028944144025444984,
      -0.02927219867706299,
      0.0004893830046057701,
      -0.027403103187680244,
      0.029363971203565598,
      0.00048595666885375977,
      -0.02507871575653553,
      -0.029121074825525284,
      -0.028886960819363594,
      -0.029130369424819946,
      -0.02465248480439186,
      0.00993979349732399,
      -0.028654512017965317,
      0.0005940645933151245,
      0.028471961617469788,
      -0.028492461889982224,
      0.00020479317754507065,
      -0.02820824831724167,
      -0.00013533234596252441,
      -0.0005918368697166443,
      0.029977604746818542,
      0.029218746349215508,
      0.02883998118340969,
      0.02908363565802574,
      0.029860053211450577,
      0.029921650886535645,
      0.02948828972876072,
      0.029428206384181976,
      -6.939470767974854e-05,
      0.029457475058734417,
      0.01678621396422386,
      0.02926250547170639,
      0.029967613518238068,
      0.029383495450019836,
      0.00878790020942688,
      0.017980732023715973,
      -0.0007581636309623718,
      -4.293397068977356e-07,
      0.02968380320817232,
      0.029829584062099457,
      0.008439799770712852,
      0.029463134706020355,
      0.028938692063093185,
      -0.0007775295525789261,
      0.0005977964028716087,
      0.0018196655437350273,
      -0.00037244707345962524,
      0.029232770204544067,
      -0.0003990400582551956,
      -7.295608520507812e-05,
      0.02928926795721054,
      0.028547506779432297,
      -0.00015617907047271729,
      0.0008436907082796097,
      0.001199282705783844,
      0.028572767972946167,
      0.00033026281744241714,
      0.0003772154450416565,
      0.0009914068505167961,
      -0.00664098747074604,
      0.002036072313785553,
      0.0006027817726135254,
      0.0032470952719449997,
      0.00063290074467659,
      -0.0003893384709954262,
      0.0009743273258209229,
      0.0011155903339385986,
      0.003481917083263397,
      0.02237970381975174,
      0.010573260486125946,
      0.004613172262907028,
      0.0006490182131528854,
      0.0004439130425453186,
      0.0015232060104608536,
      0.0006836578249931335,
      0.001911204308271408,
      -0.0008041951805353165,
      0.001208774745464325,
      0.030012398958206177,
      -0.00023512914776802063,
      -0.006531042978167534,
      0.0022146105766296387,
      0.0007537491619586945,
      0.0006040148437023163,
      -0.027580659836530685,
      -0.02695215493440628,
      -0.02378545794636011,
      -0.02674164343625307,
      -0.02883134689182043,
      -0.01945473998785019,
      -0.02815999835729599,
      -0.023095306009054184,
      0.0021209828555583954,
      -0.028170958161354065,
      -0.02611423283815384,
      -0.028611257672309875,
      -0.027359099127352238,
      -0.028470829129219055,
      -0.0011387653648853302,
      -0.025169603526592255,
      0.010875317268073559,
      0.0005738511681556702,
      -0.027811504900455475,
      -0.027530325576663017,
      -0.027312323451042175,
      -0.028230972588062286,
      -0.02515629678964615,
      0.016712116077542305,
      -0.02763151377439499,
      0.0005910024046897888,
      0.0033790841698646545,
      -0.028155069798231125,
      0.000627860426902771,
      -0.02640683948993683,
      -0.02611543983221054,
      -0.02088923752307892,
      0.01088658720254898,
      0.004215129651129246,
      0.00037574488669633865,
      0.015129633247852325,
      0.013681270182132721,
      -0.010964002460241318,
      -0.016804125159978867,
      0.013157323002815247,
      0.012869125232100487,
      -0.0009970590472221375,
      0.012964313849806786,
      0.0009639468044042587,
      -0.025335341691970825,
      -0.02245207130908966,
      0.00037507805973291397,
      -0.01806250959634781,
      0.01320522278547287,
      0.000653240829706192,
      0.011211112141609192,
      0.011538130231201649,
      0.014438530430197716,
      -0.022314388304948807,
      0.00911901518702507,
      0.013214094564318657,
      -0.016740046441555023,
      0.012461353093385696,
      0.013501001987606287,
      -0.017650268971920013,
      0.01395488902926445,
      -0.016528615728020668,
      0.012744888663291931,
      0.012278124690055847,
      -0.0287400521337986,
      -0.025265125557780266,
      -0.006890520453453064,
      0.00013325735926628113,
      -0.014886833727359772,
      -0.020068690180778503,
      -0.028783001005649567,
      -0.0006139576435089111,
      0.013161063194274902,
      -0.027743905782699585,
      0.011618813965469599,
      -0.00035396404564380646,
      -0.026261642575263977,
      -0.029033102095127106,
      0.00023812055587768555,
      -0.020550258457660675,
      0.02925775572657585,
      0.003236927092075348,
      -0.012124978005886078,
      -0.02671343833208084,
      -0.028040200471878052,
      -0.02841385453939438,
      -0.02421083301305771,
      0.029922613874077797,
      -0.026651453226804733,
      0.000750172883272171,
      0.007450927048921585,
      -0.02830679714679718,
      0.0004946012049913406,
      -0.01837966963648796,
      0.0005566328763961792,
      0.0005233827978372574,
      -0.0003339499235153198,
      -0.001020975410938263,
      -0.0009567663073539734,
      -8.38935375213623e-06,
      -0.00019690394401550293,
      -0.0016881898045539856,
      0.00040995143353939056,
      -0.015349756926298141,
      -0.006952520459890366,
      -0.002612309530377388,
      -0.0013715717941522598,
      -0.01665782928466797,
      -0.0002509281039237976,
      -0.0032621286809444427,
      -0.0005794987082481384,
      0.0001505054533481598,
      -0.000673995353281498,
      7.62762501835823e-05,
      -0.0013527832925319672,
      -0.01810363307595253,
      -0.0013455338776111603,
      -0.0035708993673324585,
      -0.006249584257602692,
      -0.0008664941415190697,
      -0.0013991594314575195,
      0.029880255460739136,
      0.00014371424913406372,
      -0.017794042825698853,
      0.020847901701927185,
      -0.0011662095785140991,
      -0.0068548377603292465,
      -0.01218598335981369,
      -0.027655281126499176,
      -0.02531324326992035,
      -0.008173748850822449,
      6.741657853126526e-05,
      -0.01705007068812847,
      -0.009135454893112183,
      -0.02924223057925701,
      0.00019387155771255493,
      0.026590712368488312,
      0.00029588863253593445,
      2.343207597732544e-05,
      0.00014634430408477783,
      -0.014533467590808868,
      -0.029613878577947617,
      -0.0006369352340698242,
      -0.00022967346012592316,
      0.02977699786424637,
      0.007285606116056442,
      -0.025235500186681747,
      -0.029116041958332062,
      -0.029919669032096863,
      -0.0293203666806221,
      -0.024393491446971893,
      0.03003009408712387,
      -0.028319336473941803,
      0.0004324372857809067,
      0.02998257800936699,
      -0.029022280126810074,
      0.00017574988305568695,
      -0.001737445592880249,
      1.7600134015083313e-05,
      0.0002962872385978699,
      -0.028890863060951233,
      -0.0009091272950172424,
      -0.017558343708515167,
      -6.629526615142822e-05,
      -0.024791648611426353,
      -0.022537007927894592,
      -0.027619212865829468,
      -0.022469159215688705,
      0.011503318324685097,
      -0.026219569146633148,
      0.005271203815937042,
      -0.029101725667715073,
      -0.027768123894929886,
      -0.028384914621710777,
      0.0002319198101758957,
      -0.022144198417663574,
      0.02805185317993164,
      0.0006010010838508606,
      -0.021494040731340647,
      -0.025158081203699112,
      -0.020810632035136223,
      -0.027480676770210266,
      -0.019827865064144135,
      0.029261402785778046,
      -0.0261741541326046,
      0.0006445944309234619,
      0.02968129701912403,
      -0.027714595198631287,
      0.0005445666611194611,
      0.0014492571353912354,
      -0.012507183477282524,
      0.0002377927303314209,
      0.00020601600408554077,
      0.007955454289913177,
      0.0009972751140594482,
      0.0011840872466564178,
      -4.741549491882324e-05,
      -0.029136410914361477,
      0.00044208765029907227,
      0.0019348114728927612,
      -0.02752654068171978,
      0.0010143797844648361,
      0.0045082420110702515,
      -0.00038345716893672943,
      -0.00024641305208206177,
      0.00016778148710727692,
      0.029360085725784302,
      0.0007508173584938049,
      -0.012052156031131744,
      -0.02894650399684906,
      0.003073364496231079,
      0.00035694707185029984,
      0.00011808797717094421,
      0.00024119392037391663,
      0.004576424136757851,
      0.00020255334675312042,
      0.0002387501299381256,
      0.030030198395252228,
      0.01395617425441742,
      0.0005566198378801346,
      0.02995000034570694,
      -0.0010056328028440475,
      0.00751630961894989,
      0.015105076134204865,
      -0.0010416582226753235,
      0.011075079441070557,
      0.0028824657201766968,
      0.028256267309188843,
      -0.0012112632393836975,
      -0.0005788840353488922,
      -0.0019388236105442047,
      0.01244761049747467,
      0.009945879690349102,
      -0.0001349877566099167,
      0.0022450461983680725,
      -0.011942336335778236,
      -0.0015866514295339584,
      -0.02923480048775673,
      0.028554431162774563,
      -0.00043942034244537354,
      0.02853642962872982,
      -0.0008379220962524414,
      0.006629534065723419,
      -0.028680752031505108,
      -0.0006596222519874573,
      -0.015890534967184067,
      -0.012065645307302475,
      0.028611935675144196,
      -0.0017046555876731873,
      0.0014905817806720734,
      0.028475290164351463,
      -0.02895263209939003,
      0.0007177144289016724,
      -0.0005876198410987854,
      -0.0012918263673782349,
      -1.7540529370307922e-05,
      0.0029633939266204834,
      -0.004593353718519211,
      -0.025448590517044067,
      -0.02749626897275448,
      -0.024532344192266464,
      0.00341835618019104,
      0.0021409038454294205,
      -0.027416277676820755,
      0.02779803704470396,
      0.0019850805401802063,
      -0.02652653306722641,
      0.003033178858458996,
      0.0026105213910341263,
      0.0023095272481441498,
      -0.02762049436569214,
      -0.025315459817647934,
      -0.002015627920627594,
      0.027947649359703064,
      -0.027069561183452606,
      0.0025026407092809677,
      -0.02764144539833069,
      0.0022958628833293915,
      -0.002301000989973545,
      -0.001840796321630478,
      0.0026912763714790344,
      -0.027504121884703636,
      -0.0020097773522138596,
      0.0025851652026176453,
      -0.02761637233197689,
      0.003301195800304413,
      -0.025398775935173035,
      -0.027500785887241364,
      0.0012797713279724121,
      -0.005392797291278839,
      0.002306003123521805,
      -0.000736728310585022,
      0.0004303157329559326,
      0.0007909685373306274,
      0.000776093453168869,
      -0.0008326172828674316,
      0.027882754802703857,
      0.00047783181071281433,
      0.009562982246279716,
      0.0015821009874343872,
      0.0014136284589767456,
      0.000966828316450119,
      -0.02783340960741043,
      0.0012503145262598991,
      0.015332004986703396,
      0.02978302538394928,
      -0.0016584917902946472,
      0.0006767548620700836,
      0.0005902424454689026,
      0.0011139363050460815,
      -0.004709281027317047,
      0.02178734540939331,
      0.0030241571366786957,
      -0.028707755729556084,
      0.02975151687860489,
      0.0008907392621040344,
      -0.028693899512290955,
      0.006587116047739983,
      -0.00818360410630703,
      -0.028918329626321793,
      -0.02813107520341873,
      -0.028892800211906433,
      -0.02234511822462082,
      0.0004767775535583496,
      -0.027499890886247158,
      0.00041481107473373413,
      -0.02650107443332672,
      -0.028270792216062546,
      0.0001794174313545227,
      -0.028484530746936798,
      -0.01214345172047615,
      -0.02572062239050865,
      -0.026418399065732956,
      -0.028670884668827057,
      -0.028239160776138306,
      -0.023898832499980927,
      0.0005748625844717026,
      0.0017120502889156342,
      -0.02860827650874853,
      -0.028396572917699814,
      -0.020366597920656204,
      -0.024471791461110115,
      -0.028172170743346214,
      0.000492515042424202,
      -0.01854267343878746,
      -0.02843589149415493,
      0.0022927075624465942,
      -0.02751220390200615,
      -0.0016222717240452766,
      0.0007976135239005089,
      -0.02727525681257248,
      -0.028833314776420593,
      0.0013037696480751038,
      0.017052888870239258,
      0.01043027639389038,
      0.0017212722450494766,
      0.0026719868183135986,
      0.0016992390155792236,
      0.0006696134805679321,
      0.025818821042776108,
      -0.02683623880147934,
      0.0010658595710992813,
      -0.020217284560203552,
      5.296897143125534e-05,
      0.001473255455493927,
      0.0016938075423240662,
      0.0021615633741021156,
      0.016385436058044434,
      -0.029722098261117935,
      -0.028758695349097252,
      0.0019072014838457108,
      0.00238760095089674,
      0.003004327416419983,
      -2.8908252716064453e-05,
      0.003339828923344612,
      -8.253008127212524e-05,
      -0.011005140841007233,
      0.02995319664478302,
      -0.018506839871406555,
      0.0015483424067497253,
      0.028056982904672623,
      0.0009457143023610115,
      0.027673649601638317,
      0.0006759203970432281,
      -0.0249347984790802,
      -0.025712430477142334,
      0.0007307045161724091,
      -3.616325557231903e-06,
      0.000179339200258255,
      -0.01491035521030426,
      -0.024512603878974915,
      -0.012937458232045174,
      0.0024441704154014587,
      -0.022895604372024536,
      0.005181625485420227,
      -0.01572161167860031,
      0.010768184438347816,
      -0.028214212507009506,
      0.0008969604969024658,
      0.00207698717713356,
      0.02956528216600418,
      0.006709747947752476,
      0.0009398870170116425,
      -0.010238945484161377,
      -0.027897946536540985,
      -0.022504881024360657,
      -0.010007832199335098,
      0.02737131156027317,
      -0.026086393743753433,
      0.0016946066170930862,
      -0.004102636128664017,
      -0.019549451768398285,
      0.0012495145201683044,
      -0.01141434907913208,
      0.0005723126232624054,
      0.0028008148074150085,
      0.029520496726036072,
      0.0004961267113685608,
      0.021322065964341164,
      0.00025033578276634216,
      0.029955659992992878,
      0.024037912487983704,
      0.02970924973487854,
      0.028477869927883148,
      -4.2691826820373535e-06,
      0.029571115970611572,
      0.02635212242603302,
      0.016630306839942932,
      0.02944949548691511,
      0.029823511838912964,
      -4.051811993122101e-05,
      0.02936825528740883,
      -0.029224663972854614,
      1.0330229997634888e-05,
      0.029126722365617752,
      0.029820814728736877,
      0.030026793479919434,
      0.029657982289791107,
      -0.00011997297406196594,
      -0.02890802174806595,
      0.02907312661409378,
      -0.00011363252997398376,
      -0.029827293008565903,
      0.029697999358177185,
      4.649162292480469e-06,
      0.024000458419322968,
      0.0015708524733781815,
      0.024339178577065468,
      0.014644831418991089,
      0.029597029089927673,
      -0.010106148198246956,
      0.018740996718406677,
      0.0011707581579685211,
      -0.014768391847610474,
      0.0009932927787303925,
      0.0004214048385620117,
      -0.002029336988925934,
      0.0008185151964426041,
      0.0001494958996772766,
      0.00024022534489631653,
      0.0005925372242927551,
      0.0008981600403785706,
      0.029358867555856705,
      0.0007948651909828186,
      -0.029139507561922073,
      -0.028656676411628723,
      0.0012930259108543396,
      0.029428931884467602,
      0.029283683747053146,
      0.0006822831928730011,
      0.02949359267950058,
      -0.00020803511142730713,
      0.0009415559470653534,
      0.02962319180369377,
      -0.005856625735759735,
      0.000578414648771286,
      0.029411040246486664,
      -0.02357412315905094,
      0.014920512214303017,
      0.0003332570195198059,
      0.0002854540944099426,
      0.0002811253070831299,
      -0.0077295973896980286,
      0.00064138974994421,
      0.0006527435034513474,
      -0.0017169788479804993,
      0.0003090575337409973,
      5.2969902753829956e-05,
      -0.029438622295856476,
      5.047209560871124e-05,
      -0.0015972405672073364,
      -0.000715574249625206,
      0.028365394100546837,
      0.029821980744600296,
      0.00029208511114120483,
      -0.00014573335647583008,
      -0.029455775395035744,
      -0.029920270666480064,
      0.00028856657445430756,
      -0.0002233516424894333,
      0.0013710614293813705,
      0.029430538415908813,
      0.00011851824820041656,
      -0.02964223176240921,
      -0.0005528181791305542,
      0.00023557990789413452,
      -0.02957911789417267,
      0.014125484973192215,
      0.0004913918673992157,
      -0.029391584917902946,
      0.00021905917674303055,
      -5.628913640975952e-05
    ],
    [
      -0.01158190774731338,
      -0.0010687578469514847,
      -0.02574319764971733,
      0.030015213415026665,
      0.0001243986189365387,
      0.006913794204592705,
      -0.02656096126884222,
      -0.027194969356060028,
      0.029957319609820843,
      -0.0005080485716462135,
      -0.01762135187163949,
      -0.028190476819872856,
      -0.02736824005842209,
      -0.028770961798727512,
      0.029346942901611328,
      0.001041887328028679,
      -0.027538330294191837,
      -0.0077447493094950914,
      -0.027025959454476833,
      -0.0008478928357362747,
      -0.028927192091941833,
      -0.02557343151420355,
      0.00041237659752368927,
      -0.0008026566356420517,
      0.002626245841383934,
      0.0012347400188446045,
      -0.02044540923088789,
      0.001266011968255043,
      -0.018006812781095505,
      0.029687270522117615,
      0.0006598485633730888,
      0.0003646165132522583
    ],
    [
      0.00373627245426178,
      -0.0006118938326835632,
      0.022709637880325317,
      0.0027491040527820587,
      0.02950425073504448,
      0.026867613196372986,
      -0.003882184624671936,
      -0.0006194822490215302,
      3.759562969207764e-05,
      0.029325087554752827,
      -0.009340847842395306,
      0.01955532282590866,
      0.026890721172094345,
      0.027924366295337677,
      0.028179451823234558,
      0.02735520526766777,
      0.027478080242872238,
      -0.0027702851220965385,
      0.02521410956978798,
      0.0010359510779380798,
      0.025560207664966583,
      0.014724526554346085,
      0.029191168025135994,
      -0.0045224884524941444,
      -0.0008262544870376587,
      0.028460081666707993,
      0.013540908694267273,
      0.02798408269882202,
      0.0004251748323440552,
      0.029803883284330368,
      0.028486902825534344,
      0.0001663360744714737
    ],
    [
      0.029367581941187382
    ]
  ],
  "num_updates": 2,
  "client_ids": [
    "client-1",
    "client-2"
  ],
  "mean_final_loss": 9.888983726501465,
  "aggregation_timestamp": 1784209607.930323
}