{
  "version": "v16",
  "base_version": "v15",
  "round_id": 13,
  "aggregation": "fedavg",
  "averaged_weight_delta": [
    [
      -0.008014112710952759,
      -0.029970262199640274,
      -0.029884152114391327,
      -0.02941802516579628,
      -0.016361065208911896,
      -0.02839411050081253,
      -0.029783211648464203,
      -0.02997114509344101,
      -0.029976598918437958,
      -0.0033099576830863953,
      0.0002883635461330414,
      0.00028153881430625916,
      0.00011551380157470703,
      0.00021645985543727875,
      0.00031180400401353836,
      0.00020550936460494995,
      0.022257350385189056,
      0.0009797513484954834,
      0.00019925087690353394,
      0.00025116652250289917,
      -0.017142895609140396,
      -0.02966618724167347,
      -0.029851175844669342,
      -0.01765427365899086,
      -0.029799334704875946,
      -0.030038662254810333,
      -0.005330212414264679,
      -0.02934463694691658,
      -0.0064851827919483185,
      -0.02833830751478672,
      0.0006984174251556396,
      0.028151869773864746,
      0.027440384030342102,
      0.013794420287013054,
      0.003457367420196533,
      0.00883294828236103,
      0.014780248049646616,
      0.021344054490327835,
      0.00032635871320962906,
      0.009244829416275024,
      0.012353137135505676,
      -0.00023455917835235596,
      -0.000850379467010498,
      -2.8090551495552063e-05,
      -0.0120958611369133,
      -0.0004962347447872162,
      0.0001141577959060669,
      0.00015777349472045898,
      -7.40252435207367e-05,
      0.000639582984149456,
      0.004032783210277557,
      0.0027386192232370377,
      0.004191480576992035,
      0.002698398195207119,
      0.014075640588998795,
      0.0014352388679981232,
      0.02821650728583336,
      0.02941703423857689,
      -0.0002849772572517395,
      0.0026852115988731384,
      -0.017356347292661667,
      -0.01716181868687272,
      -0.00044862180948257446,
      -0.027529463171958923,
      -0.01812465488910675,
      -0.0038927681744098663,
      -0.00020603835582733154,
      -0.022734545171260834,
      -0.029432188719511032,
      -0.029330506920814514,
      0.00022955983877182007,
      -0.00047476962208747864,
      -0.0004497356712818146,
      -0.00021348893642425537,
      -0.0001467578113079071,
      -0.003933943808078766,
      -0.0003442671149969101,
      -0.029052771627902985,
      0.0004811882972717285,
      -0.0023569315671920776,
      0.02058441936969757,
      -5.5089592933654785e-05,
      0.0008575543761253357,
      -1.4778226613998413e-05,
      -0.00617334246635437,
      1.959875226020813e-05,
      0.010843634605407715,
      0.00023905932903289795,
      0.0005362983793020248,
      5.424022674560547e-06,
      -0.029176391661167145,
      -0.016771460650488734,
      -0.029436279088258743,
      -0.02420172467827797,
      -0.009977627545595169,
      -0.02917945384979248,
      -0.029616152867674828,
      -0.029103368520736694,
      -0.028682321310043335,
      -0.027856864035129547,
      -0.029420234262943268,
      -0.009885288774967194,
      -0.029954900965094566,
      -0.029327559284865856,
      -0.029088832437992096,
      -0.0290185809135437,
      -0.029976822435855865,
      -0.028842642903327942,
      -0.02786301076412201,
      -0.011321043595671654,
      -0.013294372707605362,
      -0.023079603910446167,
      -0.025919809937477112,
      -0.025575241073966026,
      -0.021899599581956863,
      -0.021168384701013565,
      -0.02276046946644783,
      -0.02729647420346737,
      -0.02194666862487793,
      -0.017154290340840816,
      0.00026765093207359314,
      0.00046594440937042236,
      0.0007164664566516876,
      5.252659320831299e-05,
      0.0006658881902694702,
      -0.00023470818996429443,
      0.0004552900791168213,
      -0.02902836725115776,
      0.000744253396987915,
      -7.540732622146606e-05,
      0.0059848353266716,
      0.015399828553199768,
      0.01291278749704361,
      -0.0017043240368366241,
      0.025327252224087715,
      -0.014493100345134735,
      0.02836766093969345,
      0.014091907301917672,
      0.028203219175338745,
      0.02641718089580536,
      -0.014984220266342163,
      -0.026179403066635132,
      -0.025137364864349365,
      -0.00036732200533151627,
      -0.02609499916434288,
      -0.015414364635944366,
      -0.02581571787595749,
      -0.025776885449886322,
      0.00473586842417717,
      -0.029566660523414612,
      -2.3057684302330017e-05,
      -7.471442222595215e-05,
      -0.0005897358059883118,
      -0.02994738519191742,
      0.00024193525314331055,
      0.027881354093551636,
      0.015453733503818512,
      0.0005576610565185547,
      -3.342796117067337e-05,
      6.210803985595703e-05,
      0.017905093729496002,
      0.029406890273094177,
      0.029923629015684128,
      0.029768556356430054,
      0.02994580566883087,
      0.029898807406425476,
      0.029714960604906082,
      0.014439977705478668,
      0.028911031782627106,
      0.017478466033935547,
      -0.029579944908618927,
      -0.017384864389896393,
      -0.016724253073334694,
      -0.029739446938037872,
      -0.029269248247146606,
      -0.01257895678281784,
      -0.029772527515888214,
      -0.029576636850833893,
      -0.006894748657941818,
      -0.029626894742250443,
      0.0019448548555374146,
      0.002053387463092804,
      -0.021871399134397507,
      0.00022612698376178741,
      0.0010425448417663574,
      -0.012017779052257538,
      0.0010029375553131104,
      0.0005180593580007553,
      0.0011050421744585037,
      0.0010421071201562881,
      0.029232796281576157,
      0.004358064383268356,
      0.00019303709268569946,
      0.015506058931350708,
      0.00034529343247413635,
      0.0015520602464675903,
      -3.5062432289123535e-05,
      0.00030857324600219727,
      0.02982164081186056,
      0.0007118731737136841,
      0.02956148236989975,
      0.0036048516631126404,
      0.028868556022644043,
      0.029532700777053833,
      0.017576327547430992,
      0.004542570561170578,
      0.0016132146120071411,
      0.029564734548330307,
      0.029559120535850525,
      0.029055297374725342,
      0.001405220478773117,
      -0.00021392479538917542,
      1.1261552572250366e-05,
      0.012459171935915947,
      -0.00026534032076597214,
      -5.5223703384399414e-05,
      -7.269810885190964e-05,
      3.3155083656311035e-06,
      -0.000116005539894104,
      -0.0003712698817253113,
      -0.00821211189031601,
      -0.00024360232055187225,
      -0.00012026727199554443,
      -0.027312271296977997,
      -0.0002540275454521179,
      -0.0006107985973358154,
      0.029179852455854416,
      0.02942485548555851,
      -0.0024989170487970114,
      -0.019992470741271973,
      0.00180082768201828,
      0.002726275473833084,
      0.028246711008250713,
      0.0016047116369009018,
      0.0031546279788017273,
      -0.0013826489448547363,
      0.010777999646961689,
      0.008878358639776707,
      0.008665546774864197,
      0.0011077970266342163,
      0.0064820051193237305,
      0.029945313930511475,
      0.029932193458080292,
      0.02927263081073761,
      0.027245288714766502,
      0.02729726955294609,
      0.029689952731132507,
      0.029818715527653694,
      0.011457500979304314,
      0.02965356409549713,
      -0.028793498873710632,
      3.00481915473938e-05,
      -0.00024263747036457062,
      -0.023689281195402145,
      0.00022377446293830872,
      -0.02369610220193863,
      0.0001354645937681198,
      0.0006934739649295807,
      -0.0004087984561920166,
      0.012769393622875214,
      0.0003000423312187195,
      0.0007019639015197754,
      -1.8712133169174194e-05,
      0.001574043184518814,
      5.1684677600860596e-05,
      -0.013459281995892525,
      -0.0002749115228652954,
      9.676534682512283e-05,
      0.00028147175908088684,
      0.0006057843565940857,
      0.015563499182462692,
      0.0033417120575904846,
      0.004940889775753021,
      0.03002341091632843,
      0.029765214771032333,
      0.012754440307617188,
      -0.009714243933558464,
      0.011218778789043427,
      0.008073393255472183,
      0.01661517471075058,
      -0.0014546513557434082,
      -0.0014148158952593803,
      -0.001789867877960205,
      -0.0012145936489105225,
      -0.012473821640014648,
      0.0229270551353693,
      0.00034070201218128204,
      0.004531070590019226,
      -0.0042321085929870605,
      -0.001265302300453186,
      0.028971650637686253,
      0.029403086751699448,
      0.029103294014930725,
      0.0289943665266037,
      0.028377223759889603,
      0.028737597167491913,
      0.029083043336868286,
      -0.00011889636516571045,
      0.029226288199424744,
      0.028080448508262634,
      0.029599204659461975,
      0.029898598790168762,
      0.029351938515901566,
      0.029933501966297626,
      0.029799021780490875,
      0.029337414540350437,
      0.029643386602401733,
      0.029883738607168198,
      0.02990548312664032,
      0.030035212635993958,
      0.0004969388246536255,
      -6.749480962753296e-05,
      0.000267738476395607,
      0.0006133466958999634,
      0.00015189498662948608,
      -0.007221013307571411,
      -0.016754796728491783,
      -0.0013606622815132141,
      0.0013173967599868774,
      -0.0007329061627388
    ],
    [
      0.017160093178972602,
      0.00020922068506479263,
      -0.01658071344718337,
      -0.02540795598179102,
      0.0020497161895036697,
      0.029544142074882984,
      0.02867048792541027,
      0.00020036660134792328,
      0.004012875258922577,
      0.0011079572141170502,
      0.029726429842412472,
      0.009219863452017307,
      -0.026914146728813648,
      -0.027619674801826477,
      0.006666932255029678,
      2.4932436645030975e-05,
      0.029226312413811684,
      0.006765197031199932,
      -0.011191532714292407,
      0.029940426349639893,
      0.016800813609734178,
      -0.02861906588077545,
      0.002377299591898918,
      -0.021837955806404352,
      0.0030322696547955275,
      0.01695118355564773,
      0.0011586900800466537,
      0.0003040153533220291,
      -0.0025246934965252876,
      -0.005480547435581684,
      0.029179008677601814,
      0.014200613601133227
    ],
    [
      0.006485048681497574,
      -0.027959637343883514,
      -0.012153981253504753,
      0.0006316658109426498,
      -0.013302922248840332,
      -0.025851678103208542,
      -0.00025175511837005615,
      0.002557029016315937,
      -0.020149607211351395,
      -0.026834338903427124,
      0.0040755495429039,
      0.0006406344473361969,
      -0.027340583503246307,
      2.8908252716064453e-05,
      -0.026767872273921967,
      -0.02197590470314026,
      -0.019732728600502014,
      0.011208917945623398,
      -0.026827558875083923,
      -0.027715057134628296,
      -0.026357773691415787,
      -0.015742521733045578,
      0.0026702359318733215,
      -0.023959768004715443,
      -0.027386566624045372,
      -0.02341899275779724,
      -0.0015773922204971313,
      -0.02334472071379423,
      0.0004039369523525238,
      -0.023613616824150085,
      -0.027465131133794785,
      -0.02025284618139267,
      9.688735008239746e-05,
      -0.028861379250884056,
      0.00019721593707799911,
      -0.02834232896566391,
      -0.0290442556142807,
      -0.025258246809244156,
      0.00030000507831573486,
      -5.675852298736572e-05,
      -0.02915115375071764,
      0.0003264881670475006,
      0.016933728009462357,
      -0.011660797521471977,
      -0.02725846692919731,
      -0.028356000781059265,
      -0.02242041379213333,
      -0.00043992698192596436,
      -0.028311021625995636,
      0.022370941936969757,
      -0.02932772785425186,
      -0.027057714760303497,
      -0.027946533635258675,
      -6.712228059768677e-05,
      -0.021319374442100525,
      -0.026140044443309307,
      -0.02861820161342621,
      0.0002303868532180786,
      -0.028935279697179794,
      -0.028971433639526367,
      -0.02912052720785141,
      -7.548928260803223e-05,
      -0.028405193239450455,
      -0.02531135268509388,
      0.029580317437648773,
      -0.028573546558618546,
      0.029809273779392242,
      -0.0001371540129184723,
      -0.020028693601489067,
      -0.02901887148618698,
      0.01733500510454178,
      0.016998276114463806,
      -0.013131774961948395,
      0.007590040564537048,
      0.02991504594683647,
      0.00046156346797943115,
      -0.001614898443222046,
      0.00029525160789489746,
      0.006112328730523586,
      0.0014972984790802002,
      -3.0290335416793823e-05,
      0.02961960807442665,
      -0.027850013226270676,
      0.029106084257364273,
      -0.02881859987974167,
      0.0075669847428798676,
      0.029446255415678024,
      -0.00013551115989685059,
      -0.02917686104774475,
      -4.6037137508392334e-05,
      -0.029387719929218292,
      -0.025649357587099075,
      0.000758044421672821,
      0.02917415928095579,
      -0.022592253983020782,
      -0.0003482550382614136,
      0.0003856346011161804,
      0.019788178615272045,
      0.00019048899412155151,
      -0.019650109112262726,
      -0.012385345995426178,
      -0.029392782598733902,
      -0.0119442418217659,
      -0.0004571974277496338,
      -0.023252151906490326,
      -0.02517786342650652,
      0.0007872283458709717,
      -0.028324028477072716,
      -0.02799934893846512,
      -0.02749793976545334,
      -0.025477100163698196,
      0.0006797201931476593,
      -0.010903522372245789,
      0.0005800388753414154,
      -0.02752627432346344,
      0.0004340093582868576,
      0.007607169449329376,
      -0.015944959595799446,
      0.0005718553438782692,
      -0.027926184237003326,
      -0.027701742947101593,
      -0.028822392225265503,
      -0.016687139868736267,
      0.016259286552667618,
      3.393273800611496e-05,
      0.0005239397287368774,
      -0.024938970804214478,
      0.023867875337600708,
      0.001598954200744629,
      0.0004758983850479126,
      0.027890630066394806,
      -0.011903747916221619,
      0.029101645573973656,
      0.0034216567873954773,
      -0.026920005679130554,
      0.029195860028266907,
      0.029586881399154663,
      0.0014391988515853882,
      0.030038096010684967,
      -0.028420686721801758,
      0.0005266591906547546,
      -0.028119511902332306,
      0.00510540883988142,
      -0.0006765499711036682,
      0.0028811506927013397,
      0.0026796534657478333,
      -0.021972857415676117,
      -0.020648440346121788,
      0.01725115068256855,
      0.009709320962429047,
      -0.021432776004076004,
      -0.027444159612059593,
      0.0008209608495235443,
      -0.028755709528923035,
      -0.013192109763622284,
      0.029058407992124557,
      0.02997499704360962,
      0.0009361244738101959,
      -0.010251471772789955,
      0.017316784709692,
      -0.029854387044906616,
      0.029757507145404816,
      -0.017501723021268845,
      0.0003790752962231636,
      0.029781688004732132,
      0.02983717992901802,
      6.03795051574707e-05,
      -0.02801237255334854,
      0.029494360089302063,
      -0.00017513148486614227,
      -0.029758427292108536,
      0.0001995563507080078,
      0.03003302589058876,
      0.00039654411375522614,
      -9.953230619430542e-05,
      0.012705564498901367,
      0.030037734657526016,
      -0.029903236776590347,
      0.029800862073898315,
      0.02240888774394989,
      0.02961655706167221,
      0.002382054924964905,
      -0.017462849617004395,
      0.0021114572882652283,
      0.030043914914131165,
      -1.3150274753570557e-05,
      0.029975906014442444,
      0.02925456501543522,
      -6.34118914604187e-05,
      -0.023610608652234077,
      0.030011922121047974,
      0.02460614964365959,
      -0.028104091063141823,
      0.029533468186855316,
      0.008211863227188587,
      0.0003243088722229004,
      0.025852449238300323,
      0.02967811282724142,
      0.0012790560722351074,
      -0.01826012134552002,
      0.018612384796142578,
      0.0017164060845971107,
      -0.02443980798125267,
      -0.0001369621604681015,
      0.029927507042884827,
      0.029529057443141937,
      -0.0003519812598824501,
      6.680376827716827e-05,
      0.02952326461672783,
      -0.029508408159017563,
      0.02825722098350525,
      0.0010042190551757812,
      0.02987875882536173,
      0.007380664348602295,
      7.062405347824097e-05,
      0.029066354036331177,
      0.029721658676862717,
      0.0016271276399493217,
      0.015472263097763062,
      0.029271500185132027,
      -1.4826655387878418e-05,
      -0.013073407113552094,
      0.01713605970144272,
      -0.006822563707828522,
      9.43988561630249e-05,
      -0.028607506304979324,
      0.0277615487575531,
      0.0009191622957587242,
      -0.00010368227958679199,
      -0.024709269404411316,
      0.00039462465792894363,
      0.0179086709395051,
      0.0019370950758457184,
      0.00260934978723526,
      0.02999262511730194,
      -0.000363420695066452,
      -0.015464819967746735,
      0.0017678067088127136,
      0.002851450815796852,
      -0.013452775776386261,
      -0.023262962698936462,
      0.028834380209445953,
      -0.020644407719373703,
      -0.011647552251815796,
      -0.0291687473654747,
      0.029551543295383453,
      -0.0003365427255630493,
      0.0002783164381980896,
      -0.02562554180622101,
      0.0004992345348000526,
      5.1626935601234436e-05,
      -0.028660034760832787,
      -0.028389607556164265,
      0.0002766624093055725,
      -0.013160139322280884,
      -0.021358057856559753,
      -0.007655404508113861,
      0.030026396736502647,
      0.0012788251042366028,
      0.028370264917612076,
      0.028991036117076874,
      0.02990235760807991,
      0.029446758329868317,
      0.012830093502998352,
      0.022523239254951477,
      0.029745553620159626,
      -0.00010129809379577637,
      0.0005778949707746506,
      0.02929861657321453,
      0.029094360768795013,
      0.015013404190540314,
      0.029892539605498314,
      0.029797248542308807,
      -0.029853403568267822,
      0.029920615255832672,
      0.029794666916131973,
      0.03000192902982235,
      0.028594695031642914,
      0.016793182003311813,
      0.02965601161122322,
      0.02999980840831995,
      0.029815733432769775,
      0.029848046600818634,
      0.029932841658592224,
      0.00030779093503952026,
      -0.02908788900822401,
      0.02983815222978592,
      0.02855173498392105,
      0.029959801584482193,
      -0.020356363616883755,
      0.029611684381961823,
      0.01030747964978218,
      -0.017379317432641983,
      -0.022342775017023087,
      0.02943790890276432,
      0.02925223484635353,
      -0.01340978592634201,
      0.01364794373512268,
      0.029970012605190277,
      0.0013943985104560852,
      -0.02475021779537201,
      0.003805026412010193,
      0.006492771208286285,
      -5.0241127610206604e-05,
      -0.0005160141736268997,
      0.029917992651462555,
      -0.005342751741409302,
      0.014731240458786488,
      -0.020364312455058098,
      0.010325420647859573,
      0.02959754876792431,
      0.010383017361164093,
      -0.025453530251979828,
      0.0049111368134617805,
      0.0016424506902694702,
      -0.0009222012013196945,
      0.0008392706513404846,
      0.01031547412276268,
      -0.0248115211725235,
      -0.00014897063374519348,
      0.029216395691037178,
      -0.029930314049124718,
      0.029913343489170074,
      -0.0009880438446998596,
      -0.022142833098769188,
      -0.008263949304819107,
      0.000965973362326622,
      0.029516763985157013,
      0.011320066638290882,
      0.0008032480254769325,
      0.02970411628484726,
      0.0006584273651242256,
      0.0006415173411369324,
      0.0003881976008415222,
      0.0016391929239034653,
      0.0003765225410461426,
      -0.029821239411830902,
      0.030002862215042114,
      0.0003424510359764099,
      0.004613544791936874,
      -0.02954161912202835,
      0.003664342686533928,
      0.0007380098104476929,
      0.00048132333904504776,
      -0.02974822372198105,
      0.0002190377563238144,
      -0.007561258971691132,
      -0.028368793427944183,
      -9.468570351600647e-05,
      0.02990676462650299,
      -0.029429271817207336,
      -0.02208244800567627,
      -0.0018671639263629913,
      0.029891259968280792,
      0.0004201829433441162,
      0.0014662984758615494,
      0.020852264016866684,
      0.029908671975135803,
      0.028106845915317535,
      -0.019437026232481003,
      0.016205430030822754,
      0.029545314610004425,
      -0.028349142521619797,
      5.8904290199279785e-05,
      0.02987942099571228,
      0.0026240311563014984,
      0.026705794036388397,
      0.02953305095434189,
      0.029785039834678173,
      -0.027936581522226334,
      0.029876962304115295,
      0.029966728761792183,
      0.030020066536962986,
      0.024389706552028656,
      0.028002996928989887,
      0.02955450862646103,
      0.029953138902783394,
      0.0014221668243408203,
      0.02801271341741085,
      0.028905406594276428,
      -9.820051491260529e-05,
      -0.013182522729039192,
      0.029992908239364624,
      0.019016072154045105,
      -0.02960801962763071,
      0.02966213971376419,
      -0.028205348178744316,
      -3.874301910400391e-06,
      0.0006577819585800171,
      0.029942641034722328,
      -0.029559340327978134,
      -0.02790100872516632,
      6.605684757232666e-05,
      0.00021827220916748047,
      -0.029351726174354553,
      -0.00023776665329933167,
      -0.00020792149007320404,
      0.0001577138900756836,
      -0.03003135323524475,
      0.02022826299071312,
      0.029980942606925964,
      -0.028677508234977722,
      0.028870299458503723,
      0.023539626970887184,
      5.070492625236511e-05,
      -0.028745725750923157,
      -1.2334436178207397e-05,
      0.0007925853133201599,
      0.029992759227752686,
      0.00014200061559677124,
      0.015192769467830658,
      0.00013450533151626587,
      -0.00019839033484458923,
      -0.029302407056093216,
      0.02064509689807892,
      -6.884336471557617e-06,
      0.005323115736246109,
      -0.0013910159468650818,
      0.0026720240712165833,
      0.028699953109025955,
      -0.022083334624767303,
      -0.0008396320044994354,
      0.029067695140838623,
      0.028640523552894592,
      -0.006931871175765991,
      0.02988108992576599,
      -4.0590763092041016e-05,
      0.02977932244539261,
      0.0010546110570430756,
      0.029290668666362762,
      0.029177754186093807,
      0.009642696008086205,
      -0.016048592515289783,
      0.00012389570474624634,
      -0.0008972436189651489,
      0.02932099997997284,
      -0.001870281994342804,
      0.004071328788995743,
      0.002426210790872574,
      0.027807369828224182,
      -6.983429193496704e-05,
      0.02920635510236025,
      -0.0005536973476409912,
      -0.014452505856752396,
      -0.015407592058181763,
      0.0004100985825061798,
      -0.00010648742318153381,
      -0.0007322207093238831,
      0.028920084238052368,
      0.0003034137189388275,
      0.01376567967236042,
      -0.0005428716540336609,
      0.005476340651512146,
      0.0002766624093055725,
      0.002947329543530941,
      0.028663592413067818,
      0.003885209560394287,
      0.0011831298470497131,
      0.029951520264148712,
      -0.028857801109552383,
      0.000590980052947998,
      -0.026920292526483536,
      -0.02494017407298088,
      -5.683302879333496e-05,
      0.002821657806634903,
      0.01512514054775238,
      0.001502498984336853,
      0.0021315068006515503,
      0.0002917349338531494,
      -0.015730462968349457,
      -0.012370564043521881,
      -0.014589987695217133,
      0.0008606612682342529,
      0.00042351335287094116,
      0.0018254593014717102,
      0.004354706034064293,
      0.02967020869255066,
      0.028694666922092438,
      0.0005279965698719025,
      0.01673607900738716,
      0.014902420341968536,
      -0.014552481472492218,
      0.015023390762507915,
      0.014985494315624237,
      -0.006113708019256592,
      0.0149025097489357,
      0.014978472143411636,
      0.014960117638111115,
      0.014979682862758636,
      0.014903560280799866,
      0.014987349510192871,
      0.015018973499536514,
      0.014891654253005981,
      0.014927077107131481,
      0.015009377151727676,
      0.015014901757240295,
      0.01471644639968872,
      0.01502448134124279,
      0.014986090362071991,
      0.014666242524981499,
      -0.013955816626548767,
      0.014968641102313995,
      0.014917973428964615,
      0.014950189739465714,
      0.011473499238491058,
      0.01502235233783722,
      0.014998659491539001,
      -0.014486376196146011,
      0.013988431543111801,
      0.014996662735939026,
      0.014993138611316681,
      0.014945778995752335,
      -0.014518098905682564,
      0.029281847178936005,
      -0.021044529974460602,
      -0.02162584662437439,
      0.02976478636264801,
      0.004519971087574959,
      -0.025352798402309418,
      -0.02573564648628235,
      0.029871342703700066,
      -0.028330160304903984,
      -0.0004644831642508507,
      -0.02811228483915329,
      0.0027906307950615883,
      -0.02540520764887333,
      -0.027014516294002533,
      0.006684906780719757,
      0.0016258284449577332,
      2.2580847144126892e-05,
      0.0025904616340994835,
      0.004041001200675964,
      0.005353194661438465,
      -0.003244958817958832,
      -0.024650394916534424,
      -0.021774759516119957,
      0.0008212905377149582,
      -0.027335092425346375,
      0.002045747824013233,
      0.005002044141292572,
      0.002726394683122635,
      0.0002775713801383972,
      0.001672305166721344,
      0.0010499879717826843,
      0.0172490649856627,
      -0.00011732149869203568,
      0.0033807270228862762,
      0.029993370175361633,
      -0.0005508009344339371,
      -0.00031769275665283203,
      0.02967315912246704,
      0.0007342025637626648,
      -0.00394100695848465,
      0.029636293649673462,
      0.0019552409648895264,
      0.029825780540704727,
      0.0012252423912286758,
      0.02989625744521618,
      0.029016952961683273,
      0.029313281178474426,
      -0.0015654116868972778,
      0.004659311845898628,
      0.0001527257263660431,
      0.029145333915948868,
      6.789714097976685e-05,
      0.02441597729921341,
      0.02985440194606781,
      0.029820945113897324,
      -0.0007923096418380737,
      0.02990487590432167,
      0.0006879204884171486,
      7.367134094238281e-05,
      -0.013185814023017883,
      0.029855169355869293,
      -0.0011740028858184814,
      -0.016675379127264023,
      0.015432082116603851,
      -0.029604896903038025,
      0.008875865489244461,
      0.0004735514521598816,
      -0.028052225708961487,
      -0.025449834764003754,
      0.0007664375007152557,
      0.009120721369981766,
      -0.016192825511097908,
      0.0007550399750471115,
      0.029935169965028763,
      0.0006166361272335052,
      0.00031709857285022736,
      0.00021319184452295303,
      0.0014308160170912743,
      0.00017674267292022705,
      -0.0005007162690162659,
      0.030005328357219696,
      0.0009789429605007172,
      0.000781564973294735,
      -0.028006747364997864,
      0.0020831525325775146,
      0.00109139084815979,
      0.00036161765456199646,
      -0.028260488063097,
      0.000260290689766407,
      0.0005381107330322266,
      -0.02688661962747574,
      -0.023745493963360786,
      0.00032490119338035583,
      -0.028692513704299927,
      0.0011098682880401611,
      -0.02918933890759945,
      0.029248714447021484,
      -0.0292888805270195,
      0.0015243329107761383,
      0.026491031050682068,
      0.029276845045387745,
      0.0017076712101697922,
      -0.027567058801651,
      0.020304236561059952,
      0.0002476796507835388,
      -0.02952975407242775,
      0.001546952873468399,
      0.029667221009731293,
      0.0034502875059843063,
      0.00018998607993125916,
      7.47479498386383e-05,
      0.029802809469401836,
      -0.029232636094093323,
      0.02907557040452957,
      0.026501379907131195,
      0.029294049367308617,
      -0.000909152440726757,
      0.0007032640278339386,
      0.00546795129776001,
      0.029549993574619293,
      0.0008714571595191956,
      0.029764569364488125,
      0.027842100709676743,
      -0.0010241512209177017,
      0.0007578916847705841,
      0.02990463562309742,
      0.01978820189833641,
      -0.0136033296585083,
      0.01499154418706894,
      0.014650348573923111,
      0.013254299759864807,
      0.015009671449661255,
      0.01495843380689621,
      -0.014515675604343414,
      0.01493789255619049,
      0.015019282698631287,
      0.014557614922523499,
      0.014885276556015015,
      -0.015006955713033676,
      0.015002742409706116,
      -0.011445179581642151,
      -0.012818366289138794,
      0.014006849378347397,
      0.015016436576843262,
      0.0031985342502593994,
      0.0150119848549366,
      0.01501419022679329,
      0.015024736523628235,
      0.015020720660686493,
      0.014987841248512268,
      0.014338739216327667,
      0.015010345727205276,
      0.010686494410037994,
      0.015023410320281982,
      0.015020515769720078,
      0.014874499291181564,
      0.014990724623203278,
      0.015020102262496948,
      0.015024380758404732,
      -0.029117231257259846,
      -3.108754754066467e-05,
      0.0009158402681350708,
      -0.027307990938425064,
      0.03003869205713272,
      0.02860930562019348,
      -0.028538499027490616,
      -0.014353975653648376,
      0.03000028431415558,
      -0.02890176698565483,
      -0.0015452839434146881,
      -0.024720951914787292,
      0.00018854066729545593,
      -0.016635697335004807,
      0.028214738704264164,
      0.0005141980946063995,
      0.023608937859535217,
      0.000620666891336441,
      0.001001119613647461,
      -5.0671398639678955e-05,
      0.028667092323303223,
      0.029804766178131104,
      -0.027354680001735687,
      -0.013252722099423409,
      0.022355416789650917,
      -0.029359400272369385,
      -9.48980450630188e-05,
      0.003582233563065529,
      -0.00023126229643821716,
      0.0006117969751358032,
      0.0001691952347755432,
      0.005916565656661987,
      0.029836922883987427,
      -0.02908933162689209,
      0.029172809794545174,
      0.0005042888224124908,
      -0.0016163494437932968,
      -0.02838931977748871,
      0.0011838078498840332,
      0.02815208211541176,
      -7.331185042858124e-05,
      0.001278173178434372,
      0.03003871813416481,
      0.0006517469882965088,
      -0.029080830514431,
      0.000641215592622757,
      0.003904879093170166,
      0.003552749752998352,
      -0.023456886410713196,
      0.030030145309865475,
      -0.02842363528907299,
      -0.02637989167124033,
      -0.028566944412887096,
      0.015544414520263672,
      0.00263785757124424,
      0.00046056509017944336,
      -0.029056196101009846,
      0.0004390105605125427,
      -0.02877674251794815,
      -0.025086548179388046,
      0.000496499240398407,
      0.029782555997371674,
      -0.02936827391386032,
      -0.01750585436820984,
      -0.026204176247119904,
      0.0004687737673521042,
      -0.001753494143486023,
      -0.02715274691581726,
      0.0016320906579494476,
      0.000767238438129425,
      -0.028585392981767654,
      -0.02268422767519951,
      0.001867637038230896,
      -0.028463421389460564,
      -0.0005395747721195221,
      -0.02862812578678131,
      -0.0001262463629245758,
      -0.02841002494096756,
      -0.027563558891415596,
      -0.02894158847630024,
      0.0006868224591016769,
      0.00020333938300609589,
      0.0002954117953777313,
      -0.018013469874858856,
      0.0010171197354793549,
      -0.026026910170912743,
      -0.028116878122091293,
      -0.026952415704727173,
      0.0007713735103607178,
      -0.029015200212597847,
      -0.011314835399389267,
      0.001765982247889042,
      0.011701218783855438,
      -0.02885323017835617,
      0.0003692843019962311,
      -0.025363720953464508,
      0.00016175862401723862,
      0.029027745127677917,
      6.691738963127136e-05,
      -0.0018007792532444,
      0.00029425323009490967,
      0.011944539844989777,
      -4.11495566368103e-05,
      -0.01867026463150978,
      -0.0001836773008108139,
      -0.027082331478595734,
      0.00012262165546417236,
      -0.025960935279726982,
      -0.029312320053577423,
      -0.029577378183603287,
      -0.027311692014336586,
      -0.003926215693354607,
      0.029190147295594215,
      -0.0038370415568351746,
      -0.026885047554969788,
      0.0001542791724205017,
      0.000286259688436985,
      -0.014731146395206451,
      -0.0006555467844009399,
      -0.029569527134299278,
      2.2936612367630005e-05,
      -0.02974272333085537,
      0.015336666256189346,
      -3.070291131734848e-05,
      0.02841942384839058,
      0.00019673630595207214,
      -0.01955968514084816,
      0.009747445583343506,
      -0.027850128710269928,
      0.02959701046347618,
      -0.0035321544855833054,
      0.0006543677300214767,
      0.015780124813318253,
      0.029739655554294586,
      -3.6075711250305176e-05,
      -0.012409493327140808,
      0.015942754223942757,
      -0.00025451183319091797,
      -0.029938608407974243,
      -2.086162567138672e-06,
      0.028525255620479584,
      0.0007167235016822815,
      -0.0016484186053276062,
      -3.7848949432373047e-06,
      0.030012816190719604,
      -0.029788203537464142,
      0.002668764442205429,
      0.00021342188119888306,
      0.029741771519184113,
      -0.0023039132356643677,
      0.00028227269649505615,
      0.0015402901917696,
      0.03001849353313446,
      0.00025992095470428467,
      0.0011252444237470627,
      0.028483841568231583,
      0.028557391837239265,
      -0.029224179685115814,
      0.029950592666864395,
      0.028858380392193794,
      0.016933441162109375,
      -6.0070306062698364e-06,
      -0.0009037479758262634,
      0.029891520738601685,
      -0.002326902002096176,
      0.00012313202023506165,
      0.029962152242660522,
      0.015323990024626255,
      0.020206421613693237,
      0.029764175415039062,
      -0.0005034953355789185,
      0.029985755681991577,
      0.029930517077445984,
      0.0298582399263978,
      0.026230011135339737,
      0.028555002063512802,
      0.029816433787345886,
      0.0009315647184848785,
      0.029831781052052975,
      0.02998092770576477,
      -0.00023980624973773956,
      0.021316230297088623,
      0.029824428260326385,
      0.02988329716026783,
      -2.1359883248806e-05,
      0.029855959117412567,
      0.029993359930813313,
      -0.00012588687241077423,
      -0.028544766828417778,
      0.026103336364030838,
      0.029668327420949936,
      0.0072566065937280655,
      -0.029052913188934326,
      0.02735353261232376,
      -0.029603563249111176,
      0.003859296441078186,
      0.015788028948009014,
      0.0016930028796195984,
      -0.002075556665658951,
      -0.025458957999944687,
      0.0012739002704620361,
      2.397596836090088e-05,
      -0.028903447091579437,
      0.019169747829437256,
      0.00998622179031372,
      0.002306506037712097,
      -0.01487882062792778,
      -0.027803405188024044,
      0.029816091060638428,
      -0.02991795539855957,
      0.0015195906162261963,
      -0.02583138644695282,
      0.006181925535202026,
      -0.007991056889295578,
      -0.026318248361349106,
      0.002625502645969391,
      0.024586237967014313,
      0.0006606075912714005,
      0.00346462894231081,
      5.982816219329834e-06,
      -0.0003861039876937866,
      -0.02921447902917862,
      -0.02659006044268608,
      -0.028919050469994545,
      -0.0005318224430084229,
      0.001671120524406433,
      0.028444595634937286,
      -0.025116633623838425,
      0.028055379167199135,
      0.0011578835546970367,
      -0.008161503821611404,
      -0.02266944944858551,
      0.029593024402856827,
      -0.025245762430131435,
      0.029320992529392242,
      -0.028253629803657532,
      0.0014660507440567017,
      -0.027560953050851822,
      -0.028170689940452576,
      0.0017194971442222595,
      0.008552633225917816,
      7.340684533119202e-05,
      0.0026516634970903397,
      0.0035089030861854553,
      0.001179724931716919,
      0.0058140940964221954,
      -0.024968042969703674,
      -0.016212262213230133,
      0.0019093453884124756,
      -0.008135851938277483,
      0.0021285302937030792,
      0.0038070306181907654,
      0.011673088185489178,
      -0.022296175360679626,
      0.0030937492847442627,
      0.008301489055156708,
      -0.02869291417300701,
      0.028930500149726868,
      -0.027855309657752514,
      -0.0003590993583202362,
      0.0017100870609283447,
      0.02688150852918625,
      -0.003336690366268158,
      -0.026477806270122528,
      0.0016542105004191399,
      -0.0002589225769042969,
      -0.02731861174106598,
      -0.0004678405821323395,
      0.029757201671600342,
      -4.429742693901062e-05,
      -0.01415523886680603,
      -0.017561428248882294,
      0.003644222393631935,
      -0.028640197589993477,
      0.02933559939265251,
      -0.028803585097193718,
      0.027872487902641296,
      -0.02752278372645378,
      -0.0016959458589553833,
      -0.0001347661018371582,
      0.028779610991477966,
      -0.00034832581877708435,
      0.0003622584044933319,
      0.025574617087841034,
      0.0004542320966720581,
      -0.028251364827156067,
      0.0010873973369598389,
      -0.010670021176338196,
      0.0007520765066146851,
      0.00045333802700042725,
      -0.011126093566417694,
      0.02949293702840805,
      -0.013568863272666931,
      0.008474748581647873,
      0.02983229234814644,
      0.005810081958770752,
      -0.0003193868324160576,
      0.021976757794618607,
      -0.0018534362316131592,
      0.029900485649704933,
      0.029377922415733337,
      0.029907353222370148,
      0.027124956250190735,
      0.029530052095651627,
      4.1894614696502686e-05,
      -0.0010831095278263092,
      0.029356518760323524,
      0.02986922860145569,
      0.02900855988264084,
      0.001178254373371601,
      0.0296070771291852,
      0.03001125529408455,
      0.02989312633872032,
      0.03002503141760826,
      0.029984664171934128,
      -0.0016958490014076233,
      -0.02018074318766594,
      0.026901422068476677,
      0.0001942962408065796,
      -0.010028943419456482,
      0.0132262222468853,
      0.027607502415776253,
      0.0005519520491361618,
      -0.003524109721183777,
      0.028659135103225708,
      -0.0045598894357681274,
      0.023475918918848038,
      -1.3619661331176758e-05,
      0.029554909095168114,
      -0.00026011187583208084,
      0.016996756196022034,
      -0.004203886725008488,
      0.026384825818240643,
      -0.009870152920484543,
      -0.017490632832050323,
      0.02284276857972145,
      0.029491107910871506,
      -0.0019466597586870193,
      0.020498163998126984,
      0.02891678363084793,
      0.02651725709438324,
      -0.0009064897894859314,
      -0.002231784164905548,
      -0.001216445118188858,
      0.015301562380045652,
      -0.014127179980278015,
      0.024550795555114746,
      0.027583706192672253,
      0.029678642749786377,
      -0.0015341155230998993,
      0.029499419033527374,
      0.015528501011431217
    ],
    [
      -0.02407791092991829,
      -0.02337447553873062,
      0.015080693876370788,
      -0.0003383960574865341,
      0.012128484668210149,
      0.029300667345523834,
      0.010586724150925875,
      0.00148048996925354,
      0.029971132054924965,
      0.028344650752842426,
      0.0012741731479763985,
      0.02974546328186989,
      0.00010209064930677414,
      0.02914171013981104,
      0.00469923485070467,
      0.015012247487902641,
      -0.0175277809612453,
      0.029743541032075882,
      0.0006425539031624794,
      0.0021369922906160355,
      0.01502104289829731,
      -0.014725020620971918,
      0.0063131945207715034,
      -0.028214069083333015,
      -0.013947026338428259,
      0.0006756698712706566,
      0.029925700277090073,
      -0.0029571615159511566,
      0.005242958664894104,
      -0.011486000381410122,
      0.02849141415208578,
      0.013301571365445852
    ],
    [
      0.024141693487763405,
      0.021501317620277405,
      -0.012455059215426445,
      -0.016802668571472168,
      -0.00014990568161010742,
      0.029389530420303345,
      0.029407333582639694,
      -0.0019942671060562134,
      0.02987498790025711,
      -0.028306275606155396,
      -0.0014320500195026398,
      0.029684501700103283,
      -0.011065587401390076,
      0.01227012649178505,
      0.02359597384929657,
      -0.01477573812007904,
      0.01898525282740593,
      -2.26534903049469e-05,
      -0.001840636134147644,
      0.009177791886031628,
      0.014948874711990356,
      0.01689399778842926,
      0.02162068337202072,
      0.004286948591470718,
      -0.029644429683685303,
      0.011960189789533615,
      2.787262201309204e-05,
      -0.02864053100347519,
      0.025155536830425262,
      0.000860266387462616,
      -0.0008789766579866409,
      0.00042510032653808594
    ],
    [
      -0.0006064623594284058
    ]
  ],
  "num_updates": 2,
  "client_ids": [
    "client-2",
    "client-1"
  ],
  "mean_final_loss": 7.6776697635650635,
  "aggregation_timestamp": 1784208512.3119464
}